5240 64
21281 -0.351281 -0.230552 0.245284 0.046623 -0.102609 0.219079 -0.149772 -0.651317 -0.051244 0.389475 0.428550 -0.140935 -0.068427 -0.291884 0.556648 0.058039 -0.199358 0.318567 0.498716 -0.297180 0.099998 -0.075960 -0.241023 -0.128954 -0.720531 0.181386 -0.091837 0.654318 0.262954 0.146712 -0.034520 -0.090540 0.226728 0.381087 -0.168954 -0.259857 -0.539359 -0.201398 0.264051 0.245279 0.291042 0.125702 -0.147381 -0.251258 -0.601768 -0.125493 -0.078739 0.216165 -0.330482 0.066624 0.121426 0.095519 0.182122 0.122835 -0.303054 -0.442109 -0.197662 0.047221 0.240377 0.012211 0.159007 -0.093050 0.530387 -0.095905
21012 -0.229943 0.176633 0.131837 -0.047935 -0.185421 0.292705 -0.488459 -0.392963 0.198522 0.241894 0.285262 -0.011164 -0.111936 -0.233283 0.087010 -0.303609 -0.130094 0.353719 0.568262 -0.056584 0.184063 0.079362 0.041049 -0.049194 -0.382132 0.074807 0.036751 0.364369 0.030578 0.011334 -0.438191 0.087603 0.002894 0.311917 -0.277369 -0.592879 -0.313755 0.142372 0.873219 0.377309 -0.083388 -0.100154 0.336744 -0.120072 -0.142853 -0.207223 -0.048778 0.415799 -0.178691 0.223650 -0.307457 0.545629 -0.079721 -0.009136 -0.367662 -0.109851 0.442109 0.152685 0.264589 -0.130372 0.129792 0.231361 0.187226 0.014379
22691 -0.395809 -0.111881 -0.201280 -0.256061 -0.131701 0.405116 -0.310937 -0.122354 0.260318 0.375449 0.507413 0.105489 -0.151138 -0.421976 0.175235 -0.131473 -0.171595 0.224473 0.189044 0.274201 0.028316 -0.035986 0.103161 -0.230455 -0.498029 0.096762 -0.151201 0.636083 -0.016193 0.011270 -0.446513 0.317851 0.106008 0.245078 -0.525583 -0.156123 -0.196222 0.028788 0.555883 0.404716 -0.093235 0.179484 0.216200 -0.045063 -0.343655 -0.022283 -0.146584 0.297621 0.005579 0.553514 -0.371671 0.553314 -0.028841 0.161212 -0.263918 0.012357 0.601647 -0.041454 0.470869 0.034562 0.146093 0.299763 0.359080 0.058173
12365 -0.240444 0.367883 0.101749 -0.266958 -0.182654 0.294508 -0.278223 -0.345417 -0.093282 0.194976 0.693005 0.004531 0.119783 -0.326314 0.172241 0.258146 -0.291488 0.563330 0.315492 0.089504 0.023426 -0.099803 -0.121725 0.033281 0.026160 0.036687 -0.078828 0.132306 0.078995 0.262617 -0.065605 -0.005852 0.127471 0.352170 0.168019 -0.514017 -0.351540 -0.300433 0.836558 0.383718 0.119710 0.022577 0.031426 0.097743 -0.052637 0.097382 -0.105161 0.034390 -0.383213 0.480275 -0.352032 0.069756 0.346069 0.028596 -0.318787 -0.379932 0.374518 0.097971 0.429322 0.189656 0.016326 0.194564 0.554160 -0.271252
6610 -0.398710 0.113155 0.387752 -0.251563 0.021747 0.407315 -0.128946 -0.078470 0.026948 0.268524 0.537681 0.218935 -0.249162 -0.312983 0.065836 -0.083678 -0.228442 0.239009 0.254794 -0.212272 -0.209592 -0.216489 0.194811 -0.131406 -0.326322 0.133743 -0.328537 0.338768 0.100594 0.353856 0.042876 0.108535 0.144128 0.535745 -0.168829 -0.570639 -0.391211 -0.284304 0.289999 0.485920 0.039181 -0.076235 -0.253435 0.142392 0.035595 0.381103 -0.319363 0.409224 -0.163766 0.682977 0.327394 0.327746 0.080662 0.145297 -0.248189 -0.239166 -0.103081 0.352755 0.335567 0.151909 0.065085 0.178258 0.433352 0.255199
2741 -0.397599 0.129090 0.133621 -0.215880 -0.190109 0.276363 -0.425458 -0.342618 -0.026068 0.392284 0.431165 0.122970 0.006865 -0.252584 0.186670 -0.097677 0.015459 0.647512 0.487042 -0.038481 0.079431 -0.048842 -0.068129 -0.051201 -0.170233 0.102909 0.040004 0.411864 0.016254 0.131223 0.020267 0.004367 0.144890 0.262486 -0.068868 -0.673866 -0.087102 0.048163 0.918968 0.233172 0.086902 -0.149407 -0.076873 0.090303 -0.085219 -0.085988 -0.043423 0.396747 -0.207223 0.406128 -0.333603 0.338133 0.291226 -0.106717 -0.369139 -0.011166 0.392613 0.152583 0.445327 -0.083343 0.199515 -0.012097 0.175393 -0.047748
15003 -0.180028 0.512108 0.129464 -0.508832 0.000115 0.172757 -0.437951 -0.388534 -0.106041 0.382689 0.587208 0.024099 0.001593 -0.460504 0.052337 -0.056886 0.031895 0.451654 0.551697 0.195639 0.027221 0.027467 0.133159 -0.230617 -0.023649 0.062227 0.002364 0.633511 0.323724 0.272008 0.072603 -0.023435 0.229296 0.449021 0.024366 -0.383273 -0.277436 0.053367 0.679893 0.278938 -0.083369 0.001683 -0.218381 0.098153 -0.321843 0.181202 0.047471 0.239867 -0.049910 0.203323 -0.295455 0.194235 0.216034 -0.044314 -0.541909 -0.014673 0.150831 0.157672 -0.039921 0.158408 -0.122746 0.131124 0.681966 0.080622
19423 -0.420121 0.096012 0.039239 -0.129247 -0.269176 0.273813 -0.473865 -0.269448 0.222727 0.556377 0.297906 -0.235579 -0.129293 -0.135803 -0.053823 0.041246 -0.038441 0.109691 0.186028 0.149075 -0.214212 -0.238098 0.007945 -0.102730 -0.289319 0.046807 -0.268068 0.536502 0.113512 0.272642 -0.150171 0.257328 0.204435 0.458341 -0.246341 -0.665683 -0.171313 -0.097154 0.497752 0.273864 0.020657 -0.070630 -0.320902 -0.058753 -0.503174 -0.006021 0.019922 0.285427 -0.298207 0.226820 -0.417864 0.468184 0.263109 0.319010 -0.459999 -0.324184 -0.016810 0.242734 0.295949 -0.059867 0.017209 0.022358 0.685892 -0.358520
21508 -0.272334 0.426934 0.165643 -0.386862 -0.161990 0.221543 -0.631640 -0.391686 0.053452 0.290779 0.644650 0.365387 0.022116 -0.215351 0.310380 0.045140 -0.046709 0.532739 0.417410 0.070553 -0.039048 -0.172437 0.280305 0.010287 -0.038667 0.230518 0.119895 0.565637 0.259946 0.094414 -0.192289 -0.233761 0.106439 0.211032 0.204461 -0.398065 -0.279523 -0.228886 0.602431 0.267216 0.010146 -0.374395 0.221146 0.095715 -0.496945 0.128405 0.000829 0.381177 -0.310852 0.190994 -0.015376 0.271660 0.093189 0.041117 -0.405349 0.154847 0.177548 0.082062 0.392396 0.112645 -0.252159 -0.259451 0.592858 0.033488
17655 -0.398586 0.212197 0.004980 -0.102879 -0.340059 0.514454 -0.300494 -0.421253 0.159459 0.401445 0.529073 0.204450 0.225335 -0.194401 -0.032776 -0.182985 -0.170876 0.680423 0.518076 0.065601 -0.006315 -0.121923 0.177319 -0.151618 -0.519556 0.050700 -0.100780 0.124755 0.204494 0.409564 -0.329266 0.270992 0.035265 0.538402 -0.230588 -0.411673 -0.475254 0.100430 0.852459 0.400575 -0.070112 -0.114670 0.041343 0.053986 -0.149441 0.289758 -0.213628 0.215034 -0.013233 0.172355 -0.178380 0.036678 0.197273 0.003698 -0.008113 -0.056678 0.165605 0.361941 0.239126 -0.201361 0.211667 0.249967 0.042753 0.083944
9785 -0.323524 0.150674 0.178376 -0.265770 0.097446 0.320632 -0.478995 -0.289587 -0.065134 0.391722 0.377989 0.357418 -0.210016 -0.471877 0.188941 -0.323836 -0.180509 0.448681 0.319592 -0.238522 -0.130678 -0.009653 -0.056824 -0.152687 -0.223613 0.089973 0.098210 0.422782 0.255317 0.116724 0.248551 -0.027951 0.059452 0.367823 -0.061281 -0.514611 -0.527586 -0.176502 0.409584 0.370842 -0.077340 -0.056244 0.058015 -0.117962 -0.252332 0.233282 -0.215295 0.001764 -0.216672 0.216308 -0.041289 0.267870 0.189896 0.001934 -0.197743 -0.214610 0.260172 0.525917 0.472662 -0.096052 0.004237 -0.149860 0.737473 0.475583
12781 -0.382168 0.344949 0.095341 -0.127026 -0.201289 0.316228 -0.480849 -0.287804 0.221817 0.228048 0.580703 0.247708 0.001961 -0.367629 0.431864 -0.184537 -0.090633 0.454570 0.575261 -0.019381 0.137233 -0.146392 -0.003679 -0.244943 -0.131703 0.355048 0.051538 0.101026 0.140878 0.190995 -0.165375 -0.115312 -0.112029 0.297657 -0.184898 -0.153205 -0.255810 0.053200 0.352357 0.430972 -0.127840 -0.421902 0.193553 -0.228179 -0.205516 0.299246 -0.096760 0.368607 -0.399095 0.104313 -0.380414 0.331957 0.178660 -0.093597 -0.277357 -0.305769 0.137820 0.245579 0.465561 0.046535 -0.053457 -0.007964 0.515138 0.139926
13801 -0.147815 0.498132 0.146110 0.118259 -0.229369 0.138867 -0.389907 0.205227 0.169797 -0.201904 -0.334403 0.550188 0.105316 0.175413 -0.136890 -0.568886 0.273418 0.474396 0.527369 0.239531 0.018631 -0.654756 0.434752 -0.064354 -0.322908 -0.349073 -0.176924 -0.135554 -0.393567 0.041467 -0.360273 -0.157761 -0.332523 0.741547 -0.129780 -0.150987 -0.341528 0.006291 -0.015903 0.028805 -0.323366 -0.467174 -0.183586 0.331049 -0.214983 0.128130 -0.397379 0.098966 0.422957 0.099648 -0.082863 -0.333870 0.325509 -0.397275 0.300247 -0.156178 0.192528 0.255073 -0.416827 -0.173220 0.447835 0.039157 -0.012869 0.373804
7956 -0.231712 0.015970 0.058740 -0.284391 -0.010229 0.469831 -0.415457 -0.290235 0.152483 0.577529 0.480440 0.257437 -0.132299 -0.186375 0.323065 0.100953 -0.080835 0.361195 0.274933 -0.012936 -0.119798 -0.258116 -0.027831 -0.296037 -0.317908 0.241714 0.072153 0.123179 0.175505 0.182546 0.127876 0.019862 0.168468 0.239288 0.086413 -0.214529 -0.645574 0.191054 0.617645 0.451874 -0.189583 -0.110967 0.193081 0.069601 -0.199730 0.063249 0.176602 0.351611 -0.048687 0.077431 -0.501158 0.272701 0.199705 0.164958 -0.730863 -0.452075 0.221323 0.426664 0.138113 0.281075 0.029408 -0.014663 0.458010 0.148621
4164 -0.314053 -0.021215 -0.152729 -0.325985 -0.218848 0.520789 -0.439864 -0.532329 -0.066487 0.406475 0.389364 -0.047868 -0.011445 -0.083879 0.258188 0.074937 -0.144893 0.506440 0.477150 -0.093013 0.024132 -0.035581 0.357271 -0.428373 -0.037306 0.523119 0.215518 0.472263 0.218924 0.145008 -0.128093 -0.104725 0.396288 0.479583 -0.285132 -0.291839 0.040630 -0.031151 0.651726 0.286830 -0.286346 0.031227 0.241153 0.021197 -0.148043 0.011148 -0.283640 0.224753 -0.270101 0.218120 -0.143537 -0.112413 -0.112135 0.300889 -0.257286 -0.145178 0.211758 0.088744 0.297944 -0.138869 -0.116633 -0.114549 0.710849 0.071652
15244 -0.141646 0.068717 -0.210206 -0.063244 0.389672 -0.473408 -0.448555 -0.611759 0.086622 -0.151374 0.203905 -0.162663 -0.649707 -0.307396 0.152866 0.081014 0.828719 -0.315111 0.422371 0.403203 -0.006649 -0.116150 0.094723 0.521181 -0.362580 0.093025 -0.235430 -0.505871 -0.413638 0.243686 -0.004230 -0.009931 0.042848 0.086265 -0.221178 0.082530 -0.256684 0.184723 0.054460 0.444802 0.111278 -0.207290 -0.526331 0.320035 0.311013 0.360184 0.351030 0.448939 0.132581 0.341687 -0.449896 0.080545 -0.239879 -0.235478 -0.672630 -0.291328 -0.011631 -0.104950 -0.363234 -0.110921 -0.192050 -0.185447 0.219979 0.114838
13929 -0.654566 -0.327204 -0.005994 0.281582 -0.230696 0.239676 -0.579501 -0.212764 -0.051402 0.013594 0.144487 0.378214 0.129403 0.062242 0.027281 0.075271 -0.024113 -0.405800 0.042393 0.130492 -0.131641 -0.163072 0.256429 -0.014400 -0.509443 -0.649021 -0.307335 -0.135760 -0.124330 -0.072096 0.489665 0.102527 -0.428297 0.205931 -0.168637 -0.063463 -0.412839 -0.190470 -0.270293 -0.116977 -0.398601 -0.011634 -0.106562 0.108674 -0.206052 -0.050991 -0.164618 0.129269 0.590139 -0.592471 -0.103685 0.670424 0.141773 0.014371 0.133782 -0.681628 0.569419 -0.251067 -0.141916 0.297994 -0.217419 0.401312 0.366566 0.019763
14265 -0.176051 0.081538 0.044716 0.138156 0.785535 0.259956 -0.218964 -0.667082 -0.023188 0.353517 0.282296 -0.139777 0.325680 -0.126010 0.950100 -0.452449 -0.100443 0.265630 0.213774 0.037564 -0.172341 0.279793 0.217901 -0.184290 0.440422 0.267501 -0.226145 -0.105518 -0.851548 -0.278565 0.343369 -0.103252 0.143088 0.180252 0.380738 0.233880 -0.458977 -0.223715 0.105449 0.344008 -0.067599 0.305495 0.562869 0.146965 0.119335 0.372021 -0.052844 -0.050406 -0.597475 0.143886 0.063810 0.188169 0.281410 0.293413 0.434627 -0.323146 -0.334824 -0.190573 -0.111863 -0.537769 -0.328748 -0.065663 0.362590 0.206105
25758 -0.292935 0.101120 -0.265609 -0.235489 0.018286 0.334338 -0.353434 -0.569151 0.136848 0.288803 0.666671 0.045248 -0.134091 -0.483265 0.406473 0.136256 -0.300977 0.225491 0.442900 0.216264 -0.049811 -0.133497 0.150806 -0.483555 -0.016946 0.254570 -0.002795 0.390061 0.359695 -0.210163 -0.224383 0.254822 0.104773 0.636746 -0.207714 -0.484973 -0.692206 0.045514 0.317955 0.371520 -0.074547 -0.224086 0.204096 0.212443 -0.314303 0.010526 -0.059758 0.415374 -0.380231 0.354462 0.020311 0.244379 0.251936 0.046936 0.162002 -0.070936 -0.097147 0.222290 0.312665 0.120124 0.031905 0.165728 0.444525 0.042776
6512 -0.335076 -0.168498 -0.032178 -0.246818 0.262136 0.087621 -0.913244 -0.268190 0.104544 0.054441 0.708600 -0.397326 -0.492076 -0.062266 0.159105 0.057978 0.643183 -0.482055 0.355743 0.164698 0.156090 0.075038 0.256623 0.030492 -0.195761 0.164293 -0.094486 -0.382305 -0.553577 0.251578 -0.300149 -0.082392 0.127804 0.188149 -0.093794 0.382219 -0.389961 0.187758 -0.238325 0.508610 -0.142986 0.240035 -0.099572 0.397475 0.280299 0.024185 0.194121 0.175426 0.199506 0.050846 -0.631548 -0.097754 -0.336707 -0.329109 -0.574889 -0.185977 -0.075034 0.464180 -0.243871 0.364122 -0.092167 -0.177143 0.256523 0.072334
23293 -0.241659 0.333277 0.025625 -0.265137 -0.326879 0.411877 -0.378703 -0.357904 0.047615 0.237271 0.469619 -0.027986 -0.569632 -0.092690 0.249894 0.072940 -0.370592 0.459118 0.651169 0.252903 0.077717 -0.289013 0.090375 -0.486244 -0.430127 0.232585 -0.164648 0.407683 0.350023 -0.011952 0.134190 -0.153162 0.072465 0.344436 -0.192523 -0.317632 -0.352391 -0.109425 0.522512 0.253094 0.244335 0.168362 -0.303960 -0.101269 -0.212368 0.199054 -0.101182 0.442808 -0.280155 0.145385 -0.248722 0.136411 0.084152 0.281060 -0.284728 -0.113490 0.286005 0.056931 0.338340 0.041054 -0.217660 -0.073999 0.438305 0.027610
14807 -0.372790 0.094734 0.239456 -0.123944 -0.338913 0.509432 -0.389787 -0.423218 0.019497 0.162005 0.351773 -0.027309 -0.171032 -0.221600 0.187420 -0.096308 -0.290139 0.578189 0.578268 -0.006707 0.095538 0.099759 0.068709 -0.053988 -0.360580 0.275677 -0.054586 0.521689 0.092027 0.008501 -0.329515 0.068695 0.122684 0.287573 -0.261739 -0.493257 -0.394242 0.095922 0.691065 0.319513 -0.056498 -0.320419 0.151099 0.082046 -0.277001 -0.288735 -0.042240 0.330142 -0.047121 0.011385 -0.154779 0.511610 0.210138 0.265279 -0.389219 -0.177230 0.319963 0.259347 0.331338 -0.079884 0.087098 0.188990 0.351536 0.018548
1488 -0.664723 -0.130681 -0.083844 -0.131590 0.503300 0.270956 -0.371712 -0.175244 -0.320381 -0.328641 -0.137824 0.111880 -0.416233 0.078437 -0.094988 -0.414635 0.130476 0.319999 0.137271 0.177047 0.616098 -0.556142 -0.206699 0.258515 0.031727 -0.032147 0.006580 -0.263271 -0.229490 0.340413 -0.141455 0.082169 0.054113 0.168893 -0.257250 0.376400 -0.220780 -0.353197 0.201452 0.254016 -0.370000 0.065803 0.143566 -0.062587 -0.170427 0.186037 -0.200448 0.641961 0.663892 0.215677 -0.213817 0.324361 -0.165605 -0.663625 0.046027 -0.771719 -0.080921 0.053379 -0.750759 0.168082 -0.592300 -0.074736 -0.006621 0.162997
25346 -0.226187 0.180311 -0.019678 -0.155789 -0.155218 0.396213 -0.361743 -0.229047 -0.092140 0.430137 0.342470 0.323224 0.027769 -0.363262 0.209458 0.130654 -0.234159 0.351280 0.373045 -0.022922 -0.125491 -0.210976 -0.042486 -0.322552 -0.292109 0.247992 -0.017388 0.367637 0.211828 0.043879 -0.067921 0.192091 0.284855 0.516281 0.155808 -0.363767 -0.396624 0.138733 0.558672 0.351410 -0.236581 -0.104145 0.180768 0.045517 -0.351276 0.137442 0.079609 0.477694 -0.361372 0.204305 -0.260646 0.167533 -0.065699 -0.041618 -0.483103 -0.332508 0.504670 0.372788 0.374862 0.126570 -0.169114 0.023270 0.679862 0.051222
2710 -0.291588 -0.086208 -0.539317 -0.066222 0.312520 0.336327 -0.282531 -0.448128 0.344199 -0.601880 0.308367 0.038515 -0.486115 0.154410 0.618725 0.202603 0.995703 0.040739 0.197171 -0.418145 0.066821 -0.305944 0.211546 0.145852 0.161211 0.146780 0.349347 -0.039068 0.180576 -0.387197 -0.025635 -0.062771 -0.134894 0.289542 -0.328473 -0.593973 -0.334629 -0.706387 -0.305711 -0.426555 -0.495087 0.283759 0.004719 -0.334910 0.175298 0.094940 -0.017932 0.363092 0.259807 -0.348212 -0.002181 -0.225834 0.074837 -0.479645 -0.105253 0.024605 0.182523 -0.116370 -0.419243 0.336661 0.362647 -0.217567 0.317070 -0.025263
773 -0.397269 0.069352 -0.188119 -0.125916 -0.332985 0.383131 -0.394462 -0.021116 0.054386 0.487619 0.360138 -0.005771 -0.133931 -0.295480 0.261833 0.038806 -0.291129 0.597938 0.636866 0.075211 0.089746 0.175593 0.097011 -0.256329 -0.400026 0.218035 0.057192 0.542084 0.181740 -0.049562 -0.178173 0.030800 0.146918 0.387225 -0.171133 -0.580954 -0.262674 0.011286 0.584496 0.316793 -0.185632 -0.097997 0.107449 0.168702 -0.318178 -0.073838 -0.110206 0.209915 -0.186653 0.301553 -0.219367 0.373528 0.274859 0.141272 -0.348625 -0.318372 0.338980 0.150991 0.404589 0.201565 -0.137767 0.127381 0.384028 0.150441
1653 -0.201251 -0.058198 0.144864 -0.156219 0.025115 0.338665 -0.463735 -0.504011 0.092054 0.382091 0.576195 -0.037146 -0.268604 -0.394176 0.039651 -0.087932 -0.223423 0.430272 0.396035 -0.115619 -0.002157 -0.083666 -0.117452 -0.365475 -0.440252 0.172200 -0.132696 0.527629 0.121199 -0.035391 -0.073986 -0.240199 0.176118 0.448787 -0.380157 -0.443679 -0.187090 -0.158276 0.397205 0.227504 0.092825 -0.243282 -0.236767 0.072042 -0.680772 0.004424 -0.039161 0.373461 -0.132858 -0.205888 -0.089788 0.287195 0.097106 0.238230 -0.235576 -0.592928 0.138173 0.064977 0.291966 0.030047 0.007150 0.087051 0.662658 -0.236582
18866 -0.490425 0.074353 -0.053775 -0.130236 -0.188011 -0.106105 -0.108358 0.158393 0.030553 0.169731 0.625945 0.233687 -0.007281 -0.395371 0.272530 0.002665 -0.178878 0.290205 0.284162 0.176715 0.138557 -0.109813 -0.037874 0.171768 0.079356 0.093049 0.001673 0.151773 0.115601 -0.068583 -0.170798 -0.149899 0.063379 0.282640 0.499314 -0.342135 -0.312006 -0.239921 0.802802 0.341240 -0.211474 -0.280407 0.360670 0.195969 0.340726 0.093572 -0.120999 0.206196 -0.539589 0.292933 -0.637772 0.283959 0.122794 0.062325 -0.202033 -0.446446 0.721947 0.038606 0.453392 0.204693 0.257466 -0.284328 0.629725 -0.246072
24955 -0.369773 0.194784 -0.223025 -0.113034 -0.225516 0.587097 -0.417567 -0.644993 -0.087536 0.510747 0.626328 0.144496 -0.047481 -0.018304 0.304614 -0.250545 -0.139922 0.233235 0.306055 0.027075 0.070370 -0.054548 0.123824 -0.223416 -0.325391 0.311491 0.178901 0.282661 0.141518 0.081987 -0.148477 -0.094861 0.188076 0.362363 -0.394389 -0.613068 -0.273673 -0.055426 0.639814 0.157515 -0.199527 -0.100181 0.018866 0.144184 -0.138860 -0.156107 -0.120307 0.388086 -0.276768 0.141737 -0.036987 0.478076 0.211014 0.298156 -0.368012 -0.282983 0.328415 0.202430 0.256320 -0.132242 0.156858 0.321237 0.406836 0.111874
23038 -0.605743 -0.384497 0.068023 -0.304738 -0.474651 0.287791 -0.989542 -0.135477 -0.041939 0.266945 -0.007901 0.155494 0.060700 0.333737 0.051080 0.133901 0.026004 0.184377 0.229299 0.286160 0.102972 -0.312121 0.056623 0.375873 -0.438434 -0.309591 -0.089218 0.187103 -0.433474 0.259209 0.768861 -0.491264 0.498231 0.227745 -0.142202 -0.137314 -0.312848 -0.461737 -0.313231 -0.397078 -0.192332 0.430850 -0.444225 -0.063938 -0.098872 -0.291199 -0.440443 0.014212 0.019471 -0.225474 0.024956 -0.259331 0.146556 0.069841 0.175358 -0.532001 -0.015076 -0.067651 -0.298316 0.237027 0.068140 -0.195129 -0.090620 -0.144333
2654 -0.155310 0.148642 0.384826 -0.115683 -0.010226 0.216925 -0.058511 -0.021421 0.061498 -0.174357 0.620324 -0.149984 -0.096384 0.192915 0.239248 -0.072198 -0.207663 0.029477 0.090314 -0.062531 0.284992 -0.194319 0.019376 0.577573 -0.102627 0.053450 -0.924529 -0.171091 -0.546959 -0.280752 0.193334 0.341517 0.360472 0.575495 -0.222114 0.022302 -0.284067 -0.024290 0.748037 -0.131554 0.178178 -0.026253 -0.353719 0.038056 -0.048145 0.035926 -0.521830 0.057227 -0.330116 0.525606 0.140581 -0.224070 -0.293552 0.008303 0.302102 -0.543006 -0.085352 -0.206759 0.733755 0.036882 0.146876 0.137222 0.156697 -0.067594
45 -0.230300 -0.008421 -0.022677 -0.186964 -0.121473 0.444312 -0.415910 -0.147107 -0.204599 0.166450 0.572623 0.081624 -0.049839 -0.238547 0.195536 0.112436 -0.363686 0.407744 0.266156 0.104737 -0.069848 -0.156216 0.026512 -0.091922 -0.296906 0.101555 -0.097893 0.490703 0.183387 -0.088032 -0.095378 -0.102689 0.164960 0.521985 -0.234028 -0.509131 -0.179945 0.068213 0.874422 0.704022 -0.066933 0.098407 0.166242 0.105652 -0.286570 0.199102 -0.246964 0.383373 -0.242170 0.260559 0.127369 -0.027236 0.203213 -0.005332 -0.453196 -0.359663 0.265103 0.297949 0.358474 -0.198804 0.296461 0.018648 0.536070 0.051432
11241 -0.240232 0.229298 -0.032207 -0.291895 -0.338967 0.119318 -0.670923 -0.294685 -0.031578 0.157343 0.640667 0.088939 -0.302233 -0.403675 0.286611 -0.203214 -0.155600 0.154637 0.352985 -0.142467 0.077143 -0.134157 0.061509 -0.563878 -0.342546 0.205474 -0.157589 0.241140 0.131942 -0.056658 -0.248281 0.115489 0.122563 0.486872 -0.255196 -0.581776 -0.386917 0.021720 0.650172 0.314849 -0.066085 -0.092457 -0.251613 0.031972 -0.687911 0.138464 -0.105910 0.265406 -0.332463 0.242236 -0.006053 0.204859 -0.007935 -0.008542 -0.258583 -0.152579 0.356789 0.205917 0.497349 -0.046627 0.052205 -0.057298 0.412249 0.231408
18225 -0.179642 -0.291904 -0.106444 -0.253380 0.551220 0.295701 -0.783647 -0.887964 -0.039159 0.001676 0.187964 -0.094791 -0.404242 -0.364852 0.029677 0.040277 0.568849 -0.650633 0.343493 0.162116 -0.077175 -0.203488 0.089794 0.215690 -0.420696 0.182604 -0.263391 -0.470333 -0.667050 0.082290 -0.283920 -0.120721 0.259177 -0.043850 -0.074176 0.268195 -0.145559 0.319980 0.279524 0.269668 -0.068483 0.204399 -0.014499 0.294028 0.107616 -0.067474 0.427293 0.494282 -0.204880 0.313066 -0.324711 -0.118737 -0.208346 -0.160531 -0.422717 0.146767 0.213372 0.330725 -0.666052 0.107496 -0.186610 -0.156620 0.000881 -0.121380
22887 -0.228511 0.297963 -0.128739 -0.080201 -0.159300 0.570364 -0.704488 -0.452249 0.166745 0.108627 0.584057 0.068316 -0.014962 -0.294769 0.244607 0.184089 -0.131187 0.543137 0.604639 -0.115730 -0.550667 -0.110655 -0.237616 -0.444905 -0.241210 0.282063 0.040745 0.327355 0.185692 0.033725 -0.226508 -0.219429 0.143945 0.416011 -0.062090 -0.517307 -0.255461 -0.102365 0.258769 0.113570 -0.239987 0.000274 -0.002897 -0.143320 -0.301725 0.266906 -0.276663 0.241031 -0.159999 0.141900 -0.214486 0.048472 0.045353 0.104811 -0.314374 -0.057809 0.403372 0.406224 0.745321 0.082430 -0.149938 0.234858 0.389543 -0.124560
10350 -0.358915 -0.120132 -0.056400 -0.250366 0.514032 0.020038 -0.376623 -0.584943 0.173596 0.086818 0.274211 0.067126 -0.362164 -0.287944 0.158971 0.164339 0.433923 -0.169861 0.359817 0.397780 0.047521 -0.011488 0.472967 0.137358 -0.419130 0.149009 -0.190132 -0.216755 -0.265692 0.098409 0.021205 -0.107246 0.304266 -0.330776 -0.147661 0.392100 -0.423479 -0.038086 0.432721 0.525373 -0.152673 0.118508 0.026247 0.693612 0.247513 0.213768 0.297699 0.238679 -0.143589 0.163015 -0.279373 -0.071222 -0.619204 -0.170598 -0.826393 0.042388 0.130469 0.148631 -0.312369 0.307492 -0.453406 0.204930 0.438000 0.396210
6700 -0.259398 0.374028 0.261000 -0.352550 0.261949 0.594294 0.067445 -0.243781 0.021258 0.018200 0.732220 -0.200472 -0.395917 0.105017 0.239568 -0.437642 -0.456887 -0.027761 0.217886 0.064156 0.267993 -0.354988 0.181858 0.336102 -0.843504 0.165687 -0.559739 -0.106009 0.213597 0.085452 0.661255 0.304033 0.057819 0.415088 0.062687 -0.539014 -0.364161 -0.521930 0.141957 0.000615 0.203507 0.114061 -0.163464 -0.028531 0.269811 0.140050 -0.405108 0.435692 -0.464317 0.376168 0.049782 -0.041819 -0.173230 0.028380 0.095849 -0.302951 0.013468 -0.293830 0.057661 0.137971 -0.018415 -0.235547 0.055534 0.024900
20511 -0.209000 0.077558 0.740253 0.061299 0.095213 0.081359 -0.150447 0.413101 -0.143697 -0.234819 0.218477 -0.182981 -0.486011 0.008619 0.389171 0.067893 -0.223710 0.052915 -0.018610 -0.103743 -0.110016 0.244062 0.028681 0.448173 -0.260655 0.286501 -0.429763 0.067693 -0.396986 -0.351118 0.026895 0.127996 0.158518 0.628623 -0.525727 -0.161505 0.200357 -0.176707 0.537375 0.284804 -0.118412 -0.154295 0.034196 0.652928 -0.554881 0.315785 -0.621783 0.770839 -0.287078 -0.075536 -0.082405 -0.096137 -0.327033 -0.300277 0.064816 -0.528146 0.244311 -0.367485 0.258147 -0.140872 0.364739 -0.176417 -0.145384 -0.481487
9572 -0.407902 -0.171753 -0.105679 -0.061009 0.050871 0.351926 -0.207943 -0.341580 0.007389 0.337522 0.669348 0.112914 -0.228977 0.037203 0.064166 0.388438 0.066280 -0.003454 0.407362 0.181341 0.271089 -0.439631 0.201662 0.204001 0.573839 0.988299 -0.158803 0.068944 0.270798 -0.251070 0.027536 0.409111 -0.058356 0.276856 0.039363 0.149708 -0.178567 -0.060247 -0.201798 -0.536981 0.142778 0.153297 0.002611 0.437203 -0.392694 0.435904 -0.425080 -0.221303 -0.143451 0.137916 -0.112827 0.596278 0.097989 0.146628 0.567271 -0.320817 0.630564 -0.208242 -0.352307 -0.023675 0.114231 -0.032349 0.012448 0.310510
3372 -0.218984 -0.091028 -0.253305 -0.296903 -0.341035 0.409173 -0.499063 -0.413468 0.162263 0.260998 0.304459 0.130654 -0.039968 -0.496896 0.428017 0.159398 -0.354245 0.440592 0.446612 -0.179625 -0.109551 0.012802 0.134769 -0.258702 -0.120564 0.220717 -0.216241 0.259767 0.057067 0.116922 -0.318228 0.057995 0.150583 0.337341 -0.212733 -0.635676 -0.262279 0.081977 0.258919 0.357218 -0.135074 -0.112622 0.196332 0.020316 -0.211644 -0.209900 -0.078570 0.296922 -0.216026 0.419226 -0.171910 0.607692 0.340940 0.187736 -0.410694 -0.322319 0.023367 0.165318 0.509016 0.108030 0.107154 0.196361 0.717312 0.032533
20576 -0.191484 -0.117592 0.356488 -0.460625 0.454686 -0.298513 -0.736707 -0.413284 0.251873 0.174194 0.311799 -0.461683 -0.338509 -0.283401 0.239340 0.075038 0.542282 -0.085079 0.618730 0.400292 -0.147010 -0.084415 0.398736 0.232546 -0.480316 -0.067634 -0.365173 -0.325349 -0.333523 0.039191 -0.403206 0.049405 0.133241 -0.132964 -0.198073 0.228381 -0.172935 0.097767 0.122245 0.820388 -0.100206 0.107076 0.366207 0.463875 0.241785 0.174815 0.493567 0.256083 -0.034386 0.014542 -0.232212 -0.134396 -0.044665 -0.034194 -0.576759 -0.083878 0.025446 0.411557 -0.464968 0.276693 0.051031 -0.210525 0.061196 0.265049
4952 0.110669 0.023283 -0.301527 0.424371 -0.030182 0.687431 -0.146171 0.047445 -0.210303 -0.054637 0.065433 0.350215 0.039079 0.354990 0.208376 -0.261879 0.138165 0.620228 0.134835 0.363006 -0.255698 -0.311071 0.551102 0.029791 -0.033582 -0.133726 -0.580906 0.192071 -0.070665 0.368260 -0.276292 0.114874 -0.478256 0.771449 -0.086248 0.667489 -0.441809 0.202560 0.151252 0.432869 0.012383 -0.090727 -0.337759 0.795244 -0.580179 0.056883 -0.025373 0.089246 -0.205757 0.497757 0.254609 -0.476038 0.029636 0.093819 0.002841 -0.160344 -0.131555 0.091079 0.316473 0.178136 0.110795 -0.090942 -0.045127 0.492350
570 -0.321790 0.013946 -0.029746 -0.030705 -0.190998 0.363105 -0.302501 -0.546812 -0.024350 0.655203 0.479163 0.210707 -0.020699 -0.299239 0.339443 0.044264 -0.514917 0.557918 0.456995 0.089979 -0.071619 -0.265705 -0.186617 -0.322319 -0.352071 -0.117347 -0.007398 0.426416 0.025918 -0.119489 -0.356161 -0.214821 0.002966 0.412207 -0.435418 -0.439417 -0.263266 0.039745 0.402709 0.556737 -0.202566 -0.187342 -0.103357 0.430381 -0.098133 0.048249 -0.296922 0.541211 0.023807 0.284390 -0.053734 0.187834 0.242586 -0.066363 -0.426407 -0.122528 0.143842 0.076178 0.301711 0.190683 -0.100084 -0.155417 0.548608 0.209470
21847 -0.553414 0.032231 -0.014526 -0.263214 0.003069 0.446503 -0.428873 -0.242830 0.263812 0.375541 0.546955 0.168807 -0.130218 -0.335350 0.455158 0.079646 -0.297521 0.508538 0.323168 -0.068766 0.116745 0.007264 0.089209 -0.344924 -0.540709 0.266154 -0.017167 0.594886 0.082986 -0.084481 -0.244984 -0.114059 0.168244 0.370141 -0.339832 -0.639727 -0.153949 0.023159 0.516207 0.127545 -0.181503 -0.153659 -0.043070 -0.041286 -0.227031 0.142922 0.032869 0.393535 0.040343 0.264122 -0.126494 0.180680 0.098655 -0.084519 -0.298995 -0.082597 0.424193 0.340569 0.461404 0.089146 -0.149372 0.093646 0.658954 -0.008203
12496 -0.343982 0.068529 0.148127 -0.267857 0.011916 0.507776 -0.547245 -0.224537 -0.040397 0.465776 0.528136 0.157758 -0.124140 -0.444274 0.214210 -0.081555 -0.385515 0.621614 0.449632 0.240969 0.059538 -0.163876 -0.027924 -0.319504 -0.444276 0.223043 -0.082160 0.244555 0.207204 0.110056 -0.433179 0.112634 0.129851 0.417718 -0.078001 -0.460452 -0.300233 -0.040916 0.635445 0.177012 -0.369757 -0.024613 0.223698 0.003406 -0.265754 -0.087626 0.220634 0.288501 -0.246991 0.569670 -0.039311 0.171005 0.240655 -0.087612 -0.194040 -0.383031 -0.045704 0.240602 0.154583 0.171793 0.094926 -0.054531 0.334317 0.010147
3651 0.282035 0.623429 -0.320596 -0.040040 -0.024907 0.230421 -0.122233 -0.168583 -0.473126 -0.037807 0.108142 -0.182673 0.386226 0.192711 0.753998 0.174280 0.563095 -0.097075 0.306424 0.080838 -0.498141 -0.223622 -0.192325 0.344475 -0.510427 -0.214329 0.025678 -0.165497 0.189338 -0.272310 0.527524 -0.134880 0.506715 0.028303 0.023221 -0.271981 -0.261905 -0.407909 -0.068722 -0.306731 -0.604387 0.416141 -0.283972 0.354146 0.036886 0.526523 0.089261 -0.280599 0.399473 0.567345 -0.123628 0.310574 -0.481437 -0.009688 -0.144896 -0.131299 0.642310 0.423269 0.042631 -0.077914 0.332355 0.178586 -0.021546 -0.284370
7689 -0.154911 0.060109 -0.109389 0.038532 -0.139365 -0.103148 -0.451497 -0.451915 -0.185527 -0.090139 0.684933 0.215852 0.456381 0.382160 0.264246 0.006127 0.068630 0.164605 0.105977 0.318000 0.115291 -0.214856 0.265443 0.234129 0.109422 0.556117 -0.318155 0.248529 -0.378876 -0.037591 -0.172483 0.020166 -0.472061 -0.180248 -0.018385 0.195196 -0.630934 -0.251273 0.017508 -0.686243 0.157416 0.219844 0.040721 0.728774 -0.334201 0.491035 -0.569593 -0.284781 0.214697 -0.135252 0.268284 0.552443 -0.048399 0.130793 0.480603 -0.413153 -0.105618 -0.167480 -0.428585 0.081985 -0.154059 0.065563 -0.072673 -0.425911
24718 -0.240197 -0.014184 0.031338 -0.239029 0.537481 -0.005153 -0.384947 -0.295457 0.114380 0.408439 0.006580 -0.256125 -0.508933 -0.139965 -0.028610 0.114034 0.613923 -0.488398 0.433550 0.517413 -0.040532 -0.271806 0.371157 0.381591 -0.639613 0.155606 -0.512043 -0.447939 -0.683661 0.105851 -0.068809 0.009651 0.076763 0.121969 -0.330383 0.220737 -0.155376 -0.041150 0.288707 0.794410 -0.199781 -0.093577 -0.100851 0.409139 0.067456 -0.100734 0.233787 -0.111639 -0.346734 0.418766 -0.286203 -0.069844 -0.344260 -0.023062 -0.541990 0.069525 -0.052174 -0.064885 -0.599729 -0.042533 0.253546 -0.154608 0.253360 -0.026485
2338 -0.359758 -0.152422 -0.096076 -0.052976 0.615157 0.023894 -0.631432 -0.375378 0.175774 -0.014237 0.539960 -0.175918 -0.149271 -0.043173 -0.014743 0.259090 0.738948 -0.087472 0.488125 0.431221 0.123728 0.211830 0.369096 0.717986 -0.566035 0.164275 -0.544635 -0.382415 -0.477691 0.330677 -0.318358 -0.124396 -0.112668 -0.087304 -0.234692 0.328603 -0.179778 0.257358 0.289426 0.567975 0.094694 0.425572 -0.081232 0.487386 0.142399 0.288601 0.187848 -0.024695 -0.211522 -0.069404 -0.168450 -0.093986 -0.328984 -0.231266 -0.509664 0.163503 -0.030529 0.043171 -0.458150 0.104694 -0.388058 -0.383474 0.105024 0.221267
8879 -0.296829 -0.047421 -0.115091 -0.090435 0.000769 0.617481 -0.259990 -0.455485 -0.227358 0.260987 0.421818 0.078663 -0.201249 -0.113945 0.398451 0.135819 0.113394 0.793661 0.345220 0.069920 0.026447 -0.019635 0.156335 -0.555656 -0.245146 0.197825 0.008929 0.351133 0.277730 0.217473 -0.140876 0.152443 0.073355 0.398214 -0.431387 -0.839711 -0.200910 -0.224421 0.585726 0.164630 -0.042002 -0.182498 -0.197581 -0.183245 -0.262310 0.150392 0.009259 0.155832 0.006955 0.286992 -0.288930 0.160970 0.031355 -0.004932 -0.571675 -0.213440 0.330138 0.122205 0.363347 -0.078934 0.056201 0.187686 0.532747 -0.110161
6264 0.083081 -0.682631 0.229503 0.358802 0.025772 0.316816 -0.391277 -0.193291 -0.632110 -0.394460 -0.055376 -0.095955 0.183125 0.268622 -0.282153 -0.316422 0.128130 -0.350896 0.709017 0.289916 0.177050 -0.551826 -0.183137 0.784236 0.092963 -0.412962 0.082423 -0.112991 0.019904 -0.612779 0.313319 0.234680 -0.106654 0.190707 -0.475128 -0.134203 0.104749 -0.366753 0.310504 -0.316287 0.183075 -0.198547 -0.024070 0.211144 0.251082 0.301683 0.445080 0.261489 0.029000 0.400330 -0.239569 -0.004376 0.462211 0.401026 -0.375074 -0.325443 -0.325735 0.142447 0.416040 0.202809 -0.164681 -0.174714 0.641610 -0.030757
46 -0.510691 0.136417 0.138024 -0.062958 -0.317083 0.405931 -0.324835 -0.168721 0.046159 0.314282 0.383281 0.301010 -0.152272 -0.317944 0.255759 0.145755 -0.033146 0.488900 0.416102 -0.004302 -0.108127 -0.111240 0.074256 -0.407530 -0.500301 0.165585 -0.022850 0.363792 0.396440 0.095069 0.026958 -0.261341 -0.010805 0.067282 -0.196227 -0.410920 -0.514042 -0.225983 0.631278 0.255211 -0.091559 0.050780 -0.074963 0.017535 -0.592433 0.266679 -0.063888 0.415258 -0.354314 0.209178 -0.099760 0.287511 0.381587 0.006691 -0.430384 -0.156307 0.097948 0.307712 0.506683 0.278953 0.159775 0.200558 0.475703 0.177141
19961 -0.388058 0.275669 -0.187517 -0.328658 -0.247500 0.268091 -0.369591 -0.447610 0.175501 0.176848 0.432482 0.325543 -0.105597 -0.327565 0.279150 0.078990 -0.276397 0.492429 0.559472 -0.108246 -0.173438 -0.047254 0.327995 -0.519054 -0.322816 0.218037 -0.219208 0.587508 0.256112 0.347546 0.036545 -0.153438 0.270371 0.554525 -0.293494 -0.432685 -0.140098 0.098706 0.567495 0.367770 -0.037580 -0.046715 -0.115847 0.032557 -0.385445 -0.013742 0.201114 0.197944 -0.176279 0.325540 -0.097779 0.308327 0.243812 -0.092783 -0.290528 -0.319737 0.199255 0.213958 0.327604 -0.133119 0.143567 0.088047 0.517998 -0.130041
6179 -0.549202 0.330862 -0.085351 -0.452240 -0.101120 0.335214 -0.564886 -0.181131 -0.031637 0.306613 0.288550 -0.139253 -0.149885 -0.123808 0.322566 0.018218 -0.150767 0.591358 0.297526 0.228469 0.153581 0.014530 0.195269 -0.456661 -0.419709 0.353052 -0.069615 0.319190 0.354279 0.167706 -0.147132 -0.135963 0.143297 0.568586 -0.285898 -0.456681 -0.264729 -0.149606 0.453463 0.227436 0.197420 -0.149364 0.250989 -0.076536 -0.597457 0.216229 -0.088500 0.093518 -0.228855 0.425224 0.016248 0.158165 0.248621 -0.068333 -0.540851 -0.422953 0.214282 0.291736 0.447799 0.002959 0.013719 0.004021 0.514158 -0.053908
23382 -0.283647 0.247563 0.553973 -0.268058 -0.033960 0.298413 0.038846 -0.241195 -0.054108 0.142189 0.247804 0.184095 -0.162676 0.290675 0.068691 -0.440451 -0.009219 0.066116 0.241376 0.229582 0.421278 -0.234485 -0.057544 0.425472 -0.466643 -0.367318 -0.547085 0.524430 -0.440598 0.430728 0.363768 0.496774 0.418377 0.349298 0.046510 0.174819 -0.171030 -0.641810 -0.193952 -0.100680 0.074485 0.102228 0.013810 0.167276 0.083403 0.114718 -0.757115 0.247712 -0.225260 0.574916 0.335275 -0.240953 -0.271982 0.062015 0.000424 -0.050799 -0.025239 -0.221835 -0.061216 0.668371 0.305457 0.101609 0.770990 -0.206238
12507 -0.069842 -0.010276 0.000380 -0.191799 0.682718 0.059110 -0.171643 -0.571695 -0.119802 0.056221 0.266568 -0.116859 -0.460813 -0.276592 0.395139 0.009930 0.535102 -0.287167 0.542570 0.487670 0.340658 -0.107511 0.480322 0.402145 -0.410497 -0.042960 -0.512611 -0.347699 -0.599901 0.002578 -0.202487 -0.217407 0.351095 0.123523 -0.495078 0.370118 -0.338736 -0.057048 0.296514 0.505964 -0.282153 0.114468 0.099415 0.297530 0.015367 0.071551 0.398891 0.317982 -0.021851 -0.036585 -0.390896 0.028365 -0.376320 -0.066918 -0.714040 0.262797 -0.028777 0.141665 -0.595187 -0.027760 -0.068359 -0.017274 -0.081719 0.447912
4511 -0.104959 0.068015 -0.115121 -0.182079 -0.303351 0.448930 -0.726661 -0.376900 -0.103368 0.433515 0.235291 0.108173 -0.144280 -0.353897 0.391145 -0.096588 -0.266832 0.354623 0.537616 -0.170276 0.014119 -0.117605 -0.113400 -0.396783 -0.257821 0.287584 -0.153547 0.394656 0.289338 0.211176 -0.362441 -0.173211 0.275953 0.550946 -0.198542 -0.402220 -0.361542 -0.176242 0.619053 0.408616 -0.008495 -0.168556 -0.138445 0.087196 -0.320973 0.052987 0.149709 0.380903 -0.347972 0.066045 -0.055339 0.227223 0.230576 -0.064272 -0.063770 0.093372 0.384373 0.144233 0.325229 0.082178 -0.034653 0.226798 0.522480 0.005762
14540 -0.417017 0.060211 0.033319 -0.313995 -0.193739 0.539385 -0.260469 -0.518975 -0.121268 0.350497 0.510131 0.057828 -0.025086 -0.295090 0.570787 -0.128547 -0.474014 0.465961 0.405595 0.133996 -0.043333 0.044314 -0.009806 -0.465741 -0.112694 0.367178 -0.223497 0.400427 0.060796 0.228633 -0.010515 0.006251 0.132842 0.243542 -0.184825 -0.395117 -0.168530 0.108968 0.523454 0.117812 0.015155 -0.065991 -0.008128 0.096021 -0.423435 0.066919 -0.299284 0.387706 -0.345698 0.425393 -0.302208 0.276855 0.287843 -0.002407 -0.338450 0.000806 0.381132 0.459909 0.311269 0.051523 -0.026415 0.094261 0.536357 0.011380
10762 -0.523141 0.167172 -0.265124 -0.163699 -0.366135 0.652697 -0.173389 -0.183016 0.218656 0.002984 0.173083 -0.623567 -0.284066 0.009374 -0.148621 0.112210 -0.255417 -0.083989 0.281567 0.058842 0.073196 0.341757 0.180542 0.280332 0.544619 0.525235 -0.668416 -0.014711 -0.013048 -0.668743 0.420725 -0.082316 -0.321573 0.470982 -0.127646 0.120129 -0.219117 -0.306030 -0.431472 -0.599631 -0.607609 0.274026 0.126652 0.454873 0.130872 0.610863 -0.287207 0.248320 0.490521 0.183953 -0.270663 -0.017842 0.227014 -0.034248 -0.169063 0.172883 -0.061537 0.421851 -0.041239 0.324134 -0.236040 -0.004111 0.084703 0.108775
5052 -0.723615 0.186769 0.469973 0.146592 0.432036 0.013136 -0.184665 0.000151 0.243789 -0.229465 0.131978 -0.106044 0.162696 -0.284059 0.419718 0.206395 -0.180339 0.219160 0.443379 0.288141 -0.293929 0.133446 -0.103491 0.240940 -0.267806 0.025498 -0.536000 -0.511583 -0.145210 -0.602103 -0.169234 -0.082974 -0.076299 0.060821 -0.391298 -0.448509 0.150503 -0.281203 -0.121714 0.710655 0.057017 0.647282 0.227964 0.179612 -0.624875 0.173050 -0.076595 0.237274 0.177522 -0.075836 -0.171897 -0.369940 -0.270276 0.206944 0.065102 -0.125803 0.203920 -0.642799 -0.199637 0.594438 0.170944 -0.337492 0.280652 0.171538
20635 -0.348539 0.114793 -0.097098 -0.391920 -0.319587 0.519167 -0.711810 -0.413506 0.071068 0.354899 0.481583 0.018796 -0.122632 -0.137100 0.256265 0.104235 -0.279519 0.360713 0.362632 0.100116 0.064171 -0.193458 -0.000566 -0.580605 -0.414472 0.088220 0.023208 0.476544 -0.020692 0.202829 -0.059707 0.031585 0.087832 0.396568 -0.322486 -0.293334 -0.423799 -0.073176 0.519729 0.167211 -0.238921 -0.246694 -0.098735 0.019122 -0.201719 -0.030053 -0.165896 0.422806 -0.083807 0.193701 0.101487 0.305644 0.217828 -0.011501 -0.231013 -0.341899 0.257255 0.359343 0.365308 -0.126881 -0.077592 -0.084997 0.530504 0.013602
13142 -0.459055 -0.059742 0.315358 -0.049479 0.173197 0.098128 -0.429427 0.194128 -0.399952 -0.217379 -0.095244 -0.253614 -0.095135 -0.272077 -0.588985 0.121054 0.566667 0.141084 0.589878 0.138844 0.309256 -0.809046 0.351877 0.192154 -0.428572 0.449524 -0.217385 -0.275824 -0.494120 -0.293459 0.006967 -0.179889 -0.335307 0.550985 -0.050183 -0.088006 0.042235 0.091219 -0.011277 -0.101345 -0.396833 0.073006 0.070977 -0.076169 -0.075201 -0.422402 0.062742 0.361268 0.176270 0.140377 0.179095 0.141360 0.224858 0.369254 0.644711 -0.254226 -0.409449 -0.016716 0.416531 0.060308 0.883552 -0.070430 0.442206 0.139691
2212 -0.301991 0.111948 -0.225564 -0.246214 0.038892 0.468336 -0.364335 -0.433414 0.038169 0.425669 0.422275 0.077168 -0.133490 -0.400128 0.255027 0.027235 -0.328441 0.620829 0.590275 0.162211 -0.082883 0.060878 -0.142953 -0.356644 -0.293341 0.082709 -0.037945 0.142906 0.241143 0.077754 0.009311 -0.079273 -0.014634 0.588411 -0.293669 -0.346278 -0.375423 -0.159158 0.522544 0.439239 -0.080345 -0.444306 -0.007320 0.115725 -0.355051 0.096744 0.082565 0.506524 -0.116993 0.194651 -0.199617 0.250983 0.065717 0.143631 -0.390084 -0.259621 0.152609 0.162632 0.521279 0.097307 -0.012757 0.198267 0.609920 0.144204
17692 -0.189131 0.054669 0.095030 -0.410822 -0.295261 0.523572 -0.580589 -0.411231 -0.160456 0.237956 0.463652 0.262274 -0.112016 -0.134325 0.348356 0.200701 -0.397632 0.490723 0.526324 -0.129419 0.155554 0.008483 0.094646 -0.383683 -0.313132 0.226936 0.000692 0.382348 0.032168 0.247829 -0.171524 -0.115485 0.231131 0.364839 -0.225076 -0.497107 -0.336546 -0.181694 0.618204 0.483311 -0.184745 -0.155060 0.050761 0.063256 -0.320832 0.212960 -0.101090 0.466254 -0.285544 0.142603 -0.079783 0.171917 0.267350 0.029108 -0.313383 -0.053045 0.163667 0.096595 0.317549 0.158352 0.250160 0.214607 0.456078 -0.172029
14599 -0.118201 0.300741 0.181757 0.478878 0.085004 0.110539 -0.585752 -0.111519 -0.322565 -0.586990 0.153778 0.038301 0.117907 -0.017494 -0.042280 -0.529859 0.499373 -0.243454 0.559982 -0.124872 0.396987 -0.001308 0.627164 0.298418 -0.007090 0.159084 -0.112528 0.017161 0.230104 -0.702918 0.180567 0.530942 -0.256964 0.459791 -0.856054 0.292342 0.333197 -0.531822 -0.158814 -0.285286 -0.291845 -0.087861 0.382800 0.029503 0.085550 -0.159330 0.021117 0.340912 -0.198553 -0.189380 -0.066942 -0.245568 0.267728 0.004467 -0.357850 -0.255439 0.063676 0.117462 -0.031722 0.133745 0.215938 -0.197433 0.314719 -0.474535
6340 0.007047 0.097663 -0.178987 -0.344629 0.448429 0.079016 -0.498061 -0.299810 0.077257 0.185404 0.498260 0.210431 -0.811694 -0.294424 0.152604 -0.125254 0.763966 -0.184443 0.535986 -0.033708 0.042787 0.056109 0.508250 0.356131 -0.364523 -0.051638 -0.459673 -0.428555 -0.471452 0.014922 -0.343976 0.195393 0.458833 0.036186 0.035731 0.264033 -0.309402 0.137711 0.510969 0.519962 -0.224431 0.155898 0.082055 0.756901 0.427457 0.227364 0.394985 -0.027855 0.025108 0.087451 -0.129627 0.088102 -0.270168 -0.079357 -0.346260 0.196405 -0.065835 0.210711 -0.506921 0.136389 -0.035905 -0.315924 0.269758 0.413114
9017 -0.555292 -0.551796 -0.110092 -0.533030 0.148197 0.353588 0.130947 -0.200405 -0.048534 -0.505350 -0.174678 0.045144 0.131456 -0.357591 -0.096094 -0.286751 0.567756 0.919433 -0.049717 0.066015 -0.371978 -0.150137 0.657491 0.394636 -0.233883 -0.610294 0.025736 -0.260157 0.134210 -0.654559 0.026213 -0.031068 -0.184575 -0.128283 -0.281835 0.015798 -0.066877 -0.168792 0.169925 0.310852 -0.153582 -0.021446 0.012648 0.647852 0.016436 0.049185 0.172015 0.082499 -0.152048 0.091077 -0.435717 0.327002 -0.232862 -0.128662 0.009750 -0.148121 -0.099376 0.377420 0.108923 0.445944 0.044785 0.577545 0.190760 -0.706408
88 -0.348383 -0.100587 0.112940 -0.111667 0.490859 -0.069298 -0.603692 -0.382265 0.434042 0.075068 0.313171 -0.123419 -0.330942 -0.455474 -0.179839 0.282369 0.782282 -0.308646 0.574893 0.239663 0.387068 -0.088238 0.405510 0.217383 -0.296492 -0.046269 -0.259228 -0.300983 -0.634172 0.122738 -0.107168 0.112889 0.004864 0.074471 -0.130496 0.092908 -0.195424 0.074573 0.326796 0.536806 -0.488187 0.230618 -0.098144 0.654415 0.456151 0.383165 0.462277 0.257845 -0.005032 -0.025144 -0.341987 0.053286 -0.228521 -0.183588 -0.334850 0.292470 0.087539 0.186651 -0.472194 0.196742 -0.246158 -0.195377 0.097624 0.306342
18487 -0.446596 0.048677 0.079282 -0.214801 -0.223834 0.455145 -0.174375 -0.362773 0.277528 -0.197172 0.716287 0.050454 -0.162378 0.485082 -0.374119 -0.243332 -0.239717 -0.460042 0.038945 0.043747 -0.148629 -0.203254 0.272245 0.296873 -0.240223 -0.271950 -0.759975 0.004581 -0.015785 0.293648 0.376271 0.530272 0.000248 0.625943 0.063928 0.133690 -0.433221 -0.585867 0.048121 0.286703 -0.181714 -0.209150 0.003576 0.039732 -0.261934 0.276846 -0.308209 0.332844 -0.259706 0.597539 0.348320 -0.051772 -0.331838 0.624345 0.278655 -0.399176 0.015629 -0.282900 0.409744 0.185133 0.179786 -0.009682 0.360026 -0.123774
12851 -0.188308 0.174944 -0.299234 -0.283136 -0.102034 0.318814 -0.483793 -0.447724 -0.052287 0.431243 0.379872 0.259468 0.015397 -0.495532 0.295080 0.004439 -0.354608 0.555030 0.553496 -0.083625 0.013918 0.021887 0.047065 -0.124234 -0.321950 0.158500 -0.114891 0.469579 0.296632 0.241859 -0.161714 0.115798 0.086592 0.353794 -0.368075 -0.550024 -0.191838 0.004501 0.515904 0.335490 -0.003359 0.058140 -0.011496 -0.063622 -0.273392 0.141637 -0.022797 0.549416 -0.459115 0.236465 -0.093676 0.149785 0.184206 0.235553 -0.305427 -0.266035 0.243453 0.163536 0.142225 0.048936 0.134657 0.201377 0.727049 0.192175
1995 -0.138674 -0.139904 0.127190 -0.131494 0.448900 0.068967 -0.586598 -0.631051 0.002372 0.273024 0.352194 -0.040490 -0.402768 -0.251567 -0.038210 0.094416 0.485486 -0.472371 0.662727 0.138923 0.246729 0.012339 0.640301 0.580804 -0.585117 0.142854 0.031585 -0.475866 -0.335107 0.105457 -0.225065 0.181902 0.366239 -0.089485 -0.583803 0.448836 -0.272140 0.216883 0.252567 0.595056 -0.120737 0.451725 -0.143426 0.344119 0.341768 0.017449 0.212014 0.131661 0.064244 0.029062 -0.477735 0.113998 -0.550389 0.022791 -0.504516 0.209908 0.054597 0.169352 -0.275450 0.524127 0.116779 -0.261088 0.109701 0.145360
24924 0.333290 0.562708 -0.175308 -0.380179 0.313112 -0.150524 -0.260197 -0.127709 -0.499007 -0.084421 0.535792 0.047912 0.203019 -0.093826 0.383936 -0.294681 -0.486846 0.390911 0.090542 0.175373 -0.329682 -0.325942 0.237481 0.396786 -0.298738 -0.020038 -0.308367 -0.467443 0.036985 -0.591789 0.411649 -0.012119 0.179463 -0.229005 -0.047449 -0.341443 -0.314290 0.164776 0.502003 -0.497015 -0.329699 0.403948 0.197166 0.359128 -0.344527 -0.168468 -0.522350 -0.084250 0.321758 0.855006 -0.139377 -0.046248 0.192102 -0.044263 0.268895 -0.114640 0.432391 0.310440 -0.215668 0.488907 -0.109389 -0.139490 0.105169 0.382371
4513 -0.346525 0.133225 -0.027824 -0.174107 -0.093127 0.376646 -0.402566 -0.424920 0.029971 0.295691 0.384251 0.175739 -0.213771 -0.121564 0.404228 -0.029327 -0.085644 0.337758 0.661027 0.059617 -0.155692 -0.028669 -0.003433 -0.513079 -0.387337 0.211266 -0.022882 0.412758 0.244368 0.211373 -0.268353 0.015906 0.046068 0.338805 -0.423615 -0.493324 -0.344034 -0.208590 0.825579 0.232097 -0.080199 -0.331061 0.075951 0.137272 -0.274613 -0.165153 -0.121077 0.173510 -0.318247 0.165664 -0.162310 0.194268 0.295374 0.020770 -0.375674 -0.285093 0.265881 0.221036 0.282350 -0.004727 -0.133644 0.156311 0.624678 0.115250
2535 -0.229310 -0.101121 0.069199 -0.563703 0.371580 -0.048714 -0.659367 -0.584274 0.151414 0.154946 0.493964 -0.327678 -0.278080 -0.227944 0.136651 0.230650 0.693572 -0.365866 0.667924 0.297827 0.002525 0.021503 0.368771 0.240036 -0.281491 -0.250479 -0.252841 -0.393461 -0.329158 0.019176 0.016735 -0.028127 0.300490 0.049234 -0.095478 0.415317 -0.497723 0.149541 0.403865 0.233712 -0.288750 -0.110816 -0.202762 0.504117 0.301290 0.174637 0.604589 -0.073863 -0.225544 0.041758 -0.539915 -0.018711 -0.466974 -0.091014 -0.571668 0.042366 -0.061942 -0.040021 -0.547193 0.231674 -0.210903 -0.190707 -0.015981 0.362166
5901 -0.096939 0.185407 -0.289082 0.333651 -0.714696 0.319375 -0.271118 0.507422 -0.196092 -0.175923 -0.043559 0.047568 -0.195728 0.441404 0.044625 -0.307680 0.162660 0.502805 0.719511 0.114017 0.233408 -0.305402 0.373382 0.107916 -0.447508 0.223561 -0.147065 -0.206780 -0.388010 0.079067 -0.517448 0.024782 -0.136588 0.738274 0.258984 -0.264000 -0.791696 0.548734 -0.396327 0.054434 -0.258181 -0.188877 0.238593 0.339849 0.041474 -0.067534 0.061087 0.307924 -0.113602 0.313150 0.030640 -0.180169 0.328029 -0.114731 -0.081916 -0.257383 0.182440 -0.206325 0.007681 0.110417 0.264861 0.117120 0.011709 0.557068
14766 -0.098228 0.062466 0.345739 -0.107720 0.487664 -0.094249 -0.601609 -0.677955 0.329934 0.222074 0.546330 0.070407 -0.461414 -0.368777 0.038867 -0.093407 0.749745 -0.345647 0.349196 0.261674 0.238250 -0.044619 0.456063 0.498856 -0.435940 0.105070 -0.458104 -0.447577 -0.453281 0.190851 -0.023849 -0.112003 0.164494 0.223042 -0.059685 -0.035653 -0.189452 -0.222746 0.014670 0.594160 -0.188076 0.000258 -0.059619 0.477701 0.282138 0.144254 0.215333 0.041680 0.248533 0.103264 -0.355892 -0.128810 -0.277891 0.045695 -0.509030 0.089717 -0.101148 0.208572 -0.486895 0.272381 -0.395009 -0.218372 0.107047 0.177552
11472 -0.280617 0.171737 -0.052662 -0.145933 -0.201626 0.576167 -0.517517 -0.400015 -0.042754 0.276343 0.345544 0.085875 -0.193233 -0.534173 0.230968 0.143360 -0.211796 0.467785 0.349642 0.195382 -0.282622 -0.068285 0.039809 -0.571330 -0.343600 0.211285 -0.072656 0.533763 0.234776 0.161226 -0.216401 0.082235 0.212637 0.442330 -0.096919 -0.633505 -0.458158 -0.164240 0.540863 0.342098 0.048877 -0.139906 0.139354 0.153204 -0.233608 0.179457 -0.109029 0.187553 -0.166122 0.276524 -0.067091 0.421850 0.212210 0.133973 -0.230175 -0.207043 0.158802 0.246728 0.283067 0.108852 0.015443 0.216137 0.632388 0.104206
231 -0.022230 0.168150 0.289425 -0.119346 0.102796 0.477266 -0.110414 -0.260569 0.160645 0.036149 0.174279 -0.094587 0.190229 0.019097 -0.241552 -0.219133 0.156299 0.540865 0.271215 -0.072291 0.174819 -0.077941 0.366945 0.037405 -0.433022 0.274430 -0.235848 0.282634 -0.164476 -0.261021 -0.284259 0.175560 0.231635 0.064807 -0.418508 -0.743179 -0.536785 0.249587 0.955210 0.365124 0.249270 0.019484 0.426975 -0.333003 0.071101 -0.106656 -0.213547 0.498035 0.041249 0.350966 -0.693697 0.459069 -0.367028 0.112136 -0.057856 -0.133457 0.220550 -0.183760 0.318289 0.154508 0.218977 0.195670 0.029151 -0.236069
4755 -0.216038 -0.153901 0.010391 -0.065485 0.210352 0.104718 -0.405308 -0.413971 -0.095594 0.217431 0.300751 -0.003136 -0.449267 -0.107278 0.187137 -0.091962 0.749653 -0.224153 0.618304 0.331530 0.134077 -0.206614 0.310959 0.385713 -0.539184 0.208363 -0.276907 -0.640056 -0.610394 0.220758 -0.060376 0.158327 0.186863 0.013746 -0.061083 0.202904 -0.438352 0.275357 0.280575 0.500167 0.194314 -0.001303 -0.218208 0.536537 0.389183 0.235128 0.571946 0.230363 -0.328229 -0.099828 -0.003741 0.032659 -0.397006 -0.147967 -0.669830 -0.006792 0.144882 0.142733 -0.611344 0.405739 -0.325925 -0.292106 0.107449 0.204872
339 -0.086526 0.320979 0.132457 -0.342066 0.343254 -0.220874 -0.133332 -0.130508 0.153729 -0.047131 0.238098 -0.317947 -0.293317 0.320615 0.382034 -0.235755 -0.321879 -0.383279 0.076077 0.195306 -0.224905 -0.036463 0.248068 0.566145 -0.274536 0.310601 -0.687698 -0.270782 -0.408366 -0.464078 0.170172 0.096852 0.474516 0.852916 -0.118753 -0.321517 -0.334672 0.021400 0.524204 -0.282973 -0.188352 0.227651 -0.345550 0.249330 -0.371903 -0.070170 -0.339342 0.326841 -0.401018 -0.003407 0.135229 0.069229 -0.350637 0.041283 0.183861 -0.538539 -0.523613 -0.495790 0.439704 0.173311 0.193807 -0.088440 0.098058 -0.190141
4834 -0.429998 0.039774 -0.497603 0.238413 -0.246486 -0.192558 -0.620254 -0.444635 0.147950 -0.415066 -0.653262 -0.145701 0.039046 -0.069068 0.556670 0.239848 -0.026306 -0.091275 0.535657 0.246548 0.037293 -0.104409 0.127437 0.158002 -0.498045 -0.129509 -0.246433 0.219648 -0.166426 0.602351 0.648249 0.402741 -0.448990 0.302735 -0.820425 -0.278993 -0.326102 0.092889 -0.240690 0.076897 -0.143013 -0.284685 0.525258 0.126168 0.297001 -0.129011 -0.280796 -0.154071 -0.352555 0.604579 -0.190729 0.233051 -0.045707 -0.070076 0.294810 0.202232 0.125013 0.105923 -0.155207 0.402350 -0.233745 -0.237792 0.541506 -0.120991
20478 -0.400650 -0.224928 0.329235 -0.322830 -0.315623 0.014919 -0.589373 -0.150299 0.148357 0.377499 -0.047130 0.523463 -0.072802 0.184312 -0.037781 -0.377406 -0.132732 0.013446 0.084179 0.294859 0.273313 -0.301689 0.189202 -0.065919 -0.499921 -0.142740 -0.329721 0.532557 -0.591685 0.075385 0.608150 -0.119500 -0.008715 0.409560 -0.002499 -0.041836 -0.311482 -0.777500 -0.286218 -0.252545 -0.521018 -0.005554 -0.207868 0.102541 -0.327529 0.145333 -0.509374 0.325872 0.009634 -0.215973 -0.040531 -0.105948 0.097667 0.319780 0.173748 -0.530099 -0.264833 -0.134503 -0.128218 0.230600 0.202923 -0.127606 0.136682 0.043889
18453 -0.050034 -0.270201 0.024589 0.090470 0.766947 -0.008097 -0.677284 -0.253720 0.020067 0.347988 0.485076 -0.007211 -0.243966 -0.208958 0.396835 0.008804 0.289599 -0.328532 0.307864 0.454153 0.205120 0.142641 0.600492 0.457831 -0.162711 -0.093094 -0.145915 -0.137342 -0.786313 0.209820 0.141104 -0.176473 0.148021 0.190972 -0.386167 0.131050 -0.289619 0.164199 0.297712 0.624323 -0.215804 -0.071627 0.107294 0.595906 0.500269 0.273062 0.392711 -0.045178 0.167028 0.072249 -0.274441 0.040798 -0.470038 0.037251 -0.447022 -0.074484 -0.084080 0.427341 -0.715857 0.008696 -0.108775 -0.080164 0.340621 0.122660
19645 -0.179327 0.183222 0.117880 -0.001263 0.514671 0.159718 -0.463229 -0.629137 0.034580 0.206364 0.492843 -0.114448 -0.572799 -0.268021 -0.007878 0.212221 0.535165 -0.436545 0.323719 0.133641 0.101019 0.072721 0.169856 0.313478 -0.448876 -0.084373 -0.434600 -0.498863 -0.581993 0.166104 -0.353785 0.130604 0.275038 0.042603 -0.151000 0.240073 -0.458837 -0.020571 0.197376 0.542300 -0.107224 -0.054305 -0.039652 0.816152 0.163007 0.194871 0.322699 -0.011201 -0.285541 -0.052950 -0.485594 -0.088001 -0.151232 -0.053371 -0.711648 -0.067477 0.349136 0.028244 -0.525697 0.208715 -0.205169 -0.252341 0.168697 0.113653
13556 0.040651 0.118715 -0.156143 0.098907 -0.181614 0.396318 -0.464613 -0.427422 -0.104968 0.515276 0.389556 -0.116631 -0.171541 0.229743 0.737596 0.485890 -0.259763 0.062369 0.044734 -0.457529 -0.648389 -0.324220 0.071374 0.727824 -0.179066 0.584230 -0.588579 0.116542 0.071588 -0.040479 -0.284827 0.057018 -0.400530 -0.569445 0.035858 0.227315 0.212593 -0.032119 0.048601 0.386003 0.205954 -0.373270 -0.098439 0.502596 -0.485831 0.143418 -0.235582 0.112287 0.000316 0.266233 -0.495159 0.253345 0.287771 -0.160319 0.547942 -0.503086 0.013220 0.187365 -0.301557 -0.057371 0.198651 -0.011598 0.212247 -0.191546
15933 -0.204064 -0.151023 0.144471 -0.345655 0.670592 -0.097662 -0.798266 -0.568451 0.140773 0.163681 0.461414 -0.011423 -0.560132 -0.156633 -0.019782 0.178795 0.762392 -0.201256 0.807452 0.097658 -0.136391 -0.013557 0.545095 0.539573 -0.241049 -0.025852 -0.130077 -0.449567 -0.479158 0.110916 -0.281713 0.067481 0.066530 -0.187324 -0.130260 -0.022854 -0.309121 -0.116109 0.122387 0.551025 -0.191181 0.019144 0.010164 0.421784 0.087790 0.041528 0.348453 0.160623 0.120730 0.104559 -0.266359 0.099069 -0.390898 0.021233 -0.636859 0.176283 -0.221268 0.000549 -0.636744 -0.012921 -0.135917 -0.144839 0.079718 -0.096686
18444 0.137497 0.114025 -0.042135 0.216340 -0.035643 0.220910 -0.572539 -0.403653 -0.408013 -0.169524 -0.540994 -0.166557 -0.307699 0.218896 0.212251 0.237690 0.723425 0.232845 0.553749 0.008068 -0.431335 -0.008916 0.056150 -0.282740 -0.449128 -0.056902 -0.322495 0.336895 -0.005070 0.390952 0.557148 0.094183 -0.265465 0.305476 -0.831047 -0.099065 -0.256859 0.024185 -0.527599 0.268311 -0.132661 -0.026963 0.563414 0.160463 0.052307 -0.079400 -0.276568 -0.236129 -0.432866 0.520030 0.082236 0.429902 0.086008 -0.341024 0.343567 0.055780 0.029802 -0.231388 -0.156127 -0.006595 -0.176634 -0.836967 0.658010 0.005449
7650 -0.144549 0.166257 -0.368428 0.310856 -0.159488 0.015577 -0.791419 -0.554464 -0.136027 -0.071888 -0.637879 -0.198127 -0.389089 0.194455 0.082586 -0.175851 0.427442 -0.033421 0.268896 0.478354 -0.368722 0.181649 0.138198 0.275690 -0.563053 -0.055706 -0.218008 0.460754 0.022966 0.511816 0.621968 0.188125 -0.334883 -0.003862 -0.706479 -0.188958 -0.288924 0.133295 -0.109912 0.229271 -0.302738 -0.345333 0.364745 0.723209 -0.050586 -0.179465 -0.153498 -0.522059 -0.644298 0.265865 -0.131370 0.431476 -0.162436 -0.039116 0.051230 -0.031450 0.033515 -0.218271 -0.176603 0.291808 -0.181072 -0.265871 0.467027 -0.108350
20562 -0.204002 0.160967 -0.102724 -0.250331 -0.255742 0.635091 -0.440396 -0.329068 -0.147645 0.311347 0.412457 0.003150 -0.167575 -0.392230 0.317447 -0.009961 -0.147377 0.427132 0.310885 0.027384 0.307040 -0.241274 0.086430 -0.514272 -0.318171 0.237556 -0.102830 0.399641 0.283740 0.176526 -0.112937 0.004116 0.052770 0.469756 -0.164726 -0.543624 -0.310982 -0.069043 0.702783 0.404430 -0.249739 -0.028281 0.009076 -0.038964 -0.431267 -0.020452 -0.223922 0.311108 -0.359753 0.322779 -0.225020 0.213737 0.166198 0.035178 -0.299552 -0.135209 0.339592 0.255181 0.312959 0.201799 -0.007834 -0.004932 0.534060 -0.000719
9656 -0.196538 -0.146308 -0.036793 -0.067118 0.822375 -0.141216 -0.650085 -0.544179 0.175241 -0.043120 0.553971 0.057399 -0.465094 -0.098720 0.051056 0.132927 0.587854 -0.142549 0.493697 0.226526 0.175287 -0.162222 0.406670 0.425046 -0.324782 0.094108 -0.298288 -0.336806 -0.310826 0.351738 -0.432606 0.051455 0.342734 0.196327 -0.183448 0.388154 -0.414714 0.139450 0.263781 0.641429 -0.170818 0.065435 -0.238571 0.802634 0.235154 0.093681 0.243014 -0.067180 -0.048821 0.227604 -0.263117 0.021502 -0.310769 -0.059269 -0.645363 0.221700 0.236826 0.140875 -0.431334 0.172010 -0.032543 -0.197399 0.008401 0.167994
9184 -0.035790 -0.596989 0.112035 0.180847 0.047907 0.477778 -0.430663 -0.310890 -0.403541 -0.309437 0.148198 -0.230963 -0.204802 -0.051455 -0.476629 -0.585225 0.264215 0.115317 0.733979 -0.036725 0.036590 -0.058907 0.473502 0.135423 -0.142726 0.586279 0.277358 0.232842 0.084721 -0.223683 0.395342 0.935797 -0.572662 0.468796 -0.231117 -0.273526 0.052485 0.350526 0.081469 -0.184222 -0.246495 -0.221519 0.185254 0.480737 0.002180 0.253334 -0.534341 0.363039 -0.171577 -0.529106 -0.018128 -0.423039 0.474014 -0.137888 0.164550 -0.236263 0.124829 0.077789 -0.043073 -0.108148 -0.320398 -0.451230 0.124467 -0.393762
15659 -0.050490 0.064820 0.035841 -0.227743 -0.100521 0.500771 -0.372186 -0.397478 0.112972 0.344352 0.679767 0.174297 -0.048100 -0.321712 0.166336 0.044602 -0.129825 0.523865 0.516939 0.143592 -0.013812 0.029323 0.032660 -0.352024 -0.435218 0.211808 0.043699 0.434863 0.048383 0.105625 -0.081180 -0.097817 0.013355 0.479031 -0.272132 -0.544895 -0.390636 0.081132 0.674661 0.359246 -0.037151 -0.132393 -0.006820 -0.019985 -0.344950 0.183386 -0.135289 0.385544 -0.235625 0.201993 -0.094386 0.287724 0.369620 0.039394 -0.314976 -0.197807 0.144581 0.227600 0.467543 0.071479 -0.130470 0.101060 0.650553 -0.014831
18894 -0.441114 0.248340 -0.170010 -0.038597 -0.151265 0.385568 -0.383837 -0.274426 -0.009668 0.619674 0.561004 0.158637 -0.107083 -0.293554 0.246420 0.080191 -0.259089 0.476678 0.560322 -0.092772 0.109052 -0.145015 0.116310 -0.466081 -0.259157 0.409013 -0.173205 0.456318 0.128217 0.102856 -0.269694 -0.008119 0.122624 0.455001 -0.306457 -0.472339 -0.372936 0.062709 0.523855 0.183911 0.054887 -0.093536 -0.132531 -0.078804 -0.309648 0.048241 -0.161656 0.206981 -0.266319 0.256362 -0.196785 0.339141 0.136339 -0.048761 -0.361755 -0.249165 0.217757 0.422117 0.271938 0.177587 0.081830 0.069125 0.625149 -0.022614
6830 -0.372891 0.240283 -0.090210 0.030683 -0.325840 0.458239 -0.423724 -0.457349 -0.100810 0.394767 0.411845 0.128664 -0.210287 -0.410405 0.208975 0.245199 -0.170672 0.578032 0.429997 0.068463 -0.115340 -0.134275 -0.136088 -0.348557 -0.495028 0.119485 -0.022839 0.513129 0.171623 0.185707 0.045208 0.173229 0.145061 0.462648 -0.430467 -0.581076 -0.223998 0.044463 0.425124 0.415088 -0.185127 -0.166891 0.024799 -0.043790 -0.332071 0.017650 -0.201713 0.210924 -0.495383 0.352038 -0.083948 0.275971 0.164285 -0.037674 -0.414871 -0.105889 0.184368 0.132345 0.191533 0.148592 0.027041 -0.039060 0.695296 0.011212
7197 -0.098921 0.085894 0.083079 -0.278490 0.517706 0.086301 -0.548035 -0.460692 -0.017906 0.348673 0.531251 -0.118688 -0.311030 -0.241222 0.098162 0.255940 0.543609 -0.191420 0.759119 0.375514 0.080290 -0.103443 0.402051 0.367488 -0.588917 0.001602 -0.125222 -0.456968 -0.427011 0.288764 -0.203434 -0.077532 0.254927 0.107601 -0.102541 0.035236 -0.327501 0.177712 0.072857 0.660103 -0.408983 0.102437 -0.079433 0.493401 0.317490 0.259710 0.456173 0.086222 -0.010618 0.066725 -0.416807 0.006202 -0.459601 -0.053346 -0.794116 0.034705 0.172793 0.249044 -0.307440 0.076952 -0.322088 0.010566 0.182536 0.167680
17824 0.034034 0.002349 -0.260669 0.084400 0.021252 0.001500 -0.573241 -0.597877 -0.133361 0.017873 -0.689197 -0.287835 -0.088633 0.352697 0.434638 0.103498 0.523741 0.139177 0.096299 0.323418 -0.071278 -0.462107 -0.220089 0.240192 -0.672982 0.157083 -0.540988 0.636624 -0.184976 0.542294 0.548142 0.161262 -0.360967 0.481403 -0.522119 -0.112595 -0.020065 0.116932 -0.279308 0.246890 -0.344644 -0.166687 0.704463 0.206308 0.314784 0.232404 -0.204449 -0.083308 -0.153708 0.701079 0.047366 0.107708 -0.283926 0.190933 0.042927 0.313641 0.416158 -0.194533 -0.174142 0.373903 -0.104123 -0.661454 0.213897 0.081593
19865 0.157949 0.590371 0.387647 0.087118 -0.331834 -0.061403 -0.362240 0.125601 -0.054526 0.170212 0.262438 -0.044111 -0.441311 0.072240 0.416497 -0.113793 0.120728 0.196883 0.016435 -0.074334 -0.112368 -0.248589 0.590936 0.401902 -0.216778 0.178442 -0.246301 0.239756 0.130188 -0.448112 -0.361735 -0.086379 -0.435848 -0.391018 -0.454698 -0.039560 -0.446951 0.317332 0.033388 0.348280 -0.194917 -0.116308 0.336712 -0.198607 0.026701 0.314219 0.215130 0.100115 0.079483 0.223310 -1.004754 0.470830 0.645889 -0.607578 0.134509 -0.300331 -0.292131 -0.422140 -0.000931 0.246747 0.365622 -0.345610 0.503441 0.240064
1000 0.395945 0.080398 0.045165 0.323976 0.296100 0.306090 -0.277236 0.217240 -0.154047 0.032967 0.064895 -0.124824 -0.242858 0.431487 0.197206 0.001611 0.082032 0.735476 0.069247 -0.009598 -0.360594 -0.136068 0.425085 0.283545 0.022391 0.024764 -0.201570 0.119171 -0.187766 -0.361178 -0.298856 -0.094794 -0.270150 -0.099054 0.531818 -0.257825 0.025872 0.025980 0.104122 -0.579441 -0.232256 0.229851 0.502837 0.093202 0.336217 0.286312 0.254615 0.214107 -0.562952 0.089700 -0.543733 0.199158 0.038388 -0.233890 0.437816 -0.841448 0.413957 -0.322635 0.186052 0.501177 0.208797 -0.368153 0.268924 0.678909
7444 -0.522260 0.228398 0.069710 -0.274506 0.440079 0.165233 -0.586530 -0.116783 0.066573 0.141027 0.238924 -0.086744 -0.725172 -0.162268 -0.085896 -0.115843 0.413526 -0.188183 0.496497 0.253080 -0.036827 0.026143 0.395855 0.327355 -0.359110 0.130659 -0.402862 -0.645939 -0.330705 0.175047 -0.042899 0.128831 0.350230 -0.010763 -0.252929 0.119777 -0.083428 -0.008770 0.476742 0.606494 -0.512210 0.503840 -0.299702 0.411528 0.159830 0.137210 0.745866 0.198260 0.218584 0.272019 -0.344656 0.176981 -0.387670 -0.407990 -0.463886 -0.128421 -0.065398 0.241108 -0.367748 0.018028 -0.286321 -0.204454 -0.180103 -0.142208
2449 -0.048116 -0.064009 -0.009309 -0.235342 0.577082 0.064732 -0.517300 -0.496925 0.595829 -0.104712 0.346513 0.155438 -0.361197 -0.230716 0.081491 0.228660 0.620120 -0.463861 0.609832 0.441976 -0.037602 -0.122590 0.338128 0.406084 -0.273471 -0.147873 0.108954 -0.395155 -0.660448 0.132275 -0.286319 -0.323688 -0.040102 0.155750 -0.187147 0.023967 -0.176986 0.172706 0.323956 0.442180 -0.305932 0.172155 -0.203866 0.680934 0.212394 0.299531 0.062529 -0.066724 -0.156015 -0.135362 -0.203252 0.198694 -0.343541 -0.324838 -0.501699 -0.006623 0.084029 0.300116 -0.799430 0.192313 -0.293380 -0.175161 0.304760 -0.061617
20108 -0.497831 0.135828 -0.268051 -0.251777 -0.252421 0.551130 -0.380400 -0.273894 -0.098695 0.214809 0.503004 0.181897 -0.253715 -0.282001 0.326375 -0.111393 -0.326915 0.481705 0.326254 -0.036557 -0.026744 -0.203937 -0.124712 -0.424353 -0.341967 0.231580 -0.030817 0.360407 0.115550 0.276555 -0.178593 -0.021841 0.285363 0.535209 -0.203939 -0.438112 -0.355956 0.066290 0.639685 0.258796 0.010352 -0.131954 0.230629 -0.014949 -0.457354 0.178919 -0.123509 0.435280 -0.228275 0.306933 -0.151005 0.344637 0.101657 0.126605 -0.299267 -0.353511 0.278868 0.264026 0.239239 0.020339 -0.031712 -0.001374 0.541774 -0.154520
17807 -0.162446 0.014966 0.102283 -0.079272 0.429612 -0.159985 -0.522001 -0.688838 -0.068103 0.266910 0.347372 -0.014815 -0.339744 -0.333332 -0.085483 0.194191 0.699664 -0.352666 0.524789 0.523019 0.158933 -0.156445 0.429502 0.389484 -0.404280 -0.002615 -0.312521 -0.537122 -0.420433 0.043309 -0.245917 -0.221821 0.092244 -0.168490 -0.049804 0.370328 -0.395614 -0.019751 0.476983 0.645946 -0.377379 0.067826 0.009118 0.667281 0.216529 0.141538 0.343375 0.123982 0.078694 0.099584 -0.311343 0.349289 -0.242791 -0.041940 -0.371280 0.244221 0.063847 0.176924 -0.549592 0.343403 -0.193397 -0.219191 0.054620 0.446414
2952 -0.146590 0.238551 -0.142969 -0.159335 -0.254595 0.470839 -0.615112 -0.456173 -0.040871 0.548597 0.588608 0.092532 -0.074722 -0.375542 0.342473 0.156351 -0.248160 0.457138 0.415298 -0.084407 -0.181069 -0.135774 0.109308 -0.270322 -0.457278 0.304326 -0.309994 0.409173 0.276800 0.159574 -0.171789 -0.051416 0.122973 0.202934 -0.229695 -0.426773 -0.253700 -0.087117 0.480286 0.417925 -0.046661 -0.219212 -0.080189 0.097465 -0.341409 -0.010747 -0.213941 0.242345 -0.138819 0.198509 -0.041400 0.150259 0.319168 0.112558 -0.253301 -0.294407 0.371636 0.360083 0.381297 0.054006 0.095267 0.311761 0.563455 -0.115013
15010 -0.218977 -0.305353 0.072936 -0.071213 0.406933 -0.026068 -0.564159 -0.376027 0.274898 0.326332 0.365356 -0.014324 -0.503315 -0.159955 0.015023 0.064589 0.703974 -0.542926 0.299237 0.478087 -0.212000 -0.016513 0.563309 0.416862 -0.537196 0.148085 -0.142979 -0.437850 -0.445223 0.372011 -0.073472 -0.042360 0.021736 0.048478 -0.204908 0.255160 -0.297809 0.206009 0.410604 0.568026 -0.181874 0.367510 0.128317 0.702568 0.288373 0.340303 0.309056 0.208642 0.006338 0.062705 -0.304440 0.020982 -0.165416 0.012807 -0.636174 -0.200376 0.188784 0.064048 -0.564276 0.091103 -0.231245 0.016425 0.097545 0.400538
23614 -0.498541 0.236260 0.371334 -0.118924 0.023004 0.208107 0.086144 -0.171099 0.226312 -0.632075 -0.238768 -0.198800 -0.083482 0.046862 -0.232785 -0.188334 -0.161574 0.325383 0.563688 0.252555 -0.071885 -0.328483 0.453752 -0.060861 -0.170807 0.284470 -0.929896 -0.045648 -0.609687 -0.081913 0.118110 0.013012 -0.319944 -0.097036 0.488569 0.269027 -0.652292 -0.450470 -0.319798 -0.355507 0.108671 0.256254 -0.239851 -0.333662 0.412794 0.051442 0.038443 0.013163 0.050061 0.356461 0.021190 0.191758 0.004969 -0.468552 0.045194 0.185410 0.114683 -0.227448 0.295694 0.406143 -0.467981 -0.168524 0.555722 0.068177
14746 -0.340560 -0.471410 0.190329 -0.287473 0.122871 0.336315 0.129032 0.308728 0.094559 -0.884694 0.032594 -0.306553 0.374921 -0.348080 -0.278244 -0.178109 0.411515 0.638407 0.095748 0.489177 -0.448125 -0.382424 0.749291 0.313820 -0.141485 -0.428184 -0.209559 -0.422298 0.186724 0.104893 0.120710 0.254792 -0.092600 0.498958 -0.559501 0.032606 -0.066346 0.407664 0.184113 -0.088210 -0.167603 -0.396481 0.324621 -0.066681 -0.141601 0.316344 0.059817 0.079086 0.176613 0.447501 -0.507139 -0.128999 -0.041953 -0.664283 0.015986 -0.217422 0.361877 0.380823 -0.341409 -0.120083 0.342558 0.355891 0.277394 -0.239631
20716 0.373450 0.264971 -0.147448 0.140287 -0.188049 0.189184 -0.392249 0.482855 -0.377387 0.155533 0.160683 0.180630 0.256017 0.337288 0.353051 -0.046412 -0.028903 0.261450 0.510637 0.080125 -0.209366 -0.277707 -0.142494 0.370056 -0.753344 0.038010 -0.291343 -0.235528 0.349790 -0.396568 -0.253524 0.152147 0.303309 0.556303 0.119635 -0.663754 -0.288365 0.195810 -0.155315 -0.222860 -0.737563 0.053449 0.208502 0.110704 -0.123122 0.585636 0.095466 -0.019516 0.161661 0.347927 -0.170931 0.344594 -0.430106 -0.145663 -0.155407 -0.640244 0.472908 0.243279 0.287660 0.217545 -0.188946 0.445701 0.128847 0.083063
13276 -0.153167 -0.025588 -0.119880 0.109098 -0.048528 0.117690 -0.574048 0.186780 0.025579 0.132894 0.217608 0.298781 0.191687 -0.063913 -0.022226 0.367717 -0.356031 -0.028953 0.212051 0.158271 0.593086 0.234315 0.225713 0.513456 -0.065848 0.140416 -0.506673 0.161966 -0.218887 -0.299325 0.504238 -0.572771 -0.336581 0.587438 -0.570078 0.240807 -0.413677 0.039435 -0.163958 -0.441038 -0.517069 0.575669 -0.385627 0.360162 0.056710 0.451092 -0.533691 0.167927 0.297497 0.338288 -0.177843 0.115955 0.186486 0.049609 0.073007 -0.186878 -0.440981 -0.059824 -0.686687 0.290501 0.155245 0.127688 0.153976 -0.353194
22457 -0.527410 0.008959 0.320561 -0.234732 -0.136073 -0.243473 -0.360513 -0.129112 0.408854 0.366194 0.111341 -0.210053 0.057543 0.005443 -0.009383 -0.432597 0.117967 0.031509 0.308578 0.084419 -0.607366 -0.217798 0.053597 0.645991 -0.484731 -0.084717 -0.351535 0.163062 0.090697 -0.326409 -0.568329 0.262801 0.176729 -0.027681 -0.339370 -0.589658 -0.577514 -0.087042 0.973794 0.159569 0.238721 -0.114200 -0.022542 -0.296750 -0.541218 -0.264669 -0.064634 0.048488 -0.337809 0.017602 -0.698027 0.399776 0.035948 0.164557 -0.146956 0.016076 0.115420 0.253764 0.073515 0.157286 -0.243014 0.228164 0.006230 -0.142194
8448 -0.275614 -0.032070 -0.283419 0.551548 -0.050484 0.056141 -0.526753 -0.436696 -0.137572 0.033219 -0.820355 -0.587573 -0.190738 0.003247 0.447853 0.100441 0.174985 -0.038022 0.268288 0.061723 -0.005016 -0.288313 0.271158 0.231071 -0.306324 -0.018243 -0.063520 0.391174 -0.179789 0.312039 0.800671 0.244189 -0.220384 0.302885 -0.779161 -0.323113 -0.123284 0.492708 0.044641 0.298960 0.016718 -0.218616 0.230174 0.057738 0.320631 0.271635 -0.414699 -0.215679 -0.375196 0.389065 -0.056789 0.393926 -0.096757 0.260273 0.450667 0.197272 0.113723 0.050796 -0.545607 0.580629 -0.165621 -0.482699 0.705652 0.179285
9869 -0.017015 0.017351 0.185275 -0.147292 0.370653 0.070951 -0.717184 -0.479261 -0.015935 0.063831 0.517515 -0.223741 -0.377995 -0.258864 0.238036 -0.071610 0.540987 -0.383788 0.611321 0.524322 -0.116192 -0.154540 0.403524 0.264913 -0.282936 0.277053 -0.315317 -0.407854 -0.315107 0.238211 -0.095928 0.161682 0.262860 0.112466 -0.259374 0.284632 0.064055 0.203034 0.275655 0.562471 -0.122772 0.063877 -0.139628 0.744773 0.329625 0.307013 0.328012 -0.008796 0.023607 0.101453 -0.520054 0.186610 -0.408152 0.003653 -0.598472 0.274611 0.221917 0.330000 -0.558839 0.263666 -0.346022 -0.177095 -0.050064 0.068956
9755 -0.165721 0.338595 0.601820 0.010630 0.248622 -0.037550 0.007939 -0.209322 0.080987 0.282015 0.467738 -0.329931 -0.157489 -0.029397 0.132549 -0.070788 0.001701 0.311594 0.269499 0.385495 0.134010 0.060320 0.124058 0.531701 -0.480808 -0.093819 -0.203885 -0.039517 -0.451919 -0.022221 0.216850 0.118291 0.542281 0.522243 -0.013903 -0.378412 -0.254041 -0.257977 0.200314 0.042306 -0.147122 0.082959 -0.172780 -0.040530 -0.828852 0.083871 -0.588755 0.355400 -0.462636 -0.059222 0.215767 0.220902 -0.407133 -0.162782 -0.163685 -0.746615 -0.111349 -0.019713 0.715323 -0.072101 -0.147919 0.196701 0.190131 -0.642689
6774 -0.642224 0.033552 0.403300 -0.136357 -0.237634 -0.030090 -0.370933 -0.509770 0.171916 0.426434 0.282320 -0.028021 0.148800 -0.167028 -0.123205 0.096279 0.092629 0.162225 0.404213 0.235355 -0.244870 -0.065977 0.174449 0.140273 -0.610291 0.044614 -0.255099 0.188036 -0.115604 -0.017797 -0.587805 0.278865 0.045595 0.332509 -0.475689 -0.728814 -0.572359 -0.256090 0.992435 0.185751 0.251414 0.107194 0.378934 -0.085071 0.087980 -0.083725 0.069637 0.095507 0.395383 0.358592 -0.440718 0.283024 0.169991 0.216029 -0.022325 0.074619 0.089811 0.195149 0.197716 -0.291259 0.163580 -0.068928 -0.507116 -0.133793
20574 -0.359541 -0.142786 0.060881 -0.200992 0.669527 0.130865 -0.511194 -0.348655 -0.001189 -0.003393 0.256355 -0.105110 -0.752832 -0.240335 -0.013630 -0.080614 0.516317 -0.286750 0.435074 0.120379 0.154553 -0.321744 0.262649 0.364165 -0.286271 -0.009988 -0.352516 -0.563915 -0.543356 0.096350 -0.120355 0.133220 0.270633 -0.056819 -0.427101 0.500887 -0.354411 -0.150411 0.234987 0.559101 -0.206665 0.197246 -0.046255 0.408239 0.305571 0.283548 0.567812 0.560207 -0.027823 0.015377 -0.229017 -0.032016 -0.309362 -0.037317 -0.483921 0.040811 0.058852 0.394284 -0.658105 0.274783 -0.274092 -0.023703 0.191696 -0.094206
18778 -0.240752 0.065892 0.025313 -0.308545 0.573970 -0.204908 -0.892112 -0.455246 0.173157 0.066618 0.446307 0.022709 -0.498931 -0.115037 0.075571 0.269334 0.802732 -0.445816 0.424640 0.160098 0.089256 0.145170 0.663811 0.419006 -0.548222 -0.089797 -0.293455 -0.126517 -0.343366 0.313846 0.028067 -0.143545 0.286206 0.101479 -0.346543 0.423197 -0.278762 0.173231 0.175894 0.413347 -0.041067 0.166344 -0.074733 0.566843 0.014222 0.026835 0.231141 -0.403852 0.354622 -0.076240 -0.385851 -0.219283 -0.396171 0.224182 -0.298184 -0.272720 0.290492 0.194893 -0.618839 -0.072676 -0.111695 0.204767 0.128849 0.194056
3283 -0.026325 -0.135548 -0.462676 0.047686 -0.231490 -0.059215 -0.467248 -0.640247 -0.215090 0.022977 -0.487094 0.011445 -0.304065 -0.146214 0.124117 -0.094343 0.757115 0.311753 0.559178 0.320390 -0.191525 -0.072807 0.202482 0.222610 -0.308234 0.248014 -0.006616 0.399686 0.118832 0.195729 0.806698 0.442434 -0.561629 0.473383 -0.559792 -0.450192 -0.297624 0.074537 -0.163505 0.072718 -0.005468 -0.041848 0.585119 0.162915 0.279033 0.193083 -0.335680 -0.452793 -0.528875 0.082892 0.255740 -0.031602 -0.042016 -0.131108 0.014002 0.381448 0.058947 -0.022785 -0.433166 0.336152 0.058645 -0.595927 0.796930 0.244751
16654 -0.112990 -0.042043 -0.086602 -0.321532 0.543663 -0.007727 -0.582899 -0.506779 0.028856 0.094291 0.302044 -0.260583 -0.585056 -0.025540 0.084892 -0.037844 0.429370 -0.572176 0.400326 0.280411 0.027336 0.010275 0.487643 0.464371 -0.411324 -0.006025 -0.455271 -0.403918 -0.496199 0.218878 -0.305585 -0.167485 0.206523 0.007400 -0.132278 0.099930 -0.389839 0.330613 0.146342 0.689718 -0.360518 0.311023 -0.179455 0.638515 0.118937 0.056017 0.370402 0.058939 -0.203129 0.084745 -0.499084 0.017714 -0.211860 -0.042722 -0.555840 -0.089011 0.211583 0.234632 -0.533129 0.284735 -0.278876 -0.306642 -0.042035 0.102512
449 0.329255 -0.107347 -0.580825 -0.413097 0.000495 -0.254262 -0.297693 -0.287948 -0.324333 0.377929 -0.358064 0.529006 0.179538 0.214193 0.061133 0.335188 0.206775 0.279119 0.352661 0.116968 -0.062827 0.124560 0.689338 0.405759 -0.033265 0.289546 -0.794074 -0.078871 -0.117405 -0.084581 0.141037 0.293217 -0.374640 0.275542 0.015624 -0.199893 -0.036291 0.106137 0.227111 0.181511 0.223527 0.753906 0.014618 0.343401 -0.222472 0.645203 0.005599 0.473091 -0.512828 -0.237350 0.236723 -0.082369 -0.321912 -0.292544 0.114742 -0.456382 0.167300 0.212031 -0.143916 -0.259543 0.193439 0.095172 0.513284 0.820751
4241 0.273635 -0.430458 0.081552 0.027969 -0.339788 -0.556102 -0.126343 -0.257753 -0.008016 -0.080668 0.519488 0.384649 0.401948 -0.411451 0.623869 -0.371715 -0.210685 0.338966 0.482089 0.263172 -0.306689 -0.422431 0.231277 0.166939 -0.104841 0.073519 -0.248247 -0.349746 0.070223 -0.746399 0.155024 -0.107968 -0.388105 0.737260 -0.266097 0.252242 0.228901 0.224477 -0.118915 -0.259611 -0.402707 0.502963 0.300402 0.144665 -0.581884 0.007094 -0.064437 0.491098 -0.347700 0.369668 -0.690388 -0.088603 0.404615 -0.239783 0.447188 0.264602 0.372086 0.140372 0.016410 0.006349 -0.404826 0.184203 -0.075548 0.107388
9639 -0.405911 -0.107925 0.038628 -0.390465 0.195579 0.303557 -0.452157 0.105118 -0.127058 -0.396469 -0.012746 0.309604 -0.457802 -0.073812 0.061208 -0.435870 0.036869 0.285684 0.246797 -0.667929 -0.279775 0.308447 0.162434 0.507330 -0.297866 -0.435463 -0.298716 0.011142 -0.318108 -0.094310 0.430409 -0.119784 0.505500 0.066929 -0.182089 -0.374298 -0.420769 -0.347375 0.221168 0.132580 -0.300453 0.013782 -0.300902 0.023137 0.210227 0.509968 -0.117942 0.041178 -0.243746 0.334316 0.607938 0.454325 0.402239 -0.039192 0.125291 -0.190943 0.089264 0.863502 0.494364 -0.114257 0.108991 -0.035759 0.373450 0.583971
13526 -0.207405 0.203919 -0.272028 0.177538 -0.410085 0.100368 -0.448988 -0.389485 -0.129084 -0.235399 -0.753206 -0.343480 -0.379545 -0.178534 0.426331 -0.017058 0.652274 0.074847 0.517476 0.215841 -0.220614 -0.122440 0.299967 -0.024224 -0.229229 -0.102752 -0.517496 0.104221 0.194650 0.207100 0.606984 0.212676 -0.103540 0.244809 -0.708451 -0.106643 -0.490863 0.332236 -0.520384 0.402414 -0.477991 -0.055547 0.674474 0.108467 0.142557 0.209597 -0.330605 -0.321299 -0.508744 0.304713 0.259309 0.395615 0.298788 0.117445 0.164884 0.311739 0.259911 0.092465 -0.257740 0.566344 -0.012842 -0.358850 0.400925 0.056868
15245 -0.001178 -0.367907 -0.030480 0.017320 0.230344 -0.079100 -0.584631 -0.596660 -0.116310 0.132330 0.759376 -0.259183 -0.531652 -0.221418 -0.127402 0.410692 0.765797 -0.364604 0.732970 0.254804 -0.084304 -0.041754 0.477055 0.065549 -0.352627 0.056307 -0.379141 -0.319240 -0.612634 0.194258 -0.242846 0.109235 0.223913 -0.152429 -0.342732 0.283073 -0.247157 -0.182821 0.163513 0.404246 -0.328808 0.476318 -0.033936 0.433959 0.370855 0.137780 0.574663 -0.094296 -0.091026 -0.133623 -0.165319 0.058844 -0.534532 -0.094198 -0.653825 -0.018308 0.246064 0.168657 -0.332200 0.185646 -0.195279 -0.166829 0.168815 0.047754
9124 -0.447386 0.321197 0.337570 0.542685 0.058761 0.264003 0.060264 0.031872 -0.418988 0.082010 0.232348 -0.450720 0.398655 0.205759 0.552051 0.052737 0.369073 -0.008503 0.884464 0.300198 -0.398193 -0.308214 0.064399 0.528157 -0.092442 -0.086524 -0.097838 -0.164243 0.460816 -0.414392 -0.399153 -0.292672 -0.166326 -0.024249 0.319612 -0.553217 0.216280 0.019417 -0.124194 0.147485 0.127890 0.464584 0.311108 0.470837 -0.207770 0.212706 -0.028386 0.629813 0.215066 0.014350 -0.165419 -0.529195 0.124036 0.132141 0.101421 -0.063408 0.281007 -0.692709 -0.502708 0.334138 0.244127 -0.139174 0.580894 0.219806
12545 -0.369829 -0.150912 0.360974 0.121937 -0.358061 -0.002519 -0.395123 -0.543646 0.288960 -0.043525 -0.120316 1.000052 -0.163666 0.106284 -0.301100 -0.476621 0.168299 0.044561 0.237896 0.117020 -0.397114 -0.005787 0.072883 0.392658 0.160562 0.231034 -0.099573 -0.063743 -0.232400 0.097027 0.065087 0.051005 -0.142823 0.795488 0.719348 0.090698 -0.679135 -0.439383 0.082818 -0.410961 -0.449868 0.253360 -0.196277 0.121716 -0.140564 -0.297933 -0.186506 -0.025432 0.591496 -0.413086 -0.493501 0.005965 -0.170720 -0.267247 0.075936 -0.221779 0.123847 0.101911 -0.148796 0.056135 -0.032100 0.121010 0.252625 -0.340309
7525 -0.341487 -0.105611 -0.041948 0.507557 -0.402818 0.045223 -0.516786 -0.551632 -0.077717 -0.099759 -0.678728 0.059881 -0.241483 -0.241335 0.387496 0.046485 0.673951 0.095034 0.427017 0.065504 -0.335458 -0.301597 -0.002168 0.312348 -0.210759 -0.288529 -0.026525 0.465697 0.066180 0.336794 0.489569 0.431404 -0.299986 0.143853 -0.486909 -0.435075 -0.255503 0.152051 -0.528360 0.176543 -0.356478 -0.150330 0.409697 0.351979 -0.135890 0.091809 -0.456390 -0.455709 -0.212398 0.915130 -0.036456 0.164932 -0.330864 0.070291 0.214100 0.441343 0.262542 0.038203 -0.280207 0.166553 -0.028310 -0.699024 0.386096 0.160247
22601 -0.041799 0.580751 0.157485 0.466901 -0.124394 0.384109 -0.238215 -0.027390 -0.515321 0.180769 0.045873 0.017350 0.054058 -0.029317 0.807558 0.339460 0.658914 0.192794 0.469113 0.059051 -0.024454 -0.382962 0.098126 0.570519 -0.275900 -0.265936 -0.098949 -0.499873 0.071345 -0.238813 0.102140 0.114912 0.304726 0.149646 0.235146 0.014215 -0.449185 0.035086 -0.571621 -0.129141 -0.778019 0.212901 0.434204 -0.142463 -0.378466 0.789958 0.166096 0.028479 0.295067 0.297004 -0.014317 0.710523 -0.402113 -0.039420 -0.038830 -0.139407 0.259277 0.069266 0.487908 -0.413211 -0.366506 0.175489 0.338878 -0.029241
676 -0.517927 0.089543 -0.036875 0.193238 -0.245227 0.191737 -0.209528 -0.276590 0.353352 0.421424 0.366303 0.513036 0.440230 0.057908 -0.028479 -0.243760 -0.341765 0.119080 0.318743 0.184802 -0.491176 -0.190399 -0.095386 0.521630 0.073783 0.111496 -0.932824 -0.225535 0.074987 0.082525 0.074172 0.046596 0.119449 0.699923 0.238952 -0.334197 -0.181076 -0.470545 0.887324 0.339345 0.165994 0.103746 0.011824 0.088780 0.239821 0.064849 -0.564556 -0.035378 -0.489842 0.101784 -0.285827 0.293387 -0.331026 -0.034551 -0.064317 -0.175231 0.020808 -0.025090 0.180111 0.242070 -0.317363 0.344995 0.135208 -0.052329
14924 -0.013995 -0.450105 0.428586 -0.063024 0.761271 0.408391 0.133140 -0.120015 -0.180756 -0.562200 -0.103229 -0.314230 0.540375 0.064226 -0.057737 0.209504 0.782229 0.096731 0.393969 -0.561305 -0.163263 -0.425827 0.477227 -0.228245 -0.343605 0.315878 -0.402317 0.278804 -0.134504 -0.309308 0.064267 -0.140096 -0.260621 -0.085740 -0.185860 -0.551154 -0.362970 0.473242 0.214944 -0.050558 -0.244153 -0.231238 0.339339 -0.054952 -0.273696 0.149070 -0.001440 -0.099177 0.418668 0.614007 -0.496378 0.259992 0.114806 0.366499 -0.221939 -0.464406 -0.087656 -0.247387 0.411297 0.107424 0.355702 -0.021186 0.041173 0.122505
23712 -0.155568 0.235879 0.157790 -0.202119 0.547843 0.108923 -0.314908 -0.668487 0.431228 0.069612 0.324910 -0.054714 -0.461043 0.126228 0.139369 0.249789 0.687979 -0.418954 0.693000 0.440331 0.173741 -0.360518 0.626684 0.379021 -0.524855 0.072812 -0.140149 -0.412213 -0.445354 0.301594 -0.176053 0.005855 0.373497 -0.093332 -0.276894 0.317472 -0.263725 0.332464 0.527240 0.356577 -0.080679 0.316003 0.003540 0.602307 0.201102 0.160863 0.466847 0.489888 -0.168554 0.131772 -0.272183 -0.001019 -0.468773 -0.159481 -0.387544 0.108250 -0.027824 0.182722 -0.300188 0.296843 -0.313889 0.001905 0.096362 0.020932
24474 -0.291163 0.112103 -0.468935 0.518992 -0.192008 -0.102064 -0.416028 -0.530177 -0.266938 0.036425 -0.506190 -0.350049 -0.315694 -0.195283 0.278724 0.231012 0.469998 0.616876 0.326625 0.042121 -0.388796 -0.227837 0.046421 0.284518 -0.551453 -0.395141 -0.460151 0.394584 -0.195742 0.316439 0.735337 0.317111 -0.390352 -0.034426 -0.843111 -0.289672 0.018447 0.309912 -0.260549 0.144663 0.045933 -0.078065 0.318772 0.254076 0.265337 0.396814 -0.338481 -0.058344 -0.588535 0.647028 0.134335 -0.011959 -0.150537 0.232442 0.073311 -0.005491 0.029541 -0.094942 -0.142834 0.632531 -0.112202 -0.625912 0.364397 -0.025045
13008 -0.020171 0.025884 0.279644 -0.080734 0.413492 0.166332 -0.179381 -0.183860 -0.133518 0.160504 0.309974 0.016495 -0.298800 0.071590 0.211067 0.228457 -0.414606 0.135862 0.118689 0.310026 0.189890 -0.181131 0.076237 0.102751 0.051548 -0.318702 -0.391613 0.532391 -0.633200 -0.165065 -0.255996 -0.644879 -0.563907 0.120901 0.462223 -0.016076 0.221593 -0.153955 0.101889 -0.074981 -0.206261 -0.003391 0.442701 0.423457 0.708538 0.496274 0.139416 0.105995 -0.249164 0.512062 -0.084898 0.335763 -0.204652 -0.400666 0.133176 -0.638399 0.638741 -0.606953 0.302375 0.419321 0.393261 -0.578297 0.408750 0.073005
7307 -0.034990 -0.405401 -0.239307 -0.179553 0.240987 0.357736 0.030976 0.104101 -0.403505 -0.231156 -0.217290 -0.014502 -0.222166 -0.542024 0.026169 0.114668 0.465751 0.495491 0.562977 -0.266328 -0.143583 -0.386551 0.356405 -0.088351 -0.356468 -0.167327 -0.363204 -0.302787 -0.264941 -0.891703 0.416541 -0.236610 -0.367033 0.084768 0.063460 -0.055135 -0.029557 -0.252941 0.348506 0.133590 -0.483298 -0.111236 0.164969 0.351827 0.055664 -0.057640 -0.170500 0.234766 -0.074032 0.153482 -0.397866 0.224641 -0.297582 0.138314 0.408348 -0.414787 -0.528358 0.200670 0.096416 0.297712 0.589032 0.733877 0.018109 -0.664402
19114 -0.089457 -0.086340 -0.338495 -0.192998 0.214467 -0.123796 -0.543239 -0.530695 0.114551 0.086255 0.445476 -0.288473 -0.292046 -0.295915 -0.244415 0.059930 0.710552 -0.236441 0.334265 0.245050 0.146453 0.197262 0.535581 0.413184 -0.443744 0.143849 -0.470748 -0.061231 -0.234404 0.182580 -0.319181 -0.324968 0.454022 0.168944 -0.175865 0.090634 -0.491728 0.336082 0.346358 0.445832 -0.329648 -0.038538 0.003046 0.588766 0.289794 0.201717 0.176618 0.357695 0.117349 0.019484 -0.474249 -0.069408 -0.351821 0.101790 -0.691508 0.253696 0.105029 0.383578 -0.697194 0.369571 -0.383146 -0.121068 0.087874 -0.118863
6271 -0.244859 -0.241972 -0.289278 -0.250975 0.044527 -0.175649 0.339116 -0.159293 0.299203 0.227097 -0.272087 -1.153022 -0.037298 0.505430 0.085360 -0.215425 0.145740 -0.140497 0.581850 0.045173 0.085397 0.366432 0.562467 0.633332 -0.390191 0.081613 0.196179 -0.029458 -0.386482 -0.207816 0.315800 -0.224387 -0.251590 0.102741 0.195569 0.020617 -0.295624 -0.237444 -0.302563 0.278559 0.167150 0.149028 -0.035149 -0.147002 -0.567774 -0.045654 -0.465740 -0.039860 0.278143 0.772915 -0.090386 0.278187 -0.097044 -0.256504 0.198219 -0.501162 0.727745 0.433233 0.036454 0.091670 0.111385 -0.208586 0.168068 -0.272671
16414 -0.800874 -0.309427 0.191500 -0.013615 -0.200618 -0.023590 -0.436380 -0.148105 -0.157822 0.091287 0.425317 -0.322665 0.314202 0.161902 0.185810 0.125407 0.186088 -0.026940 0.279074 0.029892 0.129328 -0.111531 0.171345 0.404050 -0.551123 -0.227716 -0.264436 0.190429 -0.594004 0.123008 0.973917 0.105308 -0.054751 -0.328908 0.096980 -0.095638 -0.351837 -0.317264 -0.087169 -0.039508 -0.374912 0.025651 0.136701 -0.573782 -0.329468 0.230675 -0.566979 -0.097688 0.109148 -0.505348 -0.175374 0.184915 0.191189 -0.288883 0.343246 -0.695335 -0.014078 -0.551238 -0.187799 -0.245200 -0.260164 0.211249 0.334054 0.251533
543 -0.268735 0.304262 0.618837 -0.467904 -0.452558 -0.027009 -0.179820 -0.114367 0.006233 -0.720089 -0.532501 -0.318827 -0.510755 0.310170 0.189301 -0.007291 0.240621 -0.023875 0.762609 0.286966 -0.392603 -0.331712 0.602651 -0.333615 0.111952 -0.073811 -0.762334 0.458363 -0.291536 0.132149 0.119508 -0.079437 0.026671 0.134462 0.039124 0.411507 -0.457320 -0.147187 0.131948 -0.220473 0.229930 0.191642 -0.439249 -0.242788 0.295493 0.303870 -0.203132 -0.008975 0.086250 0.364749 -0.278516 -0.236558 0.139800 -0.314621 0.150098 -0.053479 0.150551 0.122097 -0.091226 -0.094291 -0.579807 -0.758440 0.164423 0.132419
7007 -0.627069 0.026919 0.559642 0.131931 0.135055 0.120668 0.010718 -0.349951 0.099126 0.221543 -0.282320 -0.116675 -0.092978 0.176403 0.268537 -0.420917 0.525014 0.231117 0.469611 -0.206162 -0.174857 -0.381661 0.277519 0.360963 0.764926 0.161866 -0.288542 0.253178 -0.255244 -0.443637 0.131678 -0.291745 0.032578 0.289407 -0.385389 -0.182911 -0.051035 0.327816 0.219458 0.338507 0.647615 0.451898 -0.041412 0.513173 0.098898 1.012645 -0.102489 -0.196437 -0.131422 -0.007417 0.071748 0.355627 -0.136118 0.109701 0.078961 -0.424641 0.193576 -0.228335 -0.418184 -0.138720 -0.401903 0.453599 -0.404179 -0.110622
19640 0.144685 0.308547 0.255759 -0.266603 0.075847 0.627760 -0.193723 0.030878 0.027121 0.186608 0.392661 -0.159021 -0.431603 -0.287748 -0.023922 -0.569007 -0.212589 0.094583 0.131350 -0.432670 -0.128985 0.232609 -0.052105 0.554824 -0.381708 -0.071860 -0.270627 -0.121548 0.022939 -0.566451 0.088979 0.071604 0.347668 0.734765 -0.053359 -0.425044 -0.326086 -0.452063 0.592050 -0.132985 -0.122402 0.456218 -0.341542 0.139990 0.290514 0.250119 0.007415 -0.255802 -0.447059 0.457287 0.376019 0.196801 0.059509 0.252889 0.173368 -0.735840 -0.004700 0.293525 0.288421 -0.101087 0.022937 -0.516840 0.020871 0.322446
21491 -0.654588 -0.021979 -0.125050 -0.029688 -0.254953 0.048132 -0.709521 -0.752563 -0.265199 0.147085 0.390334 -0.073849 0.060429 0.124349 0.071493 0.083773 0.255702 -0.240342 0.149322 0.325685 0.207656 -0.238462 0.164385 -0.268583 -0.527060 0.147073 -0.512677 0.500464 -0.216655 0.577449 0.490009 -0.183719 -0.208468 -0.096580 -0.479984 -0.060030 -0.488881 -0.114001 -0.407772 -0.063714 -0.368440 0.024424 -0.003609 0.374811 -0.480687 -0.322224 -0.465202 -0.069117 0.172875 -0.659854 -0.116702 0.593461 -0.029978 -0.064911 0.016141 -0.458819 0.213815 -0.361277 -0.168352 0.049044 -0.214790 -0.033299 -0.053298 0.091967
24057 -0.178755 0.331709 -0.108442 0.593803 0.252112 -0.133009 -0.410003 -0.456899 -0.040763 -0.381352 0.146654 0.238945 -0.632349 -0.054189 -0.129178 -0.495138 0.128119 0.009667 0.349585 0.493865 -0.439064 0.247881 0.328488 0.855738 0.334844 0.231515 -0.304158 0.145731 0.281382 -0.508380 0.307432 0.307382 -0.171765 0.487587 -0.105180 -0.069176 -0.362202 -0.435259 -0.072510 -0.710771 -0.561998 -0.117427 0.021005 0.420631 -0.123104 -0.229615 0.169675 -0.500171 0.274710 -0.015138 -0.383509 -0.051558 -0.117186 -0.266999 0.010901 0.166496 -0.064298 -0.075143 0.034716 0.116898 0.325089 0.298461 0.166513 -0.529815
15457 -0.305832 -0.102130 -0.002098 -0.047797 0.684342 -0.019271 -0.581508 -0.618931 0.120172 0.082963 0.349019 -0.128515 -0.488036 -0.300267 -0.034930 0.328197 0.771386 -0.286936 0.492911 0.263384 -0.036099 0.063915 0.362584 0.311283 -0.523916 -0.014665 -0.390192 -0.510774 -0.523522 0.306831 -0.003055 0.084389 0.092225 -0.050751 -0.456584 0.151052 -0.250094 0.179800 0.451316 0.649518 -0.130103 0.148226 -0.144210 0.488158 0.191331 0.074464 0.463081 0.063249 0.029820 0.191563 -0.434053 -0.168973 -0.311204 0.002740 -0.502173 0.087471 0.108524 -0.191461 -0.460453 0.347346 -0.064832 -0.256669 0.082800 0.162878
24696 -0.250314 0.817222 -0.051565 0.311840 0.030821 0.176751 -0.682150 0.297632 0.303907 -0.135959 0.011048 -0.119290 0.097432 0.505849 -0.185974 -0.107980 0.162010 0.058707 0.329657 0.134399 -0.565117 0.032473 0.757911 -0.161347 -0.228299 0.001655 -0.411870 0.622958 -0.067345 0.224112 0.343620 0.168949 -0.024011 0.548004 0.305514 0.410829 -0.316675 -0.078576 -0.114348 0.415550 -0.100316 0.243271 -0.190153 0.267797 -0.356252 -0.122423 0.526914 -0.156583 -0.569939 0.526780 0.098596 0.297142 0.057557 0.597598 0.035784 0.011280 0.259369 0.322212 0.064838 0.077540 0.103151 -0.073661 0.319737 -0.473754
9397 0.322443 0.350546 -0.058976 0.180914 0.421929 0.180538 -0.280538 0.189665 -0.301930 0.057583 0.233916 -0.320162 0.314150 0.050462 0.498896 0.101205 0.396495 0.345355 0.653263 0.459683 -0.062777 -0.092525 0.073611 0.668043 -0.674346 -0.336441 -0.135883 -0.300622 0.092604 -0.213895 0.091503 0.232905 0.480415 0.325560 0.217455 -0.307032 -0.285739 -0.049214 -0.312052 0.079784 -0.675737 0.332689 -0.001028 -0.028291 0.110817 0.648657 0.022335 0.239537 0.162925 -0.095700 -0.093448 0.398389 -0.724363 -0.235597 -0.440160 -0.373166 0.365659 0.205845 0.303018 -0.239206 -0.296892 0.494711 0.187792 -0.327964
14485 0.148673 0.315919 -0.444069 -0.272009 0.439612 0.229506 -0.239100 -0.118695 -0.110478 -0.164656 0.806787 -0.087435 -0.262280 -0.342166 0.666192 0.384211 -0.304793 0.256513 0.113951 -0.218612 0.076576 -0.467654 0.100084 0.515968 -0.013545 0.360050 -0.316623 0.267356 -0.094061 -0.561726 0.138204 -0.312812 -0.267680 -0.141547 0.338825 -0.000784 0.059819 -0.190039 -0.111897 -0.404513 0.354818 -0.512546 0.027465 0.378330 0.246301 0.199527 -0.196294 0.123133 -0.380145 0.480945 -0.315637 0.187285 -0.005018 -0.082730 0.329400 -0.357949 0.766434 0.083638 -0.153926 0.114153 0.008811 -0.301404 0.333154 0.600916
8727 0.130991 -0.065060 0.413642 -0.157176 0.543546 0.194526 -0.757468 -0.407566 0.169484 0.205630 0.250210 0.017622 -0.921764 -0.080180 -0.104599 -0.035009 0.640755 -0.217106 0.755454 0.374847 0.149908 -0.068125 0.247717 0.418303 -0.682210 0.186678 -0.373356 -0.111874 -0.441092 0.175663 -0.201290 0.094466 -0.173657 -0.161288 -0.141778 0.098275 -0.401403 0.044124 0.145549 0.506243 -0.057592 0.207871 -0.067430 0.511677 0.436854 0.340025 0.404274 0.252779 -0.107753 0.180982 -0.303297 -0.240684 -0.413392 -0.140332 -0.600432 -0.002804 0.130901 -0.034745 -0.445262 0.172631 -0.234288 -0.101530 -0.118317 -0.032339
19446 0.051838 -0.018428 0.111067 -0.326315 0.689300 0.216829 -0.370836 -0.809031 0.272652 0.025023 0.289695 -0.074625 -0.467913 -0.324292 -0.149789 -0.016523 0.647546 -0.458061 0.698576 0.243174 -0.090431 0.092383 0.098593 0.486832 -0.360227 0.004135 -0.326250 -0.204300 -0.327543 0.137009 0.146815 0.102539 0.296701 0.035201 -0.495063 0.469687 -0.416862 0.025514 0.129285 0.701028 -0.046606 0.299920 -0.261996 0.570763 0.450546 0.413612 0.313215 0.145461 -0.184281 -0.065520 -0.444773 0.046349 -0.048094 0.022058 -0.479592 0.253279 0.132950 0.145637 -0.451615 0.191319 -0.319356 -0.178946 0.169318 0.188845
1217 -0.528517 0.185830 -0.104016 0.104739 -0.042851 0.210861 0.443707 0.133132 -0.031089 0.562686 -0.220495 0.174015 -0.216343 -1.068951 0.657194 -0.299603 0.700678 0.332882 0.416419 -0.649036 0.063573 -0.284380 0.683637 0.516076 0.236277 0.098265 -0.878033 0.178341 0.259929 0.069780 0.105581 -0.262900 0.450492 0.082634 -0.320110 0.430303 0.241320 -0.100880 -0.068868 -0.142413 -0.079460 0.344167 0.075523 0.390813 -0.206954 0.000036 0.020659 0.118405 0.082304 0.099085 -0.441537 0.233902 -0.221404 -0.096909 0.058717 -0.144593 0.000094 -0.002261 -0.189453 -0.153123 0.012282 -0.535585 0.246949 0.032747
15148 0.022926 -0.161575 -0.143255 0.566114 -0.077549 0.247748 -0.537351 -0.883927 -0.350256 -0.084829 -0.362846 -0.329089 -0.353287 -0.004020 0.100336 -0.028386 0.386639 0.252924 0.469683 0.355748 -0.135684 -0.451727 0.046330 0.174342 -0.582900 -0.036865 -0.333658 0.184087 0.050545 0.315745 0.738011 0.147328 -0.418014 -0.083579 -0.902731 -0.318146 -0.199843 0.300439 0.033320 -0.053387 -0.154748 -0.131142 0.460365 0.292808 0.304310 -0.090780 -0.129076 -0.390399 -0.420209 0.639925 0.383578 0.154930 -0.119777 -0.222252 0.480258 0.370891 0.206868 -0.204797 -0.369995 0.413369 0.264988 -0.497288 0.405097 0.140638
15108 -0.605599 0.269605 0.281687 0.081135 0.152189 0.246229 -0.265905 -0.650536 -0.305230 -0.093671 0.086188 -0.568054 -0.298160 -0.087333 0.052767 -0.638200 -0.106523 0.525572 0.015679 -0.038088 -0.081548 -0.335116 0.120737 0.030217 0.349781 -0.084935 -0.225970 -0.281896 -0.106733 -0.079152 -0.076797 -0.056768 -0.268847 0.459421 0.011927 0.746281 0.008964 -0.492830 0.490269 0.471284 -0.454478 0.450261 0.145478 0.273318 -0.178512 -0.262361 0.424662 0.241201 0.178283 0.234514 -0.023764 0.203736 0.817116 -0.599623 0.070570 -0.316071 -0.387335 -0.431730 -0.317457 -0.494837 0.022202 0.080911 0.218565 -0.011716
14648 0.228514 -0.175417 0.312843 -0.265612 0.145593 -0.114225 -0.920168 -0.357402 0.126752 -0.139436 0.521414 0.105950 -0.351755 -0.124598 0.361969 0.166696 0.668128 -0.456946 0.533362 0.228465 -0.124364 -0.042269 0.277319 0.279617 -0.407433 0.117115 -0.213410 -0.538683 -0.496863 0.217769 -0.131188 -0.102082 0.268802 -0.062345 -0.183425 0.403976 -0.529861 -0.094276 0.305887 0.748301 0.033905 0.051232 -0.064672 0.727981 0.029643 0.166088 0.375651 -0.060924 -0.202661 -0.185437 -0.414117 0.164596 -0.198031 -0.039382 -0.489975 0.158223 -0.016230 0.248940 -0.483099 0.370131 -0.167118 -0.136177 0.159889 0.254393
4364 -0.180604 -0.124059 -0.381247 -0.190833 -0.150746 -0.142473 0.240047 -0.154666 0.518993 0.359620 -0.348870 -1.024308 0.319633 0.465426 -0.048442 -0.066258 -0.029782 -0.005196 0.732695 -0.108455 0.131071 0.159352 0.344767 0.751883 -0.390546 0.192169 0.355851 -0.577500 -0.513018 -0.206636 0.281241 -0.076221 -0.314948 0.329909 -0.153194 -0.069400 -0.219928 -0.228655 -0.102668 0.422739 0.137225 0.631691 -0.344986 0.112595 -0.325868 0.109281 -0.442708 0.256003 0.327442 0.505777 -0.015265 0.213486 -0.030495 -0.331890 0.287064 -0.378488 0.651555 0.243033 0.069070 0.034379 0.159469 -0.218139 0.019359 0.189308
22504 -0.294154 -0.100849 -0.020986 -0.087087 0.536867 -0.022985 -0.390278 -0.739134 -0.272360 0.121258 0.390717 -0.205197 -0.392474 -0.009635 0.152948 -0.192257 0.616835 -0.369338 0.437669 0.235287 -0.184025 -0.076198 0.514637 0.455258 -0.436690 0.291198 -0.085196 -0.534493 -0.700069 0.124460 -0.161799 -0.141617 0.053015 -0.099995 -0.422481 0.376708 -0.416681 -0.039045 0.095415 0.696487 -0.259820 0.408073 -0.185655 0.551967 0.491912 0.135263 0.109774 0.286460 0.028281 -0.109638 -0.492079 -0.228064 -0.151939 -0.107841 -0.489093 0.370653 0.061288 0.142762 -0.487480 0.405410 -0.167750 0.004902 -0.143090 0.261955
615 -0.143550 0.158451 -0.326052 -0.315172 0.081041 -0.011936 -0.122516 -0.552445 -0.034859 -0.487939 0.661149 -0.375086 0.038679 0.119219 -0.008483 0.492860 0.295591 0.055722 0.695311 -0.456628 -0.352855 -0.220637 0.135988 0.067542 0.284528 0.073918 -0.423198 0.369031 -0.410012 0.006555 -0.083230 0.392105 -0.386432 0.868118 0.228980 0.125501 0.134856 0.255210 0.103176 0.020931 -0.044943 0.103432 0.067767 -0.350750 -0.013141 -0.434873 -0.010069 0.170145 -0.045843 0.281182 0.415889 0.186692 0.242824 -0.570822 0.155502 -0.808332 0.148742 0.334555 -0.590261 0.068483 -0.259700 0.449845 0.462154 -0.236836
7635 -0.266693 0.085561 0.009021 -0.214729 0.615644 -0.097089 -0.607772 -0.513226 0.224796 0.191079 0.534189 -0.197549 -0.365657 -0.261421 0.019869 0.074658 0.735078 -0.458701 0.477942 0.314296 -0.045927 -0.113998 0.396772 0.366891 -0.407976 0.114528 -0.249785 -0.315102 -0.541835 0.002456 -0.098457 0.022242 0.294050 -0.007523 -0.268761 0.289384 -0.452616 0.068602 0.133668 0.462544 -0.171827 0.203874 -0.205687 0.828689 0.395809 0.090810 0.497386 0.088688 -0.084390 0.084876 -0.304504 0.132079 -0.317057 0.012866 -0.501167 -0.092223 0.089709 0.304515 -0.456003 0.099134 -0.279960 -0.138796 0.082704 0.312296
22598 -0.582845 -0.280652 0.083383 0.223378 0.376710 0.228949 -0.341740 -0.408884 0.229581 0.006431 -0.507077 -0.019479 -0.168849 0.278951 0.005527 -0.274980 -0.316494 -0.027446 0.675421 0.093114 0.159837 -0.306297 0.144825 0.114275 0.720312 0.644279 0.206670 0.713669 -0.031872 -0.486770 0.051788 0.251751 0.012920 0.567733 -0.149441 -0.415067 -0.120138 -0.093328 -0.289862 -0.226022 0.362123 -0.044553 0.068682 0.472603 0.099964 0.628734 -0.203172 0.151251 -0.021679 -0.143122 -0.157213 0.519263 0.107116 0.057880 -0.153374 -0.490732 0.172253 -0.051381 -0.523307 0.194379 -0.073241 0.261994 -0.036270 -0.017070
22901 -0.401627 0.054338 -0.685752 0.214159 -0.230563 0.032015 -0.445036 -0.582820 -0.343973 -0.279197 -0.650394 -0.130343 -0.513335 0.123211 0.221714 0.161575 0.389344 0.013289 0.367132 0.350350 -0.392752 -0.411638 0.140001 0.125817 -0.452872 0.041895 -0.119237 0.568428 -0.052256 0.194838 0.658141 0.024696 -0.334899 0.341103 -0.854075 -0.186434 0.023997 0.264494 -0.313391 0.252317 0.112234 -0.047401 0.493162 0.582977 0.115446 0.513509 -0.421213 -0.200148 -0.482831 0.598150 -0.051588 0.590091 -0.173573 -0.042143 0.201081 0.419661 -0.045601 0.043421 -0.245451 0.108562 0.103559 -0.367534 0.399424 0.117705
10711 0.015141 -0.149224 0.058332 0.258670 0.142268 0.060178 -0.357002 -0.241582 -0.264485 0.054313 0.004087 0.248218 0.679435 -0.207997 0.378153 0.262067 -0.150253 0.132013 -0.052140 0.262956 0.896115 -0.386107 0.398541 0.469649 0.271819 0.340895 -0.493899 0.650267 -0.014213 -0.506074 -0.002602 -0.183259 -0.238280 0.402669 -0.027182 0.111505 -0.287468 0.224443 0.431346 -0.466610 -0.141948 0.434159 -0.196056 0.396077 0.133133 0.884347 -0.175665 -0.019042 -0.055385 -0.209560 -0.328760 0.275953 0.278257 0.181173 0.364816 -0.029473 -0.103778 0.190810 -0.542817 0.283903 -0.090402 0.213898 0.211403 -0.375137
3501 -0.424729 -0.076136 0.723861 0.222496 -0.409899 -0.015574 0.412567 -0.106189 -0.379001 -0.326644 0.008845 0.168355 -0.384592 -0.099178 -0.349866 -0.204068 0.317410 -0.059681 0.291534 -0.389178 -0.428486 -0.572330 0.311591 -0.127458 0.074363 0.157653 -0.495225 -0.317203 -0.388430 -0.117992 0.186031 -0.093581 -0.132830 0.501555 0.280483 0.593873 -0.445787 -0.187840 0.160237 -0.483175 0.076364 0.534057 -0.196779 -0.178254 0.155963 0.334751 -0.229519 -0.153760 0.122123 0.762832 -0.861786 0.488787 -0.334761 0.168430 0.168276 -0.038036 -0.177290 0.261656 -0.075001 0.093611 -0.062963 -0.229017 0.397902 0.006902
1023 -0.084200 -0.601444 -0.369428 0.304588 -0.377957 -0.053954 0.483130 -0.126419 0.219281 0.399163 -0.491632 -0.921274 0.047929 0.065162 0.127167 -0.080773 -0.323474 0.176981 0.577910 0.110568 -0.198733 0.102759 0.559473 0.508756 -0.171520 -0.322309 -0.248824 -0.358428 -0.505642 -0.211813 0.136404 -0.109407 0.104360 0.352912 0.190265 -0.320934 -0.228995 -0.434444 -0.278355 0.676156 0.174985 0.235448 -0.153251 -0.154226 -0.722946 -0.089525 -0.099723 0.162447 0.503914 0.645950 -0.088957 0.132329 0.189098 -0.326753 0.046274 -0.460563 0.668887 0.074853 0.069138 0.207483 0.221001 -0.360354 0.097305 0.117928
19939 0.040261 -0.087671 0.127370 -0.094098 0.528615 0.008875 -0.573341 -0.615874 0.070118 0.058697 0.461523 -0.066698 -0.595752 -0.269732 0.094623 0.149838 0.646299 -0.462332 0.499856 0.227121 0.134956 -0.081452 0.626540 0.472639 -0.287765 0.027755 -0.214732 -0.448748 -0.634507 0.245268 -0.225937 0.062321 0.018650 -0.050546 -0.300148 0.116341 -0.290453 -0.052956 0.271871 0.633641 -0.131523 0.164124 -0.050143 0.607046 0.337001 0.208419 0.423635 0.162045 -0.108355 0.176932 -0.421540 -0.076558 -0.421985 -0.063956 -0.529225 -0.001546 0.065409 0.437666 -0.459769 0.223391 -0.285513 -0.287788 0.048126 0.159293
12927 -0.453751 -0.618787 -0.049405 0.127838 0.302968 0.007538 0.005223 0.158915 0.331223 -0.138439 -0.396248 0.052647 -0.282443 0.087828 0.184062 -0.710857 0.438732 0.211487 0.759463 0.089453 0.341817 -0.175213 0.250745 -0.778284 -0.436441 -0.016160 -0.051172 0.286546 -0.229445 -0.203693 0.255429 0.479549 -0.325402 0.689872 0.041825 0.091682 -0.126547 -0.239398 -0.228028 0.290809 -0.243125 0.575561 -0.164143 0.278501 0.195381 -0.025079 0.298038 -0.519561 -0.184004 -0.100631 -0.262567 0.450458 0.358227 -0.308720 0.308097 -0.098625 0.299608 0.016283 0.036458 0.726510 -0.184910 0.058677 0.190274 0.513065
23452 -0.257162 -0.255509 -0.171340 0.010003 -0.361748 0.332091 -0.564598 -0.216963 0.392737 0.104345 0.177037 0.030638 0.102499 0.042000 -0.001246 -0.036240 -0.275541 0.238451 0.041676 -0.102289 -0.047010 -0.373036 0.020202 0.219301 -0.650018 0.160584 -0.334611 0.530787 -0.103665 -0.024468 -0.580493 0.396013 0.074002 0.013722 -0.572163 -0.560794 -0.141286 0.036003 0.545066 0.544343 0.020024 0.128620 0.625884 0.052900 -0.350430 -0.173632 0.074974 0.173182 0.183644 0.447630 -0.709753 0.716938 0.021973 0.005095 -0.290263 -0.022180 0.296629 -0.153016 0.193963 -0.213747 -0.143275 0.458804 0.295135 -0.183947
6456 -0.241735 0.204096 -0.188037 0.524046 -0.173270 -0.039984 -0.621623 -0.686340 -0.124895 -0.328903 -0.505748 -0.079208 -0.188206 -0.168224 0.140081 0.174589 0.522676 0.337642 0.135283 0.269180 -0.297452 -0.221786 -0.172144 0.028458 -0.544828 -0.058024 -0.478313 0.357785 -0.098035 0.286306 0.697871 0.219226 -0.068680 0.200624 -0.405106 -0.465007 -0.144205 0.096414 -0.199140 0.295977 -0.287843 0.032241 0.412551 0.310094 0.222395 0.247895 -0.289778 -0.034769 -0.709385 0.797976 0.463667 0.489628 0.034282 -0.052215 0.406274 0.406025 0.230505 0.036840 -0.370213 0.197625 0.081083 -0.529593 0.502035 0.050336
