5240 64
21012 -0.343045 0.632842 -0.043270 0.415615 0.008684 0.212219 -0.043300 0.302548 -0.127727 0.824054 -0.011748 0.080383 0.153855 -0.313832 0.495257 0.107594 -0.162951 0.100523 0.192222 0.126305 0.074766 0.261323 -0.307753 0.351035 -0.050553 -0.247783 -0.009271 0.091761 -0.039843 0.082090 -0.253752 0.403193 0.281845 -0.133677 -0.191235 0.197934 0.458608 -0.041041 0.244474 -0.352924 -0.101728 -0.062816 0.640100 0.127984 -0.271900 0.430250 -0.163844 0.331817 -0.347578 0.110239 0.558244 0.298802 0.075834 0.022687 0.127750 -0.078207 -0.038097 0.445144 -0.175859 -0.096828 0.156826 -0.374384 0.224267 0.017261
21281 -0.181975 0.464550 0.021248 0.162141 0.109211 0.387735 0.343019 0.151880 0.142830 0.885277 -0.464506 -0.371967 -0.291280 -0.198612 0.356827 0.371533 0.412461 -0.009917 0.282771 -0.471366 0.015802 0.254496 -0.159794 0.107723 -0.066791 0.099990 0.007548 0.304355 0.106704 -0.317657 -0.427744 0.443858 0.067718 -0.467988 -0.078269 -0.245794 0.520420 0.281987 0.064160 -0.243139 0.001536 -0.302274 0.176352 0.160154 -0.074799 0.244789 -0.192463 0.019654 -0.302682 -0.055825 0.668871 0.052164 0.469000 -0.203283 -0.105257 -0.135417 0.356262 0.135612 0.148047 0.160266 0.154354 -0.265265 0.076883 0.229399
22691 0.010335 0.440206 -0.140277 0.354583 -0.165458 -0.002395 -0.017017 0.297242 -0.115447 0.664973 -0.290493 0.154355 -0.164883 -0.182717 0.355808 0.049933 -0.099847 0.057552 0.395487 0.256370 0.068845 0.460673 -0.238823 0.065149 -0.135946 0.110060 0.090851 0.004106 0.043897 0.086840 -0.337886 0.153768 0.229445 -0.154979 -0.231026 -0.034953 0.311523 0.020697 0.533934 -0.496088 0.298680 -0.100707 0.459950 0.266030 -0.163711 0.691691 0.008141 0.530133 -0.348660 0.010739 0.506169 0.361632 -0.024353 -0.197660 0.094093 -0.040647 0.039772 0.521997 0.409234 -0.254711 0.217310 -0.494207 0.464689 -0.083685
12365 -0.317191 0.548909 0.153755 0.481175 0.151746 0.513876 -0.096937 0.030135 -0.000183 0.652375 -0.003795 -0.320647 0.149250 -0.133952 0.148083 0.045460 -0.055374 -0.398316 0.351858 0.035082 -0.051512 0.122882 -0.449741 0.078032 0.211390 -0.219600 -0.241077 -0.035880 0.214345 0.080642 -0.528852 0.183160 0.256516 -0.215357 -0.454869 0.080623 0.192649 0.013352 0.112689 -0.378157 0.202172 -0.199456 0.195335 0.327600 0.076663 0.292724 0.091283 0.064751 -0.916646 0.121056 0.337437 0.141410 0.241672 0.259168 0.046442 -0.103027 0.211512 0.283703 0.039452 -0.353102 -0.049874 -0.279406 0.209025 0.269061
6610 0.042067 0.730126 0.152421 -0.023786 0.049975 0.233984 0.139572 0.382983 0.093346 0.637051 -0.281927 0.091783 0.239650 -0.138604 0.437200 0.049575 0.043715 -0.030112 0.376406 -0.176928 -0.078045 -0.007893 -0.155545 0.188343 0.051668 0.086002 0.184346 -0.063829 0.249358 0.151771 -0.716965 0.243813 0.350010 -0.172743 0.132033 0.041110 0.282114 -0.106770 -0.144031 -0.247659 -0.024815 0.149173 0.193802 0.561847 -0.090746 0.505378 0.282748 0.019175 -0.573773 0.003144 0.118820 0.200668 0.468309 0.113660 -0.339102 -0.357427 0.295370 0.184988 0.513822 -0.098147 0.300066 0.073082 0.439016 0.297644
2741 -0.329205 0.650472 -0.145415 0.521863 -0.117085 0.333113 0.170385 0.306117 -0.033155 0.837416 -0.271026 0.070498 0.034764 -0.284227 0.226843 0.300292 -0.073292 -0.086080 0.063908 -0.086022 -0.058826 0.413425 -0.457763 -0.037122 0.052208 -0.106616 -0.125325 -0.104631 0.047535 0.329176 -0.371037 0.170206 0.459326 -0.021106 -0.403612 0.345234 0.314397 0.124715 0.137237 -0.312875 0.025982 -0.112150 0.338201 0.137480 -0.308601 0.254819 0.135524 0.210760 -0.627828 0.158688 0.381090 0.420291 0.220736 0.082517 0.068321 -0.201284 0.057171 0.201460 -0.066900 -0.182156 0.042195 -0.246144 0.242023 0.075206
21508 0.097482 0.593203 0.335477 0.289046 0.071016 0.211239 0.114161 0.090177 -0.013019 0.940781 -0.192849 0.014726 -0.349872 -0.177120 0.163550 -0.076620 0.150488 -0.042765 0.072566 -0.174126 -0.161894 0.472765 -0.330828 0.156174 0.473478 -0.284364 0.021495 0.244247 -0.037027 -0.010619 -0.568846 0.250418 0.260350 -0.297014 -0.476957 -0.027548 0.076580 0.018869 -0.050656 -0.502269 0.108172 -0.136432 0.389296 0.456543 -0.348128 0.460077 -0.009307 0.227172 -0.572430 0.102849 0.229246 0.245932 -0.105772 0.186540 -0.224458 -0.156847 -0.096596 0.172500 0.156081 -0.331951 -0.065575 -0.162095 0.113753 0.612943
19423 -0.267265 0.339995 -0.172670 0.096991 -0.267657 0.570194 0.192688 0.131833 0.074912 0.606074 -0.158611 -0.093504 -0.182384 -0.213106 0.509888 0.554505 0.156638 -0.131592 0.287322 -0.046821 -0.162788 0.269742 -0.183361 0.092199 0.227007 -0.109673 -0.306480 0.209330 0.357574 0.026432 -0.698981 0.370033 0.494408 -0.163084 -0.239398 -0.195672 0.423611 0.073330 0.090510 -0.122724 0.329754 -0.139147 0.228161 0.336241 -0.114923 0.581038 0.038572 0.462900 -0.273693 0.299215 0.394127 0.114598 0.198748 -0.111518 -0.053303 -0.040950 -0.262489 0.545474 0.053692 -0.294749 0.045928 -0.101712 0.290256 0.125909
17655 -0.259293 0.543791 0.100180 0.125782 -0.099000 0.156173 0.001824 0.525727 -0.265391 0.725431 -0.217726 0.104608 0.389264 -0.276939 0.285173 -0.007369 -0.179060 -0.244345 0.207045 0.127065 -0.025999 0.222827 -0.333876 0.174479 -0.158411 -0.002404 -0.093337 0.043912 -0.126171 -0.108779 -0.372086 0.424478 0.486845 -0.214623 -0.234875 0.223173 0.241124 0.070315 0.225609 -0.436555 0.005754 -0.267041 0.286827 0.199178 -0.101910 0.427581 0.114918 0.374927 -0.465546 0.279020 0.590107 -0.162985 0.148885 0.191302 -0.097179 -0.499957 -0.063127 0.169788 0.225728 -0.135848 0.187488 -0.401320 0.272363 0.383277
9785 0.063822 0.746105 0.188768 0.409906 -0.045293 0.146724 0.060819 0.157316 0.241634 0.782462 -0.297671 0.122428 0.125108 -0.314224 0.515945 0.124570 0.337812 -0.044985 0.042978 -0.117666 -0.272539 0.283346 -0.309303 0.239811 -0.120191 0.098396 0.128356 -0.059083 -0.066290 0.142815 -0.586707 0.173958 0.386564 -0.142230 -0.041073 -0.077345 0.345433 0.177166 0.037731 -0.151214 -0.010150 -0.211094 0.200756 0.571263 -0.305353 0.545590 0.205916 0.112174 -0.482240 -0.059018 0.318162 0.225579 0.190580 0.168128 -0.247775 -0.056592 0.497703 0.301908 0.184226 -0.205114 -0.218508 -0.133304 -0.022986 0.212115
15003 -0.079910 0.401254 0.098893 0.543798 -0.395027 0.322051 0.150072 0.337740 -0.107972 0.837743 -0.115139 -0.095319 -0.172661 -0.137508 0.354158 0.225409 0.136802 -0.175010 0.201714 0.118290 -0.337751 0.599064 -0.290175 0.046154 0.099695 -0.324831 0.161985 0.035823 0.109682 0.149684 -0.626919 0.216667 0.310876 -0.106816 -0.528974 -0.069632 0.447212 -0.041264 0.129342 -0.410938 0.110169 0.018047 0.212260 0.272290 -0.116613 0.343456 -0.183419 0.084041 -0.641233 -0.140478 0.201030 0.185820 0.298073 0.278850 -0.105515 -0.270344 0.065144 0.162827 0.167120 -0.392514 -0.204483 0.270351 0.019541 0.212177
7956 0.194243 0.598657 0.185895 0.466402 -0.320191 0.383256 -0.161175 0.223619 -0.098595 0.866910 -0.198023 -0.156049 0.176200 -0.513315 0.254678 0.137363 0.262992 -0.306555 0.293838 -0.057995 -0.188057 0.233685 -0.177388 0.011775 0.087881 -0.255432 0.093667 0.313129 0.211262 -0.002625 -0.600766 0.274055 0.114526 0.071538 0.048707 0.025106 0.652970 0.206649 0.231890 -0.421541 0.061436 -0.212293 0.308304 0.262300 -0.236827 0.170238 0.004053 -0.025974 -0.604632 0.150798 0.360614 0.428924 -0.271161 0.309958 0.011521 -0.074775 0.115877 0.168902 0.105254 -0.238049 0.133703 -0.094495 0.250303 0.172022
13801 -0.200365 0.164816 -0.098120 -0.227831 -0.187366 -0.311699 -0.192797 0.384492 -0.293583 0.650767 -0.129307 0.005887 0.395499 -0.584143 -0.024251 -0.724193 -0.405104 -0.190985 -0.259770 0.770312 0.527973 0.029981 -0.465993 0.394768 -0.253928 0.004107 -0.251857 -0.224785 -0.022312 0.208171 -0.299472 0.180693 0.226673 -0.285536 -0.194332 0.040933 0.102285 -0.436373 0.161672 0.607528 -0.212008 -0.137322 0.047399 -0.123157 0.153170 0.017289 0.104338 -0.139383 0.225294 0.520583 0.196960 -0.226969 0.202693 0.193057 -0.505998 -0.101275 -0.075416 -0.012506 0.108614 0.351423 0.069742 0.051423 -0.065467 0.571903
12781 -0.162635 0.626437 0.166512 0.578722 0.038037 0.146898 -0.378149 0.172806 -0.111436 0.822080 -0.303678 -0.062620 0.218880 -0.393619 0.223514 0.137397 0.183955 0.145717 -0.083765 -0.090761 -0.089827 0.424837 -0.206843 0.359294 0.356874 -0.367993 0.054201 0.136239 0.176721 -0.181880 -0.525310 0.110215 0.298926 -0.085804 -0.160486 -0.093523 0.253150 0.107269 0.117248 -0.241417 0.088600 -0.316207 0.193904 0.236901 -0.119346 0.273522 -0.088572 0.473000 -0.422111 0.044099 0.224429 0.275747 -0.074259 0.326166 -0.284995 -0.197477 0.222781 0.288510 0.467192 -0.219567 0.140901 -0.114594 0.214130 0.288321
15244 0.018484 -0.336722 -0.680433 0.340698 -0.259628 0.503189 -0.067098 0.220389 -0.204213 0.144882 0.086277 0.018877 0.084630 -0.209220 -0.013525 -0.502626 0.033664 -0.008118 0.180242 0.563324 0.449152 -0.024061 -0.010433 0.234361 0.598686 0.056495 0.247470 0.181017 0.589197 -0.010012 -0.288142 0.178415 0.536122 0.363135 0.202904 -0.538417 0.339034 0.243740 0.261947 -0.627679 0.194996 0.246802 0.038641 -0.611870 -0.632176 -0.541009 -0.185523 -0.077801 0.126105 -0.112716 -0.140506 0.403237 0.244364 0.222830 -0.265553 -0.141651 0.375004 0.258441 -0.214546 -0.314426 -0.005987 0.147502 0.228443 0.310121
4164 -0.230355 0.560990 0.154212 0.444337 -0.116963 0.000109 0.278240 0.230951 0.080383 0.940859 -0.102339 0.097950 0.134150 -0.112630 0.310241 -0.025997 0.165433 -0.437244 0.165268 -0.150705 -0.307018 0.256028 -0.435214 -0.136668 0.454564 -0.103030 -0.094350 0.222527 -0.037656 -0.100006 -0.490648 0.095996 0.229175 -0.106201 -0.622519 -0.051152 0.424762 0.468322 0.166029 -0.121667 -0.173611 -0.232138 -0.052282 0.378633 -0.436845 0.442809 -0.234396 0.373150 -0.472539 -0.006639 0.233427 0.200806 0.100669 -0.094685 -0.032618 -0.360657 -0.205806 0.158427 0.213790 -0.058042 -0.019023 -0.240464 0.396761 -0.040977
13929 0.119229 -0.190366 -0.689960 -0.180843 -0.203736 -0.175126 0.063894 -0.262494 0.171936 0.443655 0.388821 0.293034 -0.128382 -0.539629 0.030202 -0.296557 0.178393 0.031002 0.022297 0.051160 0.341410 0.283098 -0.037440 0.309449 -0.296355 -0.288925 -0.048427 -0.037011 0.532793 0.055741 -0.378973 -0.206799 0.414709 -0.609087 0.486106 -0.156881 0.430556 -0.171369 0.467845 0.268862 -0.286843 -0.015194 0.074043 0.112234 0.275913 0.393706 0.416261 -0.108686 0.227424 0.092181 0.173519 -0.193962 -0.211869 -0.408538 0.661020 0.220289 0.459244 -0.266343 0.485035 -0.172977 0.189655 -0.000097 0.210855 0.598919
14265 0.018855 -0.219332 -0.121791 -0.278608 -0.205998 0.178602 -0.448598 -0.126739 0.275333 0.252732 -0.130004 0.170065 0.184783 -0.070541 0.516000 -0.130200 0.687312 -0.336716 0.005888 0.100065 0.439497 0.129529 -0.486880 0.668076 0.418963 -0.085281 0.598646 0.196714 -0.145635 -0.681895 -0.292581 -0.670645 0.376010 0.224528 0.142860 0.002636 -0.276931 0.186110 -0.289494 0.120996 -0.154629 -0.049079 -0.749027 0.665191 -0.374351 0.252394 -0.545345 -0.103520 -0.622137 0.163020 0.308891 -0.140020 0.178724 -0.109734 -0.076555 -0.246786 0.209923 -0.039173 -0.116880 -0.395324 -0.309218 -0.368842 0.188919 -0.155541
6512 0.140878 -0.034400 -0.106913 -0.114385 -0.728152 0.064091 -0.302483 0.050740 -0.266896 0.520976 0.292574 0.335832 0.203551 -0.095549 -0.050552 -0.441710 -0.307619 0.030116 0.328005 0.413955 -0.141726 -0.124662 -0.197836 0.450568 0.300592 -0.053054 0.278161 0.406843 0.633732 -0.294431 -0.627055 0.337201 0.269589 0.419073 0.307649 -0.697418 0.386992 -0.046565 -0.016652 -0.529355 -0.121132 0.164400 -0.071650 -0.525737 -0.465174 -0.509557 -0.483633 -0.022304 -0.021462 -0.101356 0.132007 0.316452 0.151384 -0.021390 0.030571 0.118553 0.139635 0.114987 -0.085874 -0.368540 -0.176281 -0.000445 -0.057165 0.102100
23293 -0.143064 0.590549 0.261806 0.255786 0.180630 0.157882 0.120820 0.084141 -0.340597 0.715493 0.117558 -0.198107 -0.128256 0.103220 0.492366 0.156453 0.317644 -0.423563 0.273073 -0.206436 -0.002828 0.660217 -0.283018 -0.005909 0.207075 0.016520 -0.065233 0.083301 0.168249 -0.161658 -0.347953 0.497041 0.329449 -0.139501 -0.202614 -0.220572 0.544933 -0.237388 0.366429 -0.241872 0.069602 -0.211969 0.122174 0.099802 -0.213045 0.268193 -0.021782 0.125275 -0.561006 0.010343 0.350363 0.276068 0.111019 0.198263 -0.216325 -0.291472 0.123975 0.245317 0.467217 -0.255224 0.006206 -0.233004 0.217134 0.433109
14807 -0.378898 0.720528 -0.020010 0.264074 -0.116120 0.168532 0.023773 0.341080 -0.264707 1.019175 -0.020814 0.139964 0.017404 -0.357500 0.476658 0.262817 0.046712 0.089648 0.206955 -0.056479 -0.087336 0.416837 -0.026553 0.145859 -0.084783 -0.204970 -0.055249 0.253604 0.024006 0.012535 -0.361734 0.432417 0.184389 -0.276829 -0.227269 0.070365 0.217825 0.120941 0.285474 -0.158769 -0.012915 -0.134442 0.407458 0.267956 -0.226204 0.512548 0.040332 0.128329 -0.370663 0.074133 0.489818 0.412187 0.156715 0.063445 0.193204 -0.056788 -0.119371 0.356817 -0.060156 -0.110423 0.074934 -0.466693 0.310099 0.232662
25758 -0.183260 0.790834 0.342573 0.109153 -0.151354 0.145988 -0.134671 0.147139 -0.346266 0.712395 -0.388668 -0.117284 0.052901 0.173112 0.498477 -0.022857 0.146500 -0.124255 0.089191 0.036084 0.196181 0.369665 0.058254 0.108568 -0.000814 -0.048704 0.199579 0.079403 0.114143 -0.152439 -0.713858 0.399799 0.307407 -0.528393 -0.374492 -0.141596 0.167492 0.133833 0.114324 -0.242648 0.044265 -0.291879 0.191748 0.551164 -0.195913 0.451297 -0.348715 0.239208 -0.538536 -0.137033 0.345145 0.011417 0.080674 0.091740 0.056542 -0.366511 0.142203 0.015158 0.114088 -0.322296 -0.090325 -0.028396 0.566457 0.053435
1488 -0.211631 -0.323631 -0.405056 -0.039178 -0.476063 -0.084302 -0.245312 0.107405 0.021440 0.139272 -0.114941 0.301273 0.324420 -0.603919 -0.428190 -0.632324 0.051872 0.212005 0.068488 0.229210 0.386662 0.391190 0.030932 0.445983 0.031543 -0.343593 0.091205 0.197271 0.077958 -0.425000 0.114440 0.200432 0.344399 0.324587 -0.128866 -0.541457 0.955678 -0.368257 0.063030 0.070488 -0.579966 0.459883 0.058427 -0.092969 0.029207 -0.004228 0.308446 0.042039 -0.116107 -0.138579 0.365832 0.449539 0.138928 -0.358520 -0.665022 0.114191 0.197492 -0.203014 0.009250 0.220317 -0.179856 -0.192612 0.455503 0.067912
2710 -0.454235 0.256072 0.066560 -0.324163 0.041934 0.311958 -0.066543 -0.473112 0.302605 0.366319 -0.144928 0.361185 -0.289836 0.246817 -0.361888 -1.044865 -0.056977 -0.413721 -0.981356 0.098342 0.106954 0.320793 0.135450 0.405098 -0.300728 0.433194 -0.286397 0.038497 0.173613 0.067115 -0.412843 0.348634 0.058802 -0.065582 -0.265905 -0.100392 0.498182 0.141542 0.395480 -0.368321 -0.199670 -0.131001 0.164807 -0.173381 0.038456 -0.502692 -0.351340 -0.073310 0.318950 -0.282572 0.055126 0.119189 0.222244 -0.429188 0.025208 0.106931 0.308723 0.311834 0.154185 0.176013 -0.559689 0.305718 0.479021 0.011748
24955 -0.189416 0.734614 -0.056155 0.329965 -0.229330 0.097666 -0.143644 0.312497 -0.090715 0.985098 -0.103581 0.199861 0.139690 -0.119015 0.416884 0.207536 0.034562 -0.283614 0.193250 -0.197432 0.027352 0.508441 0.072791 0.262540 0.195088 -0.089725 -0.108923 0.292353 0.147239 -0.175993 -0.539952 0.407210 0.259829 -0.355214 -0.210743 0.306782 0.563470 0.202284 0.193143 -0.282851 0.018300 0.011635 0.358102 0.317304 -0.165523 0.474023 0.003487 0.097538 -0.343450 0.159202 0.262937 0.200466 0.075904 -0.086056 0.166573 -0.286912 -0.147243 0.236510 0.207595 -0.172506 0.129237 -0.181780 0.173336 0.148047
25346 0.061188 0.527837 0.197629 0.417347 -0.154504 0.328419 0.017429 0.391694 -0.069703 0.947357 -0.363790 -0.141361 0.092185 -0.275721 0.488749 0.154942 0.339524 -0.145318 0.226512 -0.010652 -0.052987 0.388060 -0.360868 -0.000894 0.294491 -0.268080 -0.177161 0.051430 0.076917 0.062741 -0.479797 0.363200 0.158600 -0.335142 -0.272189 -0.083428 0.413998 -0.034163 0.107830 -0.471590 -0.046350 -0.277628 0.224047 0.432622 -0.185454 0.283703 0.273039 0.108355 -0.578911 -0.062128 0.226079 0.419972 -0.300703 0.198472 0.059005 -0.184305 0.216157 0.118514 0.105631 -0.181486 -0.047726 0.003459 0.160116 0.007607
18225 -0.032530 -0.278079 -0.523714 -0.073248 -0.545403 0.651230 -0.053080 0.162566 -0.505841 0.624063 0.165896 0.299448 0.202418 -0.164524 -0.017213 -0.429654 -0.190832 -0.005426 0.246437 0.518467 0.136545 -0.006381 -0.193416 0.321194 0.407412 0.297189 0.303812 0.492700 0.165031 -0.255171 -0.193445 0.108366 0.171530 0.141067 0.264447 -0.735129 0.511118 0.651520 -0.254797 -0.564686 0.096185 0.632530 0.308668 -0.152709 -0.232179 -0.543353 -0.186886 -0.104370 -0.168094 -0.048300 0.363351 0.068074 -0.179720 0.168526 0.054292 -0.001973 0.161410 0.057214 -0.303571 -0.284220 -0.340861 0.117686 -0.010087 0.069390
1653 -0.206166 0.498155 -0.023947 0.202882 -0.109128 0.272099 0.363000 0.100082 -0.078233 0.885705 -0.202777 -0.178414 -0.087031 -0.456483 0.543675 0.246497 0.070516 0.184697 0.349686 -0.387629 0.055400 0.492118 0.020781 0.142492 0.202212 -0.323924 0.071668 0.290213 0.322883 -0.028780 -0.492421 0.267399 0.053400 -0.381719 -0.204862 -0.235927 0.352288 0.183934 0.290657 -0.191964 -0.073397 -0.439832 0.118019 0.283769 -0.011989 0.413021 -0.108441 -0.027884 -0.477655 -0.141999 0.363716 0.273168 0.346047 -0.294673 -0.102281 -0.203807 0.027620 0.341163 0.322624 -0.240919 -0.019531 -0.160755 0.142159 0.019566
2654 -0.069876 0.140847 -0.091745 -0.254682 0.156701 0.511240 0.206655 -0.150243 0.366124 0.860187 -0.021608 -0.193620 -0.032505 -0.079716 -0.054318 0.323830 -0.476358 -0.469262 0.611083 0.016169 0.199177 -0.087060 -0.139124 0.045948 0.229464 0.011620 0.192617 -0.372132 0.268837 -0.017722 0.120265 0.040105 0.162835 -0.422213 0.621524 0.112433 -0.099545 -0.218613 -0.157731 -0.067086 -0.087742 0.197946 -0.476687 0.125342 0.407868 -0.026088 0.041606 0.408437 -0.339284 -0.112339 0.075574 -0.159890 0.572098 0.269247 -0.230565 -0.334521 0.277358 0.402069 -0.038216 -0.150780 -0.105290 -0.503565 0.765234 0.222416
11241 -0.328267 0.650672 0.364629 0.201295 -0.292403 0.131604 0.415474 0.375492 -0.171957 0.910251 -0.192018 -0.073037 0.010560 -0.146538 0.220622 0.156369 0.025816 0.042662 0.186109 0.161748 -0.052128 0.413426 -0.219981 0.267126 0.386684 -0.001704 0.049693 0.061231 0.252277 0.136054 -0.366123 0.347800 0.251771 -0.377485 -0.208826 0.120423 0.385853 -0.037634 0.371068 -0.161035 0.051524 -0.221671 0.245866 0.275968 -0.298732 0.457494 -0.038507 0.267752 -0.439937 -0.233971 0.356108 0.180379 -0.008243 -0.004826 -0.178231 -0.411701 0.340802 0.563683 0.258941 -0.023923 -0.081432 -0.123044 0.151301 0.281892
22887 -0.341525 0.354877 0.411582 0.509952 -0.196350 0.427887 0.152732 0.358026 0.032634 0.892616 -0.062445 0.115099 0.044776 0.151657 0.539170 0.096222 0.046693 -0.195254 -0.010483 0.006392 -0.468406 0.544409 -0.143824 0.480543 0.152699 0.105972 -0.100004 0.005213 0.407169 0.030388 -0.444388 0.452981 -0.101485 -0.139271 -0.345830 -0.267674 0.178416 -0.021620 0.119214 -0.221319 -0.028466 -0.518385 0.349449 0.463200 -0.081899 0.308517 0.117931 0.289905 -0.507176 0.152531 0.349635 0.214940 0.146990 0.020849 0.265050 -0.207221 0.352352 0.186729 0.359124 -0.224211 0.087213 -0.178257 0.252836 0.256148
773 -0.279168 0.757010 0.097613 0.443370 -0.237157 0.127190 0.064350 0.326071 -0.158930 0.949390 -0.147600 0.055320 0.110094 -0.212593 0.531556 0.067875 0.307131 -0.005509 0.285962 -0.010086 -0.004208 0.371072 -0.104246 0.012852 0.061486 -0.123615 -0.262478 0.079925 0.124618 0.100189 -0.446340 0.265707 0.194123 -0.254259 -0.317207 0.036272 0.238246 -0.099221 0.343668 -0.243660 -0.061787 -0.237638 0.253230 0.334775 -0.078630 0.403840 -0.013489 0.174173 -0.634070 0.033554 0.324154 0.504748 0.111647 -0.001309 -0.009344 -0.042053 -0.081321 0.267287 0.348253 -0.243677 0.323026 -0.371560 0.146720 0.043158
4952 0.464329 -0.088544 0.212305 -0.682719 0.001511 -0.340684 -0.628572 0.782044 -0.321066 0.636458 -0.230821 -0.134502 0.250033 -0.075311 0.011731 -0.300640 -0.246985 -0.477899 0.238574 0.288471 0.366590 -0.229779 -0.201737 -0.380556 0.401539 0.206673 -0.072317 0.042001 0.270964 -0.102312 -0.463857 0.304965 0.071708 -0.537739 0.086375 0.072461 -0.284533 0.019792 0.370648 0.094478 -0.392206 -0.459767 -0.197287 0.078108 -0.136503 0.355385 0.074485 0.239683 -0.040959 0.605159 0.161215 0.347219 0.209547 0.059048 -0.690198 -0.477028 0.444363 -0.108079 0.038836 0.024554 -0.034607 -0.265463 -0.166814 0.255638
45 -0.156671 0.668841 0.238646 0.138998 -0.145813 0.393490 -0.165284 0.540410 -0.005475 0.896476 -0.198404 -0.125567 0.206531 -0.234831 0.035227 0.163268 -0.067589 -0.191903 0.285765 -0.154448 -0.202660 0.307648 -0.160707 0.020570 0.108127 -0.224168 -0.071898 0.165260 0.216524 0.132659 -0.376095 0.233247 0.472912 -0.402896 -0.380707 0.052456 0.267863 0.221541 0.155212 -0.246972 -0.012222 -0.351484 0.170903 0.566769 -0.207386 0.632088 0.092762 -0.041157 -0.490620 -0.446341 0.412310 0.226862 0.220159 0.258590 -0.113877 -0.130767 0.132271 0.322186 0.152849 0.076145 -0.020085 -0.310309 0.267873 0.165591
9572 -0.045651 0.557567 -0.093709 0.071974 -0.015684 0.197761 -0.162684 -0.579389 -0.260735 0.259138 -0.360248 0.420004 -0.463578 0.619669 -0.115620 -0.297130 0.280519 -0.031794 -0.122405 0.337379 0.358600 0.388521 -0.152179 0.094233 -0.203819 -0.366674 -0.380839 0.160519 -0.078417 -0.169932 -0.349686 -0.594900 0.070551 -0.256304 0.103364 -0.467494 0.253739 0.113780 0.551571 -0.151705 -0.345571 0.083800 -0.260310 0.069163 0.223445 0.179142 0.104147 -0.152297 -0.525563 0.294480 -0.228497 -0.035904 0.172213 0.185139 0.029208 -0.606033 0.273551 -0.110048 -0.079898 0.119091 -0.134127 -0.598634 0.461441 0.355064
23038 -0.067344 0.255278 -0.592761 0.053590 -0.385449 0.042248 0.574366 -0.008875 0.177110 0.585488 0.142911 0.484744 -0.397729 -0.413742 -0.354857 -0.150837 0.238220 -0.375844 0.011090 -0.151718 -0.139712 -0.009114 -0.273879 -0.295073 -0.085091 0.083162 -0.257413 -0.417042 0.235289 -0.186225 -0.168741 0.252989 0.186928 -0.375624 0.523321 -0.488747 0.677171 0.221323 -0.100002 0.619615 -0.098749 0.027935 -0.641934 0.106736 0.287821 -0.486279 0.023890 -0.207488 -0.499459 0.358908 0.260655 -0.026469 -0.015587 -0.532264 0.010723 0.340665 0.153045 -0.039171 0.260314 -0.229095 0.053855 -0.191667 0.164829 0.260529
18866 0.094498 0.592842 0.073853 0.645446 0.216919 0.486709 -0.510260 -0.389376 -0.092166 0.711979 -0.200806 -0.047317 0.084520 -0.374157 -0.019174 -0.263953 0.260399 -0.101006 0.298840 -0.016421 -0.028844 -0.133620 -0.456012 -0.028418 0.220181 -0.427007 -0.434784 -0.139494 0.055927 0.416276 -0.287893 0.224389 0.457491 -0.103590 -0.464890 0.033805 -0.056409 -0.080447 0.006081 -0.317873 0.027211 -0.257384 0.331509 0.172846 0.063848 -0.003685 0.180830 0.033410 -0.757447 -0.180767 0.392008 0.079572 -0.047057 0.133027 0.001507 -0.036619 0.115140 0.383422 0.123664 -0.573372 0.048933 -0.426784 0.455211 -0.038545
3372 -0.471812 0.702250 0.170522 0.309087 0.039963 0.238560 -0.116787 0.271710 0.089900 0.895312 0.021881 -0.049501 0.106662 -0.198174 0.202261 0.238672 0.175842 0.156271 0.194856 0.209231 0.018212 0.255429 -0.120621 0.086787 -0.006492 -0.045791 -0.060187 0.343575 0.281899 -0.016786 -0.859101 0.232735 0.156263 -0.249926 -0.301357 0.026470 0.191818 -0.014825 0.196774 -0.098055 0.128319 -0.179004 0.269312 0.654772 -0.355018 0.428177 0.022377 0.329074 -0.508000 0.086044 0.472353 0.295420 -0.103175 -0.250318 0.032775 -0.055996 0.130890 0.323024 0.160208 -0.259754 0.275284 -0.012569 0.298963 0.007078
20576 0.270176 0.116337 -0.139357 -0.033582 -0.703405 0.387330 -0.240588 0.024523 -0.329894 0.579398 0.182822 0.050997 0.279337 -0.281147 0.246153 -0.516613 0.013391 0.322636 0.106911 0.538024 -0.108642 0.115417 -0.050216 0.356545 0.458348 0.181742 0.560627 0.578859 0.069095 0.019291 -0.237117 0.098042 0.565612 0.316130 0.165206 -0.574348 0.264909 0.348015 -0.022734 -0.727219 0.318808 0.213790 -0.145965 -0.464440 -0.116611 -0.440271 -0.428410 -0.094236 0.091364 -0.073998 0.233212 0.282789 0.124749 0.301731 0.016663 0.322852 0.097392 0.237858 -0.238074 -0.299777 0.306070 0.046145 0.117518 0.362312
7689 -0.207271 -0.021487 0.126366 -0.120764 -0.059286 0.028813 -0.257141 -0.047122 -0.306822 -0.096511 -0.179032 0.378835 -0.818217 0.202358 -0.438871 -0.862761 -0.114038 0.050819 0.085771 0.209559 0.350779 0.459122 0.035955 -0.100686 0.261672 -0.670764 0.117366 0.325529 0.262497 -0.253134 0.002136 -0.203130 0.253613 -0.195429 0.465910 -0.132298 -0.020547 -0.181862 0.297673 -0.263413 -0.218174 0.102770 -0.611180 0.256171 0.099870 0.244031 0.020948 -0.059635 -0.490378 0.469335 -0.052220 -0.234986 0.416403 -0.360623 0.592511 -0.322959 0.256905 0.108382 0.161342 0.034803 -0.029633 -0.355809 0.120517 0.423884
10350 0.373938 -0.163511 -0.214193 0.174620 -0.396192 0.485625 -0.284131 0.520617 -0.372043 0.373688 0.262383 0.032872 0.184483 -0.144995 0.247171 -0.563606 -0.001680 -0.478446 0.312694 0.402421 -0.204069 0.107640 -0.103868 0.109867 0.533918 0.000493 0.423991 0.699176 0.057612 0.116837 -0.383830 0.034704 0.221015 -0.062955 0.405658 -0.567606 0.587844 0.382235 0.069105 -0.808544 0.199000 0.330086 0.099729 -0.370516 -0.615493 -0.183403 -0.204262 -0.238483 -0.140318 -0.284530 0.098250 0.261362 -0.100601 -0.115926 -0.200903 0.043746 0.232137 0.104181 -0.044788 -0.381983 0.004603 -0.158077 0.222481 0.222541
3651 0.030222 -0.205793 -0.193050 0.229505 -0.231213 0.619737 -0.097253 0.517981 0.335200 0.240608 -0.111348 0.044005 0.079009 -0.083506 -0.221006 -0.433590 0.617987 -0.359429 -0.246569 0.118899 -0.489759 0.238466 0.278250 0.142443 0.041871 0.422290 0.169504 -0.308885 0.542864 -0.154971 -0.024267 0.100925 0.661183 0.039644 -0.191447 0.222494 0.391360 -0.617552 -0.175532 -0.060612 0.094198 -0.293042 0.152540 -0.191048 0.021897 -0.620753 0.179485 -0.422304 -0.139278 0.340815 -0.458117 0.019706 0.141370 -0.054689 0.830209 -0.625828 0.453729 0.117861 0.093106 -0.423121 -0.279546 -0.543771 -0.039680 0.022736
46 -0.147968 0.505057 0.362004 0.305410 -0.210389 0.240891 0.015050 0.333105 0.044152 0.966835 -0.142667 -0.047257 0.073653 -0.103119 0.302449 0.213395 0.328646 -0.270280 0.060826 -0.263607 -0.190543 0.439026 -0.110511 0.150420 0.119660 0.012245 -0.117735 0.083549 -0.029445 0.145570 -0.735737 0.150134 0.227304 -0.268233 -0.022915 0.026454 0.570918 -0.043442 0.277537 -0.184425 0.197790 -0.385654 0.621717 0.306980 -0.191435 0.367780 0.208011 0.037311 -0.531863 0.044103 0.341834 0.237983 0.161404 -0.100742 -0.270287 0.075141 0.210267 0.247913 0.317597 -0.087017 0.205777 -0.079394 0.312133 0.358704
6700 -0.055420 0.558756 -0.279939 -0.379109 0.524740 0.291921 0.071265 -0.362110 -0.082266 0.585770 -0.122913 -0.075959 -0.060676 -0.092082 0.142747 -0.174034 0.371686 -0.359929 0.791804 -0.180182 0.182564 0.386041 -0.076517 0.017060 0.108778 0.190824 0.271854 -0.575813 0.303494 -0.000513 0.130786 0.341780 0.569685 -0.012223 0.373861 0.181316 0.749237 -0.167080 -0.247255 -0.278626 -0.136348 -0.004864 -0.112547 -0.136730 0.452212 0.236537 -0.085737 -0.015158 -0.523179 -0.167725 -0.090779 -0.205150 0.346524 0.286323 -0.416764 -0.300490 0.039317 0.309283 0.464491 -0.221927 0.073087 -0.154062 0.359218 0.526874
20511 -0.227518 0.258164 -0.435106 -0.701498 0.076384 0.292165 -0.198794 0.244156 0.026111 1.093243 0.097598 -0.180937 -0.082640 -0.059091 -0.076927 0.257950 -0.234130 0.254899 0.473789 -0.110257 0.377655 -0.044215 -0.233234 0.124390 0.433472 -0.388640 0.132199 -0.066466 0.512904 0.613808 0.363926 -0.208770 0.328623 -0.210253 0.194395 -0.232031 -0.125437 -0.232746 -0.030805 0.067980 -0.066162 -0.300843 0.013682 -0.045466 -0.052154 -0.094021 0.147821 0.013546 -0.459355 -0.512128 0.024389 0.165832 0.635399 -0.102855 -0.266933 0.191421 -0.140203 0.197140 0.101005 0.305278 -0.323533 -0.438709 0.779550 -0.383941
570 -0.172906 0.674599 -0.091086 0.291281 -0.316692 0.035816 -0.078795 0.418550 -0.071504 0.828604 -0.159079 -0.383817 0.146341 -0.090551 0.323917 0.058349 0.160184 -0.110407 0.279268 -0.047217 -0.051632 0.539427 -0.097039 0.359751 -0.126790 -0.028108 0.047795 0.325879 0.262550 0.469300 -0.509289 0.417146 0.117864 -0.380151 -0.377998 -0.201248 0.181341 0.139545 0.055812 0.004077 -0.126652 -0.358277 0.271360 0.279620 -0.394956 0.416717 -0.053920 -0.042285 -0.477438 -0.080672 0.705188 0.281442 0.038585 -0.122600 -0.193331 -0.237104 0.116197 -0.040362 0.346081 -0.358982 0.254746 -0.201204 0.180038 0.339236
9017 -0.237151 -0.698067 0.243243 0.204141 0.035840 0.292469 -0.330355 0.341418 0.233096 0.506574 0.080582 0.159716 0.498087 -0.052246 0.253716 -0.600696 -0.350083 0.340483 0.060512 -0.011128 -0.158985 0.082649 0.043465 -0.565092 0.006496 0.172513 0.296793 0.401766 0.014144 0.461915 -0.285422 -0.280467 1.089448 -0.278661 -0.022621 0.221341 0.184656 0.114732 0.295485 0.223062 0.326357 -0.076153 0.414506 -0.277299 0.309604 0.271808 -0.171601 -0.206276 0.161015 0.335803 0.066102 -0.027714 0.078412 -0.475343 -0.083151 0.254730 0.138698 -0.175701 -0.220399 -0.486857 -0.050663 0.168959 0.926363 -0.031452
12496 -0.264079 0.753126 0.121924 0.290028 -0.251614 0.229923 0.088785 0.268539 -0.228163 0.859514 -0.504853 -0.249427 0.346020 -0.155114 0.094418 -0.042794 0.223559 -0.056244 0.295525 0.085379 -0.073176 0.194743 -0.163375 0.268264 0.017973 -0.044043 0.042843 0.110962 0.185172 -0.096581 -0.251450 0.327157 0.331443 -0.269616 -0.418216 0.030246 0.385159 0.028287 0.158279 -0.217434 0.089963 -0.208360 0.182258 0.460878 0.067332 0.344138 0.098009 0.120243 -0.710557 0.007522 0.510913 0.446754 -0.015395 0.012088 -0.175541 -0.158054 -0.002898 0.404377 0.011328 -0.286929 0.073727 0.016308 0.262954 0.222813
21847 -0.164186 0.702796 0.160419 0.352198 -0.002004 0.198318 0.122318 0.224815 -0.205327 0.773624 -0.242825 -0.073042 0.097260 -0.484095 0.494096 0.026562 0.120343 -0.059759 -0.030517 0.048349 -0.413171 0.392283 -0.025108 0.186298 0.184619 0.016394 -0.143842 -0.073870 0.411707 0.060559 -0.477128 0.227779 0.219639 -0.233194 -0.223671 -0.006571 0.312452 0.039174 0.306380 -0.380342 -0.023537 -0.288000 0.394258 0.354362 -0.463094 0.356183 0.013932 0.264546 -0.479011 0.068662 0.714180 0.319270 0.138421 -0.178975 -0.122860 -0.226883 0.088433 0.184521 0.369070 -0.352531 -0.078937 -0.210098 0.411852 0.149024
6179 -0.415671 0.619554 0.381736 0.398563 -0.034066 0.047050 0.023740 0.460906 -0.074321 0.821511 -0.218714 -0.072731 0.119364 -0.194631 0.381729 0.010606 0.132835 -0.159681 0.403260 -0.140226 -0.161007 0.481798 -0.155414 0.048364 0.144655 0.005175 -0.036893 0.291277 0.139129 -0.162808 -0.527579 0.162345 0.132243 -0.226734 -0.551051 -0.246698 0.642384 -0.430651 0.223328 -0.258819 0.004215 -0.453495 0.074959 0.324491 -0.263259 0.308557 0.145357 0.344645 -0.534102 -0.011672 0.157346 0.259695 0.396473 0.075061 -0.058003 -0.012030 0.126631 0.374926 0.170752 -0.136850 0.009042 -0.219215 0.108468 0.203690
24718 0.281048 -0.060812 -0.724671 -0.163161 -0.493818 0.593199 -0.215562 0.472450 -0.503636 0.392780 0.189717 0.062749 0.024615 0.008826 0.047917 -0.413084 0.070088 -0.006008 0.605280 0.514063 0.222648 -0.054521 -0.522865 0.173665 0.155218 0.271411 0.505366 0.514218 0.243901 0.062198 -0.470628 -0.027040 0.340787 0.077508 0.162837 -0.583092 0.380627 0.387140 -0.268746 -0.332482 0.068504 0.204931 -0.166940 -0.485649 -0.071473 -0.402737 -0.188401 0.058811 0.438127 -0.120498 -0.207552 0.052023 0.105409 0.190146 -0.215706 0.210551 0.070149 0.731473 -0.301776 -0.264201 0.037431 0.033217 0.233304 0.064979
20635 -0.463918 0.802665 0.135827 0.428796 -0.238962 0.238998 0.104383 0.377024 -0.149547 0.952952 -0.111170 -0.060156 -0.071175 -0.171521 0.418174 0.023513 0.067753 -0.178374 0.139056 -0.192853 0.057545 0.273915 0.055180 0.153353 0.117891 -0.030706 -0.049062 0.103960 0.178261 0.069932 -0.426883 0.466871 0.323050 -0.275523 -0.087794 -0.124186 0.537460 0.103587 0.224204 -0.108699 -0.069373 -0.220038 -0.044158 0.525948 -0.175896 0.306680 0.105755 0.375543 -0.390931 0.110111 0.463173 0.130961 -0.098321 0.010827 -0.055917 -0.059905 0.109898 0.217907 0.423326 -0.292228 -0.013009 -0.118691 0.049455 0.256008
8879 -0.301657 0.491296 0.119978 0.349066 -0.102453 0.246536 0.140180 0.404411 -0.140317 0.797213 -0.256080 -0.112056 0.249454 -0.000515 0.517135 0.087817 0.052823 -0.282221 -0.009452 -0.417338 -0.157872 0.510698 -0.244938 0.052113 -0.004104 -0.137687 -0.067158 0.185013 0.387138 0.084922 -0.467179 0.285672 0.185433 -0.125908 -0.574586 0.071628 0.519507 0.155984 0.476785 -0.313897 -0.109912 -0.201980 0.222497 0.304403 -0.302496 0.247832 0.148414 0.126829 -0.212841 0.086145 0.285432 0.480184 0.189293 -0.196428 0.089534 -0.279877 0.129001 0.539877 0.282143 -0.109889 0.106070 0.016850 0.385292 0.392776
4511 -0.159048 0.836417 0.388676 0.338163 -0.059987 0.246409 0.246044 0.484577 -0.123766 0.889670 -0.323825 0.061553 0.189920 -0.108691 0.307851 0.218442 0.072719 0.041701 0.096580 -0.095062 0.030511 0.536717 -0.428235 0.089054 0.113480 -0.052124 -0.214671 0.418511 0.257005 -0.174199 -0.428669 0.300901 0.397117 -0.297999 -0.213703 0.045125 0.454904 0.050537 0.285911 -0.047930 0.079408 -0.221529 0.268625 0.146164 -0.223791 0.376070 -0.243974 0.369618 -0.673392 0.017149 0.373809 0.107032 -0.124433 0.048346 0.061675 -0.189031 0.265214 0.053706 0.421995 -0.203753 -0.184582 -0.139621 0.007432 0.053758
12507 0.271675 -0.190407 -0.451790 -0.019285 -0.460204 0.659555 -0.147317 0.594032 -0.613471 0.639381 0.270207 -0.068184 0.175985 -0.216814 -0.135472 -0.487782 0.008638 -0.052956 0.347403 0.729830 -0.027674 0.111700 -0.132358 0.487432 0.219223 0.286851 0.529101 0.497458 -0.069055 -0.134297 -0.287523 -0.012579 0.260635 0.347197 0.020469 -0.443724 0.490457 0.120396 0.188256 -0.430640 -0.069087 0.396667 -0.093512 -0.519161 -0.396256 -0.163925 -0.650181 -0.237241 0.252913 -0.329642 -0.151234 0.099830 0.190877 -0.052001 -0.266709 0.258591 -0.029266 0.063978 -0.350378 -0.330228 0.083606 -0.160027 0.234203 0.274364
10762 -0.554223 0.308681 -0.159954 0.139229 0.031756 -0.154032 -0.267804 0.109660 -0.116092 0.634496 0.268346 0.249220 -0.128691 0.375895 -0.107525 -0.673885 0.206133 -0.227803 -0.170105 0.465667 -0.325615 -0.023070 0.468166 0.014558 -0.205545 0.165501 -0.175654 0.017948 -0.051444 0.120611 -0.429907 -0.355450 -0.098708 0.115960 0.896648 -0.490805 0.163248 -0.351458 0.190752 0.053895 -0.174413 -0.003251 -0.211147 0.403633 0.600240 -0.223504 -0.370555 0.428748 -0.208183 0.084495 -0.246628 0.180809 0.385473 0.264319 0.155224 -0.374745 -0.444063 -0.242032 0.218739 -0.301308 -0.561734 0.037850 0.569436 0.197550
6264 -0.150178 -0.002681 -0.166244 -0.131419 -0.307273 0.733528 0.046097 -0.396444 0.246415 0.427480 0.050903 -0.336422 -0.210023 -0.386756 -0.423775 -0.245167 -0.148620 -0.583632 -0.147325 -0.383601 0.237741 0.197983 0.077894 -0.054593 0.051331 0.074681 0.022532 0.124604 0.016926 -0.274758 0.340788 -0.007992 0.818024 -0.157113 0.261483 -0.269007 0.008275 0.177000 -0.310536 0.576974 -0.183982 0.058281 0.464349 -0.000327 0.004441 0.654530 -0.282119 0.318921 0.446154 0.152271 -0.466671 0.886039 0.550842 0.010400 -0.149269 -0.163376 -0.040997 -0.386707 -0.380335 -0.477957 0.170250 -0.182258 0.013587 0.405793
6340 0.294067 0.047867 -0.171025 -0.025972 -0.491538 0.357465 -0.003334 -0.068512 -0.468949 0.548183 0.076984 0.311168 0.345197 -0.123249 0.179633 -0.598674 -0.060151 -0.140537 0.158755 0.699050 0.035654 -0.037122 -0.372791 0.107057 0.291766 0.403918 0.450832 0.800222 0.429168 -0.062516 -0.441477 0.034644 0.546305 0.245719 0.285401 -0.172618 0.119329 0.090928 0.036832 -0.825732 -0.221002 0.396557 -0.067887 -0.213497 -0.532385 -0.428279 -0.312927 -0.210777 -0.046754 -0.250199 -0.185976 0.061634 0.011104 0.222131 -0.492753 0.166694 0.294654 0.198454 -0.252159 -0.381300 -0.062411 -0.101184 0.106722 0.266415
5901 -0.446049 0.296523 0.018735 -0.276763 -0.370155 -0.317265 -0.188047 0.239519 -0.440211 0.916725 -0.269032 0.023897 0.503384 -0.320194 0.241346 -0.534281 0.007931 -0.202149 0.052970 0.521345 0.556078 0.031267 -0.343303 0.076508 0.031168 -0.031173 -0.730104 -0.352462 0.358972 -0.180868 -0.407265 0.372531 -0.270683 -0.238208 0.141736 0.145801 -0.179016 -0.653990 -0.118304 0.411398 -0.026081 -0.050121 -0.110914 0.120845 -0.171553 0.137485 -0.403118 -0.278662 0.225891 0.202127 0.014940 0.345156 -0.197731 0.451266 -0.092930 0.113045 0.237942 -0.004629 -0.085257 0.150629 0.372639 -0.348418 0.117765 0.273329
24924 0.204210 -0.026126 0.034820 0.266646 0.035001 -0.115176 -0.178782 -0.067681 0.055833 0.826513 -0.287499 -0.263134 0.189445 0.078897 -0.656509 -0.454714 0.382476 -0.072216 0.342450 0.340310 -0.238733 0.934729 0.388084 0.132135 0.187005 0.723217 0.526505 -0.273021 0.245309 0.567476 0.411527 0.022871 0.243429 -0.264364 -0.006989 0.453605 0.314840 -0.084844 -0.077453 -0.038781 -0.211691 0.174440 -0.169944 0.294133 0.332772 0.298952 -0.071027 -0.323063 -0.683220 0.200778 -0.101470 -0.114403 0.088245 0.216899 0.345872 -0.617903 0.061256 0.259315 -0.433758 -0.122629 -0.227340 -0.109639 0.062361 0.088927
14599 -0.354737 0.049795 -0.388481 -0.375378 -0.018504 -0.126645 -0.176753 -0.380533 0.047211 0.561534 0.098972 -0.047343 -0.269151 -0.196959 -0.194680 -0.598131 -0.162972 -0.259527 -0.619770 -0.129942 0.122271 0.305580 -0.197759 -0.051812 0.357552 -0.145235 -0.030043 0.026821 -0.124935 -0.159980 0.160201 0.104113 0.711770 -0.367895 0.175478 0.176473 0.226660 0.222586 0.196202 0.095069 -0.359210 -0.521426 0.383726 0.089019 0.299961 -0.278301 -0.396851 0.670859 0.185468 0.077770 -0.664959 0.502459 0.805009 0.113638 0.105658 0.441678 -0.471989 0.012121 -0.054092 -0.101615 -0.076969 0.175836 0.178388 -0.094184
17692 -0.341360 0.812403 0.158461 0.248868 -0.098649 0.130444 0.260312 0.557919 -0.231812 0.967925 -0.128655 0.116798 0.018301 -0.156647 0.155012 0.147933 0.090735 -0.124804 0.240948 -0.177107 -0.122465 0.509393 -0.246164 0.114967 0.125330 -0.222223 -0.018169 0.334265 0.117956 0.015138 -0.285888 0.430073 0.312426 -0.252852 -0.302557 0.053012 0.342661 0.166685 0.154147 -0.246835 0.084134 -0.162862 0.276184 0.417088 -0.216301 0.228094 -0.054610 0.131678 -0.635236 0.166716 0.315545 0.177996 0.140942 0.067748 -0.023211 0.127042 0.288344 0.308981 0.584438 -0.292412 0.071711 -0.116772 0.427805 0.233501
5052 -0.221361 -0.222827 -0.177618 -0.515179 -0.074169 0.263072 -0.084433 -0.084486 0.211897 0.367378 -0.123123 0.199912 0.035815 -0.116253 -0.200312 -0.151718 0.353808 0.275576 0.379704 0.244935 -0.503086 0.603511 -0.291303 0.533011 0.451086 0.296439 0.512033 0.175497 0.291067 0.379381 -0.122455 -0.380040 -0.100884 -0.486658 -0.054656 -0.235815 -0.017363 0.101565 -0.318588 -0.166241 0.219904 -0.673019 -0.335305 -0.525940 0.160663 0.064927 -0.268153 -0.184271 -0.155495 -0.530474 0.288556 0.625490 0.304598 -0.064558 -0.001477 0.096334 -0.166093 0.054388 0.232629 0.381047 0.149805 -0.058866 0.888367 0.317708
2338 0.006032 -0.321478 -0.325334 -0.095171 -0.285928 0.533376 -0.252173 0.194790 -0.344946 0.516706 0.119270 0.307260 0.312716 0.206813 -0.129287 -0.529173 -0.005567 -0.001341 0.382903 0.540418 -0.082514 0.094716 -0.480377 0.044250 0.382939 0.142777 0.412692 0.550416 0.489734 -0.096625 -0.249174 -0.012603 0.226779 0.021332 0.348920 -0.506642 0.291975 0.304332 0.055150 -0.948110 -0.065433 0.311886 -0.398505 -0.605098 -0.380551 -0.271070 -0.246188 0.052416 0.215002 -0.404876 0.033183 0.218988 0.276473 0.188880 -0.252757 0.220750 0.065950 0.020564 -0.320736 -0.219402 0.134664 -0.173541 -0.229839 0.600522
14540 -0.376443 0.637649 0.022736 0.505856 0.100325 -0.010114 -0.211594 0.347333 -0.286927 0.946384 -0.312100 -0.085989 -0.008852 -0.181956 0.332462 0.351824 0.189818 -0.128262 0.237286 0.089806 -0.154509 0.436668 -0.206269 0.136920 0.222442 -0.029841 0.000638 0.090857 0.165951 -0.003169 -0.466866 -0.036784 0.018967 -0.132067 -0.272925 -0.028648 0.448151 0.165496 0.364823 -0.172176 0.086927 -0.089343 0.211256 0.455926 -0.466480 0.478146 0.067005 0.169822 -0.718394 0.101371 0.462861 0.200148 0.215989 -0.107343 -0.043519 -0.342898 0.185819 0.119469 0.074242 -0.406017 -0.130872 -0.262383 0.229829 0.248464
23382 0.146515 0.232358 -0.753709 -0.197720 0.368904 -0.174363 -0.188457 -0.082457 0.432286 0.711357 -0.509700 0.072893 -0.431560 -0.275929 0.206326 -0.187572 -0.192502 -0.532068 0.644663 0.092498 0.079819 -0.003327 -0.311850 -0.303964 -0.112005 -0.247670 0.413437 -0.168050 -0.199917 -0.107380 0.016202 0.526835 0.166772 -0.521172 0.269528 -0.102331 0.207760 -0.112793 -0.605442 -0.112597 0.225730 0.247932 -0.322040 -0.018295 0.121960 -0.116388 0.036286 -0.209983 -0.294257 0.229118 -0.308360 -0.165972 0.647265 -0.184280 -0.386883 0.021166 0.207971 0.139487 0.623829 -0.291331 0.063708 0.033805 0.517968 0.346242
14766 0.243457 -0.017758 -0.704414 0.053531 -0.279366 0.383266 -0.018127 0.015842 -0.211857 0.458555 0.197582 0.128132 0.237935 -0.270038 0.125528 -0.662421 -0.014968 -0.089657 0.018192 0.435217 0.040077 0.035951 -0.417690 0.385078 0.373416 0.303337 0.598323 0.521396 0.462694 0.038730 -0.555740 -0.007398 0.352208 0.397532 0.342916 -0.795200 0.377596 0.132909 0.047770 -0.788197 -0.191329 0.076323 0.098541 -0.582548 -0.105009 -0.220930 -0.309929 -0.158960 -0.035156 -0.135618 -0.207118 -0.053957 0.171690 0.184795 -0.398535 -0.073654 -0.066228 0.111788 -0.117170 -0.313816 0.119215 0.096990 -0.013429 0.326183
4755 -0.023488 -0.109059 -0.496274 -0.191534 -0.418541 0.483358 -0.488561 0.223554 -0.551882 0.532791 0.109102 0.108107 0.280180 -0.232985 0.183410 -0.176900 0.021637 -0.259025 0.089926 0.332303 0.222417 0.283772 -0.390497 0.060674 0.421865 0.236710 0.170008 0.459267 0.418581 -0.208169 -0.388401 -0.205932 0.475457 0.200248 0.300004 -0.447530 0.322864 0.082285 0.020782 -0.659223 -0.070915 0.459410 0.104927 -0.844500 -0.498187 -0.378082 -0.367129 -0.348863 0.113991 -0.255519 0.003139 0.264802 -0.195171 0.195878 -0.232505 0.199600 0.124111 0.265897 -0.225684 -0.502574 0.081693 -0.018692 -0.031693 0.339957
2212 -0.116174 0.578808 0.151095 0.540145 -0.097853 0.403314 0.012258 0.423590 -0.202650 1.069749 -0.170565 -0.100328 0.235601 -0.094077 0.394313 0.244324 0.213500 -0.140618 0.256268 -0.054213 0.155977 0.325000 0.004919 0.325416 0.109769 -0.085278 0.047860 0.211543 0.085190 0.034054 -0.597598 0.333378 0.254629 -0.191871 -0.340718 -0.079405 0.298515 0.090282 0.200875 -0.163557 0.070255 -0.502668 0.186269 0.239092 -0.180682 0.437804 0.078891 0.244858 -0.390644 -0.104893 0.315832 0.554217 -0.022357 -0.024936 -0.097838 -0.214934 0.099505 0.008876 0.307358 -0.264311 -0.027991 -0.064888 0.301056 0.256249
18487 -0.028375 0.101037 -0.337245 -0.503042 0.355166 0.051553 0.183663 -0.139014 0.094623 0.532893 -0.288138 0.420403 -0.241245 -0.167910 0.053742 -0.210434 0.003588 -0.575313 0.748472 -0.151861 0.352605 -0.344495 -0.056283 0.088330 0.290634 -0.038752 0.240188 -0.206638 0.091202 0.067611 -0.393483 0.410626 0.479415 -0.511287 0.425705 -0.089135 0.057391 0.029337 -0.134500 -0.223604 0.268244 0.022271 -0.148246 0.252921 0.757036 0.378258 0.182479 0.588436 -0.207331 0.231115 -0.515284 -0.176872 0.111715 0.125306 -0.227307 -0.384648 0.097069 0.296556 0.607809 -0.160839 -0.056101 -0.287905 0.405040 0.573961
13142 -0.132897 -0.154235 0.237279 -0.240935 -0.394906 0.019770 0.143045 -0.430660 -0.357996 0.527415 0.139055 -0.288605 0.202339 -0.511412 -0.240553 -0.594010 -0.113193 0.463968 -0.157401 0.143480 0.230138 -0.139661 -0.258273 0.120602 -0.252487 0.237861 -0.183431 -0.132383 -0.048657 -0.557467 -0.485849 0.292667 0.162699 -0.709495 0.392390 0.160135 0.166956 0.389587 0.018483 0.726767 -0.272499 -0.157453 -0.103187 -0.055173 0.223790 -0.024773 0.238061 -0.098415 0.353715 0.294962 -0.265934 0.498453 0.446336 0.324091 -0.069565 -0.120607 0.003472 0.813051 -0.075355 0.146463 0.078644 -0.346789 0.787903 -0.068521
20478 -0.045118 0.383909 -0.349246 0.040191 -0.248291 -0.245830 0.371245 -0.047921 -0.065696 0.560924 -0.140378 0.287796 -0.739488 -0.624897 -0.108425 -0.286295 0.205654 -0.306096 0.188627 -0.018947 0.232883 -0.156121 -0.239723 0.110431 -0.101900 -0.135858 -0.011735 -0.424832 0.086569 -0.055580 -0.160449 0.154715 0.336952 -0.349775 0.683179 -0.459491 0.393214 -0.021054 0.079158 0.572436 -0.105784 -0.194596 -0.354998 0.129972 0.255172 -0.182008 0.097003 -0.157284 -0.264642 0.518785 0.033509 -0.152444 0.217040 -0.499277 -0.437061 0.073735 -0.007608 0.237375 0.522808 -0.150853 0.181299 0.064463 0.244490 0.344312
7650 -0.304476 -0.154049 -0.670324 -0.315670 0.128976 -0.017942 -0.374067 0.184636 0.167680 0.622655 -0.043560 0.158117 -0.259159 0.044233 0.582948 -0.513160 0.474318 -0.177631 0.238971 0.163262 0.154713 0.387622 0.166744 -0.126186 0.062073 0.088335 0.150901 0.461919 0.303446 0.213571 -0.162377 0.217233 0.347524 -0.718873 0.019651 -0.602767 0.311213 0.165893 0.057938 0.471910 0.269162 0.275941 -0.212154 -0.538645 -0.625819 0.150525 0.104342 0.695148 -0.078940 0.344497 -0.452743 0.019444 0.057529 0.171090 0.211912 0.342938 0.420838 0.620706 -0.354486 -0.291698 0.292640 0.192883 -0.443274 -0.280273
19961 -0.167972 0.504173 0.267607 0.345692 0.058713 0.284984 0.236317 0.671244 -0.152305 0.730291 -0.118460 -0.007822 0.062577 -0.402475 0.429549 0.249758 0.200956 -0.042379 0.157260 -0.044402 -0.049299 0.365543 -0.104332 -0.007372 -0.011737 -0.078725 -0.105093 0.135247 0.308872 0.102260 -0.631122 0.333678 0.335140 -0.478927 -0.472390 0.092516 0.323826 0.153855 0.429790 -0.364791 0.185336 -0.137573 0.186952 0.504358 -0.140528 0.035577 0.010046 0.387978 -0.688632 0.081685 0.391694 0.397834 0.146671 -0.020885 -0.161668 -0.275718 0.203420 0.258830 0.149177 -0.179791 0.037661 0.081611 0.089576 0.300552
4834 -0.396817 0.199184 -0.378340 -0.138544 0.538498 -0.037329 -0.335366 0.183935 -0.071827 0.486590 -0.112693 0.083802 -0.026863 -0.096945 0.125984 -0.631665 0.543982 -0.117137 -0.158452 0.635043 0.153510 0.404691 0.089285 -0.385581 0.006025 0.229648 0.159665 0.028095 0.322956 0.150870 -0.186512 0.458103 0.341490 -0.581611 0.028691 -0.496890 0.229949 0.175736 -0.366863 0.457642 0.103770 0.297418 -0.259099 -0.164966 -0.546163 0.192480 0.112240 0.919432 0.093098 0.053153 -0.198990 0.179459 0.312903 0.090538 0.543262 0.291177 0.405935 0.277527 0.405643 -0.142502 0.493533 0.306763 0.043756 -0.273900
88 0.182122 -0.022702 -0.442729 0.037534 -0.648084 0.549242 -0.100673 -0.043128 -0.516627 0.433562 0.487435 0.124135 0.410494 -0.201856 0.210037 -0.623333 -0.019381 0.008503 -0.034431 0.713747 -0.117289 0.009219 -0.494831 0.301315 0.078443 0.020951 0.363293 0.396404 0.156363 0.191615 -0.346242 0.155751 0.487160 0.107993 0.484619 -0.560072 0.135415 0.276795 -0.025592 -0.814897 -0.171740 0.333520 0.020567 -0.501572 -0.378784 -0.330731 -0.316897 0.036281 0.151302 -0.207886 -0.028237 0.283564 0.004198 0.134499 -0.252571 0.027135 0.115941 0.144351 0.120031 -0.405740 0.045125 0.054060 0.129080 0.102511
339 -0.003217 -0.006045 -0.009858 -0.445965 0.184734 0.532703 0.064342 -0.021472 -0.061087 0.718816 0.076519 -0.104532 -0.252668 -0.239848 -0.202634 0.195437 0.042520 -0.204380 0.793365 -0.165735 0.369385 0.276058 0.079042 0.405720 0.559522 0.075363 0.109618 -0.260062 0.644773 0.174847 0.029958 0.191755 0.198020 -0.663036 0.565695 0.114579 0.098598 -0.446531 -0.150218 -0.047431 0.051315 -0.112960 -0.490001 0.191234 0.009118 -0.279605 -0.255004 0.152245 -0.233920 -0.329711 -0.180552 -0.309447 0.483802 -0.001055 -0.166442 -0.524028 -0.132577 0.266243 -0.377212 -0.122282 -0.174240 -0.114577 0.613371 -0.331811
20716 -0.113681 0.226353 0.053868 0.079774 -0.187129 0.323348 -0.032666 0.307315 0.122651 0.715495 -0.482728 -0.266828 0.696339 -0.226326 0.214808 -0.439426 0.390843 -0.238562 0.034116 0.316387 -0.166693 -0.101076 0.050880 0.340147 0.138841 -0.173414 -0.123033 -0.330219 0.757608 -0.119812 0.280684 -0.105561 0.292512 -0.381476 0.091371 -0.041961 0.393614 -1.047324 0.225795 -0.088791 -0.068005 -0.378175 0.148973 0.216554 0.141604 -0.001672 0.092492 -0.244367 -0.075280 0.137719 -0.303179 0.116467 -0.328452 0.176773 0.536505 -0.340779 0.339238 -0.010950 -0.113734 -0.102859 0.347233 -0.580410 0.030993 0.030053
17824 -0.028502 0.047003 -0.483925 -0.486980 0.424435 0.189775 -0.280095 0.278817 0.193446 0.547307 -0.367914 0.156941 -0.229896 -0.248446 0.164788 -0.873197 0.685462 -0.242013 -0.017757 0.240690 0.050938 0.307250 0.124127 -0.321716 -0.212412 0.029095 0.132412 0.283461 0.089228 0.410934 0.081265 0.539504 0.098646 -0.105360 -0.226545 -0.636245 0.345053 0.297691 -0.514691 0.367537 0.010582 0.231621 -0.566615 -0.448358 -0.600442 0.122828 0.296031 0.604536 0.038890 0.496420 -0.103959 0.275715 -0.089661 0.307366 0.306104 -0.127148 0.338857 0.473605 0.168084 -0.444512 0.404043 -0.111759 -0.278183 -0.110424
1995 0.276289 -0.136015 -0.342660 0.013279 -0.535501 0.173805 -0.232369 -0.027640 -0.332480 0.547348 0.260517 0.202764 0.162709 -0.051240 -0.123166 -0.220182 -0.237094 -0.161676 0.195703 0.474507 -0.043579 0.239102 -0.523129 0.154720 0.123612 0.379524 0.606670 0.635940 0.190123 -0.055177 -0.430229 -0.049285 0.366258 -0.032402 0.445842 -0.714394 0.557342 0.411936 0.030517 -0.823663 -0.097958 0.337391 0.327791 -0.510681 -0.493639 -0.371985 -0.545726 -0.083589 0.123133 -0.189401 -0.200729 0.257293 0.050166 0.090185 -0.166879 -0.012732 -0.109773 0.208638 -0.099014 -0.342792 0.272296 -0.306169 0.231308 0.063208
6830 -0.311877 0.590833 -0.108174 0.286088 -0.061861 0.212314 0.040153 0.444546 -0.033726 0.933757 -0.335223 -0.187609 -0.001288 0.089579 0.482158 0.207415 0.342044 -0.125368 0.135737 -0.010468 -0.117119 0.451167 -0.207738 0.013376 0.087139 -0.110828 0.010326 0.302448 0.164414 0.075817 -0.604118 0.501552 0.292226 -0.420868 -0.426412 -0.075141 0.399349 0.151835 0.148903 -0.167035 -0.039667 -0.188708 0.183733 0.304488 -0.313526 0.479001 0.295168 0.354638 -0.501142 0.057274 0.337998 0.295306 0.003331 0.094714 -0.042321 -0.055211 0.249779 0.422186 0.287433 -0.260379 0.210803 0.022754 0.169156 0.114096
12851 -0.233807 0.590194 0.200961 0.331976 -0.063515 0.257964 -0.011767 0.279349 0.001538 1.026722 -0.259858 -0.132685 0.210812 -0.159172 0.272572 0.353430 0.330646 -0.185146 0.200998 0.242239 -0.053939 0.426195 -0.028960 0.156729 0.112900 -0.102167 -0.180943 0.141520 -0.004171 -0.048117 -0.445217 0.243081 0.398375 -0.549417 -0.372110 0.184371 0.459284 0.337585 0.146253 -0.280250 0.157091 -0.084848 0.175712 0.285307 -0.361896 0.508767 -0.049023 0.221627 -0.439543 -0.063815 0.372951 0.239618 0.250737 -0.052027 -0.095008 -0.161305 -0.044962 0.302398 0.523728 -0.176776 0.341843 0.023981 0.130587 0.232189
18444 -0.500262 -0.116787 -0.183071 -0.302569 0.220857 -0.187526 -0.299676 0.135646 0.200404 0.679307 -0.238096 -0.038340 -0.254918 0.248255 0.372522 -0.686347 0.764177 0.182854 -0.290767 -0.046977 0.119238 0.507378 -0.334464 -0.032710 -0.352166 0.389136 0.365458 0.273991 0.284525 0.045243 -0.267827 0.545762 0.267712 -0.387948 -0.144435 -0.458739 0.217263 0.143291 -0.041642 0.367540 0.146644 0.320615 -0.737848 -0.187361 -0.390928 0.126068 0.164257 0.719943 0.001705 0.472653 -0.478999 0.352435 0.121457 0.265135 -0.005020 0.377043 0.460229 0.324773 0.138885 -0.143131 0.164660 0.256903 -0.398911 -0.146756
19865 0.158686 0.382116 -0.010931 -0.314851 -0.018949 -0.290647 -0.614778 -0.376170 0.394666 0.478337 -0.574257 -0.590315 -0.234517 -0.205475 0.034326 -0.402026 0.216492 0.292592 -0.066098 0.009747 -0.100831 0.503600 -0.166757 0.537786 -0.175794 -0.318505 -0.222175 0.519501 0.505652 0.383425 -0.326908 0.201181 0.198740 0.274141 0.234526 0.175107 -0.022525 0.188612 0.543051 0.192977 0.427184 0.483719 0.328196 0.240604 -0.092157 -0.357483 -0.639387 0.200816 -0.105538 -0.004987 -0.003313 0.325359 0.065611 0.549820 -0.084827 0.278764 0.020486 0.409194 -0.192550 -0.085859 0.342170 -0.092274 0.479841 0.225462
231 -0.421665 0.135631 0.268767 0.106204 -0.085644 0.426681 -0.169438 0.119020 0.042333 0.518546 -0.259312 0.102589 0.173838 -0.512014 0.552422 0.049900 -0.402750 0.089885 0.343356 0.024412 0.208452 0.516041 -0.645063 0.051306 -0.199770 -0.131170 0.360124 -0.067249 0.212895 0.345486 0.033461 0.624786 -0.039226 0.127667 -0.092374 0.369296 0.603360 0.059468 0.164552 -0.342808 0.056579 0.112210 0.407649 0.109913 0.017714 0.328121 -0.160104 0.345542 -0.299556 0.174435 0.215940 0.104602 0.235850 0.139497 0.448847 -0.133683 -0.270073 0.463095 -0.213972 -0.064967 0.234734 -0.566153 0.799186 -0.057582
18453 0.471768 -0.182778 -0.704120 -0.070198 -0.466491 0.348673 -0.225740 0.350945 -0.354313 0.611321 0.230945 0.165201 0.536081 -0.167869 0.268294 -0.389109 -0.086091 -0.202165 -0.046872 0.627709 0.161839 -0.252425 -0.329937 0.171875 0.048595 -0.250427 0.690871 0.470390 0.441295 0.127785 -0.224504 -0.331991 0.494512 0.188682 0.229370 -0.646432 0.262478 0.406641 -0.108502 -0.431875 -0.089780 0.325062 0.001698 -0.078746 -0.630742 -0.295415 -0.538712 -0.198227 -0.020590 -0.315685 0.059288 0.084633 0.342628 -0.052644 -0.035586 0.111761 -0.142714 0.212409 -0.077516 -0.445651 0.096566 -0.163873 -0.117440 0.328514
2535 0.219330 -0.259481 -0.290018 0.079660 -0.646574 0.704208 0.015896 0.131613 -0.342044 0.542499 0.279221 0.017978 0.152797 -0.019400 0.093001 -0.383357 0.019108 -0.250452 0.237964 0.548015 0.004483 -0.054531 -0.343185 0.231045 0.234124 0.151926 0.679980 0.505440 -0.012968 0.196336 -0.556463 -0.123995 0.450536 0.134149 0.225903 -0.559774 0.392188 0.164873 0.113713 -0.548855 -0.080822 0.509032 -0.077542 -0.690770 -0.402459 -0.456523 -0.464832 0.118420 -0.001751 -0.173521 0.197458 0.121349 -0.106587 0.250045 -0.186655 -0.006358 0.154777 -0.065550 -0.110448 -0.568528 -0.036191 -0.003660 -0.035107 0.305384
2449 0.062028 -0.149123 -0.448402 0.066491 -0.463242 0.723133 -0.443913 0.260779 -0.409607 0.442388 0.573131 0.347723 0.130826 0.089511 0.270411 -0.621996 -0.305877 -0.118101 0.017165 0.660782 -0.061615 0.393351 -0.067091 0.250947 0.154353 -0.049431 0.443008 0.447588 0.690847 0.197664 -0.357957 -0.037392 0.294293 -0.038681 0.149175 -0.662044 0.200852 0.163109 -0.089777 -0.640982 -0.051991 0.447125 0.195718 -0.366126 -0.295540 -0.379220 -0.491401 -0.176263 0.097790 -0.279695 0.116058 0.005588 -0.046734 -0.198877 -0.534077 0.032794 0.149233 0.253559 -0.114202 -0.293049 0.065726 0.202784 -0.053822 0.243781
1000 0.220654 0.023433 0.296330 -0.476783 0.215562 0.229951 -0.635371 -0.809261 0.500536 0.781330 -0.483334 -0.372091 0.505764 0.273610 0.190418 -0.638076 0.195232 0.107386 0.196329 -0.139152 0.264133 0.143065 -0.157546 0.389710 0.150424 -0.250446 -0.340173 -0.135647 0.297351 0.302768 0.361291 -0.013481 0.049271 -0.043734 0.129344 0.277990 -0.049303 -0.110600 0.344507 0.058218 -0.553786 0.098968 -0.357935 0.238019 0.101922 -0.233873 -0.151912 -0.349041 -0.348668 0.449281 0.046087 0.657384 -0.332234 0.100173 0.212510 -0.020530 -0.088077 0.327201 -0.106133 -0.167065 0.294054 -0.081566 0.076417 -0.044510
23614 -0.197553 -0.110156 0.392566 -0.124309 0.599978 -0.188665 -0.253360 -0.138189 -0.072669 -0.066557 0.259164 -0.051539 0.051875 -0.151125 0.624641 -0.716827 0.421107 0.072336 0.428622 0.386420 -0.016635 0.314615 -0.622185 0.150438 0.138424 -0.030743 -0.028255 -0.391818 -0.265382 -0.194043 -0.223495 0.486625 -0.065964 -0.008521 0.653837 0.018887 -0.094667 -0.382203 -0.004197 0.313519 -0.120813 0.445460 -0.104810 0.213465 0.060730 -0.268516 0.003463 0.062592 0.074896 0.089577 0.120148 0.632430 0.309335 -0.068829 -0.148890 -0.042875 0.394955 -0.028310 0.018191 -0.700387 -0.203264 0.109462 0.504115 0.834275
4513 -0.338907 0.766117 0.138453 0.583154 -0.076633 0.352733 0.082276 0.328260 -0.245613 0.851998 -0.094218 -0.089357 0.066333 -0.212532 0.515628 0.064582 0.086649 -0.334302 0.205321 -0.171429 0.002334 0.443656 -0.171869 0.219740 0.366717 0.025054 0.072362 0.277227 0.204970 0.167201 -0.388333 0.308603 0.309857 -0.356575 -0.361486 -0.035879 0.417042 0.241749 0.337990 -0.126796 -0.064831 -0.122706 0.171534 0.315414 -0.197859 0.347104 0.035178 0.301912 -0.384048 -0.022155 0.478692 0.289063 0.093336 0.034187 0.137356 0.038372 0.249212 0.249381 0.157286 -0.139570 0.117665 -0.091714 0.160972 0.047784
6774 -0.410925 0.448621 -0.139339 0.035113 0.008642 0.392228 0.081711 0.288015 -0.268413 0.168620 -0.201505 0.235132 -0.041504 -0.370904 0.137717 -0.060648 -0.123972 -0.006562 0.207113 0.125676 0.122473 -0.028732 -0.680498 0.553144 -0.250717 0.591898 0.182046 0.272829 -0.168745 0.156020 -0.211710 0.313097 0.516415 0.014998 -0.099557 -0.064864 0.174310 0.193454 0.306030 -0.417873 0.331436 0.108516 0.335519 0.117551 0.199681 0.365759 0.003508 0.348221 -0.321896 0.257993 0.704455 0.036669 0.365348 0.220787 0.577982 -0.216897 -0.404970 0.473370 -0.280321 -0.006180 0.326783 -0.729086 0.466106 0.199167
13556 -0.037046 0.246238 -0.008236 -0.336898 0.194875 -0.120810 -0.455292 -0.224261 0.196761 0.393500 -0.455392 -0.288254 -0.267326 0.142147 -0.125084 0.235690 0.425223 0.142764 0.391954 0.743413 0.132334 0.308219 0.154659 0.241629 0.292746 -0.244532 -0.181881 0.717005 0.680122 0.010487 -0.167510 -0.407696 0.470502 0.109283 0.139176 -0.091136 0.012362 0.693892 0.232478 0.001028 -0.270015 -0.090785 0.045492 0.002479 0.074274 -0.453021 0.158204 0.350834 -0.492855 0.668032 0.197742 -0.176062 0.245452 0.038557 0.165085 0.285153 0.407618 -0.011125 -0.229797 0.263389 -0.056249 -0.526036 0.449962 0.226900
17807 0.486363 -0.120055 -0.503169 0.260156 -0.588516 0.467229 -0.304880 0.002530 -0.512066 0.304171 0.225339 0.022348 0.291263 -0.063314 -0.242448 -0.621132 0.108653 -0.001107 0.164785 0.539082 -0.018988 0.226474 -0.343137 0.413406 0.262762 0.200119 0.573859 0.800039 0.290480 0.060257 -0.489927 0.163141 0.433784 0.086003 0.400215 -0.602616 0.283491 0.159296 0.215556 -0.680557 -0.166378 0.489904 0.028027 -0.442455 -0.298273 -0.110983 -0.343991 -0.256205 0.077726 -0.041676 -0.129089 0.100987 0.082565 0.176872 0.015933 0.006656 -0.014706 0.185977 -0.247476 -0.367396 0.137384 -0.119137 -0.032310 0.387743
13276 0.039547 0.039886 -0.335762 0.109378 -0.226558 0.022849 0.055950 0.351453 -0.162400 0.366692 0.221025 0.367569 -0.115929 0.161680 -0.826422 -0.604756 0.248080 0.059795 -0.207392 0.416424 0.042924 0.205789 0.038504 -0.220935 -0.217169 -0.426989 -0.175926 -0.108204 0.726856 0.048488 -0.075259 -0.361297 0.089612 -0.489192 0.850557 -0.145577 0.539530 -0.103521 -0.052547 0.292231 -0.019100 -0.025961 -0.177769 0.348588 0.285837 -0.088964 -0.505212 0.092825 -0.451143 0.013027 0.228338 -0.182792 0.865286 0.006778 -0.192249 -0.188171 -0.237929 0.193469 0.445401 -0.164753 0.165472 0.172531 0.264440 0.055015
18894 -0.130819 0.721817 0.148447 0.336762 -0.081323 0.185321 -0.133168 0.328255 -0.237495 0.810237 -0.280107 -0.126918 -0.026721 -0.086669 0.551413 0.271934 0.084801 -0.066772 -0.051024 0.047181 -0.113401 0.355717 -0.246158 0.108932 0.121860 -0.155097 -0.090424 0.266145 0.269853 -0.089675 -0.689923 0.214926 0.067211 -0.299123 -0.213114 0.018765 0.472537 -0.051815 0.266424 -0.217266 -0.216039 -0.170079 0.197998 0.476204 -0.237455 0.379327 0.088527 0.246229 -0.637265 0.108598 0.498043 0.347578 0.292839 -0.031192 -0.102924 -0.165790 0.140358 0.294526 0.205581 -0.222721 0.069357 -0.253879 0.205434 0.125971
7444 -0.058658 -0.302793 -0.308787 -0.281643 -0.591206 0.302864 0.179329 0.417483 -0.411246 0.349230 0.366566 0.258785 0.624175 -0.245920 -0.056119 -0.090675 0.262693 0.002300 0.046180 0.578936 -0.164635 0.106811 -0.318269 0.340638 0.181797 0.249376 0.327418 0.480475 0.494871 0.104731 -0.309172 -0.008329 0.571429 0.304657 0.339288 -0.472415 0.599560 -0.216448 0.077372 -0.653267 0.072422 0.319460 0.138094 -0.545055 -0.023549 -0.408608 -0.234342 0.220723 0.037929 -0.188610 0.024683 0.419063 -0.064852 0.078152 -0.390454 -0.009788 0.087199 0.399292 -0.393190 -0.398889 -0.137280 -0.085474 0.270766 0.119367
15933 0.128147 -0.226011 -0.385836 -0.060281 -0.493773 0.569080 0.110621 0.031204 -0.542100 0.532137 0.401345 0.416942 0.044068 0.088701 0.101636 -0.587850 -0.037047 0.106395 0.048029 0.427817 0.198078 -0.070340 -0.413336 0.459456 0.267350 0.237785 0.536979 0.639054 0.249893 0.042154 -0.427614 -0.012045 0.437738 0.269168 -0.054102 -0.501327 0.349823 0.455577 -0.154931 -0.768188 0.152211 0.298454 0.267918 -0.207141 -0.285985 -0.438701 -0.464366 -0.104216 0.113358 -0.046331 -0.236704 0.144758 0.116398 -0.171614 -0.246755 0.207732 -0.006353 0.289028 -0.328613 -0.392844 -0.015997 -0.166105 0.166676 0.449329
449 -0.010098 0.109790 0.878626 -0.412712 0.031711 0.460963 -0.536890 0.406915 0.132120 0.458270 -0.083939 -0.040866 0.003332 -0.059315 -0.336327 -0.066456 0.336599 -0.266794 0.208620 0.613567 0.197037 0.332400 -0.054744 0.196314 0.089038 -0.053126 -0.517114 -0.235779 0.014120 -0.042733 -0.272179 -0.486658 0.724366 -0.686511 0.358397 -0.042691 0.171958 0.242493 0.275880 -0.477557 -0.245139 0.363061 -0.779427 -0.081090 -0.698635 0.424527 -0.052065 -0.414144 0.185796 0.316651 -0.104047 -0.151821 -0.058783 -0.099811 -0.314971 -0.053132 -0.125032 0.248687 -0.060193 0.089746 0.236623 0.167741 -0.050476 0.252175
2952 -0.296586 0.648446 0.144657 0.280003 -0.130488 0.060406 0.185714 0.326910 -0.033686 0.856347 -0.126660 -0.133036 0.143407 -0.152470 0.384236 0.319872 0.286098 -0.039916 0.215040 0.085704 -0.051160 0.521116 -0.148461 0.165442 0.176888 -0.146658 -0.173328 0.302343 0.347870 -0.032937 -0.589651 0.294123 0.320915 -0.354155 -0.339789 -0.007429 0.437084 0.253688 0.167481 -0.252189 -0.091342 -0.367365 0.254878 0.196243 -0.082690 0.327958 0.087315 0.215132 -0.627681 0.119621 0.491950 0.115158 0.127999 -0.009068 0.067642 -0.068551 0.179721 0.250200 0.256401 -0.383095 0.112905 -0.210203 0.235474 0.229153
4241 0.275383 -0.078319 0.225946 0.282574 0.049110 -0.331595 -0.293543 -0.145141 -0.180134 1.185972 -0.108713 -0.257459 0.086631 0.048207 -0.647273 -0.380543 0.205373 -0.076362 -0.527568 0.456808 -0.150892 0.668793 -0.462223 0.317323 0.320028 0.299198 0.188862 -0.713370 -0.250611 0.114080 0.193280 -0.620124 0.490465 0.006802 0.031321 -0.453606 -0.226279 0.071212 0.357957 0.253973 0.352316 0.072721 -0.114502 0.137486 0.341453 0.397630 -0.530155 0.226179 -0.146779 0.253319 0.445505 -0.138404 -0.097754 -0.169117 0.157098 -0.292835 0.215314 -0.335262 -0.193471 0.161212 0.171675 0.045050 0.198813 -0.335410
9755 -0.248727 0.035632 -0.466113 -0.069951 -0.092022 0.244853 -0.051491 0.357671 0.387543 0.968023 0.082560 -0.486722 -0.110593 -0.085959 0.257720 0.272073 -0.230882 0.105735 0.556103 -0.629631 0.115206 0.319874 -0.152618 0.256815 0.392564 -0.173161 0.162255 -0.453458 0.327223 -0.099932 -0.009042 0.250668 0.299898 -0.474026 0.094471 -0.229363 0.091502 -0.466808 -0.256679 -0.597759 0.301998 -0.355772 -0.403609 0.195065 0.322915 0.125461 -0.020962 -0.124137 -0.335093 0.075380 -0.162931 -0.238914 0.522790 -0.297944 -0.141934 -0.031889 0.137932 0.499519 -0.006990 -0.049783 -0.096753 -0.407388 0.558424 -0.056340
20562 -0.242098 0.745376 0.183640 0.309776 -0.266817 0.185377 -0.053195 0.429129 -0.117566 0.853068 -0.183253 -0.131336 0.094735 -0.300123 0.269025 0.192423 0.156922 -0.074449 0.327963 -0.078996 -0.283859 0.408981 -0.257149 -0.094299 0.070371 -0.139279 -0.023440 0.075427 0.244435 -0.021436 -0.459044 0.325531 0.201750 -0.215337 -0.362765 -0.026252 0.508156 -0.036728 0.215324 -0.095688 -0.154162 -0.169103 0.341500 0.409438 -0.278117 0.477004 -0.010797 0.280889 -0.580394 0.051139 0.439362 0.182080 0.069555 0.011505 -0.017768 -0.243805 0.274443 0.446914 0.308924 -0.267735 -0.007945 -0.070372 0.264512 0.148268
20108 -0.376522 0.423252 0.015748 0.386333 -0.013228 0.280819 -0.014633 0.377807 -0.172156 0.971498 -0.441054 0.138188 0.144767 -0.234641 0.444937 0.212334 0.076022 -0.029048 0.164265 -0.070834 -0.025291 0.430460 -0.084645 0.078070 0.131909 -0.134463 -0.152286 0.206874 0.180995 -0.008372 -0.390216 0.431406 0.203706 -0.193837 -0.390328 -0.091464 0.632828 -0.053052 0.103387 -0.139807 -0.025303 -0.151608 0.090348 0.517585 -0.169121 0.524467 0.210770 0.268951 -0.628091 -0.015233 0.493867 0.263280 0.059399 0.106588 -0.184911 -0.137267 0.136228 0.157930 0.389790 -0.152771 -0.046797 -0.346380 0.291139 0.038735
18778 0.269141 -0.446901 -0.456032 -0.006865 -0.407623 0.284387 0.328667 0.093152 -0.246847 0.457677 0.367764 0.540305 0.242306 -0.386246 0.196348 -0.605450 -0.115769 -0.102388 0.310596 0.769217 0.067580 -0.082373 -0.119153 0.126117 0.179079 0.241296 0.501693 0.387998 0.355360 -0.080606 -0.451357 -0.241627 0.181093 -0.113084 0.041909 -0.542471 0.647923 0.280203 0.284850 -0.723603 -0.198535 0.136172 0.003003 -0.421051 -0.570960 -0.386430 -0.504433 -0.084031 -0.076353 -0.075083 -0.094454 -0.152133 0.302909 0.177701 0.064857 0.339795 0.287729 0.287807 -0.113879 -0.252299 0.171274 -0.284508 -0.121924 0.345707
11472 -0.235179 0.656138 0.111283 0.306609 0.001576 0.209404 0.061001 0.362458 -0.162880 0.838847 -0.290685 -0.119203 0.183142 -0.073195 0.650019 0.078404 0.216695 -0.080542 0.200843 0.024612 -0.103485 0.357081 -0.126381 0.027262 -0.138539 -0.109608 0.066355 0.268269 0.294689 -0.113513 -0.620685 0.377336 0.322418 -0.222733 -0.271774 -0.189149 0.400958 0.016155 0.257529 -0.168859 0.119445 -0.092037 0.256635 0.507162 -0.272500 0.560232 0.200133 0.173067 -0.705420 -0.046485 0.308136 0.206462 0.084334 0.040328 0.208118 -0.210485 0.069471 0.220698 0.262417 -0.190840 0.092790 0.046082 0.346125 0.199035
19645 0.200740 -0.164258 -0.758127 -0.059701 -0.508699 0.612664 -0.189783 -0.007969 -0.349979 0.443545 0.215670 0.015770 0.435183 -0.159964 0.101536 -0.382371 -0.112288 -0.271009 0.372477 0.619976 0.172928 0.203407 -0.297121 0.197655 0.407248 0.208606 0.423124 0.558033 0.370776 -0.130030 -0.568579 0.063135 0.169349 0.060035 0.257740 -0.650118 0.260544 0.062291 0.037413 -0.806144 -0.138030 0.138420 -0.007122 -0.490319 -0.228577 -0.428248 -0.447032 -0.174443 -0.214117 -0.056256 0.008243 0.084088 0.072610 0.281933 -0.174563 0.453110 0.113959 0.019934 -0.053577 -0.376519 0.008533 -0.117924 0.011703 0.233524
9184 -0.907419 0.183914 -0.039884 -0.606522 -0.463513 -0.320675 -0.106433 -0.319112 -0.476308 0.855504 -0.064286 0.158349 0.034530 -0.045014 0.239464 -0.477782 0.058036 -0.189392 -0.099791 -0.075902 0.377596 0.541131 -0.246991 -0.270979 -0.091685 -0.076382 -0.371745 0.121420 -0.294345 0.291391 0.500356 0.020192 0.655983 -0.046202 0.228070 -0.582286 0.000636 0.601057 0.228979 -0.054226 -0.613984 -0.305742 -0.091789 0.265431 0.320514 0.472428 0.141249 0.294899 0.317401 -0.214742 -0.317412 0.295127 0.282101 0.096357 0.074558 -0.058046 -0.176481 0.092447 -0.416124 -0.195796 -0.118514 0.387650 0.030919 -0.041728
22457 0.026476 0.287197 -0.020396 0.135072 0.033985 0.702254 -0.025041 -0.104759 0.017068 0.432529 -0.236251 0.165164 -0.214925 -0.293897 0.423322 0.224897 -0.217550 0.037423 0.447432 0.194563 -0.170491 0.376456 -0.393688 0.527554 0.510986 0.417515 0.041371 0.376592 -0.185984 0.338208 -0.110097 0.269188 0.417609 -0.329586 0.134649 -0.142043 0.346307 -0.292492 0.345710 -0.170483 0.366230 0.190095 0.557570 -0.235093 0.286887 0.405505 -0.087423 0.463463 -0.083546 0.317414 0.596517 -0.234432 0.070310 -0.007546 0.212003 0.134713 -0.290730 0.465612 -0.514815 0.121327 -0.027693 -0.501123 0.424697 0.026811
14746 -0.044513 -0.636510 -0.107918 0.016673 -0.160390 0.334051 -0.212419 0.364270 -0.151919 0.558127 -0.374288 -0.203609 0.996923 -0.246277 -0.123118 -0.840926 -0.684602 0.489443 0.125872 0.226262 -0.006062 0.184004 -0.109912 -0.574831 -0.118671 -0.049624 -0.014003 -0.508735 0.079966 0.339799 -0.142005 -0.105535 0.668516 0.026170 -0.354982 -0.114271 0.273983 -0.018255 0.228184 0.212800 0.312849 0.162279 -0.024264 -0.014105 0.363786 0.131726 -0.050867 0.591337 0.221063 0.215973 -0.114004 0.120384 0.051888 0.159763 0.161099 0.030742 0.120816 0.037810 -0.155960 0.238961 -0.186040 0.475526 0.663030 0.481746
8448 -0.116672 0.013326 -0.632118 -0.436726 0.292832 0.129557 -0.494002 -0.030891 0.230968 0.587963 -0.175767 0.055550 0.234454 0.040713 0.639416 -0.171655 0.611843 -0.114715 -0.357652 0.482948 0.030583 0.583236 -0.167794 -0.472205 -0.195303 0.023465 0.095719 0.569556 -0.007382 0.414738 -0.340408 0.181037 0.240226 -0.485044 0.168125 -0.535978 0.467380 0.250203 -0.283914 0.593738 -0.181563 0.469101 -0.409853 -0.105166 -0.693358 0.115636 0.122415 0.775593 0.269400 -0.066578 -0.292882 0.075643 0.449188 0.364582 0.333450 -0.132500 0.198152 0.147722 0.243499 0.127944 0.387429 0.047752 -0.298509 -0.133960
9869 0.077691 -0.052331 -0.444058 -0.123347 -0.518602 0.455251 -0.140682 0.173418 -0.567918 0.759449 0.401919 0.267861 0.128979 -0.014706 0.048033 -0.278938 -0.081953 -0.189594 -0.028907 0.617312 -0.249539 0.258433 -0.318968 0.207811 0.354177 0.114756 0.606906 0.630630 0.344794 -0.084971 -0.234257 -0.023445 0.430518 0.530216 0.029577 -0.787046 0.380041 0.105141 0.075357 -0.444012 0.018191 0.396149 0.085642 -0.625383 -0.447074 -0.447610 -0.199745 -0.031981 -0.045016 -0.156441 -0.090124 0.136160 0.181282 0.149464 0.013916 -0.050916 -0.117474 0.202647 -0.255498 -0.496999 0.099683 -0.092215 0.053197 0.201958
3283 -0.320042 0.107466 -0.242118 -0.276425 0.266177 -0.063631 -0.514845 0.120588 0.172015 0.776395 -0.305898 0.264376 -0.259583 0.203947 0.359483 -0.739936 0.502459 -0.351382 -0.420060 0.107260 0.033892 0.559145 -0.202332 -0.358572 -0.325446 0.247946 0.034179 0.273146 -0.205247 0.130386 -0.197072 0.252800 0.497532 -0.598889 -0.077840 -0.588316 0.213011 0.495796 -0.205677 0.322054 -0.109140 0.239397 -0.487039 -0.289562 -0.538246 0.278897 0.034417 0.349727 0.349064 -0.196427 -0.369168 -0.015388 0.018202 0.282893 -0.011638 -0.011399 0.265553 0.883323 -0.040796 -0.215141 0.261802 0.512664 -0.292164 -0.030983
9656 0.447422 0.006010 -0.516800 -0.178046 -0.464720 0.482041 -0.118728 0.177393 -0.550086 0.575828 0.196287 0.457175 0.356061 0.097964 -0.114104 -0.498445 -0.211814 -0.174746 0.336720 0.506920 0.137235 0.153790 -0.366150 0.140805 0.246329 0.078965 0.518401 0.644935 0.148333 0.084859 -0.533671 0.220737 0.278067 0.251891 0.244563 -0.618570 0.173448 0.301315 0.020807 -0.735277 -0.000621 0.151946 0.091773 -0.429627 -0.343227 -0.313128 -0.404351 -0.202847 0.030054 -0.182771 0.028638 0.278949 0.203151 0.060853 -0.369856 0.141987 0.357042 0.112086 -0.350377 -0.357784 0.214615 -0.246595 -0.133699 0.192171
22601 0.092634 -0.296378 -0.390998 -0.181943 -0.140907 0.241589 -0.212654 0.307905 0.485754 0.741690 0.022086 -0.424437 0.180076 -0.086412 0.032912 -0.507038 0.562180 0.048512 -0.548647 0.181678 -0.374932 0.057446 -0.046578 0.502207 -0.017411 -0.056896 -0.133717 0.279259 0.408701 -0.501565 0.088609 0.119646 0.338328 -0.044104 -0.190962 -0.024447 0.229073 -0.872575 -0.102172 -0.394861 0.179873 -0.147263 -0.186044 0.249954 0.057214 -0.032399 0.060132 -0.080456 0.251504 0.404170 -0.913615 0.073114 -0.166006 0.077701 0.358933 -0.321349 0.744024 -0.062786 0.260905 -0.074431 -0.124235 -0.792949 0.417753 0.094388
15010 0.334293 -0.196766 -0.461839 -0.024888 -0.703223 0.526903 -0.153862 0.237018 -0.482258 0.567260 0.374269 0.304986 0.241451 -0.341543 0.230704 -0.607790 0.123261 -0.260095 0.343981 0.498316 0.169360 0.062638 -0.300753 0.343441 0.211451 0.164616 0.084938 0.468106 0.462418 0.008213 -0.356457 -0.054892 0.375931 0.182197 0.530543 -0.544275 0.395913 0.347779 0.047108 -0.811069 0.240570 0.438670 -0.054318 -0.429505 -0.334229 -0.168211 -0.129859 -0.159164 0.148202 -0.278791 -0.004688 0.212507 0.078446 0.157487 -0.115968 0.154226 -0.026795 0.036404 -0.285306 -0.170044 0.212166 0.002217 -0.095259 0.185170
7197 0.219434 0.020166 -0.456200 0.189747 -0.624970 0.471929 -0.116578 0.403112 -0.421084 0.634987 0.219878 0.069998 0.373653 -0.085757 0.285492 -0.523187 0.026082 -0.117519 0.249620 0.580013 -0.229961 0.072340 -0.291232 0.393973 0.360965 0.084725 0.434069 0.285291 0.410550 0.031055 -0.400322 0.075160 0.415525 0.337717 0.113737 -0.642418 0.562248 0.162356 -0.064547 -0.902999 0.037348 0.167935 0.026410 -0.455216 -0.280930 -0.364029 -0.374003 -0.202719 0.062045 -0.160065 -0.124329 0.203704 -0.135023 0.134345 -0.153498 0.106859 0.280647 0.004736 -0.069600 -0.509012 0.197893 -0.181201 0.080487 0.249240
12545 0.239757 -0.148954 -0.221381 0.388884 0.641426 -0.347639 0.224573 0.055634 -0.102979 0.585494 0.136388 0.419326 -0.297059 -0.573390 0.085477 -0.497159 -0.178393 -0.558565 -0.137993 0.092147 0.086287 -0.126437 -0.748547 0.450160 -0.407194 -0.380937 -0.341602 -0.196296 0.090862 -0.264895 -0.219523 0.383764 0.275005 -0.277307 0.600811 -0.397776 0.030807 -0.190292 0.365489 -0.014278 -0.249703 -0.353348 0.225437 -0.166327 0.333386 -0.175910 -0.258951 -0.347691 -0.147589 0.379246 -0.024924 -0.172641 -0.099723 -0.337429 0.075347 -0.433090 0.190423 -0.232989 -0.371107 0.142303 -0.380235 0.300368 0.376388 0.419701
19114 0.038372 -0.205754 -0.653035 0.358105 -0.462426 0.361920 -0.119296 0.253463 -0.547936 0.646493 0.186883 0.279416 0.344609 -0.104582 0.016539 -0.650396 -0.045597 -0.005022 0.282269 0.505396 0.051876 -0.001378 -0.180153 -0.145540 0.661905 0.149948 0.292253 0.560604 0.374364 0.207028 -0.294420 0.270864 0.197400 0.320605 0.310933 -0.656025 0.456968 0.165907 0.207111 -0.788427 -0.047426 0.284905 0.202908 -0.251957 -0.207802 -0.122750 -0.650419 -0.014374 -0.066891 -0.283716 -0.141267 -0.138164 0.274386 0.210326 0.092029 0.016367 -0.108189 0.066756 -0.022193 -0.667464 0.051651 0.004835 0.009004 0.036973
15659 -0.374151 0.623987 0.232956 0.410261 -0.112751 0.247360 0.059184 0.389232 -0.094653 0.993776 -0.201602 -0.235406 0.035827 -0.215668 0.479307 0.149673 0.056990 -0.142957 0.087008 -0.132261 -0.113282 0.455435 -0.256885 0.154142 0.056817 -0.183329 0.112735 0.080259 0.338261 0.101508 -0.521923 0.280240 0.192966 -0.375347 -0.200557 -0.043375 0.276213 0.175921 0.316448 -0.372533 0.058813 -0.174527 0.234428 0.435795 -0.139835 0.581699 0.048084 0.221588 -0.397024 0.055196 0.384348 0.253116 0.124981 0.130247 -0.067992 -0.162127 0.116009 0.170295 0.343917 -0.309766 0.057098 -0.111831 0.167785 0.213447
7525 -0.555307 0.149770 -0.825000 -0.279637 0.246428 0.079213 -0.531240 0.133474 0.297669 0.476063 -0.253406 0.139440 -0.174039 0.151067 0.220500 -0.705602 0.647793 -0.080049 -0.357195 0.443566 -0.121556 -0.058288 -0.257146 -0.468468 -0.419569 0.393613 0.057564 0.224641 -0.022865 0.448179 -0.183627 0.410016 0.215150 -0.714031 -0.098021 -0.716835 0.157513 -0.011080 -0.312633 0.263417 0.221574 0.241673 -0.160908 -0.215277 -0.499773 0.424579 0.050207 0.598283 0.251051 0.518233 -0.243027 0.000165 -0.115770 0.133015 0.101206 -0.322709 0.796979 0.315081 0.025420 0.158039 0.273109 0.120230 -0.054906 0.024819
16654 0.062082 -0.314443 -0.452369 -0.230822 -0.481848 0.378999 -0.417866 0.099405 -0.547974 0.460735 0.344758 0.272122 0.395554 -0.130601 0.027417 -0.169607 -0.016823 -0.145885 0.448700 0.707232 -0.109082 0.122928 -0.203389 0.416484 0.257351 0.247738 0.438073 0.470558 0.461080 0.111482 -0.350476 0.178020 0.284755 0.187342 0.251232 -0.831503 0.574607 0.136701 0.064440 -0.705540 0.055380 0.440128 -0.002627 -0.290972 -0.278450 -0.402469 -0.543345 -0.193219 -0.042476 -0.053364 0.028813 0.183065 0.111989 0.114169 -0.193751 0.100038 0.191102 0.161592 -0.376348 -0.469627 0.111163 -0.133475 -0.061462 0.149932
23712 0.315263 -0.356870 -0.251716 -0.138851 -0.466751 0.558805 -0.094535 0.260052 -0.763857 0.606812 0.414651 0.001904 0.061467 -0.182565 0.119904 -0.470856 -0.284395 -0.280862 0.072083 0.374638 0.006443 0.427769 -0.175244 0.272101 0.302310 0.171825 0.382504 0.525918 0.224370 -0.003621 -0.256421 0.115965 0.349491 0.061913 0.240651 -0.508118 0.445496 0.235029 -0.177999 -1.085793 0.111075 0.765651 0.006177 -0.492123 -0.367011 -0.485189 -0.109081 0.039082 0.029618 0.017342 -0.139496 0.195477 0.142899 0.106233 -0.137072 0.036556 -0.030735 0.125461 -0.062236 -0.297184 0.187521 -0.301324 0.279126 0.026584
543 -0.169591 -0.282692 0.314930 -0.134903 0.365372 0.010308 -0.043951 0.018058 -0.074687 0.093940 0.287175 0.080833 -0.342953 -0.313076 0.559629 -0.378045 0.240351 -0.121606 -0.009099 0.041805 -0.144139 0.058963 -0.554564 -0.055369 0.242924 -0.004541 -0.031770 -0.127897 -0.260203 0.358904 0.067014 0.686580 0.399244 0.065413 0.239697 -0.737223 0.075234 -0.418900 0.397171 0.404474 -0.091311 0.847739 -0.589362 0.038036 -0.165826 -0.632992 -0.121583 0.395668 -0.047468 0.230075 0.189631 0.309030 0.339266 0.409999 -0.272811 -0.065703 0.475118 0.034412 0.019449 -0.052982 -0.436015 0.161439 0.157577 0.823047
9124 -0.296192 -0.091543 -0.195500 -0.210674 -0.384444 0.170393 -0.874103 -0.468103 0.191442 0.461451 -0.332400 -0.139396 -0.241580 0.165866 -0.030963 -0.276671 0.538798 -0.308122 -0.044750 0.457726 -0.117175 0.013889 -0.590928 0.397333 0.381601 0.080779 -0.297581 0.120477 0.280854 0.185382 0.062537 -0.279062 0.138419 -0.486091 -0.417574 0.358479 0.048447 0.105899 -0.453332 0.023890 -0.027334 -0.390498 0.238106 -0.558780 0.113264 0.104912 -0.450072 -0.505108 -0.147393 -0.047721 -0.053264 0.621657 0.309685 0.088193 0.395841 -0.150247 0.013790 -0.617556 -0.199075 0.509059 0.064232 -0.242302 0.569188 0.661966
10711 0.230479 -0.068755 0.081511 -0.350123 -0.192053 0.447746 -0.126217 0.215179 -0.077675 0.114485 -0.169211 -0.102775 -0.430825 0.139705 -0.681613 -0.598494 -0.033053 -0.049465 -0.391486 0.410694 -0.131833 0.610421 -0.248030 -0.281728 -0.004538 -0.852887 -0.461406 0.441060 0.221552 0.059006 0.111821 -0.539977 0.357579 -0.151498 0.405606 -0.337095 0.233151 -0.095125 0.325065 -0.048051 -0.176150 0.075368 -0.035794 0.391015 0.210848 0.364477 -0.367404 -0.068625 -0.322133 0.129261 0.259444 -0.476439 0.879750 0.147008 0.258963 -0.539864 -0.206134 -0.145157 0.114835 -0.369990 0.117303 0.045498 0.134858 -0.146283
1217 0.320046 -0.136409 -0.119982 -0.056328 0.211882 0.263528 -0.347494 0.226664 0.111146 0.438881 -0.200351 -0.023385 -0.436895 -0.730674 0.039698 0.003985 0.519561 0.684107 -0.349369 0.420830 -0.371758 -0.171127 -0.388868 -0.257308 -0.275425 0.560404 -0.612392 0.681654 -0.030670 0.028030 -0.374114 -0.145811 0.446323 0.148437 -0.175223 0.120012 0.209616 0.092413 0.527681 -0.210547 -0.266222 0.007906 -0.497411 -0.207759 0.136399 -0.408122 -0.292087 0.397946 -0.397424 -0.029173 -0.428083 0.082871 0.439766 -0.459764 -0.699650 -0.088683 -0.006719 -0.119966 -0.151097 -0.114780 -0.156544 -0.272501 0.421372 0.085596
21491 -0.479821 0.061375 -0.676845 -0.214592 -0.291457 -0.197886 0.057095 0.017677 -0.223331 0.332291 0.157099 0.279023 -0.781320 -0.326973 0.022219 -0.380861 0.151606 0.291475 0.233581 -0.135920 -0.017968 0.341442 0.056866 0.193911 -0.057830 -0.368433 0.150870 0.012429 0.246007 -0.123480 -0.579253 0.098811 0.073788 -0.368287 0.359674 -0.438099 0.902136 0.160740 0.471150 0.078142 -0.403006 -0.048032 -0.551319 -0.113681 -0.265101 0.259013 0.014455 0.241731 -0.263854 0.023965 -0.021621 -0.344555 0.114759 -0.307994 0.560720 0.377285 0.504191 0.040719 0.163028 -0.267833 0.320647 -0.198301 -0.120680 0.436190
6271 -0.306566 -0.091372 -0.027024 0.459019 0.210342 -0.015897 -0.752398 0.080849 0.355129 0.242955 0.017205 0.145227 -0.004956 -0.348596 0.479667 -0.188546 0.494756 0.209282 0.842345 0.145368 0.311854 0.346122 -0.167346 -0.304112 -0.124783 0.295481 -0.101120 -0.618195 0.107901 0.363815 -0.410936 -0.394011 0.154495 -0.108517 0.088124 -0.610733 0.196050 -0.074163 -0.481020 -0.081029 -0.063300 0.255459 -0.132292 0.029117 0.287657 -0.401229 -0.493794 0.140060 0.649534 0.188753 -0.155150 0.137758 0.533167 -0.487723 0.443748 -0.121023 0.090500 0.305901 -0.153868 0.349790 -0.589176 -0.687548 -0.170570 0.089736
24057 0.131522 -0.469916 -0.495830 -0.152873 0.672174 -0.148123 0.131581 -0.063073 -0.125897 0.571393 -0.008765 0.073000 -0.309969 0.255869 0.059200 -0.492464 -0.153291 -0.696784 -0.105520 0.223414 0.025788 0.149786 0.138951 0.411810 -0.155161 0.037771 -0.065203 0.106694 0.122256 0.044498 -0.233941 -0.019374 0.393406 -0.435639 0.298537 -0.200845 -0.166038 -0.327340 0.584572 0.152681 0.062003 -0.505483 0.505118 -0.161062 0.249830 -0.086625 -0.503296 0.306509 -0.279819 -0.155608 -0.757235 0.241183 0.517819 -0.213607 0.419540 -0.151554 0.194492 0.289946 -0.886362 -0.219606 -0.246115 0.531055 0.395093 0.083433
9639 -0.221906 0.481708 0.035753 0.043802 -0.045617 0.360819 0.427290 0.117278 0.617850 0.747499 -0.204613 0.598432 0.772761 -0.207802 -0.005839 -0.041010 0.145358 0.089583 -0.033479 0.003225 -0.042527 0.038219 0.056937 0.163564 0.059816 0.549437 0.116251 -0.141068 -0.196544 0.253938 -0.281368 -0.070888 0.692657 -0.108921 0.788780 0.093336 0.056763 -0.206642 -0.071753 0.001826 -0.137955 0.354099 0.111550 0.713185 -0.389481 0.187242 0.296632 -0.167891 -0.065098 0.061103 -0.245181 0.094545 0.451285 -0.075979 -0.476531 0.411713 0.579820 0.128796 0.218955 -0.379866 -0.410429 -0.236507 0.066574 0.164676
14485 0.141025 0.487076 0.140587 0.124772 0.525809 0.402629 -0.255803 -0.664517 0.138216 0.699975 -0.395551 -0.195274 -0.223421 0.486104 -0.078031 -0.584622 0.288951 0.266139 0.105589 0.576142 0.171166 0.317952 0.432294 0.142560 0.360010 -0.056549 0.003030 -0.151754 0.291388 0.265461 0.121771 -0.270729 0.139595 0.080025 -0.189974 -0.067239 0.236267 0.533578 0.226075 0.050994 -0.466071 0.026074 -0.066884 0.164740 0.116390 -0.243519 0.028824 -0.440433 -0.719207 -0.034860 0.072214 0.033768 -0.005005 0.384592 -0.040837 -0.144385 0.325854 0.044671 0.263756 -0.406103 -0.218234 -0.602800 0.073919 0.432284
13526 -0.393978 0.167289 -0.387643 -0.635803 0.178788 0.022524 -0.620534 0.402853 0.201370 0.699630 -0.218538 0.314272 0.151016 0.135408 0.383021 -0.633149 0.815273 0.295669 -0.503662 0.233307 -0.061609 0.388292 -0.035540 -0.371938 0.020120 0.255637 0.035566 0.536768 -0.266018 0.056009 -0.274413 0.368296 0.180926 -0.469049 -0.022161 -0.499612 0.365296 -0.014171 -0.222818 0.385274 0.313821 0.245648 -0.553036 -0.208964 -0.215955 0.209452 -0.006032 0.530836 0.168616 0.161675 -0.419459 -0.173086 -0.058751 0.501344 0.323734 0.234704 0.514129 0.501182 0.118515 -0.297588 0.158262 0.107148 0.045549 -0.130442
20574 0.325207 -0.205000 -0.408842 -0.182093 -0.449363 0.366859 -0.090479 0.135802 -0.543776 0.407095 0.033576 0.284521 0.553243 -0.341222 0.019144 -0.387387 -0.259184 -0.053386 -0.025046 0.530565 0.206588 0.224259 -0.163748 0.248174 0.430701 0.174313 0.425120 0.741318 0.175599 -0.131362 -0.201110 0.192231 0.500177 0.212270 0.329511 -0.678947 0.638492 0.126201 -0.111419 -0.575250 -0.141445 0.550091 -0.017781 -0.489582 -0.064012 -0.225442 -0.309186 -0.148547 0.090371 -0.235173 -0.120831 0.282232 0.095214 0.109757 -0.283594 0.294092 0.109573 0.152281 -0.119611 -0.312561 -0.306652 -0.043233 0.316669 0.339933
19446 0.292134 -0.108926 -0.513060 -0.044642 -0.400540 0.674135 -0.037459 0.107194 -0.221401 0.470096 0.313479 0.420169 0.275984 0.001699 0.319970 -0.274416 0.159915 -0.289332 0.178397 0.549554 0.050158 0.378084 -0.210095 0.286036 0.073636 0.247893 0.470069 0.442855 0.136555 -0.005506 -0.307544 0.167928 0.422660 0.057151 0.447473 -0.751292 0.398444 0.552006 0.224360 -0.714111 0.113100 0.379126 0.045808 -0.693491 -0.263617 -0.371215 -0.345118 -0.218086 -0.008156 -0.228169 -0.256631 0.134188 0.292015 0.368008 -0.396239 0.113016 0.125453 -0.268588 -0.089780 -0.672760 0.018119 -0.063010 0.039769 0.120614
24474 -0.390985 -0.392894 -0.495314 -0.282545 0.299920 0.087792 -0.366018 0.232282 0.393012 0.632206 -0.401624 -0.020190 -0.063257 0.304392 0.279576 -0.378546 0.527931 -0.025401 -0.326514 0.096668 0.160016 0.389937 0.091824 -0.488291 0.123121 0.439298 0.083375 0.577831 0.283662 0.474355 -0.065905 0.382164 0.523286 -0.457404 -0.187184 -0.385741 0.190019 0.241771 -0.342040 0.172919 -0.163429 0.008932 -0.561231 -0.291852 -0.553319 0.286962 0.228816 0.524157 -0.027545 0.291580 -0.128605 0.281180 0.186947 0.297871 0.022443 -0.100923 0.508075 0.641480 0.335555 -0.238351 0.767076 0.212164 -0.099362 0.135868
8727 0.233632 -0.062967 -0.245954 -0.187456 -0.376445 0.579273 0.056122 0.134564 -0.506332 0.465548 0.188054 0.128629 0.109049 0.077982 0.437060 -0.631144 -0.107532 -0.218450 0.362759 0.413912 0.124062 0.011900 -0.417664 0.455820 0.107405 0.158116 0.305677 0.404637 0.471779 -0.121833 0.057918 -0.000540 0.197139 0.292794 0.526876 -0.753720 0.440119 0.213198 -0.078415 -0.760709 -0.070474 0.263372 0.107347 -0.623373 -0.350243 -0.151014 -0.394684 -0.054979 0.013571 -0.048816 -0.113415 0.470078 0.108259 0.090437 -0.171835 0.301237 0.268116 0.351537 -0.210848 -0.585360 0.249122 0.016018 0.095048 0.364574
676 -0.038307 0.177457 0.003849 0.012638 0.618654 0.613122 -0.277918 0.184853 0.123701 0.452162 -0.011954 0.292785 0.034339 -0.261311 0.108834 0.003963 -0.062298 -0.851067 0.435874 0.223016 -0.201354 -0.070912 -0.588007 0.439112 0.107800 -0.164312 -0.127696 -0.047704 0.195559 0.010392 -0.576869 -0.119735 0.455344 -0.378153 0.184365 -0.039712 0.092185 -0.346369 -0.150129 -0.113953 -0.121762 0.039625 0.010685 -0.327819 0.244419 0.287363 0.377812 0.457834 -0.732771 -0.122748 0.363738 -0.538251 -0.045135 -0.159201 -0.187937 -0.212929 -0.219094 -0.068768 -0.376424 -0.241346 0.333225 -0.322558 0.435520 0.371092
2530 0.283834 -0.212648 -0.517903 -0.060697 -0.580024 0.500826 -0.167549 0.187600 -0.523697 0.567228 0.317793 0.181050 0.276852 -0.143257 0.127278 -0.418737 0.027120 -0.141043 0.246320 0.599788 0.004621 0.076900 -0.235007 0.275657 0.362702 0.149547 0.498049 0.531300 0.332404 -0.010255 -0.472099 0.049004 0.381566 0.199889 0.306416 -0.679659 0.369302 0.289139 0.091906 -0.754881 -0.032742 0.435332 0.017691 -0.476255 -0.384135 -0.435159 -0.411103 -0.233280 0.134509 -0.109682 -0.098336 0.146184 0.106458 0.046702 -0.215398 0.098459 0.122793 0.222950 -0.218086 -0.400474 0.092183 -0.135065 0.028587 0.305265
14648 0.268622 -0.012287 -0.189923 0.021223 -0.310902 0.443698 -0.117530 0.060647 -0.408899 0.744598 0.289530 0.194323 0.197255 -0.278775 -0.198936 -0.292901 -0.162423 -0.104966 0.149726 0.500332 0.102985 0.166246 -0.532835 0.210670 0.489992 -0.026724 0.797269 0.726198 0.383981 -0.183203 -0.509370 0.072649 0.329170 0.034637 0.405460 -0.719557 0.281518 0.242319 0.238537 -0.591963 0.334378 0.590817 0.141258 -0.370795 -0.455436 -0.504395 -0.337325 -0.253697 -0.040748 -0.113081 -0.103334 -0.090691 -0.156520 0.229118 -0.095896 0.183011 0.255177 0.075572 -0.150009 -0.167175 0.215170 -0.196603 -0.222052 0.326815
7007 0.080377 -0.242186 -0.146062 -0.330686 -0.084533 0.340094 -0.294886 0.570406 0.441818 -0.038070 0.147745 0.821671 -0.331019 -0.050065 0.612670 -0.305772 -0.258049 0.123134 -0.393884 -0.394962 0.281676 0.542498 -0.257657 0.211524 0.196049 -0.105287 -0.214796 0.386074 -0.174292 0.331136 -0.004341 -0.621823 0.531841 0.104983 -0.061236 -0.376553 0.045959 -0.286199 -0.008474 -0.110157 -0.132770 0.295516 -0.536320 -0.012454 0.043167 0.051611 -0.323384 -0.288165 -0.443991 0.045874 0.013227 0.218339 0.439638 0.374972 -0.281623 -0.798662 0.341022 -0.147882 -0.387627 0.263579 0.327443 -0.235350 0.458078 0.205194
15245 0.316475 -0.300063 -0.444794 0.041303 -0.611314 0.589502 0.103175 0.045847 -0.494067 0.408909 0.368553 0.134693 0.181400 0.011414 0.206045 -0.562834 -0.096358 -0.082506 -0.068916 0.282204 -0.350940 0.180258 -0.402296 0.269269 0.362472 0.185622 0.483624 0.576635 0.327515 -0.142075 -0.435032 0.185119 0.462475 0.186557 0.383009 -0.643596 0.196379 0.241632 0.246116 -0.705731 -0.082548 0.385960 -0.104427 -0.467327 -0.184813 -0.372429 -0.359207 -0.123002 -0.075168 -0.249621 -0.126388 0.495129 -0.045743 -0.067901 0.254002 0.386292 0.154682 0.436463 -0.174756 -0.396737 0.047358 -0.098353 -0.114193 0.397161
19939 0.181289 -0.132946 -0.393478 -0.016478 -0.376807 0.438426 -0.190435 0.178307 -0.469914 0.465316 0.353893 0.125826 0.373478 -0.107801 0.038934 -0.392106 -0.218182 -0.163726 0.189890 0.575443 0.017465 0.022625 -0.285969 0.197732 0.451903 0.274820 0.579911 0.514423 0.389499 0.075292 -0.471622 -0.032575 0.538497 0.328327 0.283422 -0.781281 0.329128 0.398344 0.013862 -0.793385 -0.183700 0.455988 0.088605 -0.360049 -0.418748 -0.254256 -0.449010 -0.142319 -0.029821 0.045766 -0.101657 0.251486 0.070817 -0.006857 -0.183262 0.234104 0.210945 0.296389 -0.196332 -0.449177 0.014316 0.026167 0.066912 0.244266
24371 -0.541167 0.056535 -0.276401 0.036738 -0.007956 0.423701 -0.218062 -0.394821 -0.235260 0.124492 0.022582 0.302557 0.325350 -0.254057 -0.286298 -0.658788 0.336706 -0.273878 -0.080252 0.113825 -0.145284 0.168586 -0.013014 0.199873 0.220966 -0.519510 0.337062 0.212393 0.388893 0.612778 -0.496551 -0.204146 0.155090 -0.006237 0.715726 -0.203504 0.047362 -0.152799 -0.118786 0.069552 0.075209 -0.176349 -0.308485 -0.497296 -0.200680 -0.503279 0.212182 -0.227754 0.374681 0.260066 0.192721 1.031729 0.402210 0.120387 -0.289632 -0.436688 -0.253608 -0.079422 -0.072070 -0.235689 0.060551 0.419291 0.452124 -0.130579
22504 0.110611 -0.303361 -0.421857 -0.158196 -0.572646 0.159988 -0.320167 0.475778 -0.475547 0.469341 0.324810 0.260215 0.211768 -0.049175 -0.123251 -0.498650 -0.120230 -0.247222 0.312797 0.471794 -0.094415 0.309029 -0.485423 0.641678 0.320642 0.587034 0.419724 0.502376 0.025211 0.104927 -0.338387 0.158158 0.420593 0.476812 0.503373 -0.497612 0.293861 0.489425 0.016682 -0.414036 -0.151297 0.229134 0.106842 -0.666891 -0.342303 -0.307729 -0.448461 -0.474218 0.115359 -0.167916 -0.089235 0.145401 0.295930 0.145522 0.068665 0.196635 0.062880 0.064615 -0.235349 -0.423968 0.091709 -0.009656 0.079697 0.143371
15457 0.196025 -0.353351 -0.452749 -0.229389 -0.540844 0.627108 -0.003595 0.274731 -0.468340 0.469359 0.289074 0.215786 0.266709 -0.045229 -0.024441 -0.401272 0.105683 -0.051428 0.306787 0.498718 0.058189 0.219114 -0.413810 0.271750 0.358269 0.323762 0.612747 0.603867 0.334992 0.091388 -0.384099 0.014195 0.152222 0.143683 0.209894 -0.540934 0.384861 0.452395 0.146892 -0.658835 0.001730 0.227223 -0.023069 -0.754297 -0.387728 -0.373025 -0.150586 0.069400 0.116238 -0.127561 -0.009492 0.354086 0.210765 0.200547 -0.077976 0.169961 0.205399 0.396549 -0.083451 -0.328861 0.185434 -0.011737 0.109581 0.271277
15148 -0.354095 -0.010080 -0.641789 -0.465528 0.275997 0.160932 -0.356320 0.009282 0.008357 0.548893 -0.263005 -0.082796 0.103789 0.275681 0.268874 -0.726629 0.452391 -0.087100 -0.384412 0.104131 0.066123 0.552243 0.082549 -0.386820 -0.398679 0.557553 0.173276 0.253663 -0.009306 0.218794 -0.057074 0.327989 0.308939 -0.611294 0.037922 -0.233220 0.239307 0.452696 -0.287784 0.649014 -0.202004 0.494668 -0.273534 -0.654584 -0.421850 0.232158 0.183622 0.639504 -0.183105 0.228037 -0.056974 0.075740 0.146912 0.086135 0.200026 0.001497 0.550966 0.731198 -0.150917 -0.158326 0.200399 -0.051831 -0.312806 0.199033
19640 -0.260489 0.708163 0.003527 -0.254705 -0.043277 0.682033 0.359162 -0.121826 0.721959 0.597180 -0.066108 0.020247 0.559494 0.028777 0.287445 -0.031088 0.447254 -0.424901 0.143639 0.143082 -0.111493 -0.298744 -0.151057 0.245585 -0.181496 0.433221 0.178670 -0.154557 0.165682 0.132416 0.048027 -0.152473 0.508278 -0.155715 0.386678 0.114089 0.155465 -0.357035 -0.067825 -0.173219 -0.353085 0.236038 -0.001436 0.240625 0.387407 0.155071 0.167841 -0.171244 -0.574846 -0.232798 0.133821 0.124384 0.612974 0.095781 -0.506994 -0.364804 -0.211122 0.459450 -0.173121 -0.402009 -0.456432 -0.446944 -0.066769 0.044949
7307 -0.021580 -0.491359 0.671617 0.243455 -0.233910 0.388390 -0.138619 0.080837 -0.289752 0.632048 0.166780 -0.341136 0.119183 -0.151423 0.110614 -0.480966 0.098016 0.344250 -0.074043 0.200012 0.285766 -0.220856 -0.095221 -0.089326 -0.103631 0.051272 0.306756 0.441299 0.257809 0.064770 -0.156817 -0.172725 0.738901 -0.231084 0.227384 0.455147 0.206861 -0.093911 0.261653 0.657988 -0.298721 -0.237531 0.158369 -0.188574 0.648258 -0.040135 0.042768 -0.000719 -0.052597 0.218482 -0.324928 -0.040785 0.316449 -0.394599 0.000278 0.139141 0.606827 0.282366 -0.004290 -0.078286 0.108854 0.031734 1.103501 -0.352589
13520 0.083325 -0.119407 0.476805 -0.292203 -0.033921 0.045995 -0.002084 -0.296789 -0.214002 0.578349 -0.474555 -0.445153 0.002637 -0.659327 -0.090436 -0.205614 -0.426083 0.154201 -0.634642 -0.064311 -0.040673 0.285159 -0.436152 0.077471 0.349062 0.189633 0.050880 -0.072476 -0.255654 -0.197407 0.285938 0.346604 0.762323 -0.029222 0.367060 -0.276812 0.102872 -0.082283 -0.074563 0.165339 0.103723 0.348186 -0.292273 0.214532 -0.067630 -0.236367 -0.734262 -0.041913 -0.224724 0.361201 -0.687255 0.642180 0.225491 -0.242665 0.182527 -0.103946 -0.295350 0.560161 0.431048 -0.189801 -0.029071 0.295301 -0.448446 0.233921
6456 -0.573254 0.192592 -0.648028 -0.252225 0.370644 0.248306 -0.351121 0.363902 0.158191 0.422549 -0.553261 0.155174 0.201698 0.258752 0.222231 -0.677806 0.738569 -0.065610 -0.470853 0.140765 0.168644 0.529026 0.013696 -0.343340 0.001008 0.353319 0.263611 0.130553 0.142569 0.148707 -0.362540 0.422295 0.420657 -0.474546 0.056157 -0.327354 -0.031234 0.121978 -0.518329 0.225614 0.117820 0.286703 -0.393491 -0.124917 -0.684394 0.330234 0.225353 0.461114 -0.205554 0.327936 -0.182166 0.006195 0.265833 0.325354 0.208315 0.089790 0.513576 0.611315 0.099395 -0.203055 0.208518 0.243605 -0.164276 -0.070364
16389 0.064261 0.138173 -0.657604 -0.177337 0.139907 0.034607 0.218482 -0.189092 0.073692 0.855939 -0.169545 -0.353947 -0.625081 -0.512655 -0.129840 0.102851 0.413255 0.062511 0.253257 -0.356790 -0.021307 -0.003576 0.047057 0.226854 -0.346265 0.223215 0.146838 -0.165867 -0.096078 -0.417303 -0.380601 0.276621 0.071689 -0.622322 0.253181 -0.329541 0.846891 0.013100 0.014856 0.116609 0.086290 -0.232871 -0.510735 0.153943 0.217722 -0.159565 -0.139127 -0.166615 -0.180359 0.150014 0.297821 -0.219584 0.673362 -0.635970 0.292553 0.483772 0.318870 0.105632 -0.081767 0.037148 0.160988 -0.225244 0.117629 0.318147
14924 -0.329295 -0.362808 0.390245 -0.256684 -0.514231 0.697992 -0.076513 -0.332951 0.094665 0.337019 -0.307822 -0.054151 0.007714 -0.679205 0.439447 -0.637434 0.132501 0.258806 0.161538 -0.133177 0.180838 0.088878 -0.168731 -0.109291 -0.236673 0.290513 0.419879 0.128699 -0.102984 0.431460 -0.088163 -0.078128 -0.639579 0.105942 0.037745 0.347464 0.405435 0.416318 0.474741 0.250697 -0.153517 -0.070489 0.255539 0.493323 0.152163 -0.128053 -0.123915 0.300608 0.368654 0.596478 -0.064287 0.342985 0.523139 0.198356 0.450637 -0.242403 0.461788 0.187850 -0.145573 -0.001086 0.402279 -0.283773 0.563518 0.034237
22901 -0.226153 -0.075586 -0.425894 -0.200278 0.437470 0.177681 -0.484490 0.532908 -0.094752 0.566285 -0.283145 0.497830 -0.348711 0.321220 0.411800 -0.820000 0.421254 -0.000096 -0.155427 0.302812 0.013164 0.449152 0.250220 -0.468195 -0.180679 0.348294 0.129833 0.308400 0.329431 0.175692 -0.247263 0.181454 0.584605 -0.527542 0.035028 -0.440143 0.286879 0.294991 -0.311612 0.618745 0.064186 0.466328 -0.349586 0.038137 -0.722287 0.239851 0.384797 0.544057 0.130234 0.142006 -0.343529 0.314367 0.071039 0.387706 -0.106106 0.010875 0.391278 0.256310 0.154334 -0.047428 0.425428 0.109659 -0.013950 -0.354314
17819 -0.274279 0.056716 -0.367468 -0.674205 0.453845 0.200451 -0.519745 0.275390 0.151249 0.515887 -0.454855 0.187532 -0.273877 0.078928 0.091672 -0.545075 0.429634 -0.030511 -0.518005 0.412447 -0.140064 0.394340 -0.053847 -0.313736 -0.387175 0.361803 0.190986 0.303175 0.039756 0.009054 -0.280680 0.369923 0.533350 -0.469827 0.148656 -0.467818 0.236825 0.012185 -0.516834 0.427865 0.025898 0.556046 -0.301060 -0.405461 -0.630082 0.332396 0.110339 0.480684 0.202537 0.375598 -0.205370 0.098336 0.046770 0.259394 -0.076154 0.057408 0.607397 0.478448 0.046776 -0.209373 0.389566 0.095400 -0.210802 -0.132320
24559 -0.048766 -0.089295 -0.128839 -0.222885 0.005842 0.288554 0.348142 -0.224614 0.268965 0.699164 0.249960 0.257466 0.224131 0.025168 -0.712886 0.134749 0.440732 -0.075008 -0.342621 0.041812 -0.324544 0.515908 0.258592 -0.113793 0.306475 0.748228 0.004913 0.566515 -0.098064 0.496568 -0.282208 0.295266 0.064348 -0.186061 0.043183 -0.480155 0.362768 0.024567 -0.303260 0.559874 0.140629 -0.467522 -0.413227 -0.159357 0.630496 -0.301385 -0.526603 -0.395273 -0.436686 0.015030 -0.118575 0.484097 0.341839 0.219868 0.183349 -0.365530 -0.187248 0.320501 0.087941 -0.424151 -0.490641 -0.183470 0.214380 0.031628
13482 -0.037140 -0.002805 -0.522512 -0.296276 0.102573 -0.056695 -0.375601 0.277274 0.352686 0.750412 -0.391558 0.041209 -0.231164 0.272040 0.287344 -0.976739 0.556114 0.042365 -0.397557 0.208070 0.135831 0.270498 0.104231 -0.620725 -0.257927 0.162177 -0.023153 0.311516 0.027211 0.167534 -0.212207 0.270740 0.295625 -0.412027 0.108127 -0.491690 -0.078765 0.069014 -0.115649 0.563123 0.131029 0.338731 -0.511242 -0.241622 -0.322941 0.226222 0.228377 0.745581 -0.000175 0.097572 0.108677 0.132250 0.503476 0.197068 0.033484 -0.185218 0.502050 0.504560 -0.075582 -0.245156 0.488036 0.258640 -0.328677 -0.473110
14373 -0.234050 0.160891 -0.472091 -0.353642 0.193941 0.239383 -0.508241 0.112322 0.073317 0.547453 -0.491730 0.254526 -0.030526 0.147147 0.289078 -0.810830 0.721302 -0.135017 -0.250859 0.275382 -0.200029 0.332889 -0.037188 -0.601418 -0.297056 0.020033 -0.057704 0.306527 0.261520 0.494735 -0.093311 0.258604 0.535646 -0.563261 0.173903 -0.568515 0.069188 0.004932 -0.606225 0.472840 0.006978 0.097645 -0.381223 -0.405212 -0.361727 0.272681 0.281949 0.484403 0.042351 0.251796 -0.266524 -0.061079 0.346226 0.416001 0.029672 0.065055 0.623808 0.265205 0.073882 -0.198732 0.105863 0.277416 -0.283003 -0.252503
12927 -0.049993 0.149550 0.234583 -0.486171 -0.135912 -0.223042 -0.357076 -0.247053 -0.344525 0.519689 0.046736 0.643852 0.102497 -0.284710 0.641728 -0.489950 0.409765 -0.377235 -0.193507 0.271090 -0.005547 0.259040 -0.697966 -0.032330 -0.431334 -0.046633 0.267356 0.006917 -0.426021 0.126250 -0.476441 -0.183689 0.351010 -0.237681 0.228772 -0.240198 -0.028397 -0.452604 0.566833 0.041829 -0.276087 0.190833 -0.106230 -0.226700 0.286068 -0.156957 0.192753 -0.123421 0.529023 -0.203934 0.226447 0.661953 0.054775 -0.539564 -0.286012 0.008705 0.383701 -0.058971 0.133303 -0.227142 0.468360 0.175098 -0.007815 -0.737900
25006 -0.305248 -0.184798 -0.141360 0.021943 -0.300194 -0.548402 0.283324 0.033688 -0.094609 0.583386 0.090008 0.476166 0.035307 -0.387102 -0.566966 -0.494289 0.257657 0.211389 -0.213221 0.415287 0.660457 0.009937 -0.520420 0.118016 -0.121748 -0.310352 -0.159629 0.117738 0.048277 -0.233090 -0.433165 -0.093204 0.134998 -0.459620 0.306571 -0.327795 0.640479 -0.276054 -0.057892 0.614018 -0.229059 -0.289785 -0.073801 -0.168612 0.267581 0.165689 -0.111965 -0.367553 0.038557 0.597643 0.181132 0.137117 0.148887 -0.014974 -0.582802 0.388152 -0.142754 0.422168 0.230792 0.069193 -0.311660 -0.141617 0.225622 0.101318
7635 0.312979 -0.151083 -0.555879 0.054651 -0.607805 0.519404 -0.176135 0.083778 -0.379629 0.439151 0.325656 0.216629 0.170349 -0.097593 0.297275 -0.528165 -0.042522 -0.120835 0.125132 0.668524 -0.029055 0.108818 -0.121267 0.297241 0.446637 0.253280 0.532868 0.509878 0.265191 -0.020403 -0.660285 0.143645 0.432324 0.076945 0.273706 -0.548540 0.348486 0.276817 0.109836 -0.789747 -0.027285 0.410087 0.068036 -0.437831 -0.283388 -0.372805 -0.458037 -0.220415 -0.079906 -0.096008 -0.115969 0.214381 0.081981 0.147263 -0.215350 0.120156 0.054098 0.120015 -0.282768 -0.443880 0.036089 -0.133001 0.012807 0.078673
15108 -0.318348 -0.534196 -0.359203 -0.497338 -0.166718 -0.553136 -0.089212 -0.088674 -0.096236 0.506496 0.186763 -0.294995 0.387784 -0.067473 -0.021643 -0.369080 0.162385 -0.057381 0.086941 -0.003938 0.320846 0.139618 -0.118539 0.664079 0.234198 -0.296330 -0.115648 0.340623 -0.400172 -0.528895 -0.711471 -0.227149 0.717771 0.478628 -0.198309 0.352289 0.369226 -0.037750 0.187544 0.296674 -0.055710 0.217345 -0.060895 0.213172 0.451935 -0.127957 0.025057 0.144263 -0.365730 -0.046770 0.409311 0.714647 0.443454 -0.135494 -0.457753 -0.211391 0.096043 -0.098766 -0.606726 0.242201 -0.327163 -0.165472 0.373812 0.126445
2623 -0.266865 -0.110623 -0.537200 -0.016136 0.571081 0.081011 0.038022 0.217986 0.435812 0.794843 -0.091855 0.337274 -0.111385 0.211742 0.094940 -0.403817 0.479903 -0.113434 -0.265111 0.357471 0.151508 0.369366 -0.116333 -0.445589 -0.185169 0.089215 0.250884 0.389303 -0.302228 0.218489 -0.208243 0.390273 0.548207 -0.579424 0.044224 -0.684696 0.315783 0.149848 -0.351529 0.437064 -0.110273 0.378858 -0.548845 -0.198422 -0.554965 0.248978 0.031026 0.771406 0.082410 0.119574 -0.190405 0.304477 -0.036149 0.342017 0.196806 0.154226 0.493647 0.326625 0.025082 -0.393617 0.301842 0.344801 -0.359619 -0.210870
