5242 64
21012 0.257757 0.624076 -0.067134 0.157648 0.216969 0.180321 -0.353568 0.096792 0.587726 -0.095911 -0.067863 0.013024 -0.078159 -0.312499 0.690822 -0.405975 -0.138621 0.382087 0.162028 -0.171776 0.310890 0.464849 0.404478 0.140088 -0.025858 -0.745366 0.167577 0.130473 -0.437182 -0.260005 -0.288351 -0.469329 -0.114495 0.120349 -0.228104 0.276651 -0.292763 0.154234 -0.177922 -0.440136 0.077467 -0.209197 0.012699 0.194824 -0.392386 0.198456 0.659591 0.017006 -0.552504 -0.727587 0.515012 -0.434842 0.227963 0.421399 0.147399 0.180497 -0.109562 0.074767 0.011906 0.080149 0.577103 -0.347884 0.018425 -0.162047
21281 0.560920 1.172329 -0.238051 0.575736 0.306850 -0.237877 -0.015276 -0.325340 0.378500 0.092727 -0.510602 -0.358411 0.009521 -0.072929 0.182466 -0.058842 0.282696 0.402340 0.007363 -0.054438 0.218720 0.713597 0.186249 -0.040241 0.164550 -0.737585 0.308081 -0.242855 -0.181360 -0.344380 -0.596344 -0.122557 -0.275628 -0.269702 -0.120528 0.213390 0.164830 0.013710 -0.418703 -0.086537 0.440018 -0.230474 -0.451067 0.079554 -0.004214 0.666807 0.267537 0.316112 -0.637071 0.076902 0.457594 -0.115259 0.232869 0.311029 -0.053210 0.602532 -0.254538 -0.258663 0.302748 0.010541 0.563625 -0.284643 -0.004795 -0.084796
22691 0.398517 0.792107 -0.197565 0.181499 0.281326 -0.373569 -0.004708 0.127889 0.336576 0.191930 0.046474 0.369884 -0.233836 -0.210395 0.375672 -0.085892 -0.193154 0.354628 0.235948 -0.092265 0.113916 0.488396 0.371678 -0.471546 0.072352 -0.766557 0.190135 -0.098020 -0.660426 -0.317456 -0.310677 -0.533334 0.131808 0.121303 -0.104437 0.165327 -0.382983 0.263799 -0.300370 -0.432613 0.415435 -0.333801 -0.059874 0.314374 -0.250277 0.371953 0.678051 -0.234392 -0.583326 -0.742519 0.249210 -0.141237 -0.095204 0.374864 0.174381 0.307080 -0.382366 -0.333250 0.344944 -0.250689 0.719303 -0.280619 -0.196432 -0.039572
12365 -0.016515 0.445868 -0.204280 0.237593 0.562012 -0.106580 -0.039522 0.009639 0.316782 -0.010521 -0.461153 0.025643 -0.045115 -0.001161 0.492300 -0.333573 -0.066372 -0.004698 -0.403474 -0.149848 -0.213009 0.510927 0.735894 -0.388618 0.532335 -0.779599 0.052959 -0.105050 -0.416503 -0.208260 -0.079840 0.057887 -0.426651 -0.106986 -0.229831 0.250045 -0.242632 0.180393 0.176885 -0.427302 0.177274 -0.820690 -0.509553 0.445473 -0.502128 0.230752 0.351006 0.163812 -0.630532 -0.202081 0.448094 -0.056755 0.353276 0.449530 0.061869 0.065100 0.239018 -0.054685 -0.177286 -0.068093 0.287686 -0.418516 0.126240 0.068475
13801 -0.183289 0.126532 -0.379055 0.344379 -0.008904 -0.301254 -0.498171 0.103402 0.619945 0.014351 -0.013855 -0.615661 1.050041 -0.269149 0.037397 -0.372461 -0.447607 0.405687 0.346667 -0.081435 -0.181949 -0.345280 0.113725 -0.323738 0.301159 -0.275873 -0.052140 -0.274332 0.073822 0.047142 -0.037849 -0.337885 0.264489 -0.176596 0.088741 0.565454 0.022035 -0.099777 -0.360172 0.438788 -0.406348 -1.089254 0.217066 -0.323580 -0.247997 -0.063392 -0.273413 -0.381265 0.551957 -0.137395 0.157549 0.137704 0.140997 0.216928 -0.314863 0.225502 -0.155464 -0.811492 -0.058246 -0.173297 -0.039630 -0.670621 -0.406937 0.240786
13929 -0.255451 0.728271 0.031887 0.375965 0.405760 -0.612017 -0.112777 0.145871 0.188336 -0.746899 -0.356401 -0.208000 0.179008 0.088249 -0.502475 -0.150441 -0.483786 0.368118 0.333284 0.152997 0.380159 -0.023285 0.068640 -0.257901 -0.079701 -0.356669 0.229257 -0.220144 0.359186 -0.094405 -0.276162 0.031989 -0.111960 0.239963 -0.650906 0.522620 0.209509 -0.018790 -0.486667 0.263020 0.029953 -0.145588 -0.053913 -0.301763 0.286331 0.093419 -0.205865 0.154864 -0.276170 -0.398388 0.303595 -0.271972 -0.267122 -0.164593 0.557207 0.987449 0.525269 0.044784 0.346410 0.622604 0.117363 -0.826144 -0.782955 0.345486
14265 -0.228579 0.390276 0.176990 -0.516659 -0.097850 0.034317 -0.822896 -0.068641 0.181244 0.071084 -0.672222 -0.582159 0.283309 -0.748608 -0.810422 0.023014 0.240981 0.201739 0.149432 -0.455098 0.079973 -0.415132 0.209497 -0.931072 0.306598 -0.620720 -0.185028 0.496701 -0.165181 -0.728311 -0.143393 -0.335893 0.190928 1.086592 -0.961599 0.088474 -0.104254 0.342663 0.167735 0.217152 0.416338 0.383868 0.181761 0.256628 0.019503 0.110382 -0.195515 0.953979 -0.359313 -0.354116 -0.186587 0.198297 -0.112361 0.272036 0.275203 -0.130760 -0.796381 0.093874 0.333690 0.436332 0.020763 -0.637624 0.481084 -0.492245
17655 0.179617 0.529239 -0.115612 0.230842 -0.139811 -0.179016 -0.297498 -0.046941 0.646450 -0.048420 -0.211886 0.101164 0.354915 -0.265645 0.652201 0.167565 -0.237637 0.315152 -0.025363 -0.515829 0.003897 0.378037 0.183665 -0.052017 0.417401 -0.910082 -0.327988 -0.367450 -0.483253 -0.211797 -0.030866 -0.441002 0.028339 -0.206772 -0.099273 0.256154 -0.129634 0.214236 -0.202462 -0.204499 -0.028390 -0.593776 0.035924 0.380584 -0.223009 0.159622 0.258041 0.094727 -0.326296 -0.458530 0.724865 0.042959 0.165301 0.475377 -0.389560 -0.053524 -0.263922 -0.303226 0.118623 -0.108300 0.170278 -0.687728 -0.251206 0.128842
21508 0.234430 0.624672 -0.231654 0.305951 0.187398 0.119423 0.024885 0.302643 0.353913 -0.294460 -0.327477 -0.179661 0.051466 -0.491260 0.517615 -0.183008 -0.000397 0.211390 -0.125498 -0.110774 0.089555 1.040650 0.459890 -0.199346 0.366846 -0.490441 0.147739 -0.288711 -0.446854 -0.306263 -0.253258 -0.468496 -0.440608 -0.196150 -0.255196 0.326579 -0.504647 0.538967 -0.091198 -0.303783 0.028149 -0.614731 -0.042218 0.203130 -0.485246 0.476370 0.202413 0.204214 -0.718255 -0.429797 0.276004 0.200130 0.067275 0.480414 -0.286737 0.404930 -0.140364 -0.196768 -0.284428 0.211437 0.477680 -0.473926 0.042847 -0.292897
6610 -0.005880 0.694056 -0.547259 0.134399 0.267018 0.271669 0.177335 0.023808 0.570312 0.093344 -0.630557 -0.295303 -0.218373 -0.092642 -0.047366 -0.197183 0.275369 0.589983 0.069897 0.150378 -0.007754 0.260476 0.638214 -0.063219 0.297676 0.126002 0.150358 -0.673343 -0.211989 -0.338196 -0.230714 -0.024397 -0.138428 0.270195 -0.307888 0.092525 -0.250507 -0.101571 -0.312028 -0.092121 0.273399 -0.659878 0.431501 0.136583 -0.249720 0.571042 0.518180 0.201827 -0.714395 -0.372855 0.404300 -0.051751 0.413400 0.245078 -0.328861 -0.052984 -0.233948 -0.652552 -0.180670 -0.240100 0.650548 -0.462885 -0.069732 0.126017
2741 0.144007 0.678805 -0.112006 0.186755 0.001182 0.057847 -0.092006 -0.198893 0.450798 -0.204834 -0.140027 -0.023980 -0.060620 -0.333884 0.743909 -0.455211 -0.035498 -0.029270 -0.311532 -0.212465 0.179080 0.688799 0.277395 -0.086931 0.233816 -0.931195 0.192208 0.001409 -0.186789 -0.325370 -0.320067 -0.252613 -0.206854 0.057141 -0.139343 0.196114 -0.473584 0.149420 -0.103032 -0.304227 0.169126 -0.463872 0.016845 0.167118 -0.369000 0.397684 0.330683 -0.074317 -0.632023 -0.683630 0.354450 -0.208911 0.178187 0.386961 -0.083279 -0.079238 -0.003510 -0.090063 -0.092990 0.108842 0.687464 -0.674168 -0.062457 -0.420820
9785 0.588806 0.879533 -0.007422 0.319271 0.121717 0.320097 0.016880 -0.004447 0.455776 -0.117511 -0.634670 -0.308795 -0.188307 -0.142414 0.386611 -0.174494 0.184485 0.410230 -0.107635 -0.062308 -0.181109 1.006225 0.414828 -0.295846 0.146908 -0.546510 0.009727 -0.325302 -0.507966 -0.305389 -0.567646 -0.224781 -0.180554 0.249361 -0.257353 0.055777 -0.307203 0.060034 0.026025 -0.241930 0.298824 -0.480651 0.250592 0.590228 -0.683986 0.449237 0.209975 0.076134 -0.624368 -0.333011 0.298483 -0.184792 -0.184926 0.407586 -0.433417 0.232739 -0.130833 -0.180929 0.040889 -0.050636 0.259078 -0.551466 -0.077001 -0.260889
19423 0.781260 0.756658 -0.197879 0.215540 0.255010 -0.164724 0.060321 -0.327698 0.113670 -0.033035 -0.283502 -0.331804 -0.204004 -0.522126 0.571443 -0.008713 0.127617 0.287923 0.150182 -0.003020 0.220745 0.478491 0.449703 -0.166248 0.398428 -0.393984 0.339089 -0.201057 -0.377677 -0.130451 -0.536861 -0.331758 -0.032721 -0.181624 -0.414551 0.258362 -0.074563 0.098539 -0.221316 -0.157742 0.151746 -0.325522 -0.194684 0.130044 -0.143089 0.309327 0.498303 -0.030803 -0.614644 -0.585998 0.473614 -0.629972 -0.083142 0.654420 -0.058382 0.133808 -0.379401 -0.328779 0.344434 0.263782 0.552528 -0.519379 -0.331384 -0.150315
15003 0.267079 0.651294 -0.102431 0.338277 0.208873 0.244613 -0.051240 0.424210 0.337166 -0.011114 -0.236034 -0.160107 0.155528 -0.475274 0.430424 -0.414941 -0.034504 0.117220 -0.324207 -0.097301 -0.058601 0.915858 0.393055 -0.361855 0.290895 -0.644627 0.143016 -0.178119 -0.324647 -0.249447 -0.591990 -0.121037 -0.587300 -0.093986 -0.398518 0.247015 -0.251097 0.279058 -0.036830 -0.338491 0.118393 -0.547674 -0.098128 0.520184 -0.534200 0.467168 0.071417 0.044176 -0.803024 -0.474031 0.271559 -0.015267 0.321762 0.571392 -0.135141 0.263760 -0.150617 -0.341129 -0.200690 0.185839 0.324990 -0.367676 -0.118157 -0.202818
2710 -0.284207 0.885340 -0.273844 -0.420542 0.459039 -0.329140 -0.326413 -1.030239 0.466297 0.014742 0.168403 0.097733 -0.088152 -0.289787 -0.604948 -0.960846 -0.940490 0.361068 0.485622 0.196086 0.110563 0.436934 -0.161460 -0.062212 0.093201 0.288317 -0.168143 -0.279556 -0.212984 -0.379481 0.107921 0.022544 -0.177916 0.388329 0.248396 0.052883 0.423864 0.526376 0.029910 -0.143020 0.010797 -0.678421 0.261679 -0.283777 0.297829 -0.422491 -0.793997 -0.149966 0.026036 -0.377176 0.094720 -0.385559 0.304463 -0.055120 0.365779 0.489856 -0.019059 -0.046592 -0.164658 0.361131 -0.199996 0.031795 -0.604618 -0.731756
14807 0.225630 0.581381 -0.243991 -0.025321 0.202241 -0.063746 -0.060056 0.100477 0.639538 0.025668 -0.175322 0.076284 0.151490 -0.451386 0.559186 -0.268483 -0.216696 0.631572 0.058278 -0.431076 0.029557 0.866300 0.334884 -0.167980 0.118794 -0.525503 0.129707 -0.099218 -0.492529 -0.067364 -0.678635 -0.399997 0.081011 0.251528 -0.037083 0.209426 -0.312443 -0.050317 -0.273256 -0.311478 0.376315 -0.443783 -0.040736 0.174835 -0.117866 0.594141 0.506301 0.091264 -0.818054 -0.568813 0.728853 -0.143298 0.279875 0.124427 0.076027 0.072207 -0.203221 0.079197 0.064748 0.099553 0.177728 -0.544453 -0.014599 -0.350387
18866 0.024746 0.571125 0.103337 0.098281 0.272568 0.396660 0.023905 -0.392241 0.303968 -0.493207 -0.543592 0.041353 0.043076 0.022717 0.169387 -0.421556 -0.148129 -0.182883 -0.161974 -0.124811 0.253755 0.370497 0.699957 -0.166326 0.324822 -0.377991 -0.295349 -0.287311 -0.312648 -0.144934 -0.248206 -0.024284 0.004524 0.037188 -0.029714 0.585448 -0.482815 0.809148 0.288186 -0.311805 0.269877 -0.387523 -0.412815 0.709601 -0.578536 0.552414 0.418579 -0.042323 -0.581675 -0.537763 0.338783 0.013605 -0.259818 0.481383 0.394487 0.144359 0.239107 0.181094 -0.198538 -0.128074 0.627460 -0.525849 0.019250 -0.015543
7689 -0.498700 0.922949 0.144238 0.100986 0.274629 0.010439 -0.431921 0.377927 0.086342 -0.279583 -0.009420 0.019652 0.116086 0.510625 -0.827233 -0.177981 0.503228 0.064366 0.196911 0.254637 -0.099196 0.308409 0.494829 -0.705778 0.064439 -0.216992 -0.509883 -0.095409 0.325848 -0.475779 0.674068 -0.352691 -0.136547 0.340944 -0.188621 -0.323477 0.425425 0.750710 -0.356304 -0.057779 -0.563235 0.003092 -0.456382 -0.231076 -0.099825 0.067543 -0.569331 0.471897 -0.136830 -0.431182 0.074016 -0.562093 -0.089353 -0.267131 0.376437 -0.164753 -0.030986 -0.185828 0.728651 0.188901 -0.043998 -0.261959 -0.395608 -0.309176
1653 0.380135 0.883318 -0.391554 0.426660 0.402015 -0.228122 -0.149294 -0.152430 0.517502 -0.017290 -0.160920 -0.267656 -0.141647 -0.632105 0.237629 0.023304 -0.067397 0.425857 -0.226401 0.098859 0.153489 0.823616 0.534364 -0.067299 0.295742 -0.691395 0.276394 -0.407204 -0.501894 -0.181262 -0.435965 -0.123288 -0.047944 0.020178 -0.258867 0.368433 -0.130882 0.052314 -0.197503 -0.283491 0.330850 -0.121138 -0.253311 -0.160339 0.031200 0.814673 0.335137 0.226907 -0.659210 -0.028051 0.278213 -0.434367 -0.059097 0.288590 -0.145467 0.316608 -0.238548 -0.263896 0.226811 0.216628 0.561155 -0.612706 -0.119627 0.100868
6264 -0.612341 0.313470 0.431199 -0.149607 0.377636 0.483599 0.209281 -0.024282 1.013968 0.240282 -0.012461 -0.292596 -0.027690 0.133064 -0.494159 -0.287597 -0.668006 -0.063843 0.260575 -0.602030 -0.714989 0.392515 -0.162860 -0.603665 0.031072 -0.177332 0.976727 -0.173545 -0.622445 -0.023339 0.138885 0.090433 -0.135654 0.316253 0.075849 -0.407905 -0.204414 -0.075112 -0.594347 0.585109 0.363684 -1.045575 -0.297764 -0.507230 0.347236 -0.140750 -0.046566 0.382672 -0.013362 -0.760497 -0.489268 -0.568797 0.446835 0.196402 0.699746 -0.510991 0.532702 -0.239880 0.082241 -0.321296 -0.439003 -0.554654 -0.463493 0.200371
15244 -0.107889 0.261417 -0.673494 0.215604 0.165131 0.151614 -0.620523 -0.313284 0.819205 -0.692510 0.146478 -0.392684 -0.237483 0.263089 -0.105701 -1.231559 -0.189742 0.340610 0.005968 0.470509 -0.081907 -0.111304 -0.226576 -0.099601 0.312388 0.028513 0.484517 0.579862 0.227236 -0.283960 0.221704 0.416030 0.096581 0.705828 0.485355 0.018706 0.070990 0.569987 -0.431644 -0.254252 0.423610 -0.016748 0.290644 -1.063953 -0.439353 -0.518329 -0.676805 0.154590 0.039550 -0.178994 0.509011 0.309238 0.576920 0.366339 0.150142 0.159777 0.080040 -0.488416 0.116722 -0.010215 0.374308 -0.161555 -0.698543 -0.084467
449 -0.725267 0.024355 0.543702 -1.115938 -0.335616 0.430611 -0.209060 -0.373503 0.402178 -0.234534 -0.843802 -0.900403 -0.295599 -0.372590 0.165122 -0.388565 0.520916 -0.648759 0.179218 -0.918280 0.236430 0.054196 0.986565 -0.966642 0.087363 -0.081820 -0.111022 -0.654800 -0.459643 -0.543836 -0.247740 -0.468761 0.024543 1.137142 0.395660 0.079332 -0.293781 0.925023 -0.676146 -0.402974 0.488094 -0.126579 -0.703381 -0.377910 -1.034361 -0.002991 0.293008 0.202014 0.871498 -0.242277 0.546511 0.099296 -0.014658 0.396873 0.046125 0.935285 -0.723443 -0.202296 0.033175 0.499682 -0.414879 -0.097771 -1.540119 -0.166340
12781 0.387347 0.503854 -0.175550 0.370317 0.159131 -0.041373 -0.191072 -0.011078 0.153910 0.117740 -0.248842 -0.325555 -0.190772 -0.130359 0.487680 -0.343999 -0.116500 0.196380 -0.115180 -0.408680 0.077605 0.825613 0.338606 -0.098607 0.151094 -0.621577 -0.052266 -0.375226 -0.249804 -0.181436 -0.646556 -0.526513 -0.210986 0.366048 -0.209598 0.293630 -0.392611 0.416014 -0.209388 -0.339031 0.520727 -0.654452 -0.279394 0.153848 -0.575123 0.535241 0.257394 0.312513 -0.625499 -0.329652 0.548718 -0.138515 0.098082 0.235284 -0.232192 0.183339 -0.188550 -0.470929 -0.174016 -0.008329 0.438045 -0.245486 -0.225339 -0.078371
23038 0.357810 0.325525 0.155479 0.322996 0.207909 -0.367944 0.460933 0.208163 0.470517 -0.388239 -0.318992 -0.240493 0.057862 -0.032656 -1.004140 0.183856 0.087541 -0.018174 -0.099233 -0.255457 0.018128 -0.036865 0.287321 -0.248696 -0.197243 -0.607336 -0.534627 -0.180815 -0.283766 0.177302 -0.113494 0.087820 -0.369866 -0.020780 0.069323 0.461711 0.104263 -0.250541 -0.767497 0.325912 -0.242765 -0.748101 -0.132394 -0.717820 0.360526 0.043194 -0.585865 0.594407 -0.389261 -0.054633 0.598494 -0.412795 -0.172633 0.418809 0.707615 0.514200 0.120885 -0.180981 -0.012460 0.059020 0.674895 -0.204322 -0.547668 0.311731
9572 -0.651165 0.190119 0.216824 -0.402543 0.276783 0.045465 -0.182182 -0.038993 -0.544142 -0.248828 -0.031371 -0.484179 -0.159164 0.138688 -0.623041 -0.373825 -0.219488 -0.128849 0.344954 0.096135 -0.046480 0.767436 0.213071 -0.496240 0.109849 -0.568583 -0.301716 -0.151228 0.257815 -0.589283 0.048712 -0.174094 -0.783656 0.207823 -0.688723 0.136016 0.244165 0.377508 0.178779 -0.247999 -0.105363 -0.231895 0.159369 -0.023638 -0.027430 0.321440 -0.201403 0.275489 -0.283083 -0.284036 0.444397 -0.323994 -0.600817 -0.600138 0.429486 0.199598 -0.504783 -0.208993 0.082845 0.404435 0.124027 -1.286917 -0.399177 0.016859
773 0.117157 0.661630 -0.201249 0.164689 0.248083 -0.031647 -0.242838 0.109954 0.289478 -0.020951 -0.356587 -0.096119 -0.167274 -0.247716 0.628807 -0.143128 -0.009025 0.434120 0.307371 -0.144321 0.256206 0.790095 0.547628 -0.126037 -0.035365 -0.594183 0.142592 -0.061298 -0.343454 -0.524952 -0.408480 -0.295720 0.003781 0.020995 -0.234157 0.424106 -0.463415 0.067881 -0.243062 -0.190082 0.193892 -0.506844 -0.391245 0.377003 -0.284527 0.529071 0.488585 -0.245037 -0.673460 -0.410870 0.366334 -0.279756 -0.021614 0.368749 -0.080190 0.290325 -0.429402 -0.207566 -0.098755 -0.151071 0.408808 -0.572746 -0.254758 -0.024403
7956 0.458399 0.658275 -0.016865 0.196001 0.224482 0.088582 -0.081952 -0.031272 0.312749 0.184668 -0.473691 -0.271443 -0.153109 -0.223251 0.517768 -0.425122 -0.105262 0.120021 -0.370568 -0.434202 -0.004993 0.700177 0.356602 -0.074197 -0.133786 -0.808396 0.138213 -0.241717 -0.373924 -0.214393 -0.430094 -0.524669 -0.064420 0.004922 -0.294705 0.438781 -0.361858 0.245267 -0.065886 -0.179104 0.267640 -0.597772 -0.280783 0.305472 -0.427835 0.554765 0.386620 0.216668 -0.531008 -0.423796 0.569700 -0.137011 0.091834 0.316612 -0.081802 0.074924 -0.322018 -0.491669 -0.227218 -0.045891 0.486647 -0.502080 -0.195391 -0.288755
1488 -0.399535 0.689372 0.052840 0.343363 -0.216198 -0.867016 -0.231735 -0.316684 0.750510 -0.530258 0.466441 -0.073386 0.236665 0.080531 -0.139866 -0.009207 0.168332 0.579475 0.257819 -0.614999 -0.313708 -0.075227 0.075852 -0.530517 0.062706 -0.277055 0.377468 0.955244 -0.336698 -0.181090 -0.330699 0.070026 0.211599 0.465893 0.564149 -0.242966 -0.175196 0.624196 -0.018558 0.403138 -0.451210 -0.478215 0.407905 -0.465947 0.003728 -0.583013 -0.342572 0.006852 0.497554 -0.379680 0.080535 -0.179872 -0.018519 0.034162 0.046609 1.115016 -0.066109 -0.456101 0.062772 -0.152851 0.584204 0.064335 -0.723283 0.125777
4164 0.033631 0.642282 -0.457403 0.419782 0.126907 0.379218 -0.230970 0.411222 0.473382 0.304270 -0.567455 -0.284444 0.161362 -0.349815 0.234618 -0.133287 0.150212 0.258847 -0.277425 -0.335968 -0.150979 0.766765 0.159308 -0.019549 0.035245 -0.579953 0.296589 -0.429886 -0.205630 0.060258 -0.459356 -0.270167 -0.575543 -0.216202 -0.377760 0.202841 -0.209574 0.191324 -0.133522 -0.533784 0.313780 -0.697283 -0.200225 0.074958 -0.282785 0.349432 0.503601 0.215427 -0.739074 -0.492178 0.143318 -0.111982 -0.383881 0.171453 0.008931 -0.070176 -0.462460 -0.303044 0.180076 -0.115386 0.575586 -0.704536 -0.309146 -0.208924
2654 -0.058617 0.552064 -0.358243 0.149174 0.491486 -0.047938 0.417771 -0.067803 0.818746 0.394441 -0.398718 -0.604076 -0.031280 -0.067144 0.009158 -0.161680 -0.017008 0.271610 -0.029613 -0.486192 -0.647494 -0.543018 0.529899 -0.117972 0.696984 -0.338235 0.416862 -0.145901 -0.074924 -0.107823 0.783706 -0.211750 -0.349416 0.200202 -0.396961 -0.358613 0.482541 0.069793 -0.127589 -0.400254 0.287485 -0.037831 -0.356423 0.200964 -0.169587 0.429177 -0.310450 0.140277 -0.459811 -0.165214 0.211754 -0.197348 0.077627 0.272861 0.228448 0.218259 -0.042808 0.116496 -0.092095 -0.165004 0.098195 -0.520826 0.228025 0.224500
25758 0.434405 0.331124 -0.196429 0.184540 -0.326841 0.064626 0.003177 -0.144739 0.652939 0.555515 -0.374609 -0.426498 0.127046 -0.236983 0.414914 -0.176079 -0.224604 0.474974 0.305917 0.281579 0.133116 0.746214 0.351558 -0.020570 0.256067 -0.716691 0.138081 0.069467 -0.339153 -0.500999 -0.393414 -0.121885 -0.415542 -0.002849 -0.632808 0.278878 -0.372894 0.212301 -0.241320 0.146132 0.308842 -0.546889 -0.818094 0.362121 -0.483684 0.466601 0.339396 0.201892 -0.520189 -0.471207 0.155560 0.043688 -0.170700 0.060042 -0.262047 0.035068 -0.300732 -0.209958 0.149945 0.133766 0.256906 -0.424826 0.030431 -0.314030
23293 -0.101089 0.648367 -0.415804 0.109191 0.195598 0.050418 0.200294 -0.161758 0.295731 0.043989 -0.308063 -0.437333 -0.305611 0.026947 0.460090 -0.102076 -0.361455 0.224818 0.139300 -0.245923 0.015247 0.777084 0.355986 -0.015993 0.111002 -0.600963 0.072708 -0.493849 -0.079380 -0.472860 -0.384457 -0.335498 -0.317479 0.010829 -0.333415 0.126154 -0.024329 0.233185 -0.353752 -0.472832 0.488959 -0.617504 -0.030101 0.297760 0.022417 0.234733 0.215322 0.139201 -0.699385 0.016013 0.773283 -0.142812 -0.086378 -0.012888 -0.028388 0.438724 -0.641457 -0.268960 0.209644 0.178430 0.371196 -0.656195 0.047012 -0.351211
25346 0.627525 0.772763 -0.241955 0.147987 0.506689 0.202617 -0.088521 -0.071900 0.448937 0.091671 -0.402739 -0.209717 -0.082582 -0.260492 0.655790 -0.207210 0.037304 0.082342 -0.456603 -0.359910 -0.054844 0.620500 0.303408 -0.026039 -0.133560 -0.500974 0.087502 -0.329515 -0.543891 -0.434744 -0.430967 -0.326214 0.198383 0.080116 -0.270300 0.368877 -0.329817 0.202680 0.008050 -0.093495 0.317704 -0.564231 -0.261356 0.236409 -0.496394 0.687650 0.280242 0.168815 -0.566833 -0.369444 0.359894 -0.029825 -0.001970 0.236810 0.024934 0.184793 -0.300222 -0.454509 0.025963 0.014470 0.522977 -0.596171 -0.071224 -0.308384
5052 0.303216 0.283454 -0.190267 0.090143 0.354591 -0.161060 -0.129723 0.021344 0.131995 -0.203748 -0.121209 -0.168958 -0.270188 0.326957 -0.727864 -0.433295 -0.059861 0.095967 0.733473 -0.465493 -0.473110 -0.004920 0.053973 -0.212140 0.163600 -0.143020 -0.372031 0.738223 0.003647 0.368897 0.669786 0.096396 -0.595731 0.364052 -0.140084 0.380119 -0.542550 -0.147401 -0.579004 -0.596949 0.953552 -0.738027 -0.408337 0.630632 -0.033736 -0.356129 -0.068186 -0.093751 0.421635 -0.536700 0.371597 -0.082257 0.405697 0.224653 0.329005 -0.192532 -0.359226 -0.337138 0.378929 0.526655 -0.288111 -0.082976 -0.044231 -0.208163
4952 0.164495 -0.277983 0.650655 -0.052401 0.057472 0.091198 -0.829020 -0.173829 1.339014 -0.239934 -0.354804 -0.616227 -0.317302 0.012127 -0.359106 0.343306 -0.244758 0.494769 0.374180 -0.541313 0.327837 -0.301269 0.174631 -0.640221 0.572577 -0.200469 -0.752701 -0.079411 0.076808 -0.202800 0.101061 -0.104318 0.121647 -0.471243 -0.436747 -0.081514 0.207795 0.069210 -0.288975 0.316625 0.034941 -0.901052 -0.514059 0.180400 0.167770 -0.028258 0.034560 -0.395956 -0.023872 -0.587309 0.347078 0.188061 0.216856 -0.155663 -1.046875 -0.129060 -0.422079 -0.355932 0.433740 -0.486324 -0.000642 -0.768415 -0.448214 -0.043379
45 0.258722 0.586860 -0.172269 0.245455 0.143186 0.361195 -0.070041 -0.239715 0.551902 0.033209 -0.380656 -0.026624 0.023136 -0.227953 0.656068 -0.272437 -0.200732 0.318800 0.027124 -0.094857 0.168443 0.929860 0.573346 -0.252931 0.058266 -0.717859 0.233718 -0.179506 -0.399163 -0.440660 -0.468800 -0.414028 -0.380034 0.016236 -0.125872 0.261966 -0.236272 0.175306 -0.175948 -0.207704 0.588986 -0.543178 -0.404618 0.235534 -0.288501 0.520722 0.400695 -0.172247 -0.649655 -0.398731 0.186460 -0.260133 0.067624 0.236098 -0.182761 0.036965 -0.135910 -0.204114 0.110923 0.292630 0.680269 -0.556207 -0.076706 -0.014465
13142 -0.278836 0.400803 0.137168 -0.503844 -0.129938 -0.242405 -0.482035 -0.096493 0.289767 -0.220268 0.416121 -0.632514 0.430706 -0.271852 -0.224297 -0.605503 0.679884 0.331988 0.921876 0.004998 -0.152568 -0.263278 -0.091612 0.024396 0.137284 -0.386308 0.243488 -0.076192 -0.494054 0.299507 0.070512 -0.207272 -0.259815 0.134965 0.930792 0.442978 -0.513327 -0.374131 -0.335207 0.228653 -0.166101 -0.230464 -0.038388 -0.556809 -0.380657 0.192066 -0.015065 -0.034955 0.244398 -0.213508 0.455678 -0.097300 0.096631 -0.243240 0.379404 0.477051 -0.103965 -0.157295 0.072470 -0.527190 0.348396 -1.125549 0.110744 -0.328090
14599 -0.396114 0.219940 -0.141609 -0.007478 0.419859 -0.623731 -0.061023 -0.220042 0.819097 0.281656 0.015821 -0.314758 0.403265 0.143654 -0.549882 -0.493938 -0.356397 -0.115231 0.299029 -0.765844 0.477024 0.223877 -0.149930 -0.160099 0.354481 0.397735 0.604293 -0.253470 -0.439541 0.067133 0.051519 0.723510 0.316795 0.240707 0.158138 -0.388162 -0.228993 0.401326 -0.210179 0.529611 -0.094821 -0.429839 0.024877 -0.288856 -0.090789 -0.682214 -0.014731 0.252403 0.270712 -0.454565 0.273672 -0.374842 0.686826 0.205305 0.541058 -0.214374 0.183049 0.235275 0.366386 0.401156 -0.051375 -0.574074 -0.338850 -0.359933
10762 -0.039319 0.256482 0.002866 0.193245 0.361405 -0.199313 0.566320 -0.551874 0.287719 -0.088008 -0.298306 -0.249275 -0.048529 0.257677 -0.677160 -0.241046 -0.145608 0.299427 -0.068429 -0.136723 0.086592 -0.379408 0.152812 -0.249214 0.069027 -0.399359 -0.345645 0.149419 -0.453114 -0.462555 0.239237 0.113295 -0.655964 1.128548 0.109947 -0.426280 -0.026317 0.022282 0.064341 -0.191251 -0.657745 -0.108438 -0.663001 -0.193193 -0.173760 0.005559 -0.230858 0.175800 0.353597 0.156284 0.294414 0.090349 -0.129059 -0.309105 0.581135 0.136903 -0.649883 0.158840 -0.031059 0.562409 -0.149945 -0.876949 -0.989376 -0.184235
20635 0.285914 0.753738 -0.466096 0.252515 0.282207 0.158300 -0.110865 0.008508 0.384679 0.161017 -0.224351 -0.150163 -0.164798 -0.236664 0.583147 -0.129847 -0.025554 0.412090 -0.132773 -0.154211 0.146778 0.862189 0.557203 -0.202004 0.115423 -0.786847 0.109049 -0.227802 -0.275497 -0.316695 -0.446258 -0.332478 -0.123147 0.098766 -0.240534 0.254238 -0.130069 0.170321 -0.338059 -0.247488 0.363343 -0.768392 -0.149789 0.274372 -0.381096 0.345906 0.333058 0.035626 -0.671587 -0.382174 0.549474 -0.123552 -0.067382 0.206540 -0.190108 0.095843 -0.322922 -0.408895 0.149404 0.100038 0.400512 -0.664763 -0.064710 -0.147856
7307 -0.305283 0.088400 0.245200 -0.140200 0.180634 -0.278452 -0.220775 0.016184 0.756794 -0.381582 -0.758901 -0.557651 -0.128249 0.291042 -0.172381 -0.533081 -0.294729 0.389214 0.845734 -0.491206 -0.246945 0.091967 0.512825 -0.325659 0.365173 -0.167591 0.720788 0.292255 -0.282724 0.126973 -0.194172 0.115417 0.183161 -0.265390 1.081951 0.410303 -0.531299 0.666153 -0.696568 0.415346 -0.263014 -0.199711 0.101051 -0.689372 -0.800646 0.600032 -0.450508 -0.470233 0.352015 -0.059482 -0.655058 -0.316047 -0.127016 -0.164846 0.837015 0.009559 0.251101 -0.192892 0.119811 -0.419695 0.381400 -0.685344 0.278676 -0.973629
5901 -0.661731 0.433331 -0.137421 -0.194153 0.232490 -0.887502 -0.727058 0.559533 0.413370 -0.116518 0.015073 -1.039363 0.935420 -0.581543 0.165256 -0.736985 0.135781 0.029743 0.306959 -0.466033 -0.204570 -0.069360 0.378533 -0.485155 0.289644 0.310945 -0.642033 -0.113927 -0.349867 -0.278157 0.113113 -0.108399 0.209450 0.116664 0.067045 0.551297 -0.027585 -0.693176 0.010739 0.450906 0.316919 -0.721258 -0.518334 -0.371442 -0.565657 0.127122 0.096897 -0.358686 0.268307 -0.041004 0.239268 0.078698 0.098334 -0.017248 -0.445969 0.471936 -0.423660 -0.596290 -0.252625 -0.372489 0.022314 -0.115090 -0.530381 0.094907
3372 0.286425 0.718935 -0.359524 0.372514 0.274221 0.076396 -0.216635 0.097672 0.464258 0.057732 -0.270656 -0.105424 -0.152282 -0.253803 0.517230 -0.122582 -0.021524 0.386149 0.091032 -0.124865 0.171809 0.766538 0.401879 -0.248036 0.133428 -0.591623 0.046833 -0.379266 -0.311209 -0.389609 -0.440507 -0.410816 -0.111284 0.018952 -0.080734 0.235386 -0.268097 0.112606 -0.211625 -0.354043 0.299996 -0.521584 -0.325882 0.361566 -0.394838 0.517106 0.483660 0.077034 -0.643573 -0.641581 0.506039 -0.169555 0.060497 0.249497 -0.035561 0.161477 -0.246409 -0.234306 0.122322 0.054901 0.359732 -0.490424 -0.094337 -0.146716
11241 0.546865 0.655607 -0.302062 0.297632 0.297518 0.201216 -0.213501 0.073239 0.176394 0.191582 -0.135157 -0.009738 -0.240892 -0.455193 0.446866 -0.189521 -0.038383 0.425682 0.059467 -0.220394 0.087455 0.705255 0.577141 -0.158489 0.197394 -0.679196 0.321774 0.075319 -0.243428 -0.470249 -0.061752 -0.280394 -0.029418 -0.016131 -0.246180 0.139619 -0.327896 0.044845 -0.703054 -0.308617 0.468292 -0.554240 -0.372957 0.374804 -0.340977 0.434957 0.179168 -0.004894 -0.441560 -0.297099 0.724032 -0.203975 0.089978 0.353119 -0.148354 0.193994 -0.298901 -0.348123 0.183442 0.239124 0.444180 -0.744908 0.005135 -0.155605
19865 0.131293 -0.104936 0.163837 -0.397751 0.181632 -0.137984 -0.594729 -0.388166 0.103213 -0.153270 -0.158558 -0.113799 -0.163730 0.753606 -0.102772 -0.157856 0.213888 0.242497 0.397679 -0.680499 -0.173346 0.581289 0.801085 0.002730 0.810282 -0.034390 -0.096136 -0.708581 -0.223556 0.157135 -0.405558 -0.139304 -0.343402 0.604599 -0.058111 0.408361 -0.306153 1.006540 -0.340446 -0.433431 0.811078 -0.206395 -0.278174 -0.285013 -0.728736 0.344857 -0.129178 0.209437 0.422057 -0.371172 0.385263 -0.765146 -0.210069 0.378430 -0.404650 0.200403 -0.642500 -0.498190 -0.158161 -0.065543 -0.119275 0.537594 -0.671599 -0.099516
9017 -0.630982 0.182670 0.083278 -0.282148 0.271036 -0.339531 -0.302180 0.182968 0.470857 -0.746386 -1.045547 -0.166219 0.273638 -0.082329 -0.239262 -0.662214 -0.710129 0.499585 0.558359 -0.440233 0.097942 -0.095441 0.126214 -0.775539 0.499031 0.021202 0.687673 1.108604 -0.932730 0.244983 -0.338967 -0.199418 0.412598 -0.818442 0.971892 0.441796 -0.277201 0.449380 -0.067141 -0.482410 0.234120 -0.450661 -0.402590 -0.672295 -1.239099 0.433126 -0.106967 -0.231897 0.026035 -0.348010 -0.332368 -0.193445 -0.381144 -0.450442 0.800114 0.244193 -0.209629 -0.561905 0.027345 -0.737673 0.222199 -0.402600 -0.337241 -0.532344
21847 0.157116 0.684056 -0.306795 0.282225 0.149855 -0.012692 -0.165469 -0.071066 0.380290 0.105721 -0.432160 -0.097099 -0.061455 -0.300754 0.696623 -0.193798 -0.087067 0.303377 -0.086633 -0.193567 0.110050 0.919834 0.475215 -0.195945 0.026215 -0.729317 0.201462 -0.172432 -0.255245 -0.389384 -0.382076 -0.332462 -0.146262 0.029920 -0.226664 0.236741 -0.233918 0.130834 -0.356920 -0.112492 0.333484 -0.551436 -0.209047 0.256185 -0.373832 0.520975 0.404205 0.098495 -0.650842 -0.497336 0.400609 -0.200401 0.109590 0.268773 -0.184680 0.232120 -0.210480 -0.298740 0.180868 -0.035781 0.452538 -0.594302 -0.089691 -0.053949
7007 -0.438711 0.677794 -0.533412 -0.241267 0.252604 0.363207 -0.307070 0.104786 0.637534 -0.112954 -0.528422 -0.281503 -0.346874 0.406678 -0.138743 -1.044731 -0.089810 -0.368286 0.114832 -0.897436 0.035438 -0.679565 -0.386604 0.255842 0.589845 0.058632 -0.089710 0.299245 -0.416690 -0.969214 0.181995 -0.034330 0.083718 0.260736 -0.051175 -0.507521 -0.523232 0.356872 -0.151709 0.038760 -0.522053 -0.019878 0.018510 -0.609439 -0.138080 0.666765 0.015014 0.174493 -0.516213 -0.004885 0.012760 -0.045051 -0.370430 -0.491419 0.143554 0.020295 -0.168907 -0.755887 0.225616 0.816186 0.119632 -0.116792 -0.295799 0.309179
14746 -0.450608 -0.086224 -0.115737 0.029426 0.185185 -0.100862 -0.464684 0.199563 0.589319 -0.411743 -0.749469 -0.259199 0.910789 0.058955 0.272476 -0.739632 -0.552032 0.187633 0.125271 0.031326 -0.083555 -0.313285 -0.354390 -0.418110 0.455601 -0.166011 0.182856 0.932720 -0.816754 -0.082772 -0.245198 -0.559059 0.328400 -0.616879 0.957499 0.105170 0.374862 0.367806 -0.503919 -0.157093 0.125008 -0.467673 0.170771 -0.075313 -0.522758 0.563821 -0.278501 -0.098149 0.434386 -0.247661 0.230292 -0.387290 -0.030281 -0.155914 0.690651 0.111593 -0.628955 -0.515767 0.362389 -0.623153 -0.114752 -0.729679 -0.339378 0.277911
22887 0.448825 0.542404 -0.438559 0.214773 0.315749 0.050096 -0.275956 -0.046064 0.484492 0.202203 -0.182228 -0.213943 -0.044112 -0.201850 0.738323 -0.134296 0.042962 0.274106 -0.106298 -0.275088 0.086891 0.797857 0.213914 -0.073379 -0.094014 -0.522488 -0.047622 -0.332133 -0.415457 -0.597971 -0.476557 -0.409127 0.038577 0.098440 -0.241075 0.398104 -0.106867 0.052794 -0.266777 -0.098551 0.444979 -0.718439 -0.284528 0.197547 -0.590736 0.681804 0.222505 0.257667 -0.558985 -0.452586 0.241261 -0.193054 0.005462 0.318662 -0.024724 0.243752 -0.291149 -0.430733 0.121517 0.043607 0.439096 -0.479715 -0.047769 -0.160877
570 0.473116 0.539263 -0.077102 0.274082 -0.133247 0.195096 -0.108553 -0.154446 0.481388 -0.148240 -0.391666 -0.319468 0.089444 -0.229819 0.599704 -0.139167 -0.319702 0.524526 -0.092874 -0.134731 0.007702 0.953559 0.718695 -0.152456 -0.027707 -0.783227 0.091887 -0.155109 -0.437199 -0.459559 -0.331468 -0.229662 -0.353054 0.128293 -0.074436 0.338109 -0.242059 -0.133177 -0.352511 -0.528119 0.148445 -0.590259 -0.373981 0.115278 -0.156690 0.263277 0.434014 -0.017378 -0.792307 -0.553632 0.126846 -0.068421 0.141046 -0.068515 -0.284089 -0.077416 -0.308091 -0.538961 0.222624 0.265744 0.282466 -0.518854 0.179560 -0.150834
24955 0.215654 0.655938 -0.413964 0.176769 0.167225 0.194509 -0.119973 0.022709 0.514948 -0.019452 -0.177608 -0.128382 -0.193348 -0.306445 0.677814 -0.290489 -0.020532 0.373270 0.207731 -0.287456 0.094945 0.825214 0.415469 -0.270420 0.266484 -0.824837 0.194180 -0.118750 -0.238930 -0.197007 -0.492285 -0.328032 -0.152150 0.085413 -0.373330 0.204532 -0.218235 0.059108 -0.246173 -0.245260 0.206225 -0.416822 -0.243283 0.184506 -0.413841 0.636577 0.348924 -0.022066 -0.699982 -0.455708 0.483602 -0.098516 0.132029 0.128085 -0.037721 0.083607 -0.255529 -0.237333 0.122940 0.090736 0.428636 -0.389604 0.117505 -0.074760
22457 0.345120 1.018855 -0.268179 0.276775 0.238330 -0.367347 -0.164278 -0.078875 0.557797 -0.184141 -0.167461 -0.223178 -0.186481 0.267836 0.621794 0.178034 -0.281371 0.088544 0.340696 -0.081897 0.074141 -0.103081 0.328034 0.078842 0.718623 -0.243434 -0.172527 -0.234367 -0.613651 -0.011713 -0.035819 -0.817685 0.049324 -0.090115 -0.214895 0.132906 -0.043488 0.450900 -0.056075 -0.263811 0.144606 -0.105554 -0.116601 0.156374 0.046551 0.008755 0.527065 -0.014839 -0.568138 -0.517445 0.428220 -0.566312 0.099910 1.051196 0.111753 -0.008371 -0.497580 0.037336 0.618374 0.027013 0.080268 -0.109653 -0.030597 -0.335204
13276 0.092995 0.399017 0.241306 -0.041099 0.287319 0.098034 0.392772 0.149230 0.239145 -0.624134 -0.086896 -0.001081 0.637902 0.288732 -1.041295 -0.554193 -0.174943 0.155258 0.125905 0.388201 0.008069 -0.498323 0.120381 -0.109627 0.024232 -0.643308 -0.868758 -0.022169 -0.030603 -0.332816 0.089948 0.369847 -0.237983 0.248012 0.197213 -0.375670 0.184195 -0.005005 -0.618209 0.229342 -0.128059 -0.373945 0.068724 -0.480240 -0.121525 0.060043 -0.359864 0.261443 -0.028567 -0.412731 0.682333 -0.275539 -0.281215 0.011588 0.539896 0.324297 -0.346025 -0.345392 0.093252 0.771555 0.108626 -0.375766 -0.745946 -0.029562
12496 0.209116 0.669882 -0.283867 0.473302 0.155152 0.352372 0.044866 -0.212244 0.421237 0.063740 -0.253572 0.057712 0.057921 -0.245975 0.629744 -0.248042 -0.067608 -0.009426 0.090404 -0.156828 0.055614 0.794065 0.500831 -0.545572 0.187329 -0.789221 0.102413 -0.228859 -0.358740 -0.320231 -0.253580 -0.295751 -0.171096 0.270684 -0.290280 0.539031 0.052474 0.116214 -0.301484 -0.324946 0.296030 -0.428750 -0.319819 0.288281 -0.252760 0.564899 0.636573 0.098607 -0.329869 -0.265970 0.249635 -0.083259 0.115683 0.221032 -0.290372 0.226938 -0.344406 -0.102366 -0.171238 0.045999 0.453994 -0.689673 -0.413865 -0.292096
18894 0.201948 0.670794 -0.326859 0.116577 0.337188 0.190429 -0.252386 -0.050267 0.160955 0.174735 -0.214550 0.090841 0.068742 -0.093104 0.453483 -0.104228 -0.137835 0.682539 -0.041012 -0.356245 0.104755 0.940097 0.368203 -0.208467 0.048819 -0.552152 -0.002118 -0.299653 -0.261507 -0.437624 -0.333205 -0.174257 -0.198800 -0.071644 -0.260980 0.039982 0.037517 0.094475 -0.102417 -0.395429 0.195791 -0.606801 -0.154204 0.221687 -0.358401 0.424538 0.376280 0.101571 -0.844656 -0.434630 0.404123 -0.011003 -0.057597 0.122250 -0.049501 0.111876 -0.568913 -0.228440 0.111819 0.270682 0.473496 -0.615671 -0.343340 -0.254662
18208 -0.244625 0.442163 0.160982 -0.006030 -0.320230 -0.083092 -0.602710 -0.343112 0.661290 -0.305549 0.500060 -0.546185 0.050108 -0.301402 0.437469 -0.571788 -0.048069 -0.043499 -0.302187 0.124567 0.793304 0.470408 0.026344 0.548232 -0.162589 0.070440 0.252502 0.258060 0.224967 -1.251040 0.615371 0.542138 -0.054252 0.697468 -0.377161 0.440939 -0.393446 0.019311 -0.476525 -0.544128 0.376472 -0.344895 0.723894 -1.064189 -0.439303 -0.128459 0.300729 -0.315873 -0.234828 -0.701034 0.459364 -0.247939 0.162711 0.348232 0.121375 -0.256984 0.155590 0.137914 0.719665 -0.461226 0.420200 -0.841303 -0.554501 -0.432790
3651 0.197973 0.099678 -0.411272 -0.578006 0.393597 0.037185 -0.200678 -0.115098 0.784890 -0.675296 0.103044 -0.835537 -0.156207 0.061137 0.601835 -0.434828 0.184110 -0.149103 -0.714829 -0.464188 -0.198199 0.135387 0.360805 -0.284075 -0.113837 0.331488 -0.823582 0.251519 -0.172335 -0.931847 0.258410 0.296476 -0.213346 0.212706 0.038894 0.848625 0.124814 -0.299993 -0.242245 -0.667660 0.106058 -0.624846 -0.616440 -0.010001 -0.239971 0.038766 -0.544405 0.321407 0.084012 -0.813204 -0.218626 -0.212262 0.030986 0.143436 1.106147 -0.036909 -0.584023 -0.691708 0.839384 0.280878 0.439782 -0.390506 0.142251 -0.355387
231 0.031797 0.538249 0.087084 -0.107428 0.440869 -0.142752 -0.182822 0.000179 0.608910 -0.216471 -0.038023 0.041640 -0.210561 -0.253651 0.823707 -0.064041 -0.203824 0.114394 0.828282 -0.221602 0.176909 -0.082198 -0.010923 0.150660 0.796035 -1.078738 -0.087345 -0.285343 -0.754559 0.162263 -0.184854 -0.190679 -0.296857 0.188664 -0.135515 0.353974 -0.639145 0.131301 -0.067686 -0.585034 0.111615 -0.168563 0.098767 -0.049361 -0.435708 0.421236 -0.045675 -0.133075 -0.320941 -0.903104 0.327614 -0.204210 0.253411 0.266588 0.104713 0.061199 -0.274598 0.152613 0.121836 -0.108268 0.263894 -0.432023 0.369465 -0.031126
23614 -0.454230 -0.350623 0.599708 -0.428835 1.045538 -0.606233 -0.412711 0.002548 1.130782 -0.549061 -0.551004 -0.224057 0.205124 0.164125 0.044698 -0.381707 -0.146374 0.767631 0.663305 -0.409462 0.359982 0.056388 0.080653 -0.318573 -0.512670 -0.225625 0.152189 0.019603 -0.570036 -0.002183 0.734097 0.336751 -0.200131 0.369907 0.652799 -0.114130 -0.795624 0.126882 0.029182 0.284124 -0.034139 -0.671276 -0.385923 -0.024232 -0.732370 -0.100405 0.012744 0.153391 0.213002 0.890609 0.367189 -0.213749 -0.032086 0.395096 -0.623853 0.529879 -0.386586 -0.608807 1.014455 0.295700 -0.016530 -0.233780 -0.413339 -0.264676
11472 0.291964 0.687566 -0.330074 0.399978 0.141743 0.183482 -0.101169 -0.027201 0.458214 0.180218 -0.300757 -0.137357 0.000695 -0.239425 0.607317 -0.159560 -0.077353 0.289105 -0.061889 -0.185809 0.094391 0.812108 0.481704 -0.239960 0.073734 -0.680571 0.088763 -0.340406 -0.358193 -0.339821 -0.473097 -0.339263 -0.146412 -0.012155 -0.259501 0.191887 -0.093322 0.152289 -0.310081 -0.189092 0.289874 -0.611471 -0.209249 0.204292 -0.419438 0.474986 0.515518 0.108974 -0.632348 -0.391480 0.438749 -0.123999 0.082942 0.276714 -0.071501 0.176637 -0.331001 -0.374656 0.091516 0.127762 0.468815 -0.602705 -0.120035 -0.190992
6179 0.420880 0.674727 -0.305350 0.252728 0.161806 0.149896 -0.158845 0.056893 0.502504 0.130320 -0.310149 -0.197340 -0.115911 -0.329092 0.429725 -0.260624 0.000316 0.385158 -0.109986 -0.211831 0.027372 0.855431 0.501775 -0.135899 0.231424 -0.677269 0.232898 -0.373099 -0.317829 -0.378375 -0.352570 -0.314316 -0.132328 0.041220 -0.285681 0.256363 -0.094238 0.131853 -0.192802 -0.289225 0.160621 -0.611404 -0.305768 0.075146 -0.412283 0.434805 0.478555 0.103124 -0.658511 -0.287153 0.512434 -0.156164 0.122563 0.230012 -0.226787 0.152404 -0.266611 -0.310313 0.123626 0.161047 0.409334 -0.552414 -0.023701 -0.127456
2212 0.354170 0.682111 -0.362481 0.284276 0.268688 0.157640 -0.140000 0.005609 0.470020 0.201432 -0.223773 -0.048978 -0.134492 -0.294629 0.580606 -0.211372 -0.106731 0.423461 -0.065088 -0.179743 0.008313 0.733780 0.400586 -0.249855 0.062772 -0.677072 0.161113 -0.368395 -0.339927 -0.492471 -0.409649 -0.464252 -0.264361 -0.059242 -0.187018 0.240600 -0.274962 0.147528 -0.252213 -0.230121 0.320993 -0.524854 -0.266555 0.242223 -0.417215 0.585197 0.409904 0.199816 -0.606673 -0.436864 0.421434 -0.086976 0.034830 0.309476 -0.169144 0.073326 -0.309329 -0.400388 0.033259 0.037775 0.458127 -0.595402 -0.205067 -0.141126
6700 -0.154438 0.703973 -0.393296 -0.029189 0.322676 -0.131273 0.749493 -0.345703 0.539648 0.037182 -0.739619 -0.518306 0.123919 -0.073270 0.228561 -0.215580 0.315255 0.208743 0.455555 0.004836 -0.350083 -0.083115 0.341891 -0.106153 0.390308 0.172190 0.075314 -0.258535 0.151937 -0.337103 0.073193 -0.100226 -0.720516 0.449198 -0.324923 0.264998 0.470655 0.261573 -0.360758 -0.477925 0.356480 -0.455917 0.002907 0.587249 0.348998 0.074960 0.064354 0.250640 -0.603563 0.043670 0.356945 -0.135949 0.383254 0.125642 0.522027 0.478962 -0.368544 -0.312065 -0.075085 -0.145054 0.464293 -0.555383 0.327299 -0.329234
4511 0.318507 0.651096 -0.407081 0.266551 0.151746 0.202434 -0.126375 0.034853 0.404810 0.132472 -0.319527 -0.134256 -0.118299 -0.391531 0.566135 -0.281348 0.000038 0.327232 -0.149485 -0.061035 0.128112 0.799105 0.564742 -0.092849 0.172105 -0.803225 0.135270 -0.250815 -0.427102 -0.383149 -0.545374 -0.325078 -0.177783 0.066010 -0.283747 0.196073 -0.175473 0.089367 -0.367381 -0.205235 0.287057 -0.711725 -0.170850 0.254603 -0.362628 0.318190 0.371624 0.212861 -0.555597 -0.331915 0.558645 -0.156700 0.060470 0.299997 -0.086894 0.089798 -0.317670 -0.472880 0.140751 0.090312 0.473937 -0.614739 0.012348 -0.120855
24924 -0.175117 0.561635 0.332235 -0.004710 0.412940 0.300102 0.294608 -0.870946 0.618290 -0.120377 -0.372006 -1.056062 0.663375 0.447744 0.946228 -0.024687 0.247898 0.377605 -0.383153 -0.244983 -0.327438 0.108076 0.084469 -0.333502 0.390556 0.315927 -0.096269 0.324656 -0.243270 -0.495088 0.288743 -0.196703 0.082447 0.282228 -0.438793 0.667932 -0.272701 0.351296 -0.352740 -0.806774 -0.537963 -0.108378 -0.248385 0.203191 0.141937 0.303977 -0.494424 0.049030 -0.485892 -0.352264 0.149515 -0.133112 0.764211 -0.116155 0.708486 0.368535 -0.960999 -0.485036 0.559295 0.274615 0.670483 0.118599 0.546853 -0.125760
24057 0.294942 0.491078 0.626234 0.025823 0.550502 -0.915971 -0.358741 0.232489 1.027213 0.027563 0.140324 -0.334864 0.102106 0.487850 -0.286072 -0.548141 -0.426419 -0.271401 -0.014515 0.236932 0.317518 0.297534 0.294153 0.048645 0.889114 0.147313 -0.113931 -0.047133 -0.269984 -0.002492 0.385847 -0.082817 0.254587 0.171324 -0.276569 -0.145618 -0.271896 -0.068762 -0.421906 0.088176 -0.464543 -0.458483 0.081702 -0.213115 -0.100625 -0.693624 -0.335403 0.684510 -0.061467 -0.110817 0.020913 -0.080200 0.461732 0.074210 0.621071 -0.250897 -0.017038 0.271388 0.114385 0.465066 0.278330 -0.298919 -0.819873 -0.287168
17692 0.403848 0.635766 -0.290945 0.288235 0.109465 0.139027 -0.055728 -0.035168 0.534418 0.053542 -0.278379 -0.048307 -0.087175 -0.318666 0.572800 -0.229922 -0.024891 0.464024 -0.044250 -0.114042 0.164603 0.732152 0.412722 -0.144943 0.070710 -0.731230 0.106600 -0.334651 -0.327976 -0.488228 -0.343216 -0.345015 -0.264461 0.027943 -0.199621 0.312719 -0.150135 0.170319 -0.287471 -0.244861 0.380054 -0.540253 -0.259020 0.320394 -0.434072 0.534333 0.452390 0.031785 -0.690230 -0.476401 0.478572 -0.141777 0.101966 0.314091 -0.057086 0.229364 -0.365066 -0.348078 -0.002514 0.059263 0.387709 -0.585639 -0.139678 -0.212060
23382 0.169747 0.742840 -0.225615 -0.256588 -0.166663 -0.286974 0.733305 -0.282810 0.871514 -0.127200 -0.505455 0.060496 -0.049789 -0.065880 -0.384350 -0.279001 0.657039 -0.157205 0.644646 -0.046481 0.024331 0.110419 0.469396 -0.229542 0.459364 -0.014860 -0.123758 -0.460601 -0.066964 0.077236 0.169707 -0.280612 -0.190900 0.219070 -1.130862 -0.048956 0.208258 -0.192989 -0.447621 -0.308508 0.436975 -0.238561 -0.331076 0.001081 0.007664 0.287341 -0.021822 0.231961 -0.494325 0.014415 0.021531 -0.152801 0.546696 0.245712 0.566162 0.423004 -0.178557 -0.741864 0.124412 -0.395876 0.717476 -0.561133 -0.152710 0.226547
20562 0.352221 0.687431 -0.232138 0.271687 0.183732 0.163969 -0.089525 -0.025859 0.438829 0.107241 -0.270755 -0.161317 -0.116125 -0.308504 0.567359 -0.192581 0.019662 0.294823 0.073416 -0.061982 -0.010989 0.858837 0.507537 -0.155291 0.077586 -0.737614 0.209919 -0.259449 -0.309332 -0.371345 -0.410241 -0.349619 -0.157740 -0.064143 -0.213213 0.189835 -0.277893 0.106734 -0.370018 -0.216402 0.325100 -0.506416 -0.202658 0.174295 -0.412814 0.464646 0.361292 0.167087 -0.627081 -0.442824 0.472037 -0.154771 0.144670 0.287663 -0.240938 0.107838 -0.282378 -0.366019 0.100195 0.140382 0.469855 -0.623404 -0.138698 -0.191792
9124 0.448633 0.376697 0.241260 -0.298612 0.073285 0.229337 -0.707343 -0.724356 -0.190590 -0.045193 -0.758050 -0.282471 0.144399 0.347340 -0.176608 -0.840317 0.249735 0.318529 0.586966 -0.520385 -0.289043 -0.047839 0.181279 -0.437369 0.328095 0.094447 -0.496334 0.633557 -0.453587 0.270333 0.644833 0.255354 -0.511078 0.202694 -0.659779 0.367258 -0.355796 0.822676 -0.921807 -0.556962 0.485377 -0.704852 -0.325029 -0.115217 -0.204451 -0.004908 0.011375 0.122808 -0.178995 -0.483684 -0.198482 -0.494772 0.534543 -0.654423 0.411718 -0.365884 -0.450065 -0.190738 0.665271 0.419868 -0.675080 -0.020614 -0.141581 -0.309975
20478 0.085494 0.573468 0.225949 0.477599 0.043909 -0.426793 0.791245 0.402698 0.493653 -0.271175 -0.194564 -0.155477 0.566076 -0.077168 -0.889680 0.114272 0.053304 0.528535 0.238698 0.052300 0.212355 -0.203066 0.220741 0.048984 -0.056220 -0.462915 -0.157127 -0.384614 0.037972 -0.115018 -0.141890 -0.128749 -0.066176 -0.074942 -0.213239 0.309670 0.375228 -0.406488 -0.571718 0.105190 -0.102471 -0.767206 -0.027820 -0.292113 0.130606 -0.039570 -0.291890 0.329868 -0.037473 -0.212373 0.392468 -0.165423 0.067816 0.213666 0.640556 0.332771 -0.179367 -0.551868 0.297171 0.022791 0.532264 -0.434938 -0.793882 0.075470
14540 0.158881 0.598057 -0.238500 0.294475 0.107447 0.205609 -0.122206 0.132513 0.303441 0.140570 -0.206316 -0.150514 0.031875 -0.122709 0.557553 -0.231855 -0.241432 0.442874 -0.071964 -0.251675 0.183515 0.915593 0.264782 -0.200533 0.064214 -0.762825 0.160577 -0.420581 -0.485046 -0.447630 -0.285980 -0.276504 -0.277746 -0.108123 -0.284077 0.137514 -0.125977 0.073410 -0.216950 -0.310385 0.341195 -0.659787 -0.192173 0.371531 -0.351891 0.441720 0.416111 0.111567 -0.623654 -0.526162 0.391699 -0.090805 -0.036640 0.030133 -0.018161 0.054362 -0.332733 -0.228368 0.196390 0.233396 0.379643 -0.535612 -0.291624 -0.180919
20511 0.088576 0.339631 -0.459122 0.466456 0.332484 -0.181667 0.070830 0.189062 0.547881 0.437518 -0.231998 -0.789088 -0.008417 0.075229 -0.340321 0.113658 0.106038 0.045966 0.406896 -0.348019 -0.128052 -0.038501 0.241410 -0.395654 0.403493 -0.062006 0.036562 0.334944 -0.601016 0.576448 0.798308 0.301747 -0.122128 0.249616 -0.200253 -0.316592 0.624439 0.197533 -0.195923 -0.513073 0.576955 -0.365354 -0.181680 0.314663 -0.085754 0.182562 -0.703530 0.029105 -0.188926 -0.352409 0.422880 -0.380276 0.810201 0.606786 -0.315838 0.267607 -0.128837 -0.438516 -0.211065 0.567533 0.492097 -0.819474 -0.002060 -0.116585
1217 -0.095646 -0.172268 0.028460 -0.049583 0.254309 0.657922 0.341041 -0.264891 0.233596 -0.523310 -0.264594 -0.687182 -0.695325 0.211579 -0.304512 -0.045034 -0.126499 0.313323 -0.569856 -0.552267 0.138944 -0.305351 0.735568 -0.863098 0.909745 0.012748 0.162084 0.063143 -0.035317 -0.280588 0.055246 -0.465778 -0.622201 0.686845 0.599558 0.996434 -0.659064 0.564383 0.199922 0.655146 0.189998 -0.034570 -0.092631 -0.513505 -0.862254 -0.246943 -0.757005 0.274310 0.277515 -0.468469 0.048504 0.178208 0.525679 -0.047986 0.123113 0.641626 -0.192660 -0.902260 0.860863 0.479892 -0.360982 -0.079191 -1.006913 -0.352902
2952 0.283584 0.732402 -0.295201 0.329573 0.251686 0.172970 -0.001075 0.043815 0.436424 0.177826 -0.307564 -0.080971 0.010227 -0.234975 0.664580 -0.226909 0.013436 0.344959 0.039784 -0.126226 0.092144 0.756034 0.473774 -0.236691 0.127998 -0.670271 0.165055 -0.245307 -0.231520 -0.367588 -0.488261 -0.374620 -0.277008 0.017450 -0.191930 0.300144 -0.211634 0.056190 -0.307794 -0.211931 0.301003 -0.576542 -0.228531 0.236378 -0.418984 0.449276 0.394504 0.126401 -0.625168 -0.389767 0.470252 -0.172787 0.082823 0.326039 -0.170704 0.083239 -0.240788 -0.333182 0.114329 0.144875 0.492620 -0.670669 -0.164519 -0.221977
19961 0.346623 0.705707 -0.220108 0.363825 0.228836 0.135576 -0.073390 -0.038448 0.556266 0.142135 -0.292233 -0.091668 -0.053259 -0.321191 0.579148 -0.127538 0.009906 0.469057 -0.039824 -0.140624 0.120325 0.739156 0.414093 -0.204823 0.138732 -0.710489 0.104934 -0.303985 -0.283104 -0.488145 -0.457653 -0.309472 -0.223851 0.075656 -0.187853 0.264016 -0.276386 0.064779 -0.279711 -0.238650 0.342400 -0.625892 -0.238298 0.144794 -0.366671 0.492775 0.401489 0.088461 -0.691290 -0.435312 0.431633 -0.179357 0.030748 0.250044 -0.169367 0.145531 -0.266272 -0.334807 0.088330 0.057369 0.406679 -0.520301 -0.098878 -0.100996
20108 0.286352 0.653538 -0.384314 0.184763 0.181591 -0.001647 -0.115256 -0.120054 0.498082 0.131041 -0.383472 -0.066574 -0.124891 -0.331269 0.520522 -0.152794 -0.134816 0.426080 -0.094884 -0.157069 0.071242 0.780539 0.421144 -0.203856 0.207251 -0.755720 0.105870 -0.282857 -0.268198 -0.378438 -0.453220 -0.347516 -0.274314 -0.082364 -0.230582 0.307730 -0.181710 0.146598 -0.277651 -0.269326 0.222438 -0.589542 -0.245057 0.219112 -0.367931 0.504174 0.377610 0.128374 -0.699050 -0.437500 0.472651 -0.108949 -0.007287 0.314391 -0.176540 0.124061 -0.270368 -0.283737 0.090742 0.076513 0.450686 -0.613778 -0.093990 -0.121442
46 0.407820 0.731072 -0.372190 0.334183 0.139619 0.060842 -0.087658 -0.085871 0.410470 0.018547 -0.207700 -0.153186 -0.020137 -0.316166 0.527907 -0.225034 -0.055440 0.336167 -0.113566 -0.193512 0.097245 0.824746 0.454953 -0.088159 0.159881 -0.681860 0.189387 -0.299415 -0.372158 -0.428711 -0.319793 -0.282658 -0.200586 0.048205 -0.252564 0.177307 -0.237709 0.149293 -0.357163 -0.208559 0.283812 -0.573058 -0.178993 0.299826 -0.443732 0.416057 0.385576 0.176545 -0.701375 -0.395166 0.493285 -0.094668 0.154497 0.293508 -0.172739 0.192940 -0.253997 -0.352351 0.046263 0.136837 0.366999 -0.505635 -0.076193 -0.098825
15108 -0.202634 0.088999 -0.467595 0.033561 0.142134 -0.700455 0.274095 -0.282424 0.642133 -0.718319 -0.106942 -0.358068 -0.288381 0.020481 -0.754997 -0.232836 -0.092612 0.887369 0.461818 -0.220417 -0.039174 -0.284077 0.329857 -0.381417 -0.359996 -0.144212 -0.167572 0.471436 -0.572883 0.216448 0.171994 0.063607 0.133485 -0.292612 0.386607 -0.363496 -0.514962 1.054147 -0.142214 0.347855 -0.622305 -0.051890 -0.127263 -0.378706 -0.531763 -0.118954 0.734677 0.599114 0.381297 -0.915170 0.439850 0.287664 0.168600 -0.288549 -0.114210 1.066366 0.136889 -0.614971 -0.177466 -0.750928 -0.169003 -0.881935 -0.289607 -0.643334
20373 -0.374052 0.219154 0.147531 -0.396535 0.103216 0.214362 -0.141668 -0.438873 0.830072 -0.005369 -0.389868 -0.454564 0.403599 0.208378 -0.141595 -0.804246 -0.529130 0.288496 0.333276 -0.525763 -0.031261 0.507063 -0.981332 -0.981629 0.090049 0.422295 1.099384 -0.481160 -0.564965 0.088352 0.040341 -0.125042 -0.011520 -0.068789 -0.201725 -0.196918 -0.125655 0.126319 -0.551707 0.378979 -0.170065 -0.538488 0.230108 0.280364 0.172306 0.138184 0.515010 -0.047089 0.675169 -0.629208 0.476237 -0.225568 0.355915 0.037115 0.670844 -0.285248 0.150938 -0.551059 0.171312 -0.434937 -0.208470 -0.859381 -0.143985 -0.157888
4513 0.395153 0.577962 -0.277530 0.276417 0.153956 0.051803 -0.140611 -0.021935 0.503395 0.067530 -0.401220 -0.073211 -0.099814 -0.384097 0.536365 -0.190108 -0.003615 0.380646 -0.074284 -0.229114 0.026414 0.815027 0.475624 -0.222235 0.098554 -0.811049 0.108849 -0.270216 -0.302107 -0.436292 -0.348819 -0.393872 -0.252958 -0.059153 -0.235428 0.171220 -0.197441 0.081089 -0.303350 -0.361327 0.299047 -0.547977 -0.196860 0.081619 -0.429075 0.474956 0.475969 0.074313 -0.757396 -0.417766 0.449937 -0.091499 0.083486 0.198066 -0.155848 0.126882 -0.303323 -0.288407 0.049662 -0.076233 0.430315 -0.583619 -0.161980 -0.178734
12851 0.373324 0.685898 -0.266968 0.271601 0.108331 0.050341 -0.073890 -0.049339 0.494058 0.093915 -0.238904 -0.170695 -0.021372 -0.332429 0.658595 -0.254898 -0.073339 0.291711 0.002645 -0.150885 0.004602 0.861838 0.534504 -0.105581 0.157208 -0.785989 0.235798 -0.227221 -0.364177 -0.320475 -0.400551 -0.378261 -0.266680 -0.077808 -0.286757 0.208184 -0.210290 0.074998 -0.319008 -0.247531 0.334313 -0.522716 -0.318259 0.209780 -0.381518 0.438821 0.372658 0.181673 -0.650581 -0.363606 0.464367 -0.142370 0.042268 0.220483 -0.184102 0.188534 -0.237994 -0.359930 0.105546 0.098466 0.472523 -0.615090 -0.149287 -0.198701
1000 0.137048 0.091458 0.223187 -0.504978 0.147653 0.596567 -0.593416 -0.331033 0.276034 -0.203030 -0.529494 -0.329139 0.372920 0.629352 -0.070226 -0.751868 0.281545 -0.336915 -0.101374 -0.685608 -0.114648 -0.084484 0.478625 0.001617 0.594963 -0.285705 -0.049477 -0.282874 -0.504270 -0.570603 0.130953 -0.395591 0.211991 0.579965 0.103184 0.854040 0.140535 0.336306 -0.365905 0.154788 -0.007569 -0.162696 -0.073335 0.491637 -0.224665 0.277635 -0.062762 0.403044 0.140723 -0.359105 -0.326758 -0.134546 0.080551 -0.153493 -0.142316 0.626022 -0.631700 0.182472 -0.100312 -0.493038 0.232757 -0.312436 -0.352126 -0.486606
15659 0.341682 0.578465 -0.265902 0.335979 0.172107 0.199552 -0.078900 -0.010716 0.472222 0.225021 -0.392111 -0.073743 0.015480 -0.347319 0.474249 -0.175811 -0.077193 0.377990 -0.083981 -0.215717 0.025726 0.810280 0.460574 -0.129561 0.047783 -0.750212 0.141640 -0.304449 -0.383463 -0.359435 -0.447819 -0.305027 -0.269785 -0.024447 -0.105462 0.317637 -0.150002 0.102897 -0.322364 -0.305944 0.202164 -0.656619 -0.285123 0.208191 -0.419722 0.577510 0.402882 0.054767 -0.652521 -0.493830 0.486370 -0.105084 0.123776 0.304699 -0.174539 0.074950 -0.251473 -0.397460 -0.027145 0.095565 0.411090 -0.633791 -0.181906 -0.179291
16389 0.425965 0.994199 -0.142202 0.461334 0.261661 -0.477566 0.098606 0.115197 0.395100 -0.331527 -0.202988 -0.371194 0.202709 0.404925 -0.785584 0.379720 0.222043 0.238596 0.386570 -0.566347 0.239165 0.170276 0.223093 0.094652 0.131273 -0.429344 0.217592 -0.316094 0.137184 0.020103 -0.291676 0.090782 -0.142376 -0.046525 -0.280729 0.095785 0.236592 -0.448824 -0.849221 -0.010888 0.258989 -0.335000 -0.392354 -0.550272 0.076549 0.240085 0.160591 0.576958 -0.671221 0.110630 0.282181 -0.172709 0.075200 0.177734 0.282792 0.945936 0.064203 -0.133544 0.237798 0.071315 0.558927 -0.344203 -0.442813 -0.035168
18487 0.012051 0.472594 -0.067279 -0.206066 0.356050 -0.063009 0.765234 0.161433 0.635787 0.384618 -0.496521 -0.016291 -0.309908 -0.289150 -0.315894 -0.172814 0.500772 0.312211 0.582222 0.148459 -0.202069 -0.401017 0.620728 -0.318958 0.198491 -0.004586 0.499037 -0.104039 0.036418 -0.258353 0.368473 -0.225238 -0.405301 0.188930 -0.687091 0.009197 0.226744 -0.169204 -0.115097 -0.223430 0.322221 -0.829217 -0.363276 0.294895 0.296436 0.232013 -0.180811 0.124830 -0.570573 -0.527292 0.682197 -0.044373 0.258186 0.596921 0.060106 0.202104 -0.405284 -0.603105 0.450386 -0.444305 0.373418 -0.381561 -0.080176 0.262818
6512 0.191888 0.377352 -0.629530 -0.076999 0.358306 -0.123486 -0.654597 -0.088889 0.802177 -0.645723 0.156941 -0.153980 0.067416 0.127160 -0.531645 -0.861057 -0.274991 0.319063 0.041801 0.129709 -0.183150 0.254579 -0.527645 -0.256323 -0.140595 -0.706410 0.593671 0.898338 -0.360653 -0.176574 0.198752 -0.106050 0.035226 0.804336 0.258413 -0.213815 0.242236 0.712487 0.208611 -0.110571 -0.038653 -1.050944 -0.023373 -0.656617 -0.040005 -0.654581 -1.198901 0.064216 0.122031 -0.202868 0.174379 0.787228 0.320427 0.749260 0.584112 0.596498 0.024078 -0.429757 -0.216025 -0.030245 0.078045 0.177826 -0.836562 -0.165244
676 -0.156128 0.948027 -0.291951 0.451554 0.366164 -0.545197 0.260311 0.059454 0.444254 -0.177829 -0.204244 -0.093321 0.195699 0.135853 0.112789 -0.145491 0.002999 0.058060 0.180115 -0.335977 0.462847 -0.093435 0.570802 0.069890 0.733234 0.131901 -0.003966 -0.023155 -0.657808 -0.020794 0.200885 -0.621050 -0.042397 0.004693 -0.368035 0.303278 -0.140518 0.505434 0.378076 -0.511346 -0.129874 -0.446418 -0.031900 0.722633 0.182036 0.135960 0.218004 0.452614 -0.276361 -0.344863 0.341940 -0.078374 -0.114542 0.647703 0.020696 -0.187456 0.686862 -0.140412 0.218361 -0.033748 0.373214 -0.622549 -0.146350 0.243033
8879 0.396113 0.701418 -0.378022 0.323580 0.107555 0.064175 -0.087920 -0.007704 0.351304 0.085873 -0.340365 -0.139327 -0.063334 -0.274502 0.576228 -0.171205 -0.070211 0.431764 -0.082336 -0.179074 0.084375 0.759666 0.411564 -0.268971 0.123313 -0.650612 0.194651 -0.308055 -0.474101 -0.346506 -0.503683 -0.350794 -0.163741 -0.023772 -0.133094 0.259945 -0.153741 0.173182 -0.263442 -0.259183 0.275146 -0.548488 -0.196923 0.210173 -0.412089 0.427268 0.475705 0.150738 -0.708104 -0.366483 0.497936 -0.093242 0.085943 0.217359 -0.094094 0.190100 -0.336496 -0.412916 0.076412 0.080918 0.493473 -0.636594 -0.076537 -0.136657
5346 -0.021833 0.821603 0.454266 0.425939 0.520816 -0.166418 -0.646809 -0.391027 -0.335448 0.160939 -0.619630 0.272696 0.449152 0.511448 -0.613377 -0.661413 0.362879 0.092405 0.152269 -0.221118 -0.332613 -0.638665 -0.101868 -1.010496 0.253806 0.255521 -0.408206 0.425965 -0.282333 -0.029468 0.697542 -0.179476 -0.438565 -0.313622 -0.581485 0.220485 -0.147906 1.039337 -0.934498 -0.646542 0.225676 -0.130187 -0.229745 -0.151710 -0.315117 0.077301 0.042517 -0.130885 -0.313221 -0.345529 -0.351293 -0.348191 0.239518 -0.248993 0.603847 0.005536 -0.104633 -0.006658 0.842062 0.369322 -0.671279 -0.401587 -0.405710 -0.713617
339 0.203327 0.917440 -0.498292 0.400225 0.398587 -0.159665 0.166965 0.307836 0.363787 -0.131501 -0.096599 -0.649289 -0.066216 -0.310600 0.109340 0.038798 0.243743 0.312089 0.349491 -0.112943 -0.322510 -0.468520 0.373221 -0.364213 0.813819 0.423109 0.152645 0.308788 0.189006 -0.415041 0.797987 -0.159728 -0.341498 0.670411 0.032034 -0.037946 -0.008187 0.133121 -0.472402 -0.474799 0.040461 0.180284 0.015604 0.485255 -0.013113 0.062556 -0.204848 0.275571 -0.281501 -0.094562 0.121815 -0.475693 0.273723 0.809507 0.174386 0.189476 -0.021065 0.142011 0.049217 -0.074416 0.508694 -0.655718 -0.119672 -0.398549
24559 0.283743 0.094395 -0.047688 0.144660 0.637367 -0.504836 0.379992 -0.113959 0.609691 -0.180225 0.062026 0.291755 -0.301943 -0.317637 -0.297155 -0.515855 0.334569 0.024314 -0.233306 -0.566092 -0.329815 0.172337 0.102329 -0.133784 0.664168 0.244867 -0.624926 0.349024 -0.060696 0.743061 0.171067 0.031817 -1.152861 0.673777 0.388569 0.487676 -0.018662 -0.311448 -0.234201 0.816089 -0.044766 -0.494172 0.035364 -0.043214 -0.194031 0.497941 -0.807133 0.192732 0.160830 -0.684599 0.140101 -0.508822 -0.056309 0.051454 0.952522 -0.154693 -0.128992 -0.608332 0.665541 0.062030 -0.125167 -0.287596 -0.551890 -0.293244
14924 -0.514550 0.119069 0.256337 -0.097624 0.654225 0.316881 -0.280428 -0.205503 0.471199 -0.032774 -0.220820 -0.450740 -0.197067 -0.276291 0.231027 0.144484 0.011471 -0.044675 0.911296 -0.334400 0.030244 -0.443074 -0.007827 0.129438 1.192102 -1.095541 0.325621 -0.410416 -0.821804 0.574832 -0.184688 0.329247 0.110836 0.316536 0.007708 0.732036 -0.456977 -0.066839 0.271087 -0.335184 0.279548 -0.214885 0.365218 -0.520388 -0.816554 0.527735 -0.503682 -0.119443 0.095765 -0.810724 0.210619 -0.085118 0.188691 -0.296929 0.530661 0.162342 -0.503016 -0.202689 0.072369 -0.823942 -0.113724 -0.342117 -0.202366 -0.095188
17439 0.070983 0.613187 -0.418614 0.308533 0.374521 -0.142106 0.457299 0.401841 0.623610 0.271391 -0.354463 -0.514570 -0.114438 -0.345221 -0.117281 -0.164252 0.421656 0.083722 0.621113 -0.269215 0.118591 -0.141331 0.745989 -0.120252 0.565161 -0.065042 0.132123 -0.027101 -0.534494 -0.031434 0.374681 -0.249356 -0.520675 0.330673 -0.381174 -0.141693 0.420623 0.117561 -0.347636 -0.414073 0.443399 -0.137008 -0.157337 0.442487 0.277575 0.113096 -0.437040 0.104518 -0.138362 -0.069006 0.173938 -0.378535 0.115220 0.908825 0.016105 0.241316 0.138033 -0.071559 0.371882 0.112768 0.547537 -0.797949 0.218025 0.389130
3501 -0.437501 -0.100079 0.755326 0.330633 0.476595 0.146905 -0.144169 -0.312126 0.322223 -1.132122 -0.659978 -0.309008 -0.502066 -0.370911 0.044653 -0.766782 -0.546887 0.492595 0.535160 -0.540345 -0.453368 0.273001 0.288248 -0.770237 0.460314 0.077799 0.351694 0.601123 -0.362202 -0.444922 0.235849 0.363860 -0.479995 0.516023 0.554081 0.344145 -1.113461 0.371046 -0.047482 0.626605 0.064609 0.180859 -0.516100 -0.848553 -0.472702 -0.539220 -0.673533 -0.293896 0.234110 0.217925 -0.153204 0.202504 0.616168 -0.090631 -0.296208 0.467969 -0.044633 -0.789030 0.432930 0.136458 -0.010670 -0.395163 -0.455943 0.253622
6830 0.405576 0.777239 -0.330687 0.255306 0.103322 0.161949 0.011661 -0.037937 0.432886 0.039265 -0.326917 -0.091587 -0.105077 -0.372758 0.518533 -0.240699 -0.129840 0.337838 -0.055321 -0.134581 0.113044 0.684850 0.456669 -0.235419 0.183995 -0.627698 0.206435 -0.191662 -0.317244 -0.389021 -0.487200 -0.386844 -0.238892 -0.106702 -0.225627 0.273899 -0.196660 0.114552 -0.302082 -0.225711 0.250364 -0.584856 -0.272137 0.289118 -0.474827 0.504125 0.429311 0.145329 -0.658626 -0.362862 0.391259 -0.173064 0.046529 0.281867 -0.103755 0.214040 -0.293635 -0.410122 0.100594 0.108705 0.482864 -0.529453 -0.102977 -0.204638
13556 0.068913 -0.319420 -0.005218 0.051942 0.252592 0.026426 -0.414875 -0.048694 0.190991 -0.186677 -0.110802 -0.759852 -0.079889 0.826045 -0.862979 -0.092234 -0.161611 0.255452 0.174525 -0.434329 0.208948 0.425047 0.209993 -0.501668 0.480892 -0.112483 -0.301160 0.208734 -0.573154 -0.132694 0.431491 -0.655556 -0.377462 0.333296 -0.368355 0.483021 0.308289 0.777628 0.411909 -0.274864 -0.360937 0.061926 -0.345774 -0.230409 -0.008665 0.141310 0.007836 0.627902 -0.883845 -0.417389 0.576738 -0.839481 0.195430 0.061539 0.075862 0.376654 -0.392022 -0.704759 -0.272700 -0.011434 -0.287927 0.163575 0.179589 -0.204598
10711 -0.188385 0.918226 0.330556 -0.028143 0.397862 0.711310 0.142829 -0.066595 -0.019194 -0.491140 -0.080695 -0.102131 0.615074 0.186147 -1.027749 -0.926036 0.059945 0.258510 0.319221 -0.082535 0.168557 -0.005624 0.136202 -0.089121 -0.001652 -0.610766 -1.250272 0.039624 0.096187 -0.315423 0.087184 0.233992 -0.240548 0.364092 -0.060315 -0.608773 0.379469 0.671616 -0.235463 0.446593 -0.453955 0.005848 0.060870 -0.450338 -0.522083 -0.014698 -0.188137 0.151745 -0.478332 -0.369701 0.183974 -0.376885 -0.077925 0.184057 0.400731 -0.034609 -0.586116 -0.294867 0.494849 0.404261 -0.199694 -0.416642 -0.551331 -0.044181
9184 -0.284037 0.074615 0.013393 -0.247920 -0.009087 -0.296090 -0.146659 -0.206518 0.804324 -0.136539 -0.203325 -0.475778 0.464033 -0.319393 -0.076567 -0.725781 -0.566173 0.165273 0.404582 -0.843343 -0.069444 0.879829 -0.500068 -0.609455 0.295673 0.390742 0.941787 -0.574574 -0.596783 0.189221 -0.252424 0.365322 0.199907 0.134014 -0.090489 0.083224 0.260181 -0.027932 -0.479045 -0.008408 -0.315001 -0.525872 0.496716 -0.021368 -0.192559 0.171854 0.433072 0.027733 0.525964 -0.352069 0.959185 -0.095472 0.319263 0.274124 0.499752 -0.391142 0.127289 0.233421 0.590787 -0.148445 -0.283837 -0.954261 -0.165415 -0.583392
25006 -0.501583 0.203246 -0.161280 0.096649 0.036665 -0.676270 0.165236 0.125553 0.596082 -0.320141 0.235636 -0.198464 0.826913 -0.207326 -0.690476 -0.675206 0.125335 0.713769 0.847630 0.059341 0.236785 -0.206244 -0.207176 -0.052090 0.058608 -0.571824 -0.190868 -0.146103 0.076884 0.084811 -0.375083 -0.176223 -0.273697 0.042669 0.278748 0.429189 0.068577 -0.426918 -0.341975 0.361372 -0.499344 -0.258189 0.015462 -0.333644 -0.234142 -0.170153 -0.194841 0.255198 0.139748 -0.380930 0.393012 -0.125586 0.022892 0.340044 0.210736 0.783881 -0.005221 -0.179238 0.089708 0.067546 -0.033789 -0.646065 -0.355812 -0.129526
9710 -0.523822 0.563085 0.135655 -0.643926 0.561072 -0.124928 -0.158373 0.004380 0.766853 0.312299 0.122666 -0.642870 0.177857 -0.464773 0.006816 -0.409016 0.396692 0.505880 -0.290357 -0.149029 0.139054 -0.114606 0.445882 -1.046471 0.918568 -1.413276 0.008656 0.118199 -0.322336 -0.909731 0.181032 0.832825 -0.382150 -0.607729 -0.375786 0.342282 0.103738 0.721648 -0.009113 -0.629532 -0.075856 0.422397 -0.156090 0.275113 0.230707 0.034259 -0.090442 -0.412397 0.129299 -0.091058 0.351044 -0.242822 -0.392787 0.439162 0.512762 0.562069 0.278957 0.049889 -0.354236 -0.105546 -0.723021 -0.051656 -0.679703 -0.390488
9755 0.331448 0.432988 -0.720627 0.119682 0.555490 -0.459014 0.000306 0.114769 0.505212 0.227845 -0.178076 -0.574588 0.175274 -0.352760 0.361508 0.011664 0.173784 0.176334 -0.002540 -0.304973 0.019759 0.024053 0.324752 -0.172093 0.448706 0.045954 0.060944 -0.129585 -0.278367 0.006006 0.343206 0.008770 -0.376954 0.560408 -0.352729 0.034102 0.347949 -0.298546 -0.375128 -0.240769 0.460318 0.056920 -0.313895 0.138230 -0.048786 0.619252 -0.660907 0.245583 -0.600491 -0.359084 -0.058693 -0.485793 0.685977 0.607558 0.026830 0.672640 -0.392077 -0.105456 0.103163 0.157407 0.719130 -0.912397 0.225988 -0.079550
543 -0.838817 -0.534873 0.900418 -0.219637 1.166702 -0.364019 -0.211263 -0.472846 0.829644 -0.423200 -0.865676 -0.893809 -0.430520 -0.262196 0.338757 -0.803259 -0.364399 0.536483 0.280508 -0.242338 0.337984 -0.065858 -0.113861 -0.739139 0.022541 -0.266541 0.334344 -0.013082 -0.352657 -0.180584 0.538801 -0.044364 -0.559575 0.464758 0.648120 -0.379913 -0.840334 0.366213 0.365353 0.607104 -0.518064 -0.650382 -0.573839 -0.100597 -0.390025 -0.058034 -0.446492 0.135705 -0.021384 0.713298 0.237376 0.355612 0.195982 0.111922 -0.230660 0.381065 -0.577847 -0.507747 0.728924 0.380354 0.063613 -0.185842 -0.818757 -0.216161
24718 0.194179 0.724322 -0.461223 -0.080144 0.286842 -0.331301 -0.681418 0.015566 0.373137 -1.265477 -0.180780 -0.673095 0.162095 0.336019 -0.151265 -1.033894 0.089154 0.128020 0.128285 0.371225 -0.338599 0.154203 -0.511818 -0.015878 0.011333 -0.372123 0.505687 0.992514 -0.107962 -0.108860 0.017770 0.230517 0.178092 0.183206 0.304307 0.100003 0.379801 0.720886 0.083682 0.000157 0.582449 -0.125297 -0.096820 -0.826518 -0.335175 -0.632888 -0.706063 -0.459035 0.214802 -0.443390 0.533788 0.523003 0.315402 1.172230 0.287885 0.199994 -0.261103 -0.498820 0.183571 -0.606040 -0.149641 -0.515007 -0.897263 0.237118
11275 0.556448 0.094339 -0.041199 0.435434 0.580309 -0.006668 -0.308917 0.162495 0.907891 -0.762046 -0.350459 -0.875048 0.388696 0.253647 -0.714129 -0.400377 -0.197591 -0.237966 0.074966 -0.502166 0.237659 -0.082406 0.309857 -0.215148 0.180966 -0.507629 0.027669 0.302539 -0.074904 -0.216567 0.348870 0.291445 0.023208 0.910610 0.088125 0.166728 0.027404 0.589683 -0.079374 0.076573 -0.281839 0.057272 -0.178962 -0.290342 -0.061242 -0.140517 -0.053850 -0.228381 -0.457003 -0.572777 0.111886 -0.621754 -0.523481 -0.824133 0.194730 0.108732 -0.434217 -0.740194 -0.483702 0.168160 -0.269598 0.262414 0.357452 0.370493
6774 0.299276 0.382040 -0.168641 0.417639 0.089768 -0.464963 -0.236571 -0.514358 0.489793 -0.345203 -0.293942 0.181715 0.089516 -0.291315 0.711653 -0.051195 -0.380458 0.181654 0.098490 -0.427759 -0.419126 0.365143 -0.029361 -0.060397 0.299686 -0.511994 -0.260126 -0.250430 -0.893605 0.101204 -0.345903 -0.441337 -0.000861 -0.013147 -0.035853 0.048078 -0.360185 0.084629 -0.245645 -0.344896 0.159579 -0.379826 0.338152 0.040879 -0.113186 0.359376 0.081821 -0.204573 -0.486853 -1.020317 0.792396 -0.532764 0.340057 0.960653 -0.056237 -0.129766 -0.426025 -0.030183 0.178934 -0.130782 0.376992 -0.409289 -0.133196 -0.355660
14485 0.060162 -0.079930 0.472524 -0.379953 -0.087381 0.423496 -0.050558 -0.466539 -0.054572 0.221464 -0.441276 -0.458246 0.301692 0.583333 -0.409214 -0.375656 0.140948 -0.212136 0.330550 0.016495 0.036652 0.416472 0.402935 -0.164657 0.541040 0.073948 -0.209845 -0.213788 -0.192632 -0.535059 -0.033045 0.048568 -0.545297 0.301934 0.060914 0.546157 0.309988 0.669074 0.307828 -0.396562 -0.102690 -0.391172 -0.312261 0.501726 -0.087727 0.031938 -0.364209 0.224259 -0.781411 -0.398329 0.235289 0.054865 -0.124794 -0.242084 0.715839 0.676807 -0.577503 -0.059026 -0.232765 0.066604 0.202251 -0.436902 0.143816 -0.363969
22177 0.056299 0.038481 0.120880 -0.104094 0.238931 0.613314 0.089803 -0.213616 0.388002 0.010110 0.022718 -0.181734 -0.141830 0.717253 -0.236546 -0.092196 0.100583 0.136391 -0.234993 -0.430778 0.217908 0.439075 0.464620 -0.747748 1.076166 0.450491 0.203557 0.095357 -0.411876 -0.646034 0.279091 -0.585167 -0.791822 -0.030430 -0.192315 0.830618 -0.165926 0.273065 0.139637 -0.162572 -0.582229 -0.069523 0.100966 0.070138 -0.498540 0.501674 -0.728581 0.427712 -0.181025 -0.408831 0.200965 -0.539733 -0.173361 0.126983 0.335895 0.755552 -0.976067 -0.318064 0.313000 0.007646 -0.507687 0.112375 -0.034258 -0.237093
4550 -0.034797 0.255972 -0.257010 -0.146180 0.298237 -0.807458 0.112930 -0.367589 0.754573 -0.793928 0.342467 -0.172441 0.482904 0.053764 -0.682402 -0.308888 0.679644 0.510497 1.109115 -0.032054 -0.366398 0.156378 -0.319565 -0.095718 -0.142249 -0.412140 0.011809 0.120538 -0.176878 -0.091580 0.064123 -0.010003 -0.206483 0.044769 0.767913 0.157883 -0.059525 0.403379 -0.462231 0.525197 -0.418647 0.081856 -0.069788 -0.516126 -0.239370 -0.144913 0.189942 0.291142 0.371512 -0.392339 0.234224 0.344653 0.226722 0.096786 0.178577 0.842350 0.055265 -0.201797 -0.118768 -0.349343 0.063927 -0.627271 -0.443399 -0.010220
17075 -0.569115 0.045528 0.386160 -0.114346 0.422125 -0.329704 -0.203643 0.470884 0.387894 -0.602247 -1.049916 0.299082 0.328884 0.003116 -0.635635 -0.150345 -0.627549 0.570697 0.744944 -0.585480 0.357101 0.047608 -0.007344 -0.853121 0.151005 -0.146294 0.398410 1.230754 -0.919346 -0.169904 -0.499569 0.065005 0.127240 -0.592186 0.405788 0.119614 -0.353634 0.185121 -0.112550 -0.482834 0.174670 -0.212323 -0.550304 -0.718304 -1.601533 0.227430 0.143386 0.026442 -0.034256 -0.112443 0.197994 -0.498911 -0.020709 -0.148835 0.407568 0.736494 -0.445273 -0.384579 0.335299 -0.665611 0.037085 -0.444471 -0.047533 -0.537768
13096 -0.228422 0.570739 0.045337 0.013056 0.207653 -0.911489 0.283063 0.025447 0.798388 -0.295932 0.090363 -0.169446 0.307734 0.195412 -0.493299 -0.574825 0.201416 0.576819 0.763203 -0.308037 0.212932 -0.247603 0.053070 -0.036247 -0.399592 -0.337689 0.116480 0.134906 -0.302455 0.301856 0.055714 0.484938 -0.345903 0.029353 0.650702 -0.126616 -0.196186 0.054695 -0.193692 0.671852 -0.412593 -0.114336 -0.203882 -0.505491 -0.595093 -0.360214 -0.023603 0.293718 0.563173 -0.135758 0.521149 -0.060439 0.190875 -0.317183 0.081763 0.633525 -0.161678 -0.239736 0.116693 -0.225064 0.084094 -0.774205 -0.139146 -0.562569
13008 0.172735 -0.096567 0.218095 -0.301311 0.276674 0.532450 -0.067639 -0.946584 0.168113 -0.251838 -0.534573 0.111268 0.216062 0.302319 -0.110965 -0.805237 0.112105 -0.410843 0.426101 -0.512513 0.152585 0.165278 0.570849 -0.296104 0.607699 -0.280524 -0.051419 -0.636422 -0.405178 -0.243393 0.229912 -0.110679 0.014363 0.639867 -0.082489 0.999997 0.330205 0.474393 -0.189917 0.030669 0.173681 -0.292389 -0.165936 0.452502 -0.276784 0.452786 -0.124770 0.457822 -0.698882 -0.532457 -0.146274 0.782941 0.192436 -0.281508 0.225926 0.620660 -0.288165 -0.006551 -0.323937 -0.506269 0.657332 -0.471500 -0.708479 -0.299770
24696 -0.412779 -0.489583 0.494211 -0.622062 0.119052 -0.513777 0.377972 0.231499 0.812503 -0.189023 -0.229036 -0.746365 -0.302853 0.046794 0.022023 0.006089 0.035995 0.198749 0.759481 0.464280 0.332200 -0.379839 0.045722 -0.531138 0.667831 -0.507489 -0.044071 0.047510 -0.232486 -0.511897 0.261013 0.257830 0.104433 0.126818 -0.211468 0.329606 0.118890 0.207942 0.077941 0.505034 0.019036 -0.880040 -0.627865 0.365647 0.375142 0.294430 -0.265646 -0.240618 -1.126719 -0.288796 0.351115 0.119004 -0.275201 0.702311 -0.775410 -0.025460 -0.420027 -0.522787 0.359245 -0.191504 -0.308966 -0.028186 -0.759680 -0.387369
20574 0.247049 0.702853 -0.253006 0.049037 0.002321 -0.539810 -0.526325 -0.083148 0.824401 -0.692739 0.194100 -0.504811 0.233641 0.226619 -0.087835 -0.738540 0.118667 0.260155 0.190766 0.065689 -0.089175 0.389731 -0.631203 -0.405492 0.154133 -0.539095 0.430670 1.166893 0.050317 -0.239300 0.076806 -0.102842 0.265082 0.491671 0.423073 -0.383701 0.212772 0.541730 -0.200934 0.145468 0.123674 -0.586750 0.141507 -0.963135 -0.327895 -0.574048 -0.877965 0.054399 0.213185 -0.435447 0.380626 0.752236 0.130293 0.507617 0.338343 0.859448 -0.212580 -0.689533 0.143085 -0.148736 0.240696 0.126189 -0.802890 0.226491
20765 -0.635857 0.614620 0.935649 0.280475 0.530321 0.069639 -0.165575 -0.156506 0.658204 -0.702874 -0.473234 -0.651822 0.171155 -0.265106 -0.583578 -0.776978 -0.659537 0.559409 -0.048519 -0.359256 -0.411424 0.763759 -0.229517 -1.090495 0.125440 0.632041 0.402792 0.376969 -0.742715 -0.055938 -0.272130 0.508930 -0.586712 0.199895 0.374509 0.405585 -0.842171 0.637925 0.153728 0.447301 0.239659 0.022110 -0.554988 -0.855278 -0.483373 -0.164497 -0.475211 -0.042522 0.495486 -0.117096 -0.188159 0.422141 0.998208 0.000673 -0.473042 -0.498498 0.098498 -0.214090 1.094762 -0.003838 0.327863 -0.324301 -0.248094 0.445581
15066 -0.083541 0.137233 0.300913 0.271286 -0.350794 0.147916 0.446480 -0.099320 0.118363 -0.306858 0.068797 -1.286835 -0.337704 -0.093000 -0.265354 -0.363224 -0.777052 -0.208952 0.470021 0.062075 -0.388243 -0.192879 0.550485 -1.083838 -0.039269 -0.180409 0.145342 0.442936 -0.214166 -0.277288 -0.105774 -0.046226 -0.306410 0.870037 -0.069283 -0.345319 -0.414165 0.536575 -0.405932 -0.167331 -0.221135 -0.029410 -1.250239 0.000009 -1.121288 0.215909 -0.728685 0.470855 -0.428356 0.101996 0.788315 0.334456 0.543448 0.058709 0.744842 0.603495 0.174725 0.315094 0.570720 0.371600 -0.227558 0.331998 -1.302732 -0.079450
23134 -0.256973 0.341813 0.285657 -0.274982 -0.480675 -0.058654 -0.493261 -0.007323 0.560905 -0.341914 0.441838 -1.013143 0.402118 -0.393875 0.158897 -0.725071 0.621739 0.239042 0.240441 -0.017514 -0.038336 0.054201 -0.411546 -0.160746 0.104159 0.098553 0.358493 -0.213922 -0.527906 -0.345283 0.527808 -0.103581 -0.304275 -0.047319 0.607346 0.190154 -0.141976 -0.409782 -0.078281 0.224803 0.018069 -1.052872 0.200322 -0.699219 -0.209529 0.199693 0.342481 -0.541652 -0.227805 -0.187098 0.607612 -0.457888 0.197728 0.220883 0.064175 0.012906 0.139448 -0.279119 0.034709 -0.604506 0.368911 -0.867063 -0.247334 0.049027
12927 -0.051169 0.711577 0.798474 -0.344748 -0.113365 -0.505766 0.028265 0.172964 0.575455 0.260638 -0.805898 -1.179874 -0.099762 0.478623 -0.726300 -0.811403 -0.188337 0.766587 0.154878 -0.457275 -0.385151 1.047278 -0.532634 0.004911 0.024874 -0.181114 0.070672 -0.360372 -0.490187 -0.298311 0.557098 0.494376 0.134521 0.414655 0.615017 -0.448677 -0.262716 -0.391987 -0.095852 -0.562151 -0.092509 -0.485120 0.585404 0.282562 -0.079207 -0.072274 0.329050 -0.080098 0.064648 -0.621121 -0.018980 -0.038101 -0.662584 -0.242620 -0.363035 0.731347 0.227983 -0.213389 0.348239 -0.167028 -0.161787 -0.116560 -0.519106 -0.579933
7350 -0.614074 0.837616 -0.336534 -0.243164 -0.353228 0.151480 0.142141 -0.151237 0.556782 0.028934 -0.087537 -0.428386 0.117522 -0.001110 -0.431533 -0.769932 -0.087688 0.388942 0.551402 -0.631110 0.120314 -0.110455 0.191938 -0.167283 0.176948 -0.255826 -0.399764 0.383337 -0.382268 -0.233698 -0.052009 -0.224536 -0.775307 0.393325 -0.901128 0.239397 -0.144269 0.387077 0.170729 -0.289547 0.687493 -0.391889 0.127604 0.187954 -0.222462 0.860125 -0.112339 0.314920 -0.705138 -0.231997 -0.067037 0.456998 -0.026944 -0.097731 0.139785 -0.785187 -0.694492 0.075172 0.766862 0.824368 0.679875 0.016106 0.195462 0.135331
12545 0.094954 0.520118 0.086206 0.246521 0.188681 -0.752473 0.122813 0.720395 0.980898 -0.472498 0.018875 -0.301240 0.584142 -0.009230 -0.330711 -0.436781 -0.430810 0.284425 0.297410 0.284763 0.612635 0.124506 -0.205310 0.100702 0.491479 0.203777 0.073594 -0.309528 -0.188408 0.152414 0.264073 -0.508999 0.126112 0.159491 -0.684353 0.336344 -0.094287 -0.211866 -0.120524 -0.262183 -0.325945 -0.583327 0.233814 0.141873 0.243350 -0.329845 -0.460700 0.293575 0.098700 0.122438 -0.081674 -0.214313 -0.071295 -0.178033 0.543039 0.066761 -0.017391 -0.064901 0.304418 0.023239 0.282717 -0.664555 -1.217819 0.040487
19640 -0.005059 0.779914 -0.343011 -0.064584 0.380253 0.466134 0.368655 0.081452 0.764704 -0.152614 -0.493751 -0.638343 -0.732561 0.472210 -0.027263 -0.169331 0.102649 0.401108 0.319269 -0.207125 -0.279155 0.049082 0.704533 -0.349139 0.580773 0.206183 -0.306445 0.216687 -0.374276 -0.555048 0.075397 0.032716 -0.305132 0.674121 -0.323687 0.570843 0.164106 -0.212828 -0.235946 -0.073167 0.271858 -0.126948 0.555463 0.808130 -0.182336 0.338538 0.378850 0.060127 -0.311587 0.143231 0.081776 -0.322066 -0.065651 0.257901 -0.232326 0.311075 -0.263945 0.310280 -0.695558 -0.216024 0.150637 -0.646916 -0.273649 -0.252214
5107 -0.091228 0.317727 -0.072084 -0.357139 -0.435415 0.386007 -0.837450 0.303888 0.350413 -0.408378 -0.361493 -0.042785 -0.349885 -0.045710 -0.580486 -0.676272 0.209350 -0.268216 0.098873 -0.368852 0.105705 -0.251835 0.544035 -0.743202 0.327025 -0.819594 -0.392897 0.320393 -0.369929 -0.720453 0.331681 -0.397968 -0.007159 0.917334 0.061502 0.739396 0.581624 0.734480 -0.489323 0.346044 -0.525720 0.203654 -0.547395 0.195847 0.088154 0.223758 -0.275783 0.457150 0.119344 -0.061191 0.003495 -0.088522 0.475679 -0.447391 -0.437054 -0.089744 -0.436076 -0.170337 0.663495 -0.011416 0.086524 -0.546823 -0.277693 -0.072012
21491 0.238965 0.843711 0.347991 0.458147 0.439114 -0.212892 -0.280463 0.343132 0.033764 -0.325348 -0.228483 -0.021963 0.157673 0.331056 -0.800048 0.195198 0.018228 0.743563 0.296822 -0.170190 -0.009144 0.095483 0.096209 -0.421486 0.058538 -0.162758 -0.085521 -0.316763 0.392399 -0.250396 -0.198920 0.191075 0.036211 0.499057 -0.473875 0.157886 0.564496 -0.099113 -0.525968 -0.003912 -0.179870 -0.185486 -0.399984 -0.459127 0.335459 0.147548 -0.036674 0.324097 -0.507114 -0.610666 0.159638 -0.502083 -0.281030 -0.037417 0.446744 0.461515 0.336299 -0.129910 0.675732 0.147270 0.450960 -0.546856 -0.830831 -0.048970
24330 -0.692560 -0.541071 -1.125360 -0.155582 0.579438 0.259176 -0.344272 -0.273786 1.190312 -0.195144 -0.513576 -0.767595 0.622224 0.712658 0.318763 -0.656204 -0.124152 0.223225 0.158374 0.109585 0.480933 -0.143259 0.491805 -0.442417 -0.100196 -0.209042 -0.457848 0.873615 -1.073951 -0.103005 -0.512298 0.577160 0.174690 -0.603131 0.136307 -0.913548 -0.888912 0.421364 -0.257806 0.355348 0.454548 0.020262 0.013853 -0.624272 -0.407779 0.006158 -0.153701 0.311031 -0.228438 -0.975056 1.089407 0.213819 0.022183 -0.541194 0.278652 0.605382 -0.503018 -0.318320 -0.030459 -0.894128 0.781384 -0.680100 -0.636864 0.113958
4364 -0.262919 0.353803 -0.134616 1.011173 0.319478 0.177503 -0.253871 -0.471311 1.279275 -0.190846 -0.284552 -0.695073 0.142277 -0.096631 -0.196903 -0.807351 0.677542 0.183379 1.211937 -0.063654 -0.255552 0.051365 0.033104 -0.690278 0.048499 0.537698 -0.388532 0.347353 -0.782898 0.038101 -0.343384 -0.155138 -0.413788 0.169407 0.683586 0.027221 -0.632277 0.240650 -0.688442 -0.428206 0.168364 -0.512642 -0.122862 -0.432544 0.053319 -0.634923 -0.422966 0.383120 0.151333 -0.112494 -0.362026 1.054933 -0.014021 0.801342 0.057668 -0.106864 -0.160016 0.151567 0.062265 0.294916 -0.819806 -0.927423 -0.840944 0.254647
24371 -0.067807 0.295805 -0.497654 0.529726 -0.023270 0.021222 -0.347217 -0.506045 0.634577 -0.426744 0.043153 0.168749 -0.128728 -0.088768 -0.826806 -0.959501 0.204858 0.152903 0.201999 0.157331 -0.264537 -0.160421 0.351431 -0.362986 0.553252 -0.135151 0.287586 0.362993 -0.430979 -0.120675 0.265801 0.578213 0.091377 0.783112 0.724149 -0.000435 -0.578603 0.030008 -0.375928 -0.169947 0.413917 -0.199479 -0.398352 -0.011863 0.451895 0.070494 -0.269512 0.201829 0.502255 0.133647 -0.031853 0.600842 0.384324 -0.049685 0.104038 -0.086313 -0.603974 -0.039110 0.251454 0.021204 0.010883 -0.349295 -0.758970 -0.144657
4575 -0.296609 -0.032312 0.323947 -0.167241 0.671886 0.902175 -0.352617 -0.638983 0.035041 -0.258951 -0.476249 -0.181064 0.495479 0.679896 0.122444 -0.444129 -0.257138 0.007261 0.139384 -0.760117 0.136674 -0.004571 0.784053 -0.431575 0.737220 -0.702714 0.212194 0.031730 -0.468763 -0.495450 0.012812 -0.083676 0.663755 0.186842 0.103886 0.594695 0.057148 0.381952 -0.345226 -0.385590 0.032130 -0.676898 0.098228 0.362141 -1.003276 0.407415 -0.123624 0.395565 0.044419 -0.185915 -0.556843 -0.406557 0.184919 -0.076959 0.515418 0.151319 -0.883743 0.196228 -0.120601 -0.266910 -0.047375 -0.118397 -0.217072 -0.640685
25034 -0.233476 0.505131 0.125978 -0.012619 0.424604 -0.185644 0.003292 -0.091927 0.338052 0.065789 -0.193110 -0.892131 0.200363 -0.062470 -0.072657 -0.875971 -0.731304 0.769491 0.109716 -0.588457 0.346363 0.581115 -0.860526 -0.360861 0.244770 -0.159081 0.822121 -0.895101 -0.530250 -0.236186 0.172463 0.184732 -0.263038 0.270482 -0.725640 -0.136208 -0.319244 0.175159 -0.732487 0.034238 -0.166173 -0.646573 0.720825 0.596502 0.207972 -0.163438 0.797962 0.024386 0.340419 -0.179078 0.093457 -0.106977 -0.233490 -0.277835 0.511502 0.125485 0.106455 -0.221226 0.557236 -0.423638 -0.210332 -0.489122 -0.033361 -0.471041
22598 -0.697934 0.830850 -0.668630 -0.373168 0.066269 0.406598 0.117100 -0.132819 0.405836 -0.059909 -0.142331 -0.533514 -0.362294 0.369639 -0.763281 -1.188496 0.045571 0.307277 0.137986 -0.427197 0.032622 -0.078745 -0.123904 -0.042063 0.066192 -0.276219 -0.888528 -0.065383 0.464648 -0.643593 -0.083885 -0.204324 -0.433663 0.223224 -0.776297 -0.608618 -0.584781 0.387368 -0.069580 0.232368 -0.454738 -0.056357 -0.080148 -0.280441 -0.689104 0.429387 -0.117189 -0.133026 -0.627828 -0.122355 -0.421110 0.096820 -0.231773 0.062515 0.609659 -0.246369 -0.357502 -0.462248 0.516222 0.676741 0.366090 -0.177765 -0.274292 -0.112350
22366 0.086876 0.441920 0.126922 0.490306 0.180111 -0.096630 -0.045626 0.243048 0.984951 -0.204316 -0.255378 -0.623662 0.616570 0.288853 -1.216142 -0.717482 -0.208294 -0.157361 -0.228110 0.239827 0.155774 0.039564 0.394507 0.135259 -0.068763 -0.497649 0.058463 0.506134 0.189136 0.439212 0.145703 0.467089 0.395710 0.575452 0.083373 -0.133557 0.035042 0.171515 -0.454129 -0.163775 -0.168468 -0.193205 0.086876 -0.208829 0.187218 -0.129146 -0.402631 -0.334849 0.214181 -0.627976 0.272057 -0.346858 -0.425176 -0.014079 0.127712 0.496591 -0.364356 -0.833188 0.114606 0.775647 -0.431768 -0.139651 -0.286918 -0.080965
16994 -0.657536 -0.084385 0.107374 -0.283904 0.396115 0.251143 -0.008371 -0.044926 0.623103 -0.146083 -0.659640 -0.478518 -0.045531 -0.428124 0.168930 -0.335964 -0.180265 -0.143072 0.604746 -0.299511 -0.035807 -0.404357 -0.014784 -0.050549 1.190738 -1.257744 0.626917 -0.241334 -0.744706 0.200281 0.332020 0.526639 0.009274 0.095598 -0.288129 0.088903 0.054230 -0.158329 0.066508 -0.650210 -0.093070 -0.422843 0.156286 -0.177139 -0.583541 0.442467 -0.383380 0.126150 0.030325 -0.745402 -0.020117 -0.517024 0.327019 -0.432866 0.232731 0.195679 -0.359983 0.129326 0.080114 -0.646650 -0.123617 0.064653 0.139259 -0.174718
22601 0.352636 0.507477 -0.366867 -0.835196 0.282782 -0.434697 -0.441546 -0.257273 1.093109 -0.773926 -0.470483 -1.034043 -0.135045 -0.395410 0.655549 -0.015741 0.378739 -0.219491 -0.339010 -0.466457 -0.103251 0.276798 0.364998 -0.045130 -0.540627 0.409839 -0.682683 -0.035917 -0.937031 -1.114038 -0.220294 -0.009769 -0.130200 0.106503 -0.698951 0.826202 0.244644 -0.204500 -0.295438 -0.552454 0.651015 -0.466986 -0.701283 -0.338677 -0.442890 0.413296 -0.750417 0.708023 0.331951 -0.462816 -0.402563 0.077632 -0.048571 0.493881 0.616643 0.080329 -0.692231 -0.755111 0.693667 0.177415 0.114348 -0.872342 0.287482 -0.566662
9482 0.320204 0.473932 0.054992 -0.060798 0.350364 -0.264926 -0.217041 0.151938 0.567845 0.006108 0.140123 -0.356900 0.190977 0.018631 0.875339 -0.187209 -0.212712 -0.010827 -0.039730 -0.222522 -0.065623 0.233478 0.554714 -0.254890 0.560685 -0.451787 0.191338 0.089304 -0.217965 -0.090248 -0.217255 0.201732 -0.966961 -0.008445 -0.643259 0.116011 -0.503619 0.063672 0.098135 -0.746091 -0.309291 0.015764 -0.127968 0.340522 -0.394344 0.329661 -0.450297 -0.084699 -0.397934 -0.880324 -0.154428 -0.169822 0.832415 0.712926 0.109727 0.376902 -0.514370 -0.328969 -0.210318 0.122163 0.500760 -0.274304 0.110909 -0.367805
10350 0.405971 0.967218 -0.417247 0.031134 0.141478 -0.247345 -0.641541 0.250653 0.651131 -1.080391 -0.314530 -0.411433 -0.250284 0.341339 -0.215897 -0.676195 -0.141562 0.338806 -0.274820 0.376948 0.240003 0.109284 -0.816452 -0.414574 0.164301 -0.424263 0.434721 1.178513 0.003621 0.163235 0.406606 0.329078 -0.224539 0.780064 0.376643 -0.346367 0.341675 0.430233 -0.176971 -0.263914 -0.090209 -0.499618 0.092339 -0.912836 -0.394946 -0.382751 -0.759064 -0.201765 0.089351 -0.154610 0.427374 0.405911 0.214375 0.913518 0.501240 0.526139 -0.134820 -0.476674 0.166454 -0.091370 -0.026099 -0.201482 -0.941950 -0.142798
4743 0.324675 0.640106 -0.291210 0.169611 0.023675 -0.138707 0.030816 -0.025439 0.702601 0.303136 -0.472247 -0.696097 -0.206139 -0.247315 -0.155885 -0.025632 0.283345 0.002416 0.499691 -0.173260 -0.229144 -0.227031 0.322291 -0.486761 0.584488 0.001103 0.084276 0.244551 -0.126751 -0.327949 0.368114 -0.183484 -0.371657 0.627288 -0.617270 -0.009746 0.436137 0.106397 -0.471583 -0.076749 0.528229 0.052476 -0.008561 0.648314 0.026194 0.374174 -0.574082 0.437473 -0.429551 0.068151 0.043278 -0.386277 0.141875 0.455197 0.095962 0.381347 -0.365483 0.098927 -0.112836 0.218256 0.553459 -0.863257 0.344825 -0.063704
16654 0.346361 0.718076 -0.464986 -0.168552 0.205662 -0.018403 -0.540872 -0.001335 0.576240 -0.963527 -0.128897 -0.635500 0.007996 0.139859 -0.331057 -1.002727 -0.084495 0.467733 0.094691 0.474380 -0.029558 0.430855 -0.587311 -0.117765 0.153127 -0.448701 0.619547 1.266135 -0.071665 -0.037350 0.136106 0.165401 0.165524 0.561598 0.335595 -0.135467 0.457974 0.659592 -0.326290 -0.270122 0.325405 -0.526916 -0.015246 -1.039800 -0.413680 -0.662635 -0.819509 -0.113950 0.053043 -0.259870 0.342621 0.739524 0.164679 0.707342 0.365672 0.510588 -0.079266 -0.796249 -0.077758 -0.089799 0.159723 -0.194023 -0.972688 -0.058201
15300 -0.085611 0.434298 0.721182 -0.405366 0.528382 0.417407 -0.030786 -0.334145 0.674351 0.189266 -0.212598 -0.460777 0.251098 -0.470051 -0.385366 -0.042201 -0.851488 0.873880 0.156218 -0.337071 -0.173372 0.290510 0.216914 -0.881921 0.309533 -0.099333 0.730534 0.657556 -0.570634 -0.085114 -0.603515 -0.259155 -0.767632 -0.117613 0.755247 0.766261 -0.291047 0.552181 -0.151825 0.421230 0.009105 -0.213779 -0.172961 -0.761173 -0.526346 0.575467 0.421701 -0.295071 0.164495 -0.544206 -0.703529 0.132840 0.713572 -0.122488 -0.206481 0.145768 0.795824 -0.712169 1.508011 0.772455 0.190119 -0.769483 -0.531254 0.853237
11785 0.118317 0.217755 -0.466939 0.526924 0.414702 -0.420381 -0.289813 -0.427534 0.375832 -0.434898 -0.160858 -0.071255 0.204905 0.152617 0.254067 -0.064318 0.218514 -0.260916 0.315481 -0.343590 -0.162784 0.164822 0.354391 0.161190 0.251438 -0.057875 -0.405192 -0.204931 -0.804998 -0.286353 0.263626 -0.506149 0.276816 -0.049735 0.189873 0.424525 -0.142472 0.067766 0.040282 -0.470245 0.455987 -0.616601 -0.122773 0.697744 -0.131793 0.313961 0.097193 -0.312463 -0.587233 -0.756387 0.445167 0.090001 0.335600 1.103196 0.272123 -0.236820 -0.062415 -0.186836 0.549342 0.033111 0.210615 -0.501750 -0.042236 0.331001
16310 -0.189940 0.540939 -0.202773 -0.147548 0.467679 -0.335567 0.106543 -0.452168 0.005435 -0.279512 0.008790 -0.637340 -0.463402 0.184326 -0.704859 -0.447761 -0.325365 0.409179 -0.289831 -0.458058 -0.614480 -0.383035 0.466341 -0.772395 0.214222 -0.644948 0.148373 -0.149025 -0.291021 -0.455331 0.638900 0.459572 -0.376949 0.609367 -0.606934 -0.231108 0.399700 0.026378 0.308526 -0.438247 -0.258025 0.088535 -0.053213 0.151327 -0.091659 -0.000789 -0.290198 0.090648 -0.730830 -0.064037 0.204460 -0.141249 -0.615007 -0.332181 0.626406 0.077714 -0.588591 0.084455 -0.182604 -0.063115 -0.478306 -0.701146 -0.471106 0.234379
11400 -0.387992 0.952631 0.598681 1.176556 0.171348 -0.311148 -0.245479 -0.282252 0.380893 -0.611756 0.077409 -1.009974 -0.106232 -0.287619 -0.261246 -0.552800 -0.242452 0.635781 0.509668 0.322707 0.341858 0.237230 -0.143687 -0.818961 -0.249706 -0.728961 -0.229350 0.335450 -0.803390 -0.371751 -0.061591 -0.043527 -0.384564 0.169280 -1.343516 0.057961 0.366444 -0.118713 -0.215938 0.317743 0.522128 0.006062 0.036783 -0.348873 -0.311921 0.166997 -0.259745 -0.352299 -0.118181 0.177381 0.131551 -0.358782 -0.195311 -0.235887 1.456098 0.742039 0.835575 -0.364880 0.316874 0.196685 -0.293018 0.039630 -0.877059 -0.325829
4846 -0.018596 0.899427 -0.428073 0.108229 -0.047116 -0.129938 0.763620 -0.257348 0.652300 0.045632 -0.652800 -0.205415 0.146730 -0.160849 -0.068458 -0.416621 0.462351 0.455042 0.797163 -0.174248 0.038365 -0.278036 0.595236 -0.007379 0.524564 -0.018606 -0.071794 -0.241176 -0.377319 -0.136905 0.193576 -0.518371 -0.439457 0.223740 -0.569500 -0.088988 0.132229 0.111342 -0.070137 -0.513323 0.310661 -0.363514 -0.043056 0.338975 0.072226 0.530326 0.061390 0.068546 -0.395225 -0.218317 0.015999 -0.113650 0.277367 0.564322 0.276223 -0.332459 -0.043558 -0.261244 0.258368 0.105547 0.371127 -0.536843 0.206342 0.314212
4241 -0.540905 0.463125 0.118548 -0.142626 0.077875 0.494645 0.373837 -0.169181 0.903089 -0.275657 -0.146661 -1.134503 0.374907 0.423476 0.300982 -0.172942 0.137912 0.605534 -0.468281 -0.662292 -0.328280 0.712630 -0.050765 -0.344699 0.138543 0.210916 0.002342 0.070094 -0.636901 0.081562 0.537492 -0.092694 -0.448006 0.020446 -0.339709 0.892070 -0.415498 0.744088 -0.170834 0.225584 0.879716 -0.701291 -0.463581 -0.159729 0.407800 0.695241 -0.160698 -0.031489 -0.402289 -0.836796 0.131569 0.150659 0.348098 -0.413966 0.208129 -0.702561 -0.777288 0.446254 0.371384 0.417648 0.367292 0.123326 0.443702 -0.426480
14766 0.292837 0.725205 -0.439643 0.037785 0.219621 -0.076536 -0.688325 -0.034306 0.676136 -0.994650 -0.223360 -0.473118 -0.093994 0.170476 -0.522163 -1.043475 0.020879 0.360337 0.047557 0.246989 0.033772 0.249290 -0.540670 -0.043656 0.086451 -0.410020 0.570076 1.159835 -0.037838 0.042858 0.142690 0.109200 0.095702 0.579273 0.328888 -0.265930 0.382147 0.767072 -0.184180 -0.270769 0.335961 -0.567125 -0.108040 -0.935338 -0.440502 -0.632579 -0.890971 -0.028730 0.134511 -0.394368 0.326351 0.737538 0.112706 0.805974 0.260052 0.379713 -0.188235 -0.728761 -0.028437 -0.156686 0.013126 -0.077345 -0.747124 -0.163004
2072 -0.771936 0.856645 0.395273 -0.743398 -0.063667 -0.502197 -0.539356 -1.055898 1.112429 -0.015366 -0.372774 -1.042923 -0.439910 -0.300470 -1.007988 -0.592605 0.014006 0.662196 -0.430340 0.088523 -0.134445 0.894943 -0.076769 0.324212 -0.263367 0.135252 0.376942 -0.152429 -0.314101 0.050379 0.439499 0.374898 -0.200953 0.127830 0.644460 -0.305584 -0.181382 -0.318330 -1.027377 -0.024795 -0.497200 -0.485217 -0.056418 0.280905 -0.682409 -0.015288 -0.187690 -0.598592 0.379236 -0.860345 0.166962 0.013533 -0.722784 -0.032434 0.213395 0.173158 0.157807 -0.189815 0.589724 -0.051515 0.508192 -0.559727 -0.138865 -0.326770
15010 0.288002 0.709329 -0.509205 -0.106959 0.148718 -0.199419 -0.589114 0.146397 0.561428 -1.059509 -0.047474 -0.603766 0.042917 0.391985 -0.375442 -0.861587 0.038836 0.279461 0.002479 0.131977 0.139306 0.367218 -0.455840 -0.226021 0.038748 -0.351238 0.711623 1.244102 0.013478 0.030458 0.230551 0.169495 0.098764 0.515978 0.436649 -0.173174 0.359364 0.802610 -0.246159 -0.289026 0.212845 -0.649361 0.016991 -0.956253 -0.492092 -0.704561 -0.807881 -0.112011 0.076996 -0.422727 0.380664 0.725976 0.083703 0.827167 0.438261 0.438846 -0.226459 -0.738501 0.037823 -0.136561 -0.010095 -0.148571 -1.014292 -0.133959
2115 0.339824 0.116770 0.349425 -0.242724 0.266289 -0.146050 -0.271589 -0.140129 1.192763 -0.657263 0.263092 -0.672724 0.160169 0.384488 -0.381101 -0.311601 0.742582 -0.758553 -0.341396 -0.409110 -0.546368 0.274690 -0.179100 0.029535 0.653096 0.060734 -0.057587 0.241909 -0.774823 -0.934896 -0.120383 -0.481089 0.212624 0.391806 -0.852077 0.658080 0.469288 0.122646 -0.398862 -0.176596 -0.566801 -0.428627 0.209100 0.632990 -0.252471 0.158294 0.264282 0.220275 0.151316 -0.069562 -0.549349 -0.388226 0.276378 -0.207646 -0.056038 0.074548 0.048913 -0.222717 0.346409 0.148113 0.402011 -0.295730 -0.792515 -0.491141
2338 0.309077 0.751395 -0.493613 -0.005847 0.132509 -0.091228 -0.609394 0.057451 0.619872 -1.009339 -0.113554 -0.562376 -0.130660 0.357052 -0.322273 -0.997799 -0.037073 0.262043 0.117134 0.200622 0.090919 0.157289 -0.519053 -0.199915 0.059087 -0.434819 0.564243 1.305810 0.058652 -0.052787 0.265234 0.175151 -0.019233 0.546757 0.323723 -0.303539 0.310371 0.830039 -0.330769 -0.324194 0.259250 -0.689401 -0.005158 -0.949527 -0.355838 -0.586792 -0.901469 -0.122720 -0.011423 -0.363880 0.266147 0.656916 0.098017 0.822792 0.285266 0.540496 -0.111505 -0.796999 -0.082934 -0.189189 -0.109054 -0.138295 -0.859659 -0.055291
4755 0.335794 0.831911 -0.431473 -0.059341 0.278237 -0.168849 -0.760798 -0.052138 0.757465 -0.908132 -0.063971 -0.629217 0.037628 0.236378 -0.467305 -1.116395 0.012087 0.203517 -0.069906 0.257943 0.103080 0.297421 -0.552035 -0.021725 -0.020292 -0.474369 0.643099 1.251202 0.078578 -0.098705 0.168043 0.124621 0.039376 0.454285 0.265730 -0.264525 0.281558 0.670084 -0.407470 -0.253824 0.161409 -0.413042 -0.078680 -1.131596 -0.378314 -0.459165 -0.783975 -0.208587 0.114768 -0.296701 0.275081 0.807463 0.217373 0.825911 0.212854 0.495879 -0.051415 -0.755957 0.071175 -0.195322 0.012191 -0.249792 -0.844169 -0.124589
16414 0.330469 1.047989 0.018270 0.452666 0.194742 -0.141048 -0.418192 0.076382 0.238118 -0.523447 -0.366862 -0.597792 0.166845 0.268598 -0.667185 0.552799 -0.262283 0.328588 0.192338 -0.474856 0.210803 -0.338044 0.320208 -0.427285 -0.022632 -0.230772 0.043979 -0.075210 0.077324 -0.040180 -0.131341 0.218919 -0.134020 0.232313 -0.226169 0.225414 0.319577 -0.308629 -0.692445 0.083823 -0.135670 -0.475605 -0.325788 -0.557573 0.607463 0.232230 -0.273140 0.251547 -0.792224 -0.251686 0.173288 -0.678616 -0.227874 0.127131 0.614506 0.772755 0.506700 0.050335 0.246379 0.072181 0.320755 -0.304054 -0.451533 0.316696
18453 0.175836 0.994111 0.016549 0.037230 0.039525 0.252498 -0.547434 0.176481 0.610049 -0.871803 -0.090564 -0.251717 0.255324 0.326890 -0.822485 -0.896077 0.188371 0.010574 -0.207083 0.104474 0.162384 0.105372 -0.204541 -0.172761 -0.169493 -0.465670 0.424936 1.085577 0.259770 0.070026 0.172762 0.425097 0.165623 0.304595 0.072639 -0.512379 0.257869 0.613691 -0.530915 -0.259764 0.082546 -0.145694 0.283287 -0.725173 -0.096621 -0.182042 -0.924538 -0.280607 0.083628 -0.399674 0.500775 0.388772 -0.219152 0.881403 0.303389 0.635408 -0.369593 -0.946031 0.106510 0.210105 -0.156119 -0.212981 -0.892865 -0.187523
1588 -0.727756 -0.155841 -0.364357 0.188351 0.061584 -0.637334 -0.191750 0.363652 0.616219 -0.125763 -0.045387 -0.511217 0.761894 -0.098939 -0.335946 -0.497282 0.054442 0.038850 0.738959 0.546921 -0.132123 -0.079476 -0.169666 -0.516523 0.476450 -0.200903 -0.011911 -0.029928 -0.049576 -0.179990 0.047782 -0.026624 0.130164 0.486339 -0.035690 0.758284 -0.428972 -0.079565 -0.102660 0.429245 -0.433986 -0.619770 -0.349787 -0.067370 -0.027901 0.061127 -0.258119 -0.065066 -0.218333 0.070960 -0.025489 0.029979 -0.312376 0.562515 -0.325001 0.658462 -0.108585 -0.701381 -0.253462 -0.123710 -0.559805 -0.436112 -0.846290 0.253342
24814 -0.312138 0.053643 -0.366988 -0.691252 0.665735 -0.393081 0.032514 -0.528014 0.729104 0.343812 -0.311954 -0.534829 -1.006975 0.040909 -1.013959 -0.168776 0.287857 0.401004 -0.092281 0.011039 -0.080087 0.498933 0.437432 -0.455927 0.467102 -0.354217 -0.262262 0.481542 -0.527493 -0.102463 0.183182 -0.192140 -0.892842 0.422286 0.200414 0.547892 0.382635 -0.435844 0.005108 0.821632 -0.359337 -0.317999 0.034043 0.411216 -0.137427 -0.091646 -0.333280 -0.178892 -0.755055 0.209984 0.215007 -0.193156 -0.842324 0.793007 0.583555 0.254427 -0.779014 -0.565789 0.588453 -0.330473 -0.588158 -0.517825 -1.138312 -0.036623
3909 -0.160535 0.613261 0.244685 0.473029 0.820777 -0.079061 -0.451924 0.168130 0.075814 -0.096246 -0.017602 0.358754 0.213650 0.092201 -0.642914 0.051846 -0.112831 0.995480 0.332865 0.078891 -0.289095 0.352746 -0.309485 -0.622731 0.564718 0.147534 -0.336151 -0.234585 0.270935 -0.290498 0.041045 0.174220 -0.496165 0.455448 -0.505441 -0.185235 0.307104 0.346495 -0.114211 -0.726057 -0.257773 0.071558 -0.718269 -0.310016 -0.044142 -0.438756 -0.080999 0.096133 -0.028181 -0.681114 0.184343 -0.174382 -0.132877 -0.610157 0.341106 0.096071 -0.015229 -0.210555 0.198570 0.335573 0.497842 -0.665169 -0.777011 -0.616898
20576 0.179075 0.696192 -0.411201 0.058469 0.206847 -0.147662 -0.706933 0.059852 0.683847 -1.136529 -0.086690 -0.654352 0.095046 0.239613 -0.327830 -1.021887 0.074930 0.286270 0.005396 0.352149 0.051766 0.211230 -0.604452 -0.041684 -0.046100 -0.283781 0.675723 1.354655 -0.060715 -0.075179 0.248503 0.081865 -0.014432 0.461658 0.163453 -0.174718 0.217982 0.812677 -0.331960 -0.191959 0.196657 -0.511323 -0.064223 -0.886160 -0.298506 -0.668061 -0.932784 -0.175727 -0.090176 -0.323087 0.237797 0.677342 0.135376 0.908324 0.327684 0.634295 -0.220448 -0.799022 0.159714 -0.021819 0.038639 -0.085573 -0.818646 -0.172211
2530 0.231891 0.782163 -0.448602 -0.004030 0.148929 -0.080089 -0.590620 -0.031843 0.764327 -1.092027 -0.194858 -0.534143 -0.085536 0.146488 -0.441561 -1.045994 0.171683 0.153511 -0.099830 0.381565 0.002537 0.411273 -0.423298 -0.037029 0.088134 -0.337825 0.722241 1.171508 0.024146 0.121569 0.239312 0.190138 0.142380 0.638500 0.235745 -0.278809 0.449105 0.801594 -0.375015 -0.317342 0.194737 -0.527018 -0.023988 -0.965069 -0.301408 -0.477499 -0.879786 -0.065295 0.013051 -0.295970 0.296230 0.751520 0.047746 0.791651 0.312302 0.563436 -0.210650 -0.733827 -0.011378 -0.223317 0.083236 -0.236134 -0.900441 0.008767
9656 0.219049 0.740374 -0.429316 0.000277 0.107224 -0.051853 -0.660095 -0.044117 0.667494 -1.087380 -0.124463 -0.638651 0.188387 0.233252 -0.371614 -1.104450 0.161312 0.147236 0.097409 0.253156 0.098637 0.299352 -0.496767 -0.236903 0.119836 -0.313908 0.647620 1.246702 -0.083675 -0.000465 0.152184 0.191915 0.061105 0.589535 0.201062 -0.351120 0.393355 0.653875 -0.228767 -0.374045 0.253777 -0.515950 -0.159904 -0.974539 -0.467460 -0.637173 -0.868238 -0.224800 0.083244 -0.255690 0.374853 0.691374 0.208836 0.764565 0.401957 0.497407 -0.166509 -0.724740 -0.090018 -0.143988 0.158415 -0.021515 -0.925757 -0.074674
21379 0.617648 0.924184 -0.079605 0.344937 0.461974 -0.597328 0.274527 0.110254 0.276737 -0.402432 -0.034319 -0.619668 0.214461 0.047862 -0.597707 0.582273 0.003877 0.304251 0.121063 -0.047259 0.300308 0.168597 0.584009 -0.049757 0.365142 -0.242621 0.241178 -0.190236 -0.082450 -0.003662 -0.287489 -0.215630 -0.143605 -0.159028 -0.479761 0.524951 0.339611 -0.214874 -0.386308 -0.071451 0.184099 -0.045536 -0.265486 -0.489507 0.329131 0.598687 0.049141 0.486658 -0.463973 -0.206916 0.577614 -0.533875 -0.179005 0.420615 -0.094810 0.337704 -0.086933 -0.151485 0.523202 0.134366 0.527049 -0.449846 -0.401618 -0.117664
4416 -0.035780 0.436119 -0.063280 -0.354883 -0.027284 -0.358825 -0.023179 -0.267922 0.571566 -0.290712 -0.000937 -0.513003 0.716080 -0.388680 0.038872 -0.671037 0.170167 0.627975 0.610769 -0.529420 0.203241 0.030644 -0.144201 -0.288131 0.412090 0.077300 -0.315518 0.064239 -0.257336 0.576756 -0.445778 -0.657283 -0.207632 0.355319 0.328744 0.439728 -0.188125 -1.222793 -0.179302 -0.258291 0.300248 -0.310374 -0.083841 -0.323738 0.012585 0.568530 -0.277385 0.393304 -0.105106 -0.076246 0.706829 -0.364715 0.274696 0.234570 0.216237 0.639390 -0.209107 0.124654 -0.095754 -0.364466 -0.169677 -1.024041 0.059245 -0.571214
2980 0.071152 0.838140 0.098406 -0.063598 0.259656 0.010177 -0.331394 0.041933 0.766529 -0.183630 -0.166246 0.130009 0.269640 0.021032 0.775500 -0.442892 -0.127334 -0.059568 0.337556 -0.230436 0.148769 0.082267 0.437755 -0.173526 0.100125 -0.931884 0.068381 0.224026 -0.732922 -0.006531 -0.379876 -0.406301 -0.298517 -0.096652 -0.531453 0.129934 -0.473528 0.145078 0.194393 -0.444997 -0.085110 -0.257098 -0.152452 0.171645 -0.353747 0.347092 0.296454 -0.143073 -0.430658 -0.874146 0.517142 -0.341708 0.298158 0.456807 0.084283 0.084738 -0.475486 0.180846 -0.066942 0.014250 0.621502 -0.316582 0.186622 -0.057357
2449 0.222358 0.771753 -0.749542 -0.183892 0.402381 0.181013 -0.466664 0.577514 0.217346 -0.850926 -0.147186 -0.416981 -0.092245 0.008018 -0.543601 -0.571129 0.125413 0.329071 0.031724 0.164739 0.185097 -0.060918 -0.325665 -0.036643 0.331039 0.004867 0.409916 1.051634 0.166810 -0.107847 0.439130 0.389438 0.237354 0.421134 0.207543 -0.365482 -0.067296 0.527104 -0.197926 -0.393165 0.182797 -1.014248 0.000088 -0.622463 -0.361157 -0.218595 -0.971077 -0.618628 -0.034808 -0.619110 0.303557 0.733590 0.464989 0.542372 0.393868 0.663420 -0.240918 -0.801772 -0.054875 0.074598 0.360602 -0.421339 -0.681647 -0.208389
18719 -0.000716 0.646713 -0.251670 0.081513 0.332078 0.656303 0.070716 -0.517049 0.714746 -0.075795 -0.518817 0.109127 -0.068249 0.274349 0.477622 -0.438573 -0.165234 -0.081088 0.110036 -0.001993 0.014028 0.385818 0.663528 -0.747200 0.317026 -0.758258 -0.142555 0.362235 -0.332453 -0.264887 -0.156986 -0.083437 -0.171838 0.346815 -0.290652 0.539695 -0.188215 0.308332 0.176114 -0.238804 0.264115 -0.356672 -0.239716 0.416419 -0.410245 0.617528 0.662925 -0.316283 -0.245933 -0.320432 0.224157 -0.300061 -0.064751 0.365569 -0.106576 0.082719 -0.101561 0.557302 -0.478180 -0.184113 0.999618 -0.415728 -0.298906 -0.015896
