5242 64
21281 -0.868130 -0.004858 -0.172199 -0.103402 0.109088 0.396842 -0.805915 -0.155200 0.783284 0.296353 -0.223757 -0.131351 0.051243 -0.242405 -0.233839 0.416503 -0.142324 -0.634394 -0.180406 0.019540 -0.240254 0.142393 0.064232 -0.254110 0.152826 -0.292367 -0.096569 0.436300 -0.160640 0.093884 -0.247083 0.192386 0.047513 -0.506302 -0.558448 0.145772 0.565361 0.164594 0.221535 -0.101341 -0.146420 0.003812 -0.528224 -0.434736 0.476883 0.007831 0.269526 0.210601 -0.207798 -0.128123 -0.322097 0.041180 0.061759 -0.898085 -0.808677 0.414663 0.398804 -0.007078 -0.336951 0.086822 0.644465 0.089754 0.714125 0.225530
12365 -0.317062 0.136481 0.300898 -0.270092 0.163531 0.429249 -0.180620 0.156579 0.248102 0.500357 -0.472744 -0.232866 -0.044766 -0.264917 -0.562354 0.413201 0.255274 -0.145154 0.109400 0.499770 -0.313097 0.076789 -0.416222 -0.593017 0.300730 -0.008829 -0.010288 0.091012 -0.283375 -0.308220 -0.148211 0.126304 0.214695 -0.223768 -0.529033 0.042735 0.530183 0.335444 0.164199 0.153137 -0.321710 0.230646 -0.088144 -0.093574 0.092672 -0.385008 0.634031 0.061045 0.133969 0.078384 -0.215105 -0.221421 0.075896 -0.862159 -0.304431 -0.304449 0.324992 -0.145781 -0.615396 0.097900 0.124384 0.556333 0.718325 0.018517
21012 0.023997 0.175809 0.018428 0.174416 0.590482 0.328011 -0.626038 -0.295248 0.116329 0.263475 -0.456356 0.058028 -0.158839 -0.424908 -0.303945 0.063304 -0.134608 -0.514118 0.074580 0.000535 0.018127 -0.111835 -0.321192 -0.443031 0.081823 -0.131963 0.197100 0.399737 0.039682 -0.153233 -0.410930 -0.144631 0.124381 -0.287392 -0.355985 0.072647 0.459556 -0.214499 0.526997 0.472313 -0.510853 0.221075 -0.259305 -0.193065 0.139548 -0.152736 0.684647 -0.075762 -0.229275 -0.133325 -0.157829 0.088087 0.248935 -1.115448 -0.355001 0.043608 0.397148 -0.095423 -0.141606 0.018742 0.291987 0.381344 0.665434 0.199054
13801 -0.083298 -0.181221 0.229439 -0.127488 -0.165498 -0.379428 -0.271164 0.188071 0.309989 0.251068 -0.260619 0.040222 0.826126 -0.516820 -0.287963 -0.061196 0.220945 -0.196764 -0.003174 -0.041804 -0.094979 -0.702780 -0.285131 -0.508241 -0.154171 -0.480956 -0.016084 0.181779 -0.386069 0.251503 0.077398 0.165702 0.700932 -0.186699 -0.035209 0.090070 -0.243903 0.125100 -0.172492 0.504900 0.023807 0.606411 0.472898 -0.252181 -0.362641 0.162844 -0.358139 -0.736444 0.152354 -0.010624 0.212418 0.326289 -0.447546 -0.394218 -0.314199 0.179513 0.454861 -0.782615 -0.152232 0.073904 0.440361 -0.265131 0.128711 -0.755820
22691 -0.311372 0.112765 -0.048416 0.429562 0.327624 0.275641 -0.302568 -0.170354 0.257102 0.230245 -0.391901 -0.119110 -0.229234 -0.144928 -0.377288 0.513971 -0.181476 -0.585405 -0.099214 0.264694 -0.146470 0.195095 -0.604478 -0.133241 0.133804 -0.088935 0.169003 0.379676 -0.123744 -0.080034 -0.355509 -0.311274 0.239364 -0.144588 -0.436078 -0.021802 0.178795 0.149076 0.372435 0.564542 -0.600764 -0.213175 -0.386475 0.247721 -0.020982 -0.053487 0.833520 -0.064015 -0.109033 -0.141063 -0.290729 0.048783 0.104866 -1.460296 -0.463332 0.189375 0.755520 -0.206088 0.204550 0.029042 0.434702 0.170204 0.541304 -0.138519
14265 0.097563 0.597166 -0.579181 -0.004768 0.016872 -0.005585 -0.768624 0.289998 0.324579 -0.892805 -0.713471 -0.096426 -0.314015 -0.159507 -0.312932 -0.350670 -0.526426 0.493408 0.671170 -0.194034 -0.256125 -0.785710 -0.109303 -0.153604 0.745835 -0.066797 -0.216264 0.208687 -0.458525 -0.009921 0.194730 -0.162192 -0.039376 -0.576983 -0.468246 -0.107489 0.140422 0.556024 0.080137 -0.233788 -0.023988 -0.177758 -0.461914 0.010609 -0.347309 0.023574 -0.269603 0.523461 -1.240810 0.147676 -0.494278 0.226916 -0.036700 -0.063008 -0.604990 -0.845042 -0.190205 0.156578 -0.493286 0.295658 0.399560 0.420968 0.447720 -1.027881
13929 -0.465532 -0.162201 0.158808 -0.210199 0.288332 -0.626938 -0.454311 0.321990 1.041276 -0.212873 -0.199131 -0.048611 -0.802460 -0.062949 -1.166163 0.256441 -0.070716 -0.342228 -0.318602 -0.304057 -0.143249 0.023124 -0.035244 -0.296575 -0.268118 0.096911 -0.319073 0.241787 -0.076231 0.796198 -0.043045 -0.265012 0.127406 -0.269895 0.129993 -0.033111 0.181607 0.149193 0.044521 0.065381 0.210042 0.305380 -0.831154 -0.292298 -0.263489 -0.234573 -0.415197 -0.301736 -0.310514 0.290660 0.147033 0.618936 -0.118032 -0.334287 -0.148189 0.715473 0.532224 0.096831 -0.166484 -0.235510 0.584434 0.054306 -0.165287 -0.304751
6610 -0.695977 -0.118936 0.028169 -0.351062 0.478679 0.205395 -0.450035 -0.431606 0.279382 0.505756 -0.425588 0.122011 0.009477 -0.524975 0.078105 -0.015555 -0.073737 0.164682 -0.563570 0.305449 -0.140014 -0.005520 -0.188487 -0.015430 0.038008 0.268428 0.049887 -0.242562 -0.373921 -0.299343 -0.142706 0.125776 0.234349 -0.192452 0.160880 0.498243 0.846709 0.299012 0.115311 0.352287 -0.535482 -0.032553 0.091141 -0.217779 0.076003 0.125801 -0.084404 0.189407 -0.313874 -0.055545 -0.321926 0.032620 0.014832 -1.068662 -0.528895 0.221988 0.439892 -0.558510 0.022077 0.136146 0.718888 0.529430 0.377405 0.198398
17655 -0.011684 0.200306 0.167651 -0.193288 0.173378 0.105849 -0.504060 -0.116105 0.322633 0.420998 -0.636449 -0.256715 0.406262 -0.510276 -0.115015 0.186064 -0.099633 -0.478379 -0.228608 -0.067965 -0.173980 -0.042383 -0.152776 -0.604883 0.317462 -0.250143 0.049260 0.364058 -0.088820 0.136877 -0.148091 0.152579 0.296716 -0.147013 -0.116247 -0.121806 0.365054 0.089692 0.339900 0.123972 -0.522684 0.202251 0.198575 -0.141193 -0.297549 0.105095 0.181973 0.064484 -0.071762 0.072787 0.067889 0.133548 -0.159099 -1.070707 -0.386734 -0.316834 0.797622 -0.370995 -0.089000 0.147717 0.192260 0.104209 0.784967 -0.063389
9785 -0.538056 0.358916 0.108585 -0.116029 0.520633 0.534346 -0.595638 -0.335236 0.391106 0.002375 -0.544290 -0.473659 0.279879 -0.710822 -0.211560 0.113568 -0.171129 -0.264574 0.030351 0.174624 -0.078891 0.259210 -0.315986 -0.222965 0.279987 0.047293 0.329600 -0.007409 -0.165775 -0.191415 -0.388899 -0.017746 0.134262 -0.514424 -0.045327 0.266459 0.818205 0.294645 0.389133 0.207274 -0.504338 0.008231 -0.099606 0.068698 0.087473 -0.337398 0.174953 0.079649 0.120359 -0.015622 -0.019798 -0.003042 0.305633 -1.129344 -0.636525 0.071591 0.296568 0.094590 -0.300344 0.410935 0.569940 0.338395 0.472971 -0.041765
2741 0.098809 0.087223 0.171375 -0.099876 0.451277 0.391807 -0.602094 -0.438929 -0.100193 0.132354 -0.367486 -0.078729 0.024701 -0.531555 -0.210427 0.250048 -0.078826 -0.310277 0.027918 -0.107666 -0.338072 0.020092 -0.353496 -0.453777 0.006936 -0.154203 0.109154 0.141774 0.051356 -0.098719 -0.335124 -0.103651 -0.083880 -0.223655 -0.432688 0.051699 0.711013 -0.027548 0.422565 0.351418 -0.397277 0.356941 -0.121465 -0.215875 0.267929 -0.313635 0.574646 0.158961 -0.206111 -0.088476 -0.377268 -0.049244 0.185817 -0.872379 -0.373321 0.054676 0.540280 -0.127248 -0.378202 0.247588 0.561519 0.433846 0.742026 -0.100704
9572 -0.036499 0.398916 -0.520972 -0.528024 0.438338 0.291752 -0.117849 0.392767 0.227262 0.026919 -0.013825 -0.245289 -0.774892 -0.037285 -0.684853 -0.044832 -0.078437 0.191858 0.619500 0.182586 -0.380260 -0.663033 -0.036595 0.195760 0.243319 -0.530605 -0.033107 0.235266 -0.252698 0.626141 0.163395 -0.114721 -0.359862 -0.353985 0.443709 0.255119 0.747566 0.379169 0.067724 0.236429 -0.241347 -0.152683 -0.675781 -0.152975 0.149624 -0.201501 -0.569534 -0.398594 -0.049230 0.777012 -0.200445 0.490848 0.209143 -0.789576 0.069081 -0.002313 -0.167580 -0.089654 0.033383 0.035685 0.107976 0.125763 -0.007978 -0.584455
21508 -0.221452 0.229593 0.325380 -0.076584 0.515752 0.500097 -0.498950 -0.032926 0.229006 0.147197 -0.407077 -0.341480 0.476385 -0.529784 -0.668098 0.254012 0.145973 -0.089512 -0.224237 0.277719 -0.361472 0.059875 -0.219434 -0.573660 0.271863 0.017273 0.104765 -0.000933 0.185275 -0.039292 -0.272433 -0.202642 0.015609 -0.477542 -0.280472 -0.017847 0.605312 0.451842 0.059997 0.113831 -0.573903 -0.076082 -0.131468 -0.432202 0.335265 -0.465906 0.509372 0.034886 0.002207 -0.020149 -0.195687 -0.051370 0.097738 -1.126271 -0.665969 -0.073653 0.281192 -0.084984 -0.337388 0.471709 0.503972 0.415624 0.545333 -0.041097
19423 -0.430029 0.153348 -0.133624 -0.054748 0.589776 0.472729 -0.519811 -0.401586 0.473289 -0.043411 -0.550843 -0.026307 0.081076 -0.168442 -0.512974 0.582117 0.079010 -0.686342 -0.234738 0.165894 -0.270807 -0.278408 -0.076203 -0.309879 -0.065390 -0.228333 0.012096 0.267356 -0.157384 -0.335383 -0.256056 -0.018411 0.139211 -0.207136 -0.628790 0.127436 0.547125 0.200042 0.442223 -0.048033 -0.349681 0.089919 -0.052643 -0.214521 0.298492 0.017355 0.143893 0.038956 -0.437926 -0.009136 0.111882 -0.165318 0.321596 -1.104839 -0.573825 0.274292 0.498109 -0.474844 0.085643 0.105178 0.425346 0.197294 0.490449 0.265687
2710 -0.436310 -0.496023 -0.349605 0.167233 0.168508 -0.120495 0.013647 -0.806837 0.426091 -0.185024 -0.566229 0.249229 -0.596388 0.565932 -0.705560 -0.307282 -0.140753 0.284378 0.348715 -0.494238 -0.247833 -0.353275 -0.076566 -0.648767 -0.107339 -0.041921 -0.114944 0.666403 0.426053 0.514075 0.009351 0.297073 -0.218417 0.524345 0.091892 -0.156827 -0.058062 0.697254 0.028040 0.220196 -0.685516 0.866551 0.000852 0.357296 0.044374 -0.451403 -0.287487 -0.830366 0.471841 -0.217393 -0.425207 0.630635 0.496103 -0.198037 -0.194763 0.437297 -0.381004 -0.367247 0.236744 -0.223476 0.186711 0.136995 0.339407 -0.692674
7689 -0.009059 0.233140 -0.374304 -0.241470 0.140559 -0.028272 0.159596 -0.051399 0.212649 -0.425618 0.115643 0.046411 -0.290498 0.610083 -0.855317 -0.355480 -0.111726 0.463711 -0.076336 0.167355 -0.360887 -0.397112 -0.518316 -0.982782 0.291061 -0.341541 -0.605210 0.142847 -0.543555 0.048781 0.071153 0.476518 -0.360751 -0.479753 0.015235 0.404060 0.520999 0.493050 -0.421543 0.113821 -0.040360 -0.242999 -0.500531 -0.261662 -0.140362 -0.020081 -0.811686 -0.159204 -0.241483 0.190869 -0.105627 0.877730 0.310100 -0.585919 0.266297 0.027866 0.335778 0.355965 0.104930 -0.446400 -0.298050 0.172214 -0.035045 -0.071759
15003 -0.467620 0.249834 0.040455 -0.227436 0.711417 0.409999 -0.369693 -0.107210 0.355304 0.212716 -0.303656 -0.352904 0.476954 -0.527235 -0.529636 0.123506 0.030632 -0.345525 -0.079537 0.388666 -0.421766 0.213843 -0.339307 -0.580236 0.243020 0.033556 0.043204 0.124488 0.013254 -0.007378 -0.223765 -0.082150 -0.057613 -0.745441 -0.477404 -0.119160 0.704290 0.223478 0.128720 0.138417 -0.720647 0.265529 0.018337 -0.017094 0.255748 -0.252067 0.058289 -0.163064 0.121512 0.026401 -0.326090 -0.205540 0.013881 -0.954256 -0.509759 -0.063889 0.326247 -0.170321 -0.381512 0.513127 0.379799 0.414554 0.598075 0.115679
6264 -0.283795 -0.414554 0.902701 -0.172191 -0.448402 0.769297 0.607829 -0.393536 0.547998 -0.078449 -0.331889 -0.233781 -0.293423 0.173094 -0.119325 0.631155 -0.915870 0.383078 0.101957 0.147631 -0.403999 -0.428447 -0.213220 0.071784 -0.061019 0.599707 0.073657 0.278574 -0.594414 0.085277 0.353352 0.808812 0.848602 -0.238432 0.039663 -0.178756 -0.265649 0.263626 -0.505197 0.887692 0.267705 0.664908 0.296007 -0.379882 -0.200138 -0.572828 -0.454079 -0.101329 0.185705 -0.042909 -1.105231 0.954303 0.382204 -0.039020 -0.436622 0.044452 0.328350 0.347453 0.078126 0.172092 0.156813 0.286075 0.713048 -0.220557
18866 0.198249 0.541034 0.548390 -0.259948 0.164884 0.418238 -0.319972 -0.108578 0.024229 0.096263 -0.736051 -0.456605 -0.196731 -0.090432 -0.528996 0.013769 0.095390 -0.033505 0.081911 0.337186 0.233160 -0.096444 -0.074312 -0.385272 0.222891 -0.015488 0.268288 0.017843 -0.126911 0.443757 -0.147518 -0.212794 0.122963 -0.332754 -0.076978 -0.009628 1.075785 0.492533 -0.187972 0.217494 -0.143081 0.417455 -0.252523 0.128930 0.227401 -0.468386 0.767904 0.189798 0.001740 -0.094225 -0.235180 -0.299980 -0.197248 -0.616774 -0.182110 -0.119114 0.362204 -0.122330 -0.417844 -0.166805 0.445854 0.846134 0.710410 0.159811
1488 0.079037 -0.588710 0.026374 0.510075 0.242282 -0.772688 -0.551776 -0.325056 0.416580 0.065257 0.054501 -0.471675 0.680013 0.336258 -0.163874 0.455946 0.138799 -0.080126 0.127805 -0.702116 0.232587 -0.460439 -0.429386 -0.418487 0.542310 0.526037 -0.543502 0.881141 0.154368 0.042712 0.014478 0.242068 -0.099933 -0.252056 -0.254947 0.044918 -0.547010 0.581868 0.068159 0.709532 0.505694 0.416876 0.476247 -0.251292 -0.052632 0.283111 -0.357821 -0.273837 0.255978 0.140072 -0.268299 1.180187 0.130582 -0.433124 -0.025997 0.373979 0.273907 -0.336882 -0.077310 -0.116632 0.701209 0.576800 -0.152309 -0.291672
23038 -0.285890 0.150508 -0.115406 0.090192 -0.084379 -0.483839 -0.157049 0.203436 0.735555 -0.215133 -0.603554 -0.505913 -0.220997 -0.120899 -0.028274 0.504744 -0.022798 -0.074287 -0.380634 0.105380 -0.726848 -0.093427 0.396926 -0.093016 -0.106651 0.036426 -0.826555 0.260340 -0.490191 0.234048 0.193947 0.478195 -0.228774 -0.263749 -0.536392 0.102237 0.098276 0.393491 -0.348743 0.176744 -0.058872 0.717158 -0.713013 0.000663 -0.156943 -0.462610 -0.742416 -0.205243 -0.042305 0.104635 -0.071734 0.051278 -0.498207 -0.499348 -0.379732 0.734505 0.368970 0.193116 0.370329 -0.329682 0.429418 0.125176 0.107759 0.393042
14807 -0.475345 0.140637 0.015359 -0.039856 0.494007 0.366869 -0.466954 -0.195958 0.301594 0.293981 -0.566665 -0.014578 0.084505 -0.671981 -0.252450 0.060612 -0.036978 -0.366165 -0.110164 -0.070218 -0.249860 -0.112820 -0.264448 -0.264599 0.032549 -0.206992 0.359313 0.467060 0.194996 -0.390234 -0.403972 -0.107462 0.321663 -0.359467 -0.598530 -0.073237 0.538523 -0.020005 0.272045 0.422884 -0.572045 0.154841 -0.368178 -0.094681 0.113413 -0.196550 0.407842 -0.045331 -0.134318 0.169236 -0.090065 0.204709 0.231163 -1.208435 -0.634534 0.115326 0.318713 0.061830 -0.149115 -0.020067 0.256483 0.220799 0.722220 0.241327
12781 -0.348383 0.355939 0.092134 -0.130394 0.401698 0.581009 -0.534857 -0.287330 -0.043388 0.303543 -0.561243 -0.434999 0.331469 -0.154963 -0.320357 0.473019 -0.152318 -0.285093 0.146993 -0.001989 -0.036224 0.057359 -0.513874 -0.400121 0.206545 -0.163827 0.312654 -0.001562 -0.023087 -0.481170 -0.382624 -0.250818 -0.099016 -0.466895 0.028431 0.164686 0.619566 0.319806 0.037684 0.116058 -0.487473 0.224546 -0.346480 -0.282342 0.082845 -0.415679 0.352239 0.087762 -0.055162 0.120755 -0.070436 -0.150015 -0.038720 -0.985882 -0.291902 0.199854 0.606431 -0.447560 -0.300205 0.146222 0.644139 0.524571 0.779613 0.248484
14599 0.361241 -0.404087 0.158292 -0.080335 -0.339311 0.409747 -0.151776 -0.116130 0.056123 0.213425 -0.244294 -0.065724 -0.050566 0.170119 -0.621896 0.132275 -0.016915 -0.294773 0.263000 -0.614725 0.380952 -0.287274 -0.098025 -0.206042 -0.743579 0.283614 -0.060527 0.489526 0.065857 0.125089 0.158280 0.808414 0.383412 -0.250983 0.196958 0.094043 -0.239486 -0.078646 0.050388 0.223806 -0.209506 0.605862 0.187667 -0.292564 -0.267892 -0.287639 -1.068961 -0.447433 0.083192 0.040548 -0.476720 0.568358 0.112747 0.224619 -0.884315 -0.219364 -0.165642 0.126341 0.265120 -0.259652 0.059896 0.650392 0.867005 -0.042795
1653 -0.553522 0.130593 -0.049713 -0.208638 0.428550 0.242149 -0.814042 -0.184906 0.492585 0.130787 -0.168483 -0.127183 -0.169423 -0.145163 -0.519974 0.387837 -0.206380 -0.323704 -0.394806 0.011410 -0.489089 0.079155 -0.145702 -0.113512 0.225212 -0.189087 0.036755 0.387896 -0.052264 -0.122724 -0.359201 -0.024634 0.220343 -0.530103 -0.580696 0.259771 0.520093 -0.032845 0.043312 0.029451 -0.356668 0.161873 -0.438094 -0.424555 0.395554 0.077935 0.228644 0.356891 -0.007990 -0.052611 -0.018967 -0.114796 0.011554 -1.120507 -0.453016 0.030445 0.571216 -0.083043 -0.250919 0.374808 0.660449 0.219382 0.554729 0.095990
10762 0.240903 -0.477680 0.018172 -0.386883 -0.098231 -0.264056 -0.724145 -0.129901 0.341030 -0.345067 0.410648 0.103748 -0.409660 -0.199399 -0.366188 0.061931 0.411408 0.411039 0.507538 0.501961 -0.167411 -0.368168 0.432137 -0.146147 0.375714 -0.205920 0.138326 0.413814 -0.344375 -0.019721 -0.149046 0.975240 0.030150 0.051808 0.014448 0.563668 0.036592 0.610039 0.567174 -0.083198 0.286342 -0.131506 -0.785727 0.275282 -0.495460 -0.641708 -0.481984 -0.376242 0.104463 0.358665 -0.135564 0.822419 -0.106278 -0.510239 -0.111218 -0.093692 -0.159220 0.060290 0.263242 -0.180053 0.423193 0.447061 -0.021637 0.055793
5052 -0.143315 0.323654 -0.217646 0.799751 -0.279120 0.317424 -0.476967 0.051361 0.596974 0.218379 -0.730645 0.241446 -0.272598 0.325050 -0.526340 -0.148551 -0.346663 0.905218 0.396485 0.303758 -0.062897 0.448785 -0.681704 -0.296166 -0.637337 -0.122432 0.513974 0.082524 -0.016725 -0.127236 0.227604 1.007836 -0.152880 0.056263 -0.080965 0.033084 -0.370905 0.261335 -0.409015 0.042265 0.143116 -0.162072 -0.326936 0.356865 -0.323145 0.087971 -0.143762 -0.492402 -0.146963 0.295524 0.357953 0.005298 -0.138508 -0.521193 0.098692 0.019434 0.284817 -0.400441 -0.132036 0.014365 0.255213 0.579127 0.357768 -0.159873
2654 -0.237948 -0.156613 0.274701 -0.059248 0.069795 0.560769 0.304611 0.377274 0.486020 -0.300959 -0.177962 -0.005293 -0.453108 -0.483378 -0.133302 -0.083212 0.041109 0.150826 0.015446 0.233956 -0.612462 0.193958 -0.128728 -0.192859 0.186365 0.374342 -0.097301 0.091287 -0.743087 -0.518469 0.391542 0.438948 0.786589 0.027798 -0.331723 0.272513 0.134769 0.611694 0.378799 -0.479782 -0.311190 0.479313 -0.248465 0.032372 0.240970 0.183906 -0.075363 -0.137401 -0.488005 -0.477738 -0.169155 0.160347 -0.042688 -0.514887 -0.109134 -0.164331 0.282483 0.160752 -0.366273 -0.186468 0.229611 0.784794 0.191393 -0.267384
4164 -0.202669 0.127982 0.174212 -0.362959 0.721176 0.385507 -0.236339 -0.304567 -0.124176 0.512982 -0.683723 0.003210 0.237056 -0.455343 -0.450821 0.397805 -0.246462 0.067270 -0.091956 0.128488 -0.555091 0.578068 -0.139445 -0.169346 -0.069524 -0.360316 0.011625 0.086756 0.003170 0.127527 0.225242 -0.040501 0.346934 -0.904853 -0.287485 -0.080949 0.435205 0.301038 0.517693 -0.062404 -0.393653 -0.091558 -0.281091 -0.405382 0.127342 -0.031893 0.292890 -0.143360 0.000849 0.252220 -0.203358 -0.112186 -0.147594 -1.342885 -0.672475 -0.167699 0.536716 0.191460 -0.302925 0.253137 0.582647 0.223301 0.617573 -0.253146
773 -0.188512 0.021165 0.159183 -0.210301 0.481437 0.425968 -0.918268 -0.283126 0.325143 0.123050 -0.634318 -0.410093 -0.094906 -0.299167 -0.091717 0.088530 -0.127802 -0.356899 0.088240 -0.006674 -0.134872 0.136103 -0.388840 -0.125121 0.063008 -0.177762 -0.030064 0.362355 -0.122391 -0.071845 -0.217211 -0.302777 0.391403 -0.484253 -0.116279 -0.122231 0.630367 0.175336 0.191912 0.282690 -0.283598 0.212469 -0.235164 -0.208770 0.186953 -0.255632 0.612717 0.164435 -0.170541 -0.050804 -0.238928 -0.054972 0.116890 -1.216598 -0.395072 -0.028024 0.272285 -0.716857 -0.264369 0.207706 0.467283 0.141114 0.514425 0.163405
7956 -0.212123 0.326356 0.238533 -0.246072 0.488976 0.427347 -0.513198 -0.186802 0.189043 0.358556 -0.669542 -0.434194 0.141186 -0.208349 -0.088056 0.279254 -0.126837 -0.336644 0.138312 0.122819 -0.414961 0.046058 -0.322026 -0.254233 0.069467 -0.051424 0.304298 0.084673 -0.066568 -0.143851 -0.411094 -0.311948 0.080857 -0.630271 -0.358636 0.261324 0.598409 0.176533 0.401440 0.253109 -0.438320 0.235238 -0.108794 -0.499800 0.139622 -0.236715 0.213121 0.222532 -0.055190 0.050709 -0.219268 -0.080527 0.035720 -1.143739 -0.294959 0.139620 0.593977 -0.195604 -0.183046 0.262054 0.584209 0.344496 0.792401 0.284828
4952 -0.346709 -0.322951 -0.148164 -0.305478 0.376185 0.178374 -0.419545 0.077195 0.451162 -0.607942 -0.758762 -0.265173 -0.235654 -0.419403 0.048183 0.102706 0.459818 0.334430 -0.481365 0.340765 -0.303564 -0.540589 -1.023258 -0.135579 -0.040855 -0.177639 -0.086517 0.215174 0.079306 0.356654 0.314579 0.363638 -0.058294 -0.317293 0.410033 0.195801 -0.005403 -0.027553 -0.098483 0.284060 0.331112 0.252536 0.612278 -0.415255 -0.786323 0.574793 -0.112113 0.211402 -0.044809 -0.050662 0.157061 0.236905 -0.431943 -0.640239 -0.844641 -0.347173 0.502336 -0.402878 -0.293649 -0.455976 -0.153389 -0.293991 0.833453 -0.855656
9017 0.046528 0.095720 0.210315 -0.037183 0.789660 0.003082 0.451764 0.458375 -0.352160 -0.556976 -0.342304 -0.447313 0.265098 0.035815 -1.154582 0.219130 -0.562532 0.944356 0.627099 -0.242529 0.881226 -0.568272 0.118596 0.061501 -0.233321 0.362684 0.073944 0.987320 -0.565368 0.338857 -0.155701 0.036066 0.803678 -0.398302 -0.728865 0.177357 -0.604726 0.494349 -0.015003 1.372769 0.230345 0.757056 0.199941 -0.551378 -0.505943 0.385684 0.648127 -0.198257 0.697902 0.548366 -0.189839 0.131083 0.116979 -0.748294 -0.249199 0.094959 0.462384 -0.412448 0.024946 -0.122770 0.721353 0.717004 0.112529 0.072649
449 -0.278326 -0.367746 0.424642 -0.912248 0.340315 0.589372 -0.632735 -0.077426 -0.485066 -0.706910 -1.158803 -0.218596 0.201279 0.610438 0.277821 -0.142432 -0.141718 0.425068 0.761408 -0.426976 0.001741 -1.806881 -0.226453 -1.022145 -0.264882 0.722924 0.518762 0.191959 -0.282396 -0.203288 -0.262739 -0.240477 0.004963 -0.644363 0.217375 0.840421 -0.049370 0.950059 -0.088028 -0.576852 0.084275 0.017087 -0.906220 -0.450405 -1.246731 0.144146 0.079395 -0.013118 0.437204 0.477477 -0.415630 0.751252 -0.642418 -0.334193 0.000413 0.163662 0.710538 -0.580828 -0.125943 0.176817 0.690368 0.492014 0.350822 0.008842
13142 0.406258 -0.151045 -0.265612 0.040297 0.490685 -0.350890 -0.473502 0.627726 0.374483 -0.415264 0.273630 0.341398 0.761189 0.118131 0.086849 0.069800 -0.332850 0.360162 0.079844 -0.296901 -0.187276 -0.346849 0.007825 0.040981 -0.817383 -0.463002 0.074825 0.490682 -0.237653 -0.265478 -0.244297 0.001412 0.584820 0.113424 0.159651 0.152921 -0.055136 0.433510 0.098069 0.992184 0.049568 0.602421 0.032824 0.198895 -0.223517 0.006430 0.232114 -0.143359 -0.160160 0.026299 -0.302220 0.829513 -0.338072 -0.306676 -0.403957 0.407376 0.032770 0.093322 0.097976 -0.435124 0.422549 0.260887 0.614413 0.173361
25346 -0.149570 0.344235 0.162324 -0.201750 0.542721 0.223483 -0.517462 -0.278985 0.123453 0.037907 -0.605507 -0.464028 0.384674 -0.327255 -0.274698 0.144187 -0.017925 -0.490544 0.010362 0.240672 -0.365958 0.071073 -0.199377 -0.206696 -0.032041 0.195040 0.400262 0.175691 -0.046516 0.056635 -0.255603 -0.222791 0.340650 -0.551275 -0.458954 0.017685 0.661735 0.078855 0.309690 0.032897 -0.344667 0.180614 -0.314746 -0.402892 0.187191 -0.314096 0.339924 0.253584 -0.021458 -0.087983 -0.219650 -0.256002 0.049100 -1.071227 -0.248772 0.166752 0.487075 -0.316145 -0.359478 0.113712 0.537468 0.359144 0.989299 -0.104539
15244 -0.166019 -0.378958 -0.379214 0.509402 -0.602275 -0.239890 -0.538607 -0.227252 -0.042121 -0.034889 0.600905 -0.074981 -0.136969 -0.424569 -0.458979 -0.121993 -0.457828 0.613627 0.087496 0.466439 0.251431 -0.184082 -0.598783 -0.955229 -0.451053 0.150797 -0.131617 1.027163 0.025845 0.249299 -0.374372 0.290167 -0.213529 0.109285 -0.008980 -0.020695 -0.143285 0.565614 0.271619 0.035605 -0.083566 0.893444 -0.011092 -0.709168 0.181729 0.285056 -0.153912 -0.409646 0.331823 0.319709 -0.519441 0.750414 0.135710 0.316154 0.075942 0.420667 0.297192 -0.045651 -0.176691 -0.143236 1.163827 0.376950 0.026322 -0.293190
19865 -0.141396 0.140078 0.453671 -0.150918 0.166930 0.873577 -0.277288 -0.168163 0.381740 0.102857 -0.663124 -0.601339 0.634860 0.656864 -0.023466 0.161094 -0.477856 0.238749 0.275899 0.219822 0.228730 -0.724420 -0.999417 -0.168557 -0.284362 -0.551839 0.070101 0.725253 -0.179528 -0.165705 -0.287658 -0.698200 -0.379505 -0.440610 0.451960 0.696166 0.046002 0.498454 0.088328 -0.603199 -0.496303 0.589751 -0.797574 -0.191596 -0.438884 0.146521 -0.220998 -0.476574 -0.142162 -0.012283 0.130487 -0.468626 -0.169501 -0.147935 -0.143165 0.149822 0.135619 -0.552697 -0.222656 -0.211280 0.090534 0.993417 0.305656 0.451955
25758 -0.276471 0.267989 0.009370 -0.227132 0.371603 0.025614 -0.405175 -0.234299 0.265339 0.279157 -0.435100 -0.174090 0.020734 -0.643152 -0.440357 0.218560 -0.333696 0.000724 0.063155 0.120294 -0.055426 0.102983 0.061340 -0.199424 -0.019980 -0.383263 0.433294 0.208389 -0.010368 -0.404916 -0.203884 -0.064320 0.221003 -0.906461 -0.278623 -0.285212 0.456772 0.325931 0.199914 -0.017110 -0.339017 -0.066555 -0.242532 -0.153544 0.228912 -0.251084 0.035695 0.472647 0.127042 -0.603764 -0.133295 -0.135020 0.007811 -1.191692 -0.706691 0.019950 0.355011 -0.348865 -0.178898 0.400031 0.184225 0.407277 0.934948 -0.418024
23293 -0.620236 0.276770 -0.146588 -0.601653 0.458666 0.731670 -0.292035 -0.104554 0.316879 0.336386 -0.307785 0.186900 -0.226787 -0.607567 -0.247646 0.293162 -0.167594 -0.157559 -0.006125 -0.130117 -0.484634 0.037198 0.070752 -0.306695 0.066369 -0.066897 -0.074187 0.382159 0.082899 0.112836 -0.389439 -0.036231 -0.116355 -0.332142 0.086792 0.212430 0.565495 0.088419 0.297218 -0.059529 -0.223926 -0.009900 -0.139569 -0.328418 0.345204 -0.044771 0.318733 -0.014474 -0.145535 0.286345 -0.161293 -0.123414 0.101877 -1.208223 -0.273863 0.108232 0.332859 -0.375760 -0.193871 0.053804 0.542104 0.527152 0.743807 -0.335103
14746 0.342022 0.053618 -0.046203 -0.112205 0.135474 0.092345 0.278219 0.588190 -0.514663 -0.149730 -0.288861 0.224018 0.496437 -0.626994 -0.927870 0.200045 -0.713389 0.180541 0.564973 -0.103142 -0.051828 -0.669370 -0.179176 -0.599019 -0.107738 -0.052909 0.003628 0.944967 -0.700459 0.655404 -0.165123 0.492843 0.959186 -0.218055 0.000784 0.334436 -0.142708 -0.196970 -0.074041 1.022137 0.255478 0.493384 0.379862 0.237242 -0.824560 0.638645 0.607480 -0.632553 0.400935 0.023430 -0.200489 -0.014884 -0.162444 -0.243852 0.076199 0.470445 0.304445 -0.272944 0.124517 0.568897 0.749595 0.234128 0.169488 -0.462826
7307 0.043063 -0.091975 0.261836 -0.123424 0.461657 -0.058666 -0.005232 0.533888 0.191779 -0.576649 0.170835 -0.026023 0.678154 0.249378 -0.544942 -0.259383 -0.211201 0.724261 0.223406 -0.132975 0.953434 -0.355403 0.441697 -0.015145 -0.632929 -0.001086 0.088941 0.645349 -0.019438 0.425770 -0.162674 -0.179925 0.452683 -0.890336 0.052653 0.800696 -0.809215 0.773445 -0.479455 1.325000 -0.089493 0.685589 0.507243 -0.206631 -0.101255 -0.075230 0.107196 0.216132 -0.081442 0.188344 -0.643188 0.209720 0.632892 -0.653906 -0.269181 0.525538 0.460834 0.368416 -0.261194 -0.301507 0.527029 0.646611 0.551919 0.018146
9124 -0.449684 0.032691 -0.497526 0.580034 -0.168838 0.680608 0.025308 -0.201466 0.577638 -0.166246 -0.533985 0.709285 -0.138771 0.788902 -0.775815 -0.360884 -0.148900 1.075402 0.762577 0.194981 -0.282272 -0.185656 -0.531792 -0.076951 -0.387403 -0.300463 0.738646 0.307637 -0.264624 0.318173 0.024772 0.668393 -0.098527 -0.295809 -0.274020 0.005526 0.132313 0.719720 0.113254 0.454052 0.568586 -0.081941 -0.608571 -0.254586 -0.681903 0.208740 -0.170282 -0.280555 -0.409816 -0.224069 -0.078632 -0.417314 0.007396 -0.445819 0.178243 0.269900 0.746590 -0.000065 -0.363861 0.196387 -0.446067 0.490885 0.683160 -0.199297
7007 0.369744 -0.495325 -0.326013 -0.194956 0.208765 0.188432 0.274655 -0.375768 -0.436572 -0.419304 0.119527 0.304343 -0.236997 -0.332676 -0.141015 -0.712259 0.001267 0.614917 0.241012 -0.083121 -0.200571 0.155864 -0.532516 0.124496 0.429928 -0.022845 -0.546143 -0.133926 0.017213 0.416600 0.077996 0.109315 0.766291 -0.145650 0.119069 0.203981 0.154816 0.257450 0.887729 0.294799 0.124204 0.262065 -0.736364 -0.249223 0.085665 0.159888 -0.572844 -0.008419 0.068099 0.470710 -0.573526 0.296775 0.221173 -0.334826 -0.148556 0.354963 0.767546 -0.681895 0.310196 0.344045 0.486589 0.894579 0.166573 -0.134645
24955 -0.343582 0.187446 -0.099062 -0.188624 0.653091 0.530281 -0.533120 -0.255498 0.119008 0.131013 -0.450932 0.060641 0.061501 -0.584658 -0.257991 0.126290 -0.004184 -0.426288 -0.128570 -0.003000 -0.182578 0.060294 -0.307082 -0.257739 0.186276 -0.362520 0.212437 0.265520 0.002402 -0.188362 -0.390414 -0.190623 0.269929 -0.443777 -0.454088 -0.009992 0.709415 -0.020092 0.192307 0.062632 -0.466608 0.183823 -0.188022 -0.261165 -0.010755 -0.161462 0.483420 0.025971 -0.128907 0.103079 -0.215765 0.096537 0.011548 -1.214581 -0.572569 0.110727 0.457960 -0.183645 -0.250768 0.171094 0.481343 0.439911 0.745183 0.146758
15108 -0.013131 -0.193817 0.046605 0.239972 -0.073556 -0.391329 -0.631157 0.126232 -0.153846 -0.154159 0.164109 -0.495085 -0.369024 -0.041476 -0.601777 0.178029 0.491074 0.040812 -0.067598 -0.680857 0.362969 -0.376458 -0.632773 -0.364167 -0.482448 0.491743 0.180645 0.858942 -0.260308 0.227328 0.177272 0.173582 -0.061323 -0.620260 0.275981 0.668476 -0.108713 0.330364 -0.116054 0.688016 0.152232 -0.007478 0.030357 0.434365 -0.429456 0.704328 -0.105122 0.342231 0.677957 -0.272440 -0.626612 1.169855 -0.760241 -0.950301 -0.621756 0.721329 -0.310810 -0.197226 0.376306 -0.404115 -0.318083 1.073915 0.122836 -0.018821
5901 0.239960 -0.189132 0.446185 0.008521 0.247801 -0.448166 -0.627766 0.172737 0.015308 0.017339 -0.674711 -0.505847 0.767760 0.026171 -0.144057 -0.635101 0.549784 0.014765 0.054659 -0.332443 -0.201330 -0.653332 -0.489040 -0.028283 -0.649030 -0.235350 -0.628197 -0.086891 -0.504295 -0.273775 0.245318 0.143613 0.792775 0.018313 0.040338 0.075057 -0.108551 0.406945 -0.345885 0.509269 -0.260278 0.321903 -0.540380 -0.685121 -0.375539 0.685416 0.081921 -0.623376 0.503666 0.292329 0.057719 0.292462 0.075528 -0.463570 -0.607775 0.105315 -0.043094 -0.676519 -0.591582 0.416164 0.403363 -0.211402 0.313215 -0.446960
23614 -0.381549 -0.477986 0.090243 -0.146321 0.380295 0.334518 -0.378291 0.084048 0.310057 -0.375059 0.233406 -1.059789 0.206044 0.039608 0.067397 -0.035586 0.288727 0.671459 0.172973 -0.247645 0.722337 0.310198 -0.310097 -0.432721 -1.068286 0.056047 -0.578533 0.751767 -0.280374 -0.175407 -0.308131 0.618016 0.099304 -0.845556 0.213156 0.070528 -0.409977 -0.174620 0.376052 0.000294 0.698140 0.843632 -0.094251 0.177210 -1.229265 -0.367609 0.531602 -0.474044 -0.294544 0.474006 -0.343006 0.493937 0.049085 -0.835201 -0.820975 -0.293037 -0.131092 -0.773671 0.200356 0.158367 0.152069 0.349569 0.076425 0.077088
20373 -0.300263 -0.424882 0.271636 0.179981 0.137474 0.754952 -0.059229 0.226933 0.213991 -0.124369 -0.512042 0.539411 -0.157170 0.163897 -0.537487 0.203450 -0.340527 0.099097 -0.347367 -0.360923 -0.487871 -0.875069 0.119322 -0.135925 -0.685775 0.489626 0.742301 0.174364 -0.669412 0.879453 -0.154951 0.210034 0.629626 -0.486764 0.374698 -0.001754 0.050784 -0.255248 0.363534 0.943611 0.202129 0.403246 0.601510 -0.078015 -0.377301 0.288442 -0.197853 -0.356322 0.698437 0.070807 -0.749174 0.786071 0.071778 -0.240015 -0.114629 -0.516794 0.025387 0.357111 0.242439 0.352522 0.506587 0.513122 0.640655 -0.227114
3372 -0.422836 0.184369 -0.000803 -0.041907 0.440719 0.417184 -0.624357 -0.363200 0.330378 0.196440 -0.530969 -0.167529 0.070705 -0.295999 -0.306210 0.232996 0.057822 -0.359340 -0.170624 0.266033 -0.084037 0.284039 -0.200292 -0.331791 0.230231 -0.212621 0.250239 0.241498 -0.038170 -0.184836 -0.227028 -0.162739 0.332845 -0.329840 -0.323859 -0.017008 0.521095 0.051578 0.367564 0.274302 -0.506461 0.167225 -0.239085 -0.335527 0.028223 -0.285549 0.396228 0.118332 0.024610 0.043962 -0.213835 -0.144218 0.138378 -1.441835 -0.521849 0.188318 0.392185 -0.483338 -0.238319 -0.003493 0.275564 0.407057 0.754385 0.036287
45 -0.224621 0.169547 0.261059 -0.207103 0.490214 0.229558 -0.482502 -0.516018 0.287844 0.256170 -0.714630 -0.109532 -0.062135 -0.504142 -0.350208 0.362316 -0.057326 -0.014992 -0.067288 0.073465 -0.223695 0.128030 -0.155563 -0.184521 0.360001 -0.287432 0.156630 0.363283 0.232753 -0.183821 -0.235376 -0.145378 0.217993 -0.713542 -0.252755 0.156608 0.610020 0.142029 0.009323 0.031350 -0.266250 0.096508 -0.056924 -0.143153 0.025395 -0.183031 0.305441 0.154134 -0.104604 -0.181462 -0.191311 -0.214393 0.237762 -1.209636 -0.395883 0.070033 0.543908 -0.325081 -0.273831 0.340988 0.675632 0.238100 0.925672 0.103737
22457 -0.025488 0.425680 0.099191 0.249422 0.450228 0.577926 -0.230430 -0.112468 0.298121 0.075694 -0.687195 -0.008570 -0.110785 0.200973 -0.293116 0.284020 -0.226302 -0.717660 -0.267346 0.309474 0.172517 -0.573000 -0.329366 -0.777618 0.063834 -0.084531 -0.168557 0.484584 -0.074210 0.086035 -0.006289 0.220204 0.330050 0.267066 -0.195466 0.312326 0.335082 -0.240181 0.365882 -0.047011 -0.175149 -0.118806 -0.173512 0.112093 0.468551 0.060841 0.572449 -0.250834 -0.581547 0.176947 0.490648 -0.096520 0.032361 -0.825094 -0.643308 -0.083519 0.727077 -0.290357 0.311238 0.027931 0.102811 0.843645 0.585833 -0.070322
12496 0.005390 0.124823 0.088984 -0.660897 0.459844 0.437046 -0.618032 -0.609462 0.407388 0.262598 -0.494393 -0.085049 0.245283 -0.508296 -0.380304 0.228897 -0.023517 -0.276854 -0.112226 0.288313 -0.369313 0.155995 -0.214970 -0.374943 0.357884 -0.114888 0.351137 0.316926 0.002834 -0.334744 -0.071508 -0.068657 0.064366 -0.715340 -0.363979 0.168770 0.516038 0.331021 0.104408 0.058200 -0.260802 -0.009652 -0.240011 0.005035 0.048268 -0.169219 0.472185 0.180091 0.076276 -0.213036 -0.211955 0.125332 -0.087057 -0.976625 -0.365037 -0.057221 0.597416 -0.305752 -0.254792 0.154592 0.819907 0.296846 0.673916 0.161588
24559 -0.310213 -0.272235 -0.494470 0.266455 0.003150 -0.333221 0.107318 0.513115 0.249712 -0.766273 -0.419475 -0.244375 0.535330 -0.048912 -0.279315 0.162386 -0.187292 -0.060642 -0.345287 0.376049 -0.907389 -0.136617 -0.269181 -0.327625 -0.609083 0.117833 0.141310 0.418453 0.236267 0.034840 0.477281 0.906394 0.010078 0.421808 -0.336205 0.232014 -0.365035 0.312283 -0.174114 0.549251 -0.049669 0.329322 -0.980046 0.477777 -0.569594 -0.775414 -0.814027 -0.740469 -0.045798 0.613613 -0.331987 -0.490218 0.305969 -0.505118 -0.032057 0.161722 -0.056171 0.502036 -0.571647 -0.305610 0.498422 0.695547 0.203968 -0.001253
6700 -0.763199 0.009100 -0.489929 -0.366388 -0.033861 0.226211 0.215294 0.094998 0.739531 0.126020 -0.415607 0.231889 0.002031 -0.423647 -0.204509 -0.360823 0.046606 -0.017282 -0.053646 0.256225 -0.590493 0.122921 0.395937 -0.152535 -0.150938 0.413166 -0.064673 0.179015 -0.268169 -0.086872 0.161022 0.149805 -0.109664 -0.243993 0.056869 0.626780 0.519312 0.571543 -0.045298 -0.279553 -0.250575 0.012265 -0.350689 -0.006478 0.358150 0.149336 0.446334 -0.346273 -0.722738 -0.315076 -0.233390 0.217279 0.073254 -0.591152 -0.252784 -0.025025 0.112321 -0.170724 0.062184 -0.194257 0.757384 0.968680 0.508070 -0.276293
570 -0.432015 0.030928 0.009806 -0.100321 0.275863 0.366422 -0.382303 -0.391413 0.192242 0.330845 -0.465724 -0.243186 0.149270 -0.455038 -0.561610 0.218542 0.141492 -0.004317 -0.322268 0.110298 -0.237848 0.337915 -0.147385 -0.095152 0.331683 -0.336825 0.280729 0.232036 0.233724 -0.344437 -0.410942 -0.164340 0.105287 -0.585098 -0.316224 0.070149 0.529305 0.135431 0.419444 0.185914 -0.192838 0.066357 -0.154998 -0.266114 -0.151106 -0.114114 0.217731 -0.124245 -0.272063 -0.116098 0.038060 -0.171525 0.375819 -1.308559 -0.229491 0.260101 0.533138 -0.289147 -0.034724 0.333856 0.563701 0.344616 1.143740 -0.102895
23382 -0.633050 -0.258861 -0.380248 -0.082577 -0.117758 -0.141060 0.220382 0.085275 0.763378 -0.253462 -0.646967 0.001465 -0.052541 -0.084446 0.092958 0.311606 -0.002928 -0.083569 -0.057611 0.549244 -0.602052 0.094331 -0.170193 0.067524 0.041163 0.052259 -0.151201 -0.237773 -0.708587 0.002935 0.181660 0.171465 -0.092709 -0.297649 -0.559500 0.075564 0.922527 0.205909 -0.063891 0.217466 -0.411513 0.175572 -0.311818 -0.016698 -0.194033 0.158518 -0.180691 -0.021906 -0.197770 -0.610505 -0.208183 0.235501 -0.180090 -0.547961 -0.620751 0.253667 0.272817 -0.212687 0.331099 -0.331461 1.104349 1.002885 -0.081997 -0.176066
13276 0.249345 -0.288811 -0.213339 -0.132528 -0.230196 0.014008 -0.444583 -0.056207 0.212070 -0.554488 0.349481 0.035037 -0.382758 -0.305721 -0.480020 -0.186653 -0.539329 0.120155 0.383203 0.286706 -0.386202 -0.491821 0.072329 -0.293734 -0.367210 -0.329125 -0.738531 0.117014 -0.348137 0.576248 -0.145851 0.606942 -0.049712 -0.053513 -0.265225 0.293111 0.392400 0.443624 -0.227624 -0.053811 0.344940 0.367247 -0.275914 0.406968 -0.140572 -0.550374 -0.663179 -0.135059 0.076019 0.235435 0.405761 0.606445 -0.346508 -0.641280 -0.175808 0.781171 0.115774 -0.352666 0.292261 -0.382287 0.282954 0.111972 0.079523 0.286488
18208 0.171032 -0.472432 0.080133 0.213411 0.072394 -0.004460 -1.218518 -0.321611 -0.423690 0.089922 0.024812 0.232786 -0.044005 -0.500186 -0.305603 0.054180 -1.031455 0.044470 -0.003281 -0.122504 -0.006974 -0.297614 -0.829427 0.270077 -0.929237 0.150830 -0.572805 0.463360 0.536194 -0.086263 -0.385957 -0.143115 -0.280763 0.180516 0.014768 0.273953 0.887225 0.093809 0.631343 0.253089 -0.346194 0.589621 0.047220 -0.823105 -0.003504 -0.131747 0.170011 -0.595403 -0.103508 -0.224605 -0.339129 0.565514 0.478174 0.103969 0.571699 -0.423029 0.699626 -0.131966 0.173400 -0.379535 0.454945 0.437553 1.084038 -0.987383
11241 -0.248697 0.197816 0.044176 -0.013636 0.566490 0.545377 -0.531791 -0.238119 0.483331 0.212751 -0.304644 -0.174631 -0.183092 -0.641799 -0.372772 0.382377 -0.313549 -0.163755 0.061540 0.239206 -0.222823 0.245629 -0.330733 -0.297912 0.072411 0.002716 0.250754 0.156865 -0.128453 -0.434591 -0.440935 0.020075 0.143561 -0.442211 -0.204838 0.092427 0.377413 0.155903 0.112761 0.173135 -0.600411 -0.021733 -0.142059 -0.362698 -0.042157 0.010504 0.279730 -0.005195 -0.284292 0.067760 0.007418 -0.054107 -0.100592 -1.182153 -0.275053 0.040172 0.502369 -0.426754 -0.403876 0.037674 0.583047 0.209377 0.886756 0.183944
1000 0.577051 0.035489 0.325978 -0.629576 0.365469 0.576528 -0.208040 0.335495 0.502545 -0.332421 -0.563147 -0.238274 0.444824 0.443824 0.354886 -0.792507 -0.123412 0.134620 0.182629 0.065087 -0.326884 -0.498605 -0.434940 -0.086080 0.174510 -0.172726 0.420648 0.339842 -0.532520 0.133614 -0.437920 -0.000946 0.024164 -0.494140 0.053136 0.516236 0.243263 0.528306 0.195110 0.033864 -0.336390 -0.085697 -0.393623 0.049867 -0.538166 0.294630 0.281669 -0.007892 0.137415 -0.133214 -0.607709 -0.090424 0.266491 0.066528 -0.070813 0.459931 0.610433 -0.191594 -0.187241 -0.473418 0.449944 0.363522 0.342143 -0.268846
18894 -0.294286 -0.011442 0.123072 -0.518404 0.416990 0.647119 -0.504732 -0.370534 0.167524 0.287413 -0.373923 0.097234 -0.029712 -0.270186 -0.527517 0.216486 -0.252413 -0.272110 -0.054102 -0.049368 -0.330801 0.013679 -0.347388 -0.255366 0.193462 -0.117526 0.135711 0.273063 0.260983 -0.131196 -0.370619 -0.104095 0.118758 -0.347963 -0.123549 -0.109416 0.776491 0.313037 0.398351 -0.093026 -0.400624 0.015967 -0.181119 -0.251528 0.034127 -0.222331 0.237836 -0.039592 -0.191880 -0.040666 -0.002034 0.101791 0.077659 -1.416295 -0.345570 0.190828 0.450804 -0.310261 -0.306277 0.064258 0.346612 0.069128 0.647577 -0.041940
1217 -0.186689 0.096770 0.015755 -0.099033 -0.823558 0.554477 -0.150240 0.409334 -0.693256 -0.980318 -0.293043 -0.666910 0.009003 -0.161714 0.048122 -0.470929 -0.042104 0.356633 -0.385801 0.159963 0.711895 -1.106182 -0.426354 -0.811855 -0.237660 0.276651 0.748893 0.811452 0.603419 -0.381339 0.325672 0.141577 -0.465327 -0.369591 -0.159656 0.680032 -0.344070 0.589479 -0.021886 0.108166 0.051049 0.245509 -1.205457 0.343588 -0.708949 -0.364403 -0.551809 -0.533443 -0.118720 0.152486 -0.727435 0.519946 0.529055 -0.212098 -0.063762 0.874510 0.888460 -0.548498 -0.139940 0.515759 0.556290 0.132095 0.262045 -0.185301
3651 0.579830 0.088685 -0.571071 0.039508 -0.246408 0.283133 -0.537115 0.386405 -0.027113 -0.256561 -0.698650 0.004779 0.485513 -0.098716 -0.361251 -0.475886 0.212476 0.218885 -0.119984 0.677564 -0.128667 -0.073635 -0.086218 -0.129941 -0.429441 0.461645 -0.150440 0.220609 0.200937 -0.115566 -0.270083 1.074371 0.010836 0.027917 -0.358157 0.241828 0.697701 0.292966 -0.326205 -0.019852 0.152386 0.146788 -0.803414 -0.576217 -0.506180 0.173982 -0.069420 -0.290476 -0.015200 0.232200 -0.616495 -0.402954 0.620087 -0.570871 0.921763 0.849530 0.172806 -0.176307 0.299788 -0.154369 0.480036 0.636374 0.875897 -0.798364
20765 -0.415757 0.318929 0.414591 0.689274 -0.341998 0.367511 -0.410497 0.008239 -0.329485 -0.389994 -0.273260 0.217449 0.205193 0.192461 -1.028323 0.088377 0.551412 1.306211 0.111573 0.236204 0.311476 -0.983657 -0.400472 -0.439817 -0.447904 0.214079 0.360148 0.733905 0.032266 -0.117563 0.169848 -0.488952 0.147829 -0.632238 0.109313 -0.197437 -0.227390 0.431864 -0.517182 -0.197657 1.107670 1.433153 -0.089769 -0.079622 -0.257068 0.084031 -0.410266 -0.525253 0.459659 0.602628 -1.386992 0.774810 0.904192 -0.396564 -1.095693 -0.506043 0.407422 0.122550 0.713500 0.286363 0.709728 -0.420534 0.384478 0.181343
20478 -0.298342 -0.222885 0.116676 -0.062036 -0.098450 -0.528386 -0.164601 0.343520 0.771913 -0.262470 -0.621153 -0.196571 -0.102251 -0.474699 -0.249880 0.299744 -0.414299 -0.234088 -0.306345 0.110540 -0.445991 -0.154302 0.370344 -0.137058 -0.324936 -0.178748 -0.691358 0.064393 -0.492631 0.405628 0.155425 0.456240 -0.080029 -0.254941 -0.397808 0.072735 0.286883 0.180257 -0.285027 0.178046 0.227331 0.204324 -0.273980 -0.064206 -0.112448 -0.477453 -0.581754 -0.410631 -0.308328 -0.327671 -0.002965 0.515007 -0.344880 -0.673639 -0.179268 0.333904 0.394907 -0.337779 0.473168 -0.494295 0.765082 0.105782 -0.127068 0.142344
13556 0.041125 0.197674 -0.347983 -0.071505 0.473699 0.368637 -0.355322 0.800726 -0.020349 0.065298 -0.303337 -0.962032 -0.231517 1.031576 -0.599058 -0.127522 -0.177114 0.696776 -0.008740 -0.037156 -0.743079 -0.024244 -0.114775 -0.305029 0.876259 -0.146058 0.234785 0.670951 0.007462 0.061505 0.337258 -0.019227 -0.501701 0.030123 0.207196 0.753729 0.343823 0.465970 0.471690 0.022264 0.142611 0.339974 -0.307681 -0.000244 -0.014840 0.388651 -0.626148 -0.302653 0.143618 -0.404244 -0.001249 -0.180821 0.120048 -0.390554 -0.434085 0.067896 0.453033 -0.418191 0.201767 0.326938 -0.228304 0.770205 0.318887 -0.062171
231 0.198696 0.431289 0.218672 0.109825 1.068128 0.575746 -0.337715 0.123695 0.477730 0.132307 -0.109629 0.081451 0.202304 -0.425245 -0.166764 -0.265388 0.043432 -0.468384 -0.264281 0.120724 0.371693 -0.164911 -0.360212 -0.529769 0.117292 -0.464746 0.342280 0.306007 -0.458164 -0.070072 0.086417 -0.075581 0.149708 0.409057 -0.282882 -0.266429 0.075543 -0.066504 0.110658 0.291943 -0.402147 0.397118 -0.243060 -0.011147 -0.206533 -0.095645 0.629180 -0.171763 -0.550561 0.099136 -0.427724 -0.013339 -0.159344 -0.950650 -0.258318 0.043896 0.550690 0.201193 0.196408 -0.034940 0.215115 1.039819 0.723502 0.138543
21847 -0.212374 0.048724 -0.102042 -0.290529 0.397987 0.383607 -0.641905 -0.229850 0.202846 0.237882 -0.439817 -0.026101 0.084013 -0.599746 -0.373057 0.364686 -0.228408 -0.346746 -0.198888 0.072974 -0.275622 0.087634 -0.192750 -0.211436 0.247955 -0.081077 0.175630 0.262684 0.051879 -0.279394 -0.335710 -0.138694 0.257156 -0.525361 -0.174021 -0.023463 0.705045 0.192477 0.359496 0.151086 -0.434942 0.152352 -0.232255 -0.316606 0.007401 -0.147449 0.663786 0.149882 -0.054990 -0.103983 -0.129846 0.028517 -0.043316 -1.240464 -0.559100 0.252149 0.496650 -0.419672 -0.187499 0.344840 0.463844 0.320365 0.679201 0.003667
676 -0.215940 0.486082 0.513580 0.131842 0.108343 -0.036138 0.097806 0.210287 0.120802 0.406509 -0.886078 -0.093923 0.104500 0.149548 -0.819079 -0.008017 0.226391 -0.745250 -0.158204 0.296749 -0.044309 0.105759 -0.007884 -0.538611 0.391042 0.374902 -0.221314 0.230641 -0.336659 0.234984 0.016732 0.272737 0.452688 0.332873 -0.139068 0.201454 0.657959 0.170954 0.025241 0.055554 -0.180598 0.215677 -0.264715 0.068616 0.193454 -0.106271 0.070935 0.125444 -0.077039 -0.053567 0.111511 0.426006 -0.180516 -0.415094 -0.577410 -0.741305 0.617037 -0.389096 -0.114017 -0.358365 0.338392 0.902328 0.291983 -0.160984
4511 -0.282387 0.105083 -0.023912 -0.310892 0.483089 0.469884 -0.588373 -0.486760 0.355742 0.251023 -0.497006 -0.123096 -0.029685 -0.656568 -0.255028 0.240774 -0.087280 -0.168275 -0.189519 0.094137 -0.371044 0.125111 -0.185821 -0.372202 0.231215 -0.216891 0.210959 0.221643 0.022467 -0.180020 -0.424639 -0.090989 0.254882 -0.563198 -0.200641 -0.005368 0.548969 0.195181 0.245477 0.230629 -0.504553 0.029715 -0.036092 -0.538442 0.072037 -0.249327 0.263744 0.037882 -0.083462 0.097693 -0.194185 -0.173666 0.031305 -1.283917 -0.380249 0.196881 0.573215 -0.345430 -0.325163 0.139412 0.537170 0.284577 0.766147 0.101356
339 -0.113572 0.098543 -0.333233 0.501306 -0.478128 0.400114 -0.059098 0.094137 0.580913 -0.323004 0.015507 0.242938 -0.103587 -0.101678 -0.667089 -0.457635 0.110010 0.099531 -0.086230 0.116258 -0.218272 -0.119985 -0.126231 -0.363218 0.052002 0.699331 -0.204899 0.338095 -0.380612 -0.568855 0.083184 0.444602 0.341478 0.128479 -0.034784 0.825419 0.215011 0.368399 -0.065618 -0.289189 -0.866399 0.297783 -0.419887 0.037669 0.532009 0.037905 0.369436 -0.314212 -0.714685 -0.334297 0.195459 0.458159 -0.297899 -0.455274 -0.151881 -0.269925 0.614996 0.088641 -0.197125 -0.203500 0.521200 0.577982 0.164242 -0.420887
22887 -0.234424 0.164358 -0.072775 -0.353743 0.351872 0.384651 -0.644923 -0.176365 0.054243 0.170933 -0.530670 -0.252519 0.401351 -0.450703 -0.173273 0.292606 -0.059593 -0.459595 -0.080173 0.099676 -0.418074 0.019158 -0.344586 -0.239489 0.246270 0.059359 0.142112 0.345978 0.106438 -0.268798 -0.260339 0.005153 0.368789 -0.572110 -0.270724 0.068566 0.617672 0.277758 0.096819 -0.008356 -0.395990 -0.045051 -0.405651 -0.490610 0.019042 -0.184493 0.347417 0.257712 -0.043072 -0.017664 -0.106237 -0.150176 0.194637 -1.266696 -0.265841 0.105600 0.344157 -0.416597 -0.116591 0.061617 0.486489 0.171707 0.915925 -0.070447
24924 0.515441 -0.227407 -0.447361 0.266101 0.140232 0.626309 0.380211 0.475213 0.415980 0.213645 -0.399211 -0.182111 0.685891 -0.215099 0.029417 -0.485669 0.028944 0.515879 0.024119 0.242437 -0.401901 -0.243441 0.245742 -0.325591 0.193472 0.588428 -0.114175 0.286246 0.152590 0.094028 -0.246331 0.265881 -0.072566 -0.783954 -0.128834 0.254301 0.677547 0.482723 -0.266424 -0.467050 -0.026493 0.297781 -0.485445 -0.110269 -0.145484 0.038208 0.380872 -0.610979 -0.668803 -0.796874 -0.337544 0.157762 0.615897 -0.587644 0.673268 0.031278 0.408803 -0.131874 0.252785 0.316060 0.446968 0.939856 0.898609 -0.500420
20511 -0.337376 0.620340 -0.408006 0.394933 0.066824 0.335805 -0.246276 0.158645 0.549141 0.145531 -0.286550 0.031947 -0.307914 -0.083261 -0.389406 -0.059918 0.232060 0.314144 0.437476 0.215211 -0.255635 0.104993 -0.381880 -0.236807 0.070465 0.640376 -0.016569 0.451540 -0.247409 -0.052042 0.499741 0.757067 0.671940 -0.182373 -0.412889 0.725658 -0.066142 0.235436 -0.021204 -0.539471 -0.805355 0.624039 0.181394 0.245842 -0.049451 0.191836 -0.575679 -0.257554 -0.722933 -0.611696 0.062864 0.437739 -0.092978 -0.344469 -0.505617 -0.075561 0.207746 -0.383084 -0.194433 -0.054850 0.598967 0.237739 0.506794 0.047012
10711 -0.074818 -0.085094 -0.304262 -0.019585 0.323153 0.273676 -0.334928 -0.294916 -0.418002 -0.710421 0.261776 -0.074399 -0.122783 0.344524 -1.002922 -0.559024 -0.176097 0.108051 1.019263 0.539541 -0.652048 -0.731302 0.177780 -0.409673 -0.199606 -0.524577 -0.876561 0.024394 -0.210700 0.239074 0.068420 0.587990 -0.279464 -0.351341 0.128153 0.125751 0.794924 0.412023 -0.280773 -0.060079 0.401584 0.094874 -0.189571 0.318517 -0.215923 -0.250899 -0.613959 -0.180018 -0.046885 0.460488 -0.146205 0.543469 0.055607 -0.704262 -0.174988 0.471010 0.430787 0.137381 0.173618 -0.288517 0.134630 0.125787 0.060949 0.204559
543 -0.418453 -0.749910 0.257043 -0.449301 0.612588 0.144104 -0.063173 0.166565 -0.288881 -0.661362 -0.000491 -0.811975 -0.306681 -0.045568 0.266485 -0.274400 0.448894 0.923996 0.284765 0.131341 0.472952 -0.038725 0.002776 -1.188223 -0.428021 0.220817 -0.215062 0.975495 0.056056 -0.061498 -0.139662 0.557134 0.106013 -0.492906 0.542335 0.203045 -0.223569 0.174258 0.246940 0.045465 0.836171 0.938502 -0.702866 -0.180079 -1.228717 -0.670297 0.657779 -0.408911 0.081914 0.888369 -0.711520 0.635290 0.000268 -0.511330 -0.872860 -0.562074 -0.327601 -0.588639 0.182235 0.385642 0.228031 0.260645 0.359836 -0.359987
24057 0.518865 -0.513194 0.099648 -0.172871 -0.198081 0.047955 -0.071126 0.400568 0.185329 0.010600 -0.138999 0.482105 -0.431068 0.581652 -0.125644 0.065931 0.014512 -0.364861 0.084457 0.101679 0.221387 -0.296134 -0.403650 -0.714753 -0.454964 0.367836 -0.345053 0.631769 -0.284439 0.346530 -0.554783 1.059966 -0.287929 -0.176903 0.063583 0.173346 -0.101493 0.312477 -0.110733 0.157636 -0.462673 0.485017 -0.398734 -0.577755 -0.226123 -0.809484 -0.686557 -0.238645 0.071153 -0.088807 0.147232 0.140168 0.695868 0.080511 -0.857979 -0.124598 0.743608 -0.145014 0.448501 -0.104317 -0.053229 0.452535 0.163494 -0.494570
3501 -0.505968 -0.658284 0.336831 0.335048 -0.273672 0.017971 0.017126 0.193006 0.174922 -1.110116 0.332218 -0.905162 0.454681 -0.015465 -0.447205 -0.236732 0.666548 0.876710 0.233655 0.232807 0.847451 -0.407541 -0.940216 -0.210552 -0.198499 -0.080895 0.204592 0.761633 0.192507 0.125955 -0.069164 -0.182525 -0.222357 -0.135460 0.011626 0.070876 -0.648953 0.296515 -0.067696 0.085293 0.897386 0.818014 -0.409117 -0.439769 -0.370973 -0.364183 0.366401 -0.663913 0.082966 1.018162 -1.008150 0.930627 0.123490 -0.410236 -0.509644 -0.021262 0.120678 -0.275148 0.265338 0.714302 0.649836 0.290118 0.590951 0.085504
20635 -0.250318 0.029460 0.077308 -0.232153 0.489033 0.448719 -0.512952 -0.394435 0.389667 0.312665 -0.462415 -0.142024 0.070164 -0.412095 -0.326906 0.348048 -0.090741 -0.321469 -0.080619 0.122800 -0.353360 0.209596 -0.224820 -0.302179 0.179500 -0.138549 0.029450 0.204337 0.093145 -0.358359 -0.398768 -0.177486 0.204713 -0.437506 -0.151996 0.112695 0.512800 0.257505 0.321430 0.125451 -0.487022 0.005569 -0.184454 -0.458124 0.072389 -0.069167 0.282513 0.063279 -0.108979 0.142327 -0.163960 -0.013857 0.080109 -1.447326 -0.345421 0.011332 0.521094 -0.309238 -0.379561 0.185967 0.612814 0.333727 0.751500 -0.040963
14924 0.381049 -0.210624 -0.181652 -0.209296 0.976445 0.978251 -0.697764 0.532676 0.547662 0.104074 -0.171452 0.155185 0.123833 -0.356210 0.144048 -0.270492 -0.137679 0.041860 -0.211442 0.119497 0.950078 -0.442351 0.132364 0.056852 -0.133213 -0.581973 0.350237 0.411343 -0.383585 0.217217 0.476583 -0.126131 0.400684 0.520009 -0.500126 -0.121934 -0.397958 0.972681 0.035813 0.799811 -0.119767 0.471930 -0.070591 -0.184595 -0.559051 0.296097 0.175522 -0.654559 -0.407634 0.091231 -0.807741 -0.183755 -0.257743 -0.420778 -0.125961 0.326289 0.397987 0.321738 -0.161408 -0.438910 0.436721 0.965011 0.043732 0.187733
6179 -0.439618 0.223517 0.039007 -0.289516 0.437369 0.562115 -0.521396 -0.376066 0.358751 0.223342 -0.366556 -0.094156 0.172705 -0.543033 -0.255669 0.322908 -0.065696 -0.211427 0.037179 0.119264 -0.208691 -0.017507 -0.180054 -0.260580 0.111456 -0.223716 0.080876 0.212069 0.094115 -0.177894 -0.252639 -0.000987 0.400991 -0.405039 -0.379445 0.119368 0.654703 0.139150 0.325003 0.190783 -0.470437 0.056216 -0.289513 -0.212562 0.096144 -0.309546 0.365875 -0.036009 0.127571 -0.143429 -0.111595 -0.253680 0.010135 -1.360361 -0.498043 0.083688 0.396583 -0.347571 -0.156090 0.126638 0.432982 0.300411 0.844100 -0.062197
5346 -0.592334 -0.258489 -0.277468 0.401439 -0.457669 0.516171 -0.174849 -0.017616 0.701694 -0.466140 -0.227255 0.976522 -0.193680 0.704194 -1.237866 -0.577990 -0.505178 0.855887 0.722996 0.034125 0.017426 -0.086996 -0.663560 -0.874824 -0.147665 -0.115477 0.292300 -0.069701 -0.253686 0.305562 0.330074 0.684900 0.140814 -0.655273 -0.299070 0.479863 0.332984 0.498286 0.161706 0.482719 0.283345 -0.190557 -0.542702 0.016307 -0.838112 0.310152 -0.001675 -0.504473 -0.198981 -0.111567 0.032801 0.047267 0.232921 -0.349204 0.078043 -0.112477 0.721775 0.274380 0.121753 0.171685 -0.943122 0.294275 0.102550 0.003582
22177 0.021821 -0.023621 0.125801 -0.280917 0.382033 0.847254 -0.085081 1.034268 0.180048 -0.495766 -0.373695 -0.427005 0.377721 0.144554 -0.168045 -0.706342 -0.183473 0.610586 -0.382009 0.230682 -0.235087 -0.074691 0.054001 -0.525237 0.432818 0.169641 0.132273 0.770255 -0.020509 -0.041159 0.308180 -0.056802 -0.416174 -0.533318 -0.283379 0.549749 0.555633 0.436220 0.130865 0.120477 -0.396213 -0.189966 -0.458604 0.447302 -0.120701 -0.368149 -0.764686 -0.687378 0.420073 -0.190422 -0.294811 -0.221402 0.545380 -0.398106 0.130061 0.315818 0.242139 -0.562620 0.139753 0.437678 -0.132862 0.708403 0.237244 -0.008496
14485 0.159298 0.205129 -0.239140 -0.735179 0.350445 0.196676 -0.101104 0.468558 0.466472 0.107418 -0.355472 -0.480019 -0.121151 0.437044 -0.303367 -0.423506 -0.070375 0.769890 0.246212 0.283758 -0.225455 -0.527872 0.451376 -0.170740 0.528438 0.083648 0.271189 0.069019 0.188556 0.424125 -0.221834 0.134824 -0.397533 -0.437862 0.129482 0.111817 0.814526 0.818524 0.257412 0.091285 -0.153522 0.018961 -0.575711 0.171726 0.245708 0.045222 -0.056801 -0.484296 -0.052829 -0.314789 -0.273581 -0.306980 0.111752 -0.200627 -0.259700 0.173538 -0.195451 -0.141561 -0.035635 -0.145450 0.058269 0.759494 0.507218 -0.231478
2212 -0.454574 0.135097 -0.015030 -0.306252 0.450069 0.407531 -0.587128 -0.289817 0.027499 0.259241 -0.658823 -0.136369 0.165011 -0.603956 -0.385043 0.381028 -0.087367 -0.401117 0.001175 0.042305 -0.198736 0.144264 -0.169575 -0.342633 0.293378 -0.078995 0.118994 0.269371 0.001937 -0.263359 -0.366686 -0.066054 0.285147 -0.522047 -0.325543 0.032316 0.483865 0.181787 0.298799 0.238540 -0.524227 -0.011525 -0.301409 -0.347584 0.109688 -0.325426 0.208355 0.189342 -0.043306 0.060512 -0.226213 -0.153665 -0.012067 -1.252100 -0.451496 0.217838 0.581588 -0.251993 -0.280079 0.153411 0.415740 0.327185 0.811581 0.101119
14540 -0.391219 0.008623 0.082093 -0.229353 0.525365 0.647347 -0.467223 -0.347737 0.165086 0.321120 -0.473165 -0.090781 0.184473 -0.469792 -0.419735 0.237387 -0.181789 -0.397444 -0.079568 -0.074656 -0.455707 -0.117977 -0.342425 -0.170473 0.120958 -0.164493 0.013268 0.127989 0.145668 0.009916 -0.229735 0.043668 0.291575 -0.636791 -0.305165 -0.087157 0.640843 0.287432 0.475419 0.097071 -0.324063 -0.046827 -0.174648 -0.223430 -0.030550 -0.321357 0.348853 0.030897 -0.153310 -0.020243 -0.047679 -0.065061 0.098697 -1.256293 -0.337382 -0.062312 0.502290 -0.242146 -0.289238 0.216773 0.482825 0.105320 0.746585 -0.108264
18487 -0.886875 -0.123202 0.099395 -0.099213 0.326823 -0.070994 0.072029 0.129244 0.456850 -0.129961 -0.773553 -0.320469 -0.480363 -0.433418 -0.196774 0.021513 -0.287901 0.092990 -0.218608 0.882577 -0.688223 0.345757 0.163809 -0.234023 -0.447294 0.401351 -0.309685 0.040055 -0.520851 -0.383217 0.338215 0.374080 -0.118027 -0.140937 -0.103944 0.089709 0.284226 0.170170 -0.161004 0.150145 -0.260197 0.056696 -0.324914 0.016189 0.056312 0.389575 -0.133331 0.022874 -0.800136 -0.334809 -0.578507 0.302930 -0.070800 -0.783898 -0.328259 -0.192359 0.306093 -0.660193 0.080581 -0.325965 0.632498 0.574538 0.018598 -0.012515
17692 -0.369241 0.079140 0.012345 -0.264343 0.578691 0.395957 -0.542136 -0.338010 0.156478 0.188320 -0.512993 -0.192333 0.116282 -0.510858 -0.376743 0.279995 -0.127763 -0.236226 -0.112520 0.122729 -0.405094 0.216376 -0.343008 -0.379614 0.189678 -0.183792 0.086642 0.297699 -0.013899 -0.255548 -0.284547 -0.167639 0.132402 -0.577645 -0.354112 0.043714 0.614717 0.143117 0.299266 0.188341 -0.492248 0.004793 -0.145758 -0.270177 0.053104 -0.134780 0.357902 0.028237 -0.035509 0.019328 -0.164370 -0.066407 0.021556 -1.188930 -0.347291 -0.048666 0.451033 -0.282548 -0.281042 0.243758 0.594606 0.286159 0.842924 0.076857
20108 -0.426080 0.185582 0.075185 -0.297122 0.433590 0.343680 -0.538913 -0.390181 0.226611 0.261633 -0.494030 -0.249770 0.209405 -0.450861 -0.305102 0.299942 -0.101146 -0.360926 -0.181247 -0.014046 -0.305443 0.135085 -0.218376 -0.331086 0.186668 -0.185118 0.211434 0.336181 0.036550 -0.159465 -0.303754 -0.141793 0.253526 -0.498547 -0.269660 0.138105 0.574942 0.139760 0.377746 0.045190 -0.423433 0.144757 -0.262698 -0.210259 -0.008251 -0.218648 0.288935 0.039372 -0.049479 -0.035852 -0.155434 -0.107701 0.048189 -1.312517 -0.417004 0.156952 0.522244 -0.396455 -0.297336 0.191063 0.475252 0.242789 0.850938 0.009363
9755 -0.338148 0.149898 -0.369375 0.139530 0.349079 0.296066 -0.316471 0.553901 0.599090 -0.016140 -0.074771 -0.162982 0.192401 -0.131156 -0.494678 -0.004996 0.057888 -0.100458 0.390882 0.101800 -0.636770 0.034403 -0.222647 0.176195 0.003736 0.475796 -0.087710 0.454748 -0.388391 -0.642407 0.174929 0.479542 0.452566 0.219735 -0.873972 0.546443 0.306473 -0.007546 -0.116525 -0.416801 -0.977314 0.427538 -0.480407 -0.088491 -0.067110 -0.076600 0.124736 -0.241481 -0.804110 -0.403994 0.253604 -0.025837 0.216515 -0.542043 -0.514595 0.137304 0.300187 0.109640 0.043253 -0.072060 0.853600 0.258164 0.644679 -0.217251
13096 0.276771 -0.503167 0.176597 0.030382 -0.160283 -0.068349 -0.537501 0.179158 0.162654 -0.340436 0.270789 0.135289 0.197422 0.183738 -0.208416 0.260565 0.088268 -0.002217 0.231386 -0.667062 0.174471 -0.031088 0.243312 -0.199333 -1.015104 -0.023919 -0.402845 0.726096 -0.329204 0.046216 0.032001 0.348163 0.069303 -0.412709 -0.152724 0.276195 -0.271481 0.284355 0.452103 0.556161 0.431534 0.223750 0.016511 0.277379 -0.441418 -0.180903 -0.282885 -0.170863 0.195430 -0.265102 -0.156734 1.007711 -0.314542 -0.784945 -0.592801 0.435306 -0.413094 -0.183546 0.328144 -0.680767 0.307252 0.270255 0.245661 0.173650
6512 -0.031243 -0.662015 -0.184670 0.576102 -0.083777 -0.374434 -0.294716 -0.378865 0.093914 -0.062780 0.129352 -0.270700 -0.026873 0.117448 -0.455138 0.313184 -0.449732 0.223440 0.590899 0.741942 -0.023273 -0.010832 -0.666374 -0.892044 -0.224526 0.453429 -0.409220 1.562510 0.018569 0.290227 -0.247892 0.490254 0.096454 -0.161323 -0.552089 -0.391426 -0.440873 1.201435 0.259957 0.246751 -0.392408 0.915850 0.080680 -0.475825 0.078277 -0.076014 -0.278710 -0.181686 0.253100 0.662875 -0.189521 0.466978 -0.201184 0.160138 -0.239303 0.992960 -0.000128 -0.466484 0.148414 -0.218984 0.520725 0.265129 -0.345188 -0.924813
12545 -0.357848 -0.345940 0.555890 0.015863 0.232428 -0.321934 -0.294920 0.530304 0.204851 0.094973 -0.322068 0.490347 -0.052470 0.405525 -0.337659 0.058919 -0.336782 -0.574772 -0.386929 0.223228 -0.018418 -0.172868 -0.005710 -0.081590 -0.049346 0.079736 -0.108258 0.490467 -0.234747 0.832901 -0.504807 0.832823 0.130346 0.126728 -0.077668 -0.113926 0.298779 0.129869 -0.061307 0.184829 -0.244448 0.721274 -0.201370 -0.294217 -0.227357 -0.616919 -0.542329 -0.170337 0.185078 -0.302795 0.404495 0.740730 0.028112 -0.356227 -0.381979 -0.474579 0.585598 -0.170152 0.334640 -0.302672 0.562368 0.383023 -0.426339 -0.658476
23134 0.185136 -0.530436 -0.142381 0.346549 0.472032 -0.324424 -0.655090 0.226743 0.078955 0.008228 -0.174410 -0.018522 0.590822 -0.070515 -0.075096 0.078920 -0.238294 0.322869 -0.232175 -0.135786 -0.625788 -0.484967 -0.447607 0.315627 -0.843316 -0.240737 -0.291824 0.172798 -0.318915 -0.340754 -0.189787 0.454905 0.721788 -0.084508 0.606739 0.089092 0.265555 0.222854 0.417880 0.969083 -0.268765 0.526835 0.297810 -0.567041 -0.119697 0.123033 0.481156 -0.535034 0.079095 -0.117788 -0.362941 0.687349 -0.186032 -0.096369 -0.228458 -0.194237 0.239943 -0.268538 -0.274660 0.076611 0.465499 -0.188243 0.795932 -0.284441
8879 -0.539958 0.138535 0.063555 -0.145149 0.362221 0.371352 -0.543920 -0.338416 0.204809 0.354797 -0.407239 -0.091588 0.118316 -0.550829 -0.337879 0.294246 -0.132769 -0.251298 -0.069441 0.067566 -0.359956 0.158702 -0.173316 -0.279983 0.254108 -0.183886 0.110618 0.355134 0.101352 -0.184342 -0.302239 -0.055376 0.242471 -0.577912 -0.332553 0.149466 0.616568 0.165281 0.254507 0.145902 -0.566241 0.027587 -0.097280 -0.279105 0.119913 -0.089643 0.319163 0.143428 -0.053338 -0.076514 -0.301317 -0.058588 0.088999 -1.258117 -0.531720 0.132765 0.555736 -0.260558 -0.136802 0.188033 0.501440 0.246207 0.750205 0.006067
11472 -0.424577 0.153205 -0.009348 -0.307739 0.541897 0.357756 -0.552299 -0.324703 0.168161 0.362441 -0.584067 -0.156947 0.112715 -0.462759 -0.390352 0.310702 -0.136528 -0.274022 -0.154092 0.004081 -0.282977 0.037853 -0.240858 -0.364852 0.169498 -0.162298 0.096222 0.141593 -0.025515 -0.229886 -0.305785 -0.025671 0.140519 -0.473608 -0.321895 0.035939 0.628025 0.209168 0.265660 0.085584 -0.460272 0.110729 -0.092365 -0.382987 0.109134 -0.125463 0.337463 0.125663 -0.007081 0.053813 -0.348831 -0.045111 0.111239 -1.294673 -0.462528 0.045537 0.497719 -0.325923 -0.222610 0.108946 0.517838 0.144591 0.734982 0.043074
25006 -0.180212 -0.452338 -0.047265 -0.150933 0.171610 -0.719507 -0.572109 0.308068 0.329449 -0.096032 -0.312587 0.074850 0.442494 -0.132544 -0.597045 -0.370126 -0.417658 -0.100328 -0.007604 -0.475632 -0.375048 -0.319480 0.455836 -0.466298 -0.682827 -0.595490 -0.496201 0.363216 -0.045841 0.208497 0.195589 0.126492 0.166614 0.063195 -0.125371 -0.235665 -0.027021 -0.139061 -0.447677 0.369742 0.196957 0.273218 -0.031262 0.014420 -0.165730 -0.375781 -0.202328 -0.260442 0.189859 -0.073056 0.250901 0.997403 -0.395334 -0.622910 -0.673889 0.592620 -0.060734 -0.160569 0.230428 -0.335506 0.552144 0.395983 -0.021873 -0.198451
4550 0.206820 -0.470493 -0.174351 0.207026 -0.302919 -0.663198 -0.467847 0.135176 0.478760 -0.179348 0.179130 -0.068684 0.541538 0.494261 -0.183114 -0.114088 -0.190676 -0.033691 -0.025803 -0.423141 -0.351362 -0.033343 0.138281 -0.475516 -0.367765 -0.209856 -0.097270 0.829260 -0.054388 0.128494 0.202299 -0.023017 0.304156 -0.139764 0.266774 0.025823 -0.212385 0.490512 -0.531094 0.323912 0.330128 0.178236 0.161720 0.155511 -0.189144 0.102849 0.148406 0.088359 0.446659 0.070643 -0.313787 1.285215 -0.553379 -0.687759 -0.841493 0.842741 -0.245837 -0.013288 0.337507 -0.527817 0.407503 0.758492 0.122164 -0.030682
17075 0.173170 -0.119207 -0.009786 0.048808 0.292194 -0.044290 -0.186229 0.092436 0.002525 -0.675191 -0.176116 -0.575437 0.318679 -0.059601 -1.154487 0.195154 -0.808014 1.255958 0.428762 -0.381312 1.030010 -0.447026 0.164211 0.065985 -0.208403 0.372923 -0.058285 1.230481 -0.771862 0.535562 0.229273 -0.060846 0.530733 -0.295821 -1.001881 0.126149 -0.491384 0.030147 0.116219 1.009272 0.300160 0.456059 -0.229213 -0.261992 -0.667280 0.076658 0.822368 -0.171118 0.646168 0.267348 -0.125403 0.098519 0.240638 -1.007701 -0.579369 -0.361626 0.368021 -0.628951 -0.017562 -0.226148 0.181214 0.758952 0.295642 0.342311
12851 -0.520698 0.148556 0.094354 -0.359170 0.506827 0.317319 -0.544614 -0.412867 0.279675 0.153793 -0.407687 -0.160040 0.106945 -0.497794 -0.296347 0.292318 -0.061488 -0.362548 -0.055128 0.030268 -0.390434 0.095450 -0.239469 -0.380470 0.180235 -0.066850 0.157465 0.208824 0.012359 -0.229288 -0.221227 -0.055438 0.173726 -0.506891 -0.387956 0.105081 0.638618 0.190718 0.356629 0.159935 -0.514364 0.068422 -0.268317 -0.311656 0.075554 -0.162788 0.312492 0.199857 0.026797 -0.025408 -0.170764 -0.143336 0.100327 -1.204890 -0.443267 0.068770 0.470185 -0.257150 -0.218370 0.237780 0.541351 0.358096 0.737499 0.062301
2952 -0.512648 -0.015723 0.070893 -0.208845 0.464440 0.369942 -0.601222 -0.334773 0.306000 0.184877 -0.418139 -0.110670 0.145501 -0.552901 -0.251749 0.322548 -0.163278 -0.291291 -0.136649 0.126711 -0.341253 0.148946 -0.216038 -0.377027 0.158988 -0.226892 0.213170 0.204377 0.139513 -0.350560 -0.302316 -0.134768 0.233017 -0.612275 -0.325374 0.058943 0.654280 0.114478 0.382500 0.086280 -0.492417 0.142814 -0.199450 -0.361126 0.089498 -0.196110 0.290511 0.077283 -0.054715 -0.022627 -0.139183 -0.063468 0.132953 -1.166826 -0.530652 0.094319 0.474621 -0.417168 -0.233445 0.220299 0.527678 0.392848 0.732035 0.087275
19961 -0.396695 0.037744 -0.037660 -0.312007 0.369922 0.443260 -0.652867 -0.347285 0.250172 0.240918 -0.438548 -0.064981 0.144026 -0.373485 -0.424126 0.297534 -0.049943 -0.340421 -0.047193 0.022545 -0.263640 0.104628 -0.334223 -0.324056 0.209965 -0.169151 0.198756 0.157170 -0.038142 -0.245389 -0.445712 -0.104354 0.195586 -0.446895 -0.345661 -0.008616 0.543569 0.204715 0.332263 0.110385 -0.404696 0.137414 -0.024107 -0.271546 0.085022 -0.275614 0.340880 0.114738 -0.080706 0.002053 -0.244745 -0.181312 -0.076431 -1.308433 -0.452176 0.080803 0.488979 -0.324559 -0.254190 0.256339 0.562923 0.319993 0.738984 0.024213
15300 -0.938419 0.412642 0.392747 0.413506 -0.066817 -0.215091 -0.315986 0.214512 0.745346 -0.240943 0.065348 -0.256602 0.065585 0.161709 -0.700290 0.673193 -0.012663 0.524712 0.313066 -0.205244 0.460172 -0.716747 0.360165 -0.029307 0.210336 0.052183 1.198562 0.220702 0.277772 -0.596905 0.438009 -0.155017 0.778128 -0.701205 0.214378 0.077289 0.075364 -0.054622 -0.401170 0.309820 1.184900 0.918602 0.323592 -0.636733 -0.639304 -0.063645 -0.183350 -0.572507 0.450027 0.234136 -1.441861 0.177996 1.084173 -0.901342 -0.566688 0.646373 1.141186 -0.477201 0.701581 0.708600 0.838578 0.007416 0.503709 -0.169463
20562 -0.386397 0.153110 -0.024814 -0.265098 0.456299 0.499710 -0.491934 -0.292989 0.352732 0.314878 -0.434440 -0.049872 0.175620 -0.422785 -0.319620 0.343269 -0.093728 -0.355355 -0.148969 0.070768 -0.238684 0.087324 -0.266905 -0.357215 0.122879 -0.084861 0.175024 0.303935 0.000175 -0.180183 -0.388107 -0.043658 0.230255 -0.369595 -0.340600 0.085470 0.685049 0.224560 0.356103 0.116572 -0.378743 0.115753 -0.203094 -0.281659 0.186301 -0.151250 0.349886 0.158068 0.060939 0.010482 -0.175960 -0.064519 0.036157 -1.420409 -0.473340 0.166093 0.494564 -0.293335 -0.288618 0.071024 0.390112 0.203066 0.848362 -0.068874
4241 0.132810 0.653539 0.713939 0.895876 0.509681 0.625855 0.497572 0.354596 0.080550 0.332858 -0.636687 0.151325 0.330369 -0.110974 -0.064579 -0.540316 -0.169294 0.584553 -0.300638 0.194772 -0.770085 -0.968455 -0.289441 0.203262 -0.079255 0.165716 0.468978 0.628794 0.292511 -0.082332 -0.023579 0.630965 0.063966 -0.873404 -0.115513 0.063440 0.698378 0.727183 0.368492 -0.482315 0.511629 0.706098 -0.329561 -0.482025 -0.194227 0.214211 -0.042112 0.052854 -0.388170 -0.177029 -0.428774 0.063290 0.395337 -0.738245 -0.112318 -0.251687 -0.240863 -0.032352 -0.166928 0.375897 0.125665 0.361876 0.975849 0.015454
6774 0.093520 0.318634 0.050119 0.342986 0.467751 0.218506 -0.572017 -0.117137 0.121389 0.371011 -0.900246 -0.330632 0.211980 -0.502590 -0.132922 0.263585 -0.333986 -0.449650 -0.214459 0.025327 -0.100147 -0.470089 -0.481336 -0.737552 -0.029334 -0.276353 0.204963 0.611240 -0.043066 0.278211 -0.209287 0.396600 0.301627 0.108416 -0.340036 -0.039524 0.191689 -0.175022 0.491090 0.269562 -0.768957 0.199347 -0.036446 0.268687 -0.196135 0.030696 0.552615 0.129066 -0.488914 0.261936 -0.032057 -0.141266 0.321074 -0.778728 -0.513041 0.120047 0.583809 0.070156 0.266626 -0.001451 0.255854 0.372159 0.639660 0.364869
17439 -0.763839 0.362352 0.083425 0.463558 0.157698 0.140664 -0.074908 0.502098 0.514919 -0.249924 -0.556966 0.432981 -0.164764 -0.115132 -0.476755 -0.090562 -0.026346 -0.213148 0.064068 0.533001 -0.257522 0.204352 0.146585 -0.175809 0.268923 0.481209 -0.340018 0.080520 -0.755134 -0.609619 0.054468 0.351616 0.558101 0.145974 -0.213714 0.651630 0.028216 0.118405 0.013869 -0.547087 -0.435938 0.546422 -0.361582 0.177915 0.242900 0.220705 -0.196308 -0.143560 -0.550226 -0.137778 -0.134340 0.280469 -0.180938 -0.555615 -0.527323 -0.161413 0.428551 -0.176553 -0.087336 -0.315173 0.842895 0.475148 0.386280 -0.161425
25034 -0.700283 -0.454551 0.339867 0.578128 0.463458 0.975078 -0.423627 0.113826 0.402060 0.401937 -0.359563 0.277778 -0.253784 -0.052318 -0.714499 -0.065746 -0.490080 -0.319349 -0.459664 -0.432514 -0.471000 -0.084029 0.271854 0.127937 -0.475959 -0.163372 0.259086 -0.098296 -0.528792 0.817365 -0.040862 0.134943 0.309329 -0.719983 0.646593 0.087626 -0.249816 0.054888 0.354189 0.467212 0.020415 -0.065746 0.215513 -0.244615 -0.261265 -0.674305 0.160557 -0.204179 0.646123 0.086155 -0.369910 0.758502 0.244367 -0.453481 -0.219947 -0.350047 -0.140639 0.298677 0.221077 0.353057 0.358276 0.659818 0.465461 -1.110294
24371 0.263615 -0.180502 0.186381 -0.018528 -0.655785 -0.099765 -0.340302 -0.639826 0.590920 -0.391384 -0.327961 0.009114 -0.255522 0.458054 -0.662419 -0.467261 -0.110351 0.537077 -0.034245 0.402168 -0.261846 -0.131602 -0.307021 -0.176974 -0.302619 -0.437485 0.319932 0.598614 0.348900 -0.018587 -0.800438 0.854095 0.256649 0.164796 0.010281 0.332144 -0.973479 0.358614 -0.166184 0.045938 0.193536 0.281610 -0.233389 0.134466 -0.057176 0.192332 -0.065351 0.106213 -0.188738 0.363054 -0.618523 0.594239 -0.420950 0.289076 -0.208777 0.001859 0.139339 -0.287830 0.163252 0.071118 0.960779 0.525267 0.128900 0.081744
15659 -0.441603 -0.045305 0.066959 -0.201964 0.448819 0.367715 -0.525919 -0.291185 0.252996 0.289704 -0.491534 -0.131563 0.153034 -0.390090 -0.372081 0.404178 -0.199763 -0.293376 -0.130658 0.091178 -0.187179 0.079190 -0.304005 -0.198044 0.219507 -0.095247 0.142374 0.280974 0.130088 -0.200175 -0.373876 -0.081530 0.257902 -0.571366 -0.323211 0.153209 0.592765 0.180213 0.272841 -0.034003 -0.484541 0.043308 -0.096836 -0.266893 0.067178 -0.112383 0.299780 0.128484 -0.069866 -0.052365 -0.181227 -0.057532 0.034735 -1.372579 -0.390447 0.082169 0.577322 -0.327343 -0.250883 0.250881 0.538158 0.229480 0.805406 -0.000696
16389 -0.249400 -0.185439 0.041671 0.125679 -0.041512 0.163762 -0.561341 0.161347 1.216207 0.087876 -0.029227 -0.298025 -0.296914 0.033263 -0.142305 0.655640 -0.070305 -0.221919 -0.229466 -0.307265 -0.378833 0.129752 0.152795 0.115999 -0.004141 0.120865 -0.664833 0.291828 -0.524637 0.298569 0.258714 0.261203 -0.336269 -0.152891 -0.434486 -0.004144 0.450991 0.007420 0.094223 -0.042555 0.051955 0.228565 -0.839233 -0.335637 -0.127427 0.006360 -0.231710 -0.292136 -0.297123 -0.114276 0.185631 0.377294 -0.138839 -0.498722 -1.143441 0.592626 0.476624 0.064086 -0.012672 -0.276537 0.561653 0.147263 0.278648 0.168268
6830 -0.407657 0.230272 -0.005212 -0.310014 0.383083 0.425399 -0.528437 -0.439506 0.243742 0.232850 -0.420718 -0.030917 0.072264 -0.408133 -0.226005 0.387024 -0.110046 -0.390579 -0.015932 0.140588 -0.331699 0.108636 -0.338807 -0.284010 0.309568 -0.178457 0.181940 0.420806 0.178060 -0.207863 -0.284409 -0.116105 0.237631 -0.431770 -0.265665 0.138713 0.668677 0.323062 0.393731 0.208555 -0.515802 0.145292 -0.309505 -0.408462 0.012080 -0.253519 0.427135 0.116560 -0.155408 -0.143090 -0.022714 -0.166576 0.015147 -1.294270 -0.530026 0.153781 0.403698 -0.247148 -0.330513 0.188236 0.510939 0.206362 0.829677 -0.027147
7350 -0.119017 0.836396 0.293024 0.426186 0.258237 -0.138270 -0.068145 0.158860 -0.220376 0.222073 -0.229014 0.909802 -0.360388 -0.242633 -0.301955 -0.551763 -0.176403 0.418479 0.624788 -0.271443 -0.584615 -0.277989 -0.532446 0.388602 0.113396 -0.404586 -0.398674 0.389384 0.220241 -0.431872 0.222138 0.346571 0.109517 -0.744652 -0.287948 -0.521704 0.902760 0.624990 0.129520 -0.103699 0.157859 -0.102519 -0.477431 0.333825 -0.523882 -0.067102 -0.194371 -0.087010 -1.008764 0.080463 -0.461268 0.009117 0.037507 -0.741973 -0.458378 -0.399163 0.381855 -0.153823 0.209096 0.489369 0.811037 0.784171 0.321152 -0.284737
2912 -0.628376 0.220364 0.491253 0.465208 0.036824 0.139350 0.259574 -0.032222 0.693819 -0.186006 0.108891 -0.512065 -0.328065 0.273444 -0.518126 0.751671 -0.627085 0.678878 0.477743 0.052657 -0.222637 -0.591837 0.061269 0.011034 0.226069 0.468077 0.701916 0.182861 0.197319 -0.234594 0.535306 -0.096139 0.707266 -0.380161 0.190428 0.212035 -0.297154 -0.027860 -0.366142 0.703454 0.881149 1.043758 0.406890 -0.555033 -0.413012 -0.547796 -0.469739 -0.365336 0.477707 -0.151704 -1.434834 0.740051 1.026310 -0.817527 -0.687690 0.360528 0.963857 -0.021518 0.539549 0.865409 0.663005 0.028283 0.410185 -0.267220
4513 -0.277505 0.094479 0.071178 -0.361701 0.409121 0.422473 -0.430359 -0.243113 0.209482 0.292198 -0.459490 -0.097297 0.122889 -0.391990 -0.433013 0.329425 -0.147207 -0.252590 -0.127494 0.012344 -0.222721 0.197522 -0.201044 -0.293468 0.173327 -0.121072 0.110852 0.255232 0.069933 -0.252801 -0.263929 -0.005985 0.131471 -0.467259 -0.249911 0.061080 0.705575 0.179862 0.249512 0.098926 -0.494406 0.110894 -0.231624 -0.321878 0.086267 -0.091858 0.338616 0.185577 -0.030941 -0.048870 -0.179351 -0.028387 0.109540 -1.411724 -0.511705 0.216094 0.465805 -0.262745 -0.267716 0.205195 0.441970 0.307713 0.780654 -0.060364
46 -0.466229 0.106782 0.083638 -0.280874 0.501196 0.469737 -0.560409 -0.284820 0.267502 0.260906 -0.577496 -0.188348 0.152200 -0.633921 -0.306479 0.401575 -0.012710 -0.284815 -0.135933 0.080895 -0.240862 0.153874 -0.235865 -0.365498 0.255171 -0.202592 0.194636 0.330528 0.026182 -0.298746 -0.315868 -0.031400 0.173150 -0.466688 -0.318063 0.081125 0.577818 0.260019 0.280507 0.195695 -0.375330 0.033023 -0.187201 -0.293787 0.160788 -0.132802 0.255185 0.084746 0.032864 0.001515 -0.054922 -0.011714 0.090437 -1.351824 -0.464621 0.231329 0.433075 -0.320749 -0.332307 0.185222 0.527038 0.243820 0.815636 0.047229
12927 -0.351135 0.179966 0.264374 -0.257145 0.045179 0.341639 -0.558728 -0.041637 -0.043405 -0.109398 0.005318 -0.660664 0.084308 0.304956 -0.544591 -0.124557 -0.480285 0.233518 -0.348836 -0.663015 -0.355994 -0.121365 -0.524202 0.915531 -1.071565 0.035807 -0.192897 -0.314417 -0.549041 0.761365 -0.340526 0.214071 0.372386 -0.277717 0.118048 0.468709 -0.587218 0.717075 0.743658 -0.554601 -0.147964 0.192759 0.549388 0.358996 -0.419671 -0.578375 0.349731 -0.391589 0.573613 0.155256 -0.445638 1.249741 0.582165 -0.779220 -0.298005 0.508191 0.269751 0.227816 0.004531 -0.067813 -0.077812 0.490629 0.434269 -0.819383
11275 0.260492 -0.836087 -0.093732 0.212184 -0.123105 -0.073627 -0.489339 0.014380 -0.663217 -0.264166 -0.289532 -0.583318 -0.360519 0.597368 -0.396430 -0.684130 -0.029445 0.521003 -0.321091 0.234267 -0.299961 0.125837 -0.246860 0.062519 0.534140 -0.064465 0.081112 0.397687 -0.718847 0.565895 -0.188394 -0.053907 0.114413 -0.397613 -0.063196 0.416665 -0.441259 0.588626 0.373795 0.175484 0.581603 0.803103 -0.215695 0.331279 0.169982 0.233480 -0.676954 -0.223645 -0.385508 -0.197138 0.412328 -0.006931 0.309736 -0.536047 -0.063734 0.596360 0.401501 -0.015894 -0.102124 0.100867 0.179152 0.365353 0.806752 -0.256153
15066 -0.301818 -0.382394 0.382073 0.222217 -0.219272 0.403969 -1.014956 -0.042207 0.194167 -0.780132 0.216554 -0.683375 -0.878327 -0.088754 -0.418581 -0.058672 0.494939 0.893059 1.128699 0.386830 -0.189568 -0.795133 0.500028 -0.898392 -0.352037 0.502856 0.293555 0.255368 0.458886 -0.582254 0.726289 -0.268764 -0.200562 -0.471403 -0.239789 -0.130567 -0.653730 1.033534 0.132985 0.008300 -0.210862 0.115160 -1.069432 -0.677614 -0.661064 -0.756593 0.049932 -0.152638 0.018527 -0.279149 0.359869 1.267467 -0.090749 -0.116391 0.204772 0.203814 0.872575 0.143389 0.174154 0.363417 0.473755 0.841317 0.188861 0.195657
9184 -0.304298 -0.422080 0.040194 -0.056181 0.161279 0.944390 -0.651212 0.126870 0.450695 0.071208 -0.580809 0.350433 0.100714 -0.333692 -0.330527 0.164417 -0.122569 -0.383044 -0.202349 -0.655052 -0.066549 -0.729512 0.149789 -0.087726 -0.932781 0.186956 0.446268 0.512628 -0.290451 0.433001 0.105625 0.274960 0.810188 -0.672553 0.087935 -0.121425 0.211932 -0.197780 0.233003 0.637878 -0.280901 0.600674 0.431085 -0.007593 -0.104724 0.106587 -0.332793 -0.382602 0.361815 0.399471 -0.390698 0.820491 0.311542 -0.062328 -0.298023 -0.502176 -0.272225 0.507448 0.723468 0.298419 0.113051 0.503997 0.853800 -0.328752
9710 0.311627 -0.420303 -0.260736 -0.170698 0.591507 0.355643 -0.666613 0.677517 0.572816 -0.075922 -0.234485 -0.408874 -0.929809 -0.008981 -0.491015 -0.438615 -0.617935 -0.617578 0.522090 -0.130475 -0.190292 -0.399409 0.096070 -0.606190 0.178572 -0.297207 -0.671542 -0.067074 -0.292411 -0.655974 -0.466179 0.112149 0.027988 -0.223889 -0.650909 0.774264 0.186637 0.831808 0.020085 -0.090651 0.098529 1.093085 0.209281 -0.080916 -0.375533 0.343077 0.110979 -0.199948 0.340608 -0.051911 -1.021450 -0.070006 -0.573882 -0.587476 0.265775 -0.281232 -0.166165 -0.040696 -0.584330 0.761995 -0.408970 0.681843 0.037222 -0.652448
2072 -0.086405 0.758962 -0.116074 -0.145259 0.836390 -0.383532 -0.729101 -0.316104 0.111113 -1.185297 -0.039011 -0.093517 -0.017380 -0.086655 -0.104204 0.561549 -0.693545 0.554323 -1.009711 -0.225453 -0.253266 -0.238486 -0.190274 0.133660 -0.998372 -0.156416 0.132359 -0.239163 -0.253175 0.354417 -0.035289 0.504807 0.601242 -0.294494 0.932830 0.319301 0.074752 0.730105 -0.027569 -0.147546 -0.128389 0.624206 0.593789 -0.213270 -0.242434 -0.402137 -0.113340 -0.779365 0.391266 0.221754 -0.569214 1.062816 0.786055 -0.200898 -0.218739 0.548394 -0.142524 0.037121 -0.298040 -0.198155 0.342287 1.134890 0.881190 -0.496037
5107 -0.037239 -0.104145 -0.215193 -0.425207 0.538616 0.113037 -0.355435 0.057834 0.353310 -0.681197 -0.077276 -0.371575 -0.124623 0.500353 0.188265 -0.764756 -0.046349 0.765756 0.229981 0.373361 0.015420 -0.603374 -0.556871 -0.532074 0.776278 -0.630885 0.097508 0.457606 -0.214943 0.018247 0.143752 0.230087 0.123650 -0.193701 -0.099014 0.099245 -0.038069 0.370089 0.059926 0.125219 -0.168365 -0.390040 -0.611875 0.177175 -0.529163 0.534014 -0.647833 0.698693 -0.144813 0.030271 -0.723068 0.677791 -0.179341 0.027393 0.045875 0.060988 0.930556 0.097418 0.316858 -0.118480 0.535592 -0.176292 0.914784 -0.674742
24696 -0.334725 -0.310504 -0.146718 -0.614491 0.690782 0.273589 -0.225933 0.691378 0.139906 -0.151352 -0.725911 -0.816716 -0.774154 -0.423222 -0.079237 -0.326476 0.136991 0.133003 -0.132963 0.308104 -0.309501 -0.276626 -0.082884 -0.522381 -0.772356 -0.218515 -0.289705 0.625991 -0.018552 -0.226985 0.046456 0.595830 0.042366 0.185824 0.094950 -0.010677 0.093286 0.648852 0.046263 0.518763 0.369014 -0.059960 0.035335 -0.135548 -0.099463 0.246938 0.168365 0.070712 -0.711578 -0.227255 -0.406697 0.095205 -0.696583 -0.104267 -1.064623 -0.293659 0.181785 -1.080942 0.324564 0.451995 -0.172138 -0.199278 -0.096405 -0.841412
16994 0.239403 -0.317189 -0.033330 -0.341987 1.063753 1.180007 -0.219422 0.422050 0.247659 0.189257 -0.019798 0.199935 -0.203081 -0.428749 -0.221235 -0.341137 0.008585 0.237136 -0.335407 0.077318 0.448626 -0.437187 0.225116 0.075845 0.083631 -0.533200 0.001436 0.277924 -0.765440 0.103677 0.551191 0.196465 0.274607 0.211082 -0.747625 -0.116457 -0.577970 0.482877 0.055537 0.411279 -0.077167 0.673224 -0.042118 -0.330337 -0.462530 0.460760 0.189442 -0.053258 -0.400296 -0.209655 -0.843839 0.056669 0.037996 -0.209792 -0.096049 -0.030564 0.358241 0.039895 -0.331502 -0.350433 0.190167 1.118528 0.466234 -0.069391
11372 -0.397995 -0.128477 0.349957 0.583758 0.795167 -0.362379 -0.429308 -0.951696 1.134629 -0.272972 0.326998 -0.093152 -0.911898 0.159168 -1.176006 -0.037526 -0.547393 -0.321305 0.557181 -0.191022 -0.417880 -0.367623 -0.138003 -0.721684 0.362483 0.417476 -0.398043 0.050809 -0.261141 0.245968 0.673029 0.262755 0.286017 -0.829266 -0.204218 1.147412 0.389679 0.869732 0.372689 0.799664 0.695422 0.778323 -1.066024 -0.855343 -0.912814 -0.190332 0.323400 -0.071295 -0.404388 -0.206949 -0.475510 0.249477 0.230867 0.287452 -0.539382 0.510512 -0.443323 0.292321 0.113089 0.613428 0.021193 0.049905 0.005721 -0.550802
13008 0.350954 0.337555 0.286624 -0.862485 0.270213 0.315502 -0.205349 0.270948 0.314207 -0.097822 -0.469084 -0.021890 -0.144891 0.393020 -0.000216 -0.333752 0.226037 0.218831 0.093295 0.202438 -0.340624 -0.551093 -0.256890 -0.251253 0.465693 0.040810 0.665451 0.108460 -0.143548 0.539692 -0.213524 -0.091748 -0.028707 -0.399003 -0.195564 0.029249 0.908581 1.240569 0.087031 0.195491 -0.233945 -0.057517 -0.337652 0.157857 -0.601650 0.058098 0.457032 -0.464614 0.222689 -0.589375 -0.465412 -0.421920 -0.359445 -0.005651 -0.508008 0.426436 0.406639 -0.242854 -0.087081 -0.695049 1.140872 0.591488 0.367422 -0.097427
16148 0.291037 -0.009001 -0.550391 0.381799 -0.129088 -0.133187 0.025155 -0.381150 0.648006 -0.518851 -0.270282 -0.057586 -0.077813 0.315457 -0.446676 -0.347519 -0.420315 0.412365 -0.181916 0.552605 -0.685979 -0.279770 -0.261830 -0.364938 -0.270116 0.178695 0.152306 0.140781 0.374613 0.061858 -0.271057 1.020743 0.054059 0.207954 0.212448 -0.100327 -0.390230 0.524863 -0.382678 0.108602 -0.418020 0.422032 -0.634129 0.220769 -0.088974 -0.385858 -0.364764 -0.521605 0.285642 0.433769 -0.229833 0.221792 0.077981 -0.237176 -0.351475 0.300876 -0.380203 -0.442512 0.294276 -0.528421 0.494554 0.302262 -0.139278 -0.145876
2846 -0.193842 0.144124 -0.286053 -0.484002 0.880870 0.149073 -0.131501 0.186793 0.498583 -0.174207 -0.143118 -0.205267 -0.413140 0.849280 -1.042823 0.108229 -0.334094 0.286553 0.916191 0.357080 -0.786298 -0.209361 -0.272740 -0.002990 0.362990 -0.083570 0.002299 0.531300 0.151343 0.068413 0.515263 -0.402989 -0.500968 -0.395643 0.241733 0.538791 0.361095 0.774901 0.174056 0.341404 0.366445 0.564516 -0.430410 -0.004199 0.520773 -0.232061 -0.612263 -0.396186 -0.022366 -0.316246 -0.708136 0.297228 -0.015158 -0.636298 -0.156145 0.623785 0.254416 -0.493602 -0.316934 0.407012 -0.602536 -0.049435 0.128076 -0.299651
11785 -0.239264 0.727710 0.381376 0.433736 -0.117394 0.007318 -0.503113 0.152336 0.183200 0.279067 -1.077664 -0.181509 0.024914 0.069826 -0.226183 0.035501 -0.033015 -0.520477 0.045761 0.617379 -0.101168 0.204317 -0.371918 -0.555086 0.167374 -0.096685 -0.037384 0.438881 -0.150944 0.424912 -0.075107 0.591271 1.053960 0.230872 -0.152981 0.019843 0.670950 0.168170 -0.310781 -0.035633 -0.462780 -0.219711 0.111773 -0.226596 -0.055609 0.211389 0.548433 -0.184875 -0.343376 0.131801 0.053369 -0.171660 0.264039 -0.380930 -0.327968 -0.200910 0.446578 -0.382790 -0.013850 -0.472111 0.338752 0.700390 0.716912 0.054067
11400 -0.349149 0.182152 0.404086 0.544780 0.796828 -0.720479 -0.267114 -0.800977 1.130150 -0.264294 0.467777 -0.461949 -0.890924 -0.051490 -1.336642 0.146318 -0.898211 -0.705071 0.213474 0.095305 -0.115051 -0.440462 -0.097901 -0.497265 -0.005333 0.028790 -0.681143 0.379043 -0.293365 0.400688 0.352616 0.074488 0.291795 -0.998720 -0.217813 0.770964 0.288507 0.485450 0.460869 0.739031 0.727756 0.626262 -0.972821 -0.635917 -0.821004 -0.243923 0.014159 -0.425110 0.040954 -0.101741 0.247901 0.266256 -0.224908 0.224355 -0.219128 0.556593 -0.042256 0.486553 -0.021867 0.451993 0.400665 0.292372 0.109427 -0.663067
24330 0.709660 -0.603772 -0.082021 0.137513 0.743684 -0.540834 -0.705290 0.365563 -0.686904 0.543682 0.283204 -0.104426 -0.646644 -1.312896 -0.228039 -0.028742 0.109891 0.487315 0.527546 0.096792 -0.167693 -0.915621 -0.815765 -0.362708 -0.947121 0.776585 -0.204006 1.153865 -0.507871 0.605662 -1.085313 0.097009 0.324549 -0.069975 -0.252307 0.308778 0.163255 0.675131 0.107930 0.548321 0.693272 0.423384 0.448401 -0.186560 -0.235224 0.707954 -0.343163 0.217135 0.579849 0.405727 -0.633889 -0.005688 -0.047099 -0.620884 -0.844272 0.605229 0.503119 0.234198 -0.221358 0.087368 -0.147239 1.325234 0.626798 0.570661
21379 -0.167141 0.102245 -0.077196 0.241131 0.289954 0.085549 -0.540957 0.299899 0.876915 -0.275007 -0.176050 -0.423875 -0.199757 0.010943 -0.747010 0.484637 -0.229985 -0.440215 -0.640835 -0.103742 -0.412308 -0.047938 0.225308 0.053749 0.015537 -0.169623 -0.441705 0.456931 -0.400886 -0.054967 0.251027 0.024459 0.025569 0.075231 -0.584004 0.515201 0.424669 0.034066 -0.191853 -0.414520 0.040620 0.263528 -0.782978 -0.328161 0.291060 -0.136682 -0.360906 -0.048406 -0.443566 -0.272682 0.347110 0.017462 -0.092461 -0.706002 -0.746172 0.193850 0.819088 -0.099762 0.198679 -0.085431 0.461892 0.097205 0.301021 0.231444
19640 -0.169062 0.266954 -0.067522 -0.440492 0.364196 0.520490 -0.314011 -0.304938 0.828212 -0.049008 -0.663911 -0.005027 -0.296287 -0.704458 -0.039494 -0.675744 0.070198 0.157753 -0.037081 0.506818 0.104792 -0.014314 -0.523925 0.324313 0.103900 0.395414 0.271695 0.383981 -0.684726 -0.388634 -0.097807 0.166506 -0.004204 0.166134 -0.020983 1.189509 0.465424 0.735127 0.109149 0.107522 -0.196738 -0.200062 -0.349089 0.172097 0.525658 -0.113878 0.146383 -0.054291 0.200824 -0.438178 0.021806 0.331845 0.116221 -0.616432 -0.482819 -0.068915 0.178385 0.079100 -0.393846 0.139812 0.560438 0.496416 -0.029710 -0.410726
16469 -0.320343 -0.401729 0.512855 0.347569 -0.191517 0.017106 -1.242358 -0.036254 0.308157 -0.699705 0.039212 -0.545793 -0.914792 -0.079670 -0.680772 -0.285478 0.566497 0.969539 1.132138 0.319785 -0.184251 -0.645297 0.702525 -1.206670 -0.234422 0.470152 0.346373 0.174646 0.165393 -0.219599 0.871057 0.224580 0.351631 -0.658112 -0.268754 0.175481 -0.219054 1.156399 0.284824 -0.003767 -0.208816 -0.041729 -0.674009 -0.289269 -0.785761 -0.707856 -0.035842 0.423770 -0.095038 0.092338 0.504828 1.309288 0.100985 0.061324 0.307732 -0.374596 1.051013 0.176690 0.197858 0.232997 0.362766 1.048210 0.391079 0.275923
21491 0.062109 0.102141 0.049205 -0.344096 0.093669 -0.151495 -0.355326 0.078897 0.966838 -0.208477 0.057126 -0.088387 -0.634579 0.298576 -0.806183 0.276639 -0.345011 -0.096787 -0.522338 -0.278817 -0.489833 0.049941 -0.317749 -0.291711 -0.003765 0.194234 -0.887995 -0.100612 -0.175347 0.222549 0.307718 -0.076139 0.109061 -0.322864 -0.266593 0.115001 0.432707 0.369576 -0.062963 -0.103686 0.164863 0.312988 -0.857949 -0.334944 -0.321112 -0.292697 -0.347547 -0.241156 -0.676085 -0.022026 -0.079770 0.607410 0.294134 -0.670352 -0.367177 0.412198 0.682227 0.127639 0.315591 -0.319803 0.186598 -0.341329 -0.179242 -0.106015
16414 0.128182 0.064817 -0.033921 0.084442 0.091758 -0.282091 -0.286866 0.152644 1.207182 0.030463 -0.199926 -0.460763 -0.495226 0.156157 -0.718872 0.408599 -0.050258 0.165393 -0.349090 -0.555023 -0.556217 0.021799 0.077483 -0.078079 0.174796 0.453384 -0.748229 0.148667 -0.565035 0.156482 0.305632 0.081371 -0.020952 -0.002962 -0.168522 0.159505 0.375923 0.077175 0.222716 0.374926 0.246603 0.641861 -0.730267 -0.233743 -0.095692 -0.220877 -0.371770 -0.412502 -0.613143 -0.031040 0.089685 0.305580 -0.316824 -0.299774 -0.249004 0.874107 0.983124 0.261524 0.044329 0.048597 0.276045 -0.085602 0.304748 -0.187659
24814 -0.494185 -0.201884 -0.549852 -0.241300 0.446521 -0.028764 -0.947355 -0.103954 0.130397 -1.063530 -0.481025 -0.795190 -0.303057 0.542694 0.082402 -0.048168 -0.657589 -0.429758 -0.043658 0.938364 -0.546749 -0.249267 0.680420 0.030595 -0.327701 -0.182426 -0.207115 0.893395 0.449923 -0.424125 0.495089 0.419979 0.518149 0.204564 0.124847 0.753004 0.607234 0.585653 0.331538 0.764380 -0.147838 -0.072090 -0.360262 0.720619 -0.452679 -0.464922 -1.006899 -0.756150 0.044648 0.681623 -0.379962 -0.110438 -0.181449 -0.498890 -0.263473 -0.197752 0.233742 -0.341237 -0.498011 0.473813 0.263786 0.771180 -0.113017 -0.922855
12842 0.028577 0.044829 0.181141 -0.477645 -0.216937 0.369050 -0.149501 -0.146989 0.452313 -0.030881 -0.540200 -0.311244 0.269378 0.860418 -0.229546 0.050425 -0.045449 -0.112264 0.601378 -0.597727 -0.248820 -0.722886 0.203419 -0.669626 -0.542235 0.287572 0.520243 0.350557 -0.227626 0.713387 0.190620 -0.348925 0.455798 -0.626209 0.812205 0.066735 -0.392763 0.750692 0.220483 0.861142 -0.685691 0.590824 0.348386 -0.094132 -0.104073 0.170050 -0.154906 -0.746733 0.712986 -0.038202 -1.192044 1.014330 0.117904 -0.471967 -0.221574 0.302552 0.005606 1.090804 0.751208 0.249857 0.318154 0.089657 0.702806 -0.380309
7712 0.313295 -0.142322 0.082755 -0.118107 0.239538 0.267035 -0.034657 -0.321135 -0.295756 -0.070076 0.278995 0.715380 -0.524700 -0.088185 -0.723046 -0.404289 0.295306 0.471494 0.534982 0.113181 -0.420160 -0.275275 -0.229578 -0.091100 0.237407 -0.413648 0.010554 0.140617 0.309985 0.244128 0.662251 0.041688 0.006070 -0.140104 0.285513 -0.110089 0.809192 0.483542 0.536314 0.038346 0.122322 -0.201962 -1.031443 -0.114106 -0.141249 -0.301820 -0.898814 -0.251827 0.053436 0.607303 -0.528461 0.525942 -0.060873 -1.068052 -0.089227 -0.004074 0.311232 -0.420350 0.024256 0.265005 0.418758 0.772180 -0.081848 -0.387350
2042 0.092614 -0.114443 -0.318447 -0.466797 0.293761 0.297190 -0.373822 0.641458 -0.047999 -0.265222 0.088635 -0.016926 0.134293 0.490996 0.004804 -0.142444 0.141620 0.330910 -0.112022 0.081322 -1.224957 -0.681089 -0.139485 -0.403883 -0.137027 0.580434 0.966375 0.586379 -0.329645 0.815225 -0.421609 -0.496836 0.070148 -0.570611 0.810967 -0.059856 -0.050925 0.889140 0.266036 1.064140 -0.358593 0.291694 -0.021103 -0.049645 -1.148584 0.797386 0.031616 -0.567810 0.370223 -0.018290 -0.736518 0.911005 0.004093 -0.217155 -1.070382 0.001666 -0.213529 0.125705 0.000956 -0.619874 0.585663 0.108522 0.338124 -0.056309
1588 -0.299831 -0.322560 0.245679 -0.604072 0.297555 -0.599473 -0.555913 0.215879 0.169563 0.272410 -0.057455 -0.686904 0.474808 0.060596 -0.450724 -0.776339 0.041956 -0.169985 -0.077880 0.263918 -0.286012 -0.354989 -0.174398 -0.376617 -0.474627 -0.292047 -0.160004 0.436725 -0.222575 -0.078450 -0.018253 0.093222 0.770344 -0.160272 0.117721 -0.171023 -0.400049 0.404300 -0.457297 0.569488 0.189991 0.417571 -0.407094 -0.220704 -0.200107 0.063853 -0.199327 -0.463053 -0.113840 -0.003048 0.382059 0.664437 -0.516421 0.095478 -0.500481 0.121795 0.101579 -0.736694 0.082241 0.494031 0.262354 0.185015 -0.203398 -0.690598
20716 0.573599 0.002966 0.142920 -0.187730 0.109536 0.132574 -0.729579 0.439956 0.579302 -0.215844 -1.091003 -0.042136 0.874453 0.091648 -0.136100 -0.252491 0.067430 -0.148584 -0.246288 0.444408 -0.137200 -0.065933 -0.384255 0.402066 -0.590265 0.116141 0.277610 0.116186 -0.314851 -0.106601 0.042878 0.446329 0.473968 -0.045386 -0.268513 0.215967 0.786194 0.295487 -0.113270 -0.156278 -0.036339 0.005918 -0.570712 -0.871661 -0.439864 0.390904 0.245153 0.298586 0.392875 -0.024601 -0.404566 -0.275932 0.211195 -0.569512 0.462552 0.303962 0.274665 -0.331195 0.376281 -0.186390 0.476032 0.330696 0.900028 -0.739962
3909 0.486333 -0.232084 -0.320389 -0.043668 -0.076914 0.055070 -0.360168 0.045233 0.461738 -0.106642 0.350494 0.308747 -0.531922 0.329666 -1.023148 0.259799 -0.536404 0.569245 -0.336945 -0.205928 0.248146 -0.205771 -0.753414 -0.398318 0.387427 0.060737 -0.268277 -0.049171 0.030778 0.268942 0.120820 0.167214 0.036505 -0.215266 0.038608 0.189780 0.488183 0.607693 -0.177885 -0.352937 -0.056988 0.090258 -0.575404 -0.070718 -0.186996 -0.627868 -0.275557 -0.435716 -0.390300 0.135934 -0.018116 0.845220 0.225550 -1.281974 -0.103970 -0.091395 0.004437 -0.016255 0.186719 -0.545514 0.054001 -0.112629 -0.270111 -0.332654
4416 -0.088973 0.163112 -0.378698 -0.214241 0.440108 0.057833 -0.507120 0.338155 0.655408 0.053476 -0.823398 0.041293 0.677219 -0.551449 -0.355919 -0.388012 -0.143144 0.409144 -0.043626 -0.409498 -0.467971 -0.478810 0.278080 0.134109 -0.728448 -0.420914 0.268990 0.686083 -0.273861 -0.428907 -0.000541 0.349072 0.371026 0.492745 -0.556852 0.052461 0.510641 -0.407429 -0.188512 0.738961 -0.475041 0.794224 -0.417079 0.200753 -0.232479 0.008288 0.349329 -0.185755 0.130984 0.224756 0.422544 0.755439 -0.151564 -0.143837 -0.518185 0.521193 0.077465 0.262959 0.122121 -0.050053 0.381411 0.491849 0.237517 0.062167
22598 -0.175422 0.163734 -0.034491 0.180710 -0.057326 0.199916 0.038810 -0.557127 -0.537909 -0.461853 0.368584 0.496845 -0.597023 -0.031611 -0.480625 -0.639167 0.224638 0.370833 0.316190 0.232072 -0.681805 -0.422689 -0.401090 0.035441 0.101965 -0.573222 -0.567557 -0.343033 0.192074 0.152141 0.074062 0.199432 0.024231 -0.456556 0.362979 -0.048852 1.121052 0.214468 0.277247 0.222157 0.107356 0.223750 -0.865263 -0.243584 -0.229243 -0.078629 -0.610522 -0.381602 0.033390 0.624303 -0.341157 0.259958 -0.021526 -0.718854 -0.173309 0.290605 0.379393 -0.179246 0.420619 0.124486 0.458301 1.232731 -0.228435 -0.547650
24833 -0.212481 -0.605559 0.384777 -0.352360 0.970474 0.045388 -0.184894 0.452085 -0.302420 -0.425614 -0.505567 -1.000226 0.084986 0.674345 0.382569 -0.208122 0.202339 0.499080 0.195725 0.051390 0.624350 0.037446 -0.021619 -1.142761 -1.039093 0.088954 -0.656028 0.733549 -0.325243 0.032132 -0.294067 0.733203 0.247987 -0.389717 0.381882 0.302685 -0.477109 -0.009933 0.659564 0.086967 0.353811 1.098548 -0.440813 -0.309792 -1.164921 -0.872532 0.526235 0.009344 -0.036521 0.176607 -0.587994 0.481244 0.250790 -0.970503 -0.969636 -0.559162 -0.214566 -0.313862 0.183140 0.688289 0.208193 0.729252 -0.260264 -0.445309
4575 0.475554 -0.031014 0.538205 -0.582167 0.330957 1.193968 -0.413960 0.349504 0.069935 0.133462 -0.734698 -0.133395 0.405287 -0.027418 -0.438200 -0.752920 -0.335155 0.362908 0.737063 0.168099 0.202996 -0.499913 -0.010801 0.068989 0.758536 -0.268111 0.145369 0.967842 -0.844527 0.324508 -0.265879 -0.126404 -0.143881 -0.715229 -0.205932 0.450799 0.122942 0.353849 -0.239516 0.277924 0.141893 -0.062230 -0.104332 -0.409370 -0.703723 -0.290980 0.670848 -0.269299 -0.068461 -0.175364 -0.702138 -0.413237 0.446858 -0.156803 0.042512 0.532584 0.672486 -0.190462 -0.486538 -0.723292 0.288119 0.632440 0.197954 -0.118451
21075 0.279010 0.250017 -0.217418 -0.642889 0.653504 0.259255 -0.337340 0.614387 -0.079085 -0.705570 -0.406629 0.461707 -0.741504 -0.105672 0.281737 0.076223 0.418932 0.306491 -0.085672 -0.217576 -0.813111 -0.423247 -0.267843 -0.239546 -0.158904 -0.346779 0.013637 0.359851 0.271345 0.426095 -0.109298 -0.079216 0.009887 -0.671156 1.250061 0.373547 0.006480 0.375087 -0.032963 0.834891 0.115851 -0.030752 0.453070 -0.256058 -0.883433 0.170329 -0.317548 -0.515781 -0.214558 0.491090 -0.596822 0.947502 -0.270914 -0.705696 -0.493947 0.308304 -0.176324 -0.113807 0.028998 -0.274445 0.487150 0.000226 0.770481 -0.640146
4743 -0.386057 0.485240 -0.413753 -0.025822 0.068311 0.041600 -0.118882 0.259517 0.685215 -0.375356 -0.333440 0.143336 -0.242368 -0.460611 -0.244157 -0.290611 0.010183 0.235972 0.428197 0.090996 -0.459342 0.197868 -0.215175 -0.148926 0.420503 0.468058 -0.027659 0.253386 -0.728515 -0.492603 0.267885 0.305029 0.372323 -0.336999 -0.316536 0.670173 0.162992 0.563504 0.241304 -0.172418 -0.779160 0.033343 -0.404329 0.166826 0.129543 0.126099 -0.268473 -0.058518 -0.883217 -0.529706 0.010629 0.054003 -0.059026 -0.288665 -0.598926 -0.156186 0.170703 0.133174 -0.175516 -0.015538 0.738525 0.489442 0.343793 -0.525642
10096 -0.137451 -0.194438 0.102082 0.168374 0.079813 -0.459320 0.140269 0.115762 0.842115 0.107476 -0.565496 -0.371460 -0.156692 0.035331 -1.029779 0.235477 0.054816 0.048292 -0.280833 -0.321674 -0.444314 0.011416 0.063788 -0.466937 0.215515 0.186671 -1.151069 0.302948 -0.439266 0.328388 0.234779 -0.323141 0.004992 0.040735 -0.106729 0.512138 0.447772 0.311479 -0.246755 0.295941 0.046717 0.031494 -0.782924 -0.408330 -0.445214 -0.190902 -0.918806 -0.397626 -0.380509 0.313619 -0.272121 0.767465 -0.333626 -0.430429 0.018579 0.863367 1.089929 0.186976 0.031129 -0.223959 0.072050 0.137055 -0.167024 -0.083409
2115 0.578879 -0.627975 -0.445226 0.089326 0.260722 0.512376 -0.781146 0.291279 0.468752 -0.569376 -0.713621 -0.041574 0.449411 0.540060 0.026898 -0.363570 -0.417627 -0.449796 -0.112867 0.594680 -0.340981 -0.408242 -0.216831 0.521628 0.466292 0.083204 0.434198 -0.021055 -0.584917 0.096791 -0.579204 0.539694 -0.198030 -0.509003 -0.042204 0.621298 0.445330 0.167754 0.330975 0.031198 0.185030 -0.041105 -0.390713 -0.653912 -0.394015 0.323806 -0.062680 -0.225384 0.432607 -0.246121 -0.308770 0.336418 0.833347 -0.061357 -0.376012 -0.483906 0.848659 -0.196676 0.559765 -0.437736 0.461362 0.259580 0.009918 -1.156066
7442 0.166118 -0.062257 0.339252 0.152555 -0.674844 -0.008029 -0.446092 -0.345936 0.907824 -0.451828 -0.100462 -0.049698 0.402324 0.181375 -0.417184 -0.418398 0.154965 0.433380 0.322430 0.167966 -0.348514 0.135836 -0.215664 -0.332663 -0.205822 -0.053692 0.218091 0.560550 0.537082 0.108790 -0.523437 0.723638 0.329424 0.436085 0.353974 0.224872 -0.680594 0.317893 -0.294415 0.359688 0.158658 0.241643 -0.043713 -0.055158 -0.234949 -0.025649 -0.217567 0.000713 0.104282 0.469131 -0.677310 0.822529 -0.225978 -0.134192 -0.631829 0.163771 -0.191817 -0.192477 0.245571 -0.130955 0.705345 0.868110 -0.145349 0.058299
1958 -0.527844 -0.652514 0.261008 -0.283812 0.988275 0.626190 -0.170472 0.189270 -0.189095 -0.290495 -0.184444 -0.652214 -0.335478 0.054894 0.478138 -0.182270 0.380438 0.000215 -0.207933 -0.211896 0.352238 -0.007996 0.113578 -1.088714 -0.833124 0.143925 -0.278242 0.772833 -0.073452 -0.101962 0.118936 0.828767 0.455077 -0.565851 0.286871 0.349444 -0.054516 0.475671 0.025842 0.611561 0.794937 0.735790 -0.218074 0.220878 -0.834700 -0.419312 0.373159 -0.133101 -0.406068 0.064893 -0.790632 0.367295 0.033018 -0.336724 -0.868971 -0.705305 -0.352596 -0.763221 0.063398 0.569545 0.111015 0.278696 -0.044473 -0.578367
8768 0.252602 0.135883 -0.052604 0.277466 0.272467 -0.143007 -0.640013 0.483596 0.906012 0.066509 -0.348534 -0.497929 -0.472999 0.040138 -0.310175 0.525204 0.126287 0.165626 -0.072459 -0.578406 -0.496811 -0.056802 0.017149 0.166165 -0.227088 0.109450 -0.409678 0.442190 -0.744280 -0.016433 0.003792 0.363155 0.235647 -0.161641 -0.315822 0.158931 0.358574 -0.100726 0.019569 0.309090 0.224835 0.760411 -0.733494 0.017670 -0.142552 -0.323256 -0.264570 -0.426841 -0.633189 -0.034472 0.479638 0.397623 -0.578763 -0.055942 -0.307959 0.976992 0.899688 0.410704 -0.042660 -0.306155 0.646669 -0.120184 0.196430 -0.149081
19297 0.283285 0.275290 0.441056 0.958250 -0.029229 0.418624 0.234759 0.386852 0.503852 0.460063 -1.110071 0.305691 0.654445 -0.053157 -0.211317 -0.436603 -0.354282 0.798674 0.297586 -0.124459 -0.632308 -0.618631 -0.392108 0.404632 -0.590800 -0.124250 0.353064 0.545790 0.078699 0.338688 -0.404986 0.704157 -0.340054 -0.571729 -0.099571 0.186674 0.287099 0.758032 -0.265855 -0.139463 0.409699 0.250208 -0.423558 0.118286 -0.480515 0.168740 0.172016 -0.068362 -0.822047 0.074074 0.011631 0.172763 -0.124726 -0.841117 0.218521 0.215429 0.369728 -0.067964 -0.484428 0.563434 0.079193 0.112131 0.908789 -0.108854
22601 0.493316 0.488013 -0.607068 -0.113381 0.156683 0.322430 -0.749084 0.569977 0.315046 -0.328475 -1.069712 -0.366074 0.646194 -0.420053 -0.225987 -0.182710 0.246963 0.308701 0.438916 0.482536 -0.076177 -0.158171 -0.084924 0.022922 -0.608181 0.405302 0.228613 0.591370 -0.088776 -0.360595 0.158306 0.651769 0.590832 0.002427 -0.580703 0.074743 1.102103 0.261782 -0.090410 -0.163581 -0.089013 0.064292 -1.016880 -1.302493 -0.678115 0.310766 -0.018022 0.383447 0.140632 0.068188 -0.681029 -0.209169 0.331376 -0.493598 0.502381 0.875086 0.129759 0.045598 0.632352 0.204024 0.789503 0.460762 0.954523 -1.412254
22366 0.256806 -0.007262 0.398017 -0.082733 0.031137 -0.137341 -0.466591 0.015464 -0.056005 -0.074953 0.189047 -0.341729 -0.410783 -0.021483 -0.362961 -0.459097 -0.450816 0.091650 0.100852 0.387694 -0.269749 0.122309 -0.024248 -0.332710 -0.270923 -0.104586 -0.023724 0.144341 -0.278857 0.876403 -0.294889 1.035864 -0.030683 -0.526317 -0.342987 0.341091 -0.405536 0.259244 0.187141 -0.097599 0.210647 0.817278 0.242653 0.261663 0.022560 -0.030459 -0.996499 -0.512874 -0.306258 0.054039 0.544561 0.766008 -0.016271 -0.086511 -0.207505 1.136085 0.365802 -0.107536 0.030897 0.485271 0.254136 0.107018 0.369322 -0.293577
24718 -0.044163 -0.453561 -0.534271 0.609403 -0.366340 -0.321920 -0.623483 0.012728 -0.057666 -0.154668 0.017667 -0.576223 0.394938 -0.142292 -0.832194 0.368847 -0.611669 0.186472 0.358755 0.890612 0.345850 -0.099852 -0.935783 -1.109493 -0.825584 -0.003712 -0.256465 1.676823 -0.423532 0.168336 -0.181846 0.276820 0.460086 -0.280485 -0.013301 -0.447629 0.330269 0.686281 0.456632 -0.198862 0.367015 0.704763 0.435336 -0.440392 0.243939 0.748111 -0.042150 -0.444171 0.489250 0.596091 -0.297732 0.401546 -0.401463 0.199784 -0.212471 0.451611 0.303619 0.048026 -0.212612 0.064792 0.771851 0.203572 -0.331380 -0.273431
17626 -0.473905 0.720064 -0.236279 0.219682 0.289372 -0.198117 -0.912101 -0.004423 0.449040 -0.855529 0.154693 0.009569 -0.346481 0.173868 -0.474948 -0.350276 0.192840 0.639107 0.848132 0.052400 -0.582616 -0.688632 0.025794 -1.275452 0.302131 0.147649 0.153762 0.462308 -0.243200 -0.377145 -0.210231 0.336382 0.040914 -0.550019 -0.087610 0.308692 0.254553 0.848658 -0.188160 -0.038698 0.181630 -0.477058 -0.740376 -0.597953 -0.241788 0.065915 -1.273473 0.267263 -1.221685 0.783895 0.131306 0.549873 0.289634 -0.786248 0.065469 -0.352107 0.489764 0.302438 0.048963 -0.128446 -0.671456 0.812415 0.052708 -0.748643
21994 -0.501418 0.058500 0.495576 0.216556 0.659083 -0.613034 -0.307084 -0.076797 1.310060 0.100814 -0.836251 -0.211341 -0.627907 0.239895 -0.781044 0.351113 0.420459 -0.124096 -0.336960 -0.136878 -0.523262 -0.390426 0.630338 -0.296522 -0.033052 1.096420 -0.928098 0.411303 -0.316222 0.384192 -0.056402 -0.191499 -0.034179 0.142246 -0.322983 0.075628 -0.253536 0.311185 0.833186 -0.388290 0.190676 0.330477 -1.023647 -0.369406 -0.383883 -0.278396 -0.733877 -0.150007 -0.098680 0.822211 0.151146 0.888751 -0.114142 -0.545333 -0.482853 1.203949 1.120082 0.030105 0.107735 -0.115366 0.915052 0.058537 -0.093281 -0.325661
