1000 64
988 0.017570 0.380573 -0.494782 0.260025 -0.453602 -0.476809 -0.147410 -0.861626 0.065124 -0.059715 0.153887 -1.097394 0.577929 -0.101138 -0.137076 -0.085296 -0.047203 -0.635168 0.582347 0.042546 -0.029446 0.291889 0.311034 -0.543231 0.383997 -0.517777 0.255780 0.051268 -0.343157 -0.717752 -0.160882 -0.323427 -0.574154 -0.390007 0.080446 0.097008 -0.680575 0.149349 0.404626 -0.097664 0.093841 0.423716 0.324472 -0.147469 0.522082 -0.418125 -0.051065 0.269003 -0.693060 -0.362838 0.820841 0.317087 -0.084669 0.095295 0.274668 0.312873 0.534344 -0.264374 0.191582 -0.042842 -0.408489 0.110805 0.070602 0.234989
982 0.206167 0.565480 -0.510643 0.484920 -0.446533 -0.487274 -0.089349 -0.800808 0.141560 -0.171858 0.273374 -0.889860 0.571073 -0.037618 -0.067311 -0.127117 -0.132727 -0.697726 0.578610 -0.091385 0.004889 0.420595 0.270171 -0.352673 0.130205 -0.617372 -0.004439 -0.038333 -0.361962 -0.831629 -0.107300 -0.241456 -0.620842 -0.526807 0.082248 0.098023 -0.538496 0.275182 0.321292 -0.224156 0.215216 0.303827 0.394649 -0.199294 0.556776 -0.645927 0.041140 0.288433 -0.762175 -0.491267 0.667046 0.243576 -0.007691 0.195745 0.272253 0.161645 0.518017 -0.348809 0.246964 -0.121676 -0.342830 0.226119 -0.057779 0.167059
999 -0.191193 0.800537 0.122438 0.247479 -0.288094 0.179284 0.058198 -0.488077 0.454892 0.027866 -0.198279 0.163925 0.592092 -0.431824 0.068438 -0.848058 0.159694 -0.231491 -0.022021 -0.138399 0.202641 -0.266728 0.366356 0.259739 -0.101656 0.100427 0.160379 -0.394851 -0.261343 -0.382917 0.239275 -0.120209 -0.613741 0.079714 0.927661 -0.110493 -0.095503 -0.030177 0.772574 0.704931 -0.065783 -0.604959 0.598915 0.158402 0.333217 0.026434 0.119642 0.340412 -0.917191 -0.396900 0.622887 -0.168536 -0.074745 0.218736 0.283397 -0.135519 0.042632 -0.180967 -0.190180 0.329434 0.487283 -0.512970 -0.112529 0.237512
998 -0.293432 0.760935 0.117350 0.224833 -0.198357 0.195275 0.129295 -0.458809 0.433180 0.128836 -0.250572 0.185083 0.650441 -0.406370 0.086087 -0.773169 0.034850 -0.224789 -0.065448 -0.058472 0.203870 -0.070204 0.378358 0.177598 0.022853 0.152294 0.322234 -0.357126 -0.079006 -0.229805 0.257146 -0.107952 -0.870889 0.154513 0.871143 -0.166469 -0.031391 -0.047672 0.814671 0.721052 -0.017005 -0.568531 0.423726 0.120754 0.347985 -0.012267 0.050698 0.440871 -0.838997 -0.492603 0.625934 -0.181788 -0.002045 0.186828 0.407867 -0.008211 0.247936 -0.085838 -0.092199 0.397747 0.499828 -0.534088 -0.117623 0.336411
997 -0.301724 0.809059 0.083172 0.293317 -0.114326 0.193782 0.005257 -0.499979 0.337316 0.064563 -0.117176 0.102331 0.622678 -0.356008 0.144032 -0.876106 0.051145 -0.419762 -0.161373 -0.248081 0.376278 -0.219162 0.473486 0.102616 -0.061601 0.164263 0.313249 -0.325574 -0.106382 -0.217394 0.038109 -0.096640 -0.676196 0.112763 0.843269 -0.149586 -0.014540 0.005509 0.956950 0.625055 0.083050 -0.585060 0.585443 0.151798 0.284144 0.078688 0.030363 0.242111 -0.916152 -0.451180 0.441936 -0.251031 -0.016166 0.138427 0.367594 -0.078578 0.273069 -0.206984 -0.259330 0.254158 0.514632 -0.545913 -0.156960 0.301024
979 -0.321889 0.448090 -0.219822 -0.323200 -0.065075 -0.715771 -0.309305 -0.399100 0.444726 0.240359 -0.260731 -0.022525 -0.340371 0.249691 0.064363 -0.429782 0.001773 -0.725992 -0.050857 -0.237365 -0.050536 0.087053 0.380972 -0.429389 -0.487151 -1.167374 0.580974 0.123846 -0.355590 -0.640217 0.227553 -0.328120 -0.166902 0.024153 0.421013 -0.119973 -0.332821 -0.534046 -0.138549 0.167446 -0.162354 -0.737660 -0.172382 -0.226480 -0.016878 0.218464 -0.520192 0.448494 -0.907584 -0.084861 0.311932 0.337566 -0.675939 -0.282539 0.754987 0.055720 0.387260 0.381983 -0.010277 0.243895 0.308863 0.212930 -0.596244 -0.338882
995 -0.200903 0.891209 0.087961 0.217111 -0.198310 0.373411 -0.187388 -0.402688 0.408718 0.121830 -0.376452 0.187429 0.778039 -0.455244 -0.032642 -0.836135 0.092923 -0.299888 -0.077288 -0.096467 0.199779 -0.153045 0.322418 -0.009967 -0.040416 -0.014860 0.371989 -0.317212 -0.140751 -0.245706 0.358043 -0.031465 -0.768351 0.190785 0.870828 -0.011841 -0.151267 -0.050079 0.841016 0.723931 -0.141751 -0.527949 0.478333 0.017399 0.365728 0.021075 0.190355 0.214028 -0.916500 -0.359816 0.439744 -0.312339 0.093230 -0.002562 0.354257 0.086092 0.063939 -0.141579 -0.201541 0.346325 0.422709 -0.487636 -0.222655 0.343899
1000 -0.231524 0.775629 0.181996 0.221139 -0.257422 0.192114 -0.004598 -0.429663 0.382955 0.044346 -0.176776 0.118396 0.628267 -0.470295 0.075263 -0.912913 -0.101126 -0.370954 -0.004136 -0.222771 0.311489 -0.156835 0.352624 0.150358 -0.038983 0.109321 0.266579 -0.346019 -0.175067 -0.329101 0.230464 -0.187476 -0.685873 0.146782 0.820093 -0.154201 0.039669 -0.072434 0.897822 0.668775 -0.067329 -0.625089 0.413630 0.092217 0.314626 -0.050833 0.026670 0.287073 -0.899675 -0.419963 0.589861 -0.314946 -0.005111 0.206681 0.293742 -0.090709 0.087775 -0.121470 -0.144056 0.335083 0.552558 -0.505829 -0.053694 0.296891
987 0.805353 -0.258215 0.384193 -0.045820 -0.606716 -0.690022 -0.318388 -0.290184 0.125551 0.277947 0.083348 0.050176 0.120289 -0.977478 -0.490503 -0.198601 -0.229270 -0.768126 -0.055596 0.413710 -0.309885 -0.174365 0.378479 -0.019851 0.159678 -0.721106 -0.066714 -0.380272 -0.047294 -0.213477 0.057240 0.492305 -0.419864 0.646349 0.237762 0.261759 -0.199967 -0.288453 0.147317 0.185558 0.526977 0.146414 0.091178 0.015959 0.438161 0.481988 -0.152086 0.302195 -0.908541 -0.477147 0.466349 -0.318066 0.000255 0.066139 0.859233 -0.229954 0.682792 0.360876 -0.072601 -0.221840 0.114837 0.111530 -0.172272 0.323043
996 -0.322934 0.909447 0.080122 0.154228 -0.227816 0.160816 -0.054690 -0.398172 0.425827 0.267823 -0.095783 0.033713 0.484404 -0.319662 0.074514 -0.912292 -0.027107 -0.364799 0.042754 -0.222060 0.189052 -0.130474 0.296614 0.169956 -0.100787 0.179193 0.347733 -0.357120 -0.188598 -0.215746 0.233028 -0.072625 -0.642582 0.100910 0.840242 0.089733 -0.078413 -0.122782 0.900758 0.790680 0.092422 -0.518758 0.507495 0.079141 0.301893 0.182145 0.198820 0.308512 -0.939580 -0.449038 0.517193 -0.230883 0.018552 0.212837 0.356819 0.024796 0.139928 -0.183822 -0.147125 0.254274 0.507729 -0.587593 -0.026107 0.416639
971 0.036618 0.416342 -0.568174 0.307711 -0.359346 -0.552470 -0.388624 -0.797432 0.041824 -0.088204 -0.019607 -1.091351 0.590020 -0.101008 -0.146612 -0.068253 0.049026 -0.713430 0.553849 0.087699 -0.253261 0.341976 0.467680 -0.283989 -0.041977 -0.622766 0.207667 0.042362 -0.502680 -0.369565 -0.074686 -0.235430 -0.447863 -0.423703 0.307921 -0.072690 -0.770344 0.233728 0.338226 -0.151971 0.236899 0.550327 0.288646 -0.477245 0.582409 -0.527906 0.009877 0.417063 -0.799223 -0.166670 0.861972 0.221275 0.246810 0.262122 0.111094 0.261423 0.374339 -0.347157 0.117314 -0.096772 -0.209951 0.089825 0.007587 0.109676
985 0.714720 -0.213484 0.236941 -0.144912 -0.593439 -0.759939 -0.351375 -0.372310 0.214917 0.280958 0.084677 0.099253 0.153716 -0.941741 -0.518474 -0.157153 -0.124282 -0.647363 -0.103663 0.454609 -0.298268 -0.122121 0.425697 0.002768 0.038473 -0.700095 -0.127581 -0.544993 0.071667 -0.259497 -0.027078 0.397527 -0.490443 0.627554 0.166664 0.303409 -0.171860 -0.234274 0.181841 0.129827 0.342600 0.245670 0.015575 0.036740 0.518391 0.368493 -0.265073 0.255561 -0.759052 -0.534397 0.453554 -0.366900 0.009181 0.099750 0.998668 -0.369605 0.859095 0.399814 -0.094011 -0.214111 0.168712 0.061444 0.033551 0.296909
975 -0.247027 0.463949 -0.308656 -0.359704 -0.140598 -0.743864 -0.305474 -0.159943 0.388076 0.121913 -0.239054 0.116598 -0.194048 0.195494 0.097057 -0.349612 -0.064583 -0.711576 -0.064191 -0.209254 -0.010527 -0.097972 0.404644 -0.599653 -0.341340 -1.124129 0.835322 -0.175421 -0.468489 -0.729640 0.076943 -0.339375 -0.180464 0.240271 0.527256 -0.220058 -0.270400 -0.324579 -0.177059 0.088632 -0.121018 -0.857257 -0.175789 -0.454876 0.040345 0.100337 -0.484498 0.682226 -0.755317 -0.025188 0.244296 0.347632 -0.599840 -0.238900 0.717331 0.071506 0.575219 0.171698 -0.106602 0.158319 0.217590 0.157591 -0.499494 -0.327521
978 -0.351216 0.443853 -0.156131 -0.358223 -0.045861 -0.609418 -0.255295 -0.255322 0.486007 0.090374 -0.109338 0.010952 -0.166941 0.286932 -0.025306 -0.511496 -0.227477 -0.597517 -0.044509 -0.202616 -0.250776 -0.020507 0.278324 -0.356100 -0.276928 -1.126937 0.773980 0.070169 -0.191240 -0.732887 0.220375 -0.514708 -0.172427 0.210862 0.395826 -0.056527 -0.481961 -0.431896 -0.209775 0.198203 -0.066852 -0.700251 -0.225095 -0.299840 0.006409 0.170686 -0.621095 0.531919 -0.907281 -0.141839 0.335309 0.224031 -0.797434 -0.410657 0.804130 0.046424 0.437553 0.251721 0.057177 0.224489 0.285480 0.220774 -0.612504 -0.235069
984 0.864455 -0.295611 0.426273 -0.013826 -0.440471 -0.739665 -0.374284 -0.351272 0.104207 0.191382 0.091384 0.076929 0.045898 -1.058568 -0.377012 -0.258270 0.086265 -0.766659 -0.208949 0.446099 -0.111770 -0.145360 0.304096 -0.018223 0.226388 -0.790201 0.011405 -0.274893 0.126232 -0.122040 0.051057 0.501819 -0.423725 0.490840 0.349511 0.380510 -0.198048 -0.173632 0.102475 0.094723 0.380890 0.278433 0.137867 0.104294 0.418257 0.449716 -0.259320 0.239480 -0.930480 -0.381736 0.548184 -0.361076 -0.159272 0.163307 0.888573 -0.349904 0.792045 0.291822 -0.056217 -0.075153 0.204103 0.178009 -0.175154 0.182816
973 0.174911 0.044852 -0.444442 0.361165 -0.171160 -0.533987 -0.180081 -0.835335 0.088970 -0.094659 0.098781 -1.022598 0.721721 -0.119373 -0.058901 -0.157589 -0.112959 -0.645296 0.598661 0.199445 0.020643 0.279100 0.205400 -0.494270 0.036125 -0.687581 0.152628 0.150679 -0.322320 -0.646684 -0.273294 -0.404288 -0.379484 -0.544554 0.303944 0.041302 -0.454061 0.248635 0.367153 0.108676 0.198174 0.303571 0.228802 -0.104694 0.550008 -0.695056 0.041624 0.166352 -0.791278 -0.245561 1.089210 0.385406 0.201467 0.013679 0.422045 0.239716 0.404827 -0.264426 0.373611 -0.082453 -0.222426 0.098714 0.036059 0.221619
986 -0.422247 0.097249 0.325347 -0.015645 0.265478 -0.313293 0.120691 -0.084060 0.191001 0.242144 -0.439494 -0.177146 0.201208 -0.681526 0.075622 -0.397941 -0.172608 -0.236863 -0.121687 -0.350068 0.133783 -0.110742 0.034506 0.071880 -0.321399 -0.468606 0.192070 0.204764 -0.393906 -0.784533 -0.904083 0.030375 -0.952164 0.316138 0.388020 0.430839 -0.509152 -0.068250 0.055910 0.319802 0.011612 0.336442 -0.370344 0.365896 0.371020 -0.121695 0.196835 0.710379 -1.324632 -0.015445 -0.121740 -0.415337 -0.073865 -0.041234 0.460559 0.462704 0.275217 -0.216580 -0.230942 0.013578 -0.243466 0.717546 0.597388 -0.439231
976 0.864559 -0.255514 0.460433 -0.003682 -0.634865 -0.652633 -0.366430 -0.352302 0.212888 0.362397 0.071282 -0.038447 0.113679 -0.926768 -0.440765 -0.192389 -0.052777 -0.652754 -0.241330 0.359426 -0.231632 -0.316413 0.473079 0.047272 0.188032 -0.925565 -0.181322 -0.442792 -0.108863 -0.247828 0.010260 0.532827 -0.532186 0.675188 0.546284 0.344626 -0.126360 -0.162402 0.240058 0.223781 0.486477 0.381541 -0.066232 0.018407 0.316712 0.263733 -0.285973 0.010878 -0.714334 -0.353684 0.534524 -0.354794 -0.125369 -0.064495 0.830106 -0.304870 0.721662 0.337946 -0.020561 -0.052915 0.005536 -0.082976 -0.225528 0.126408
974 0.943801 -0.191809 0.335286 0.041899 -0.603597 -0.739674 -0.398531 -0.390419 0.330392 0.318795 -0.027641 -0.114529 0.107802 -1.020197 -0.552625 0.069328 0.148989 -0.607870 -0.158640 0.447165 -0.201804 -0.255838 0.376342 -0.051514 0.038818 -0.701544 0.087373 -0.377687 0.051810 -0.068077 -0.003055 0.445025 -0.406786 0.524528 0.260560 0.482039 -0.348742 -0.189606 0.031654 0.168080 0.360681 0.037651 0.080559 -0.048252 0.233114 0.476301 -0.145038 0.204074 -0.990521 -0.568206 0.309415 -0.331326 -0.016278 0.339181 0.884471 -0.276869 0.809319 0.242980 0.003908 -0.325460 0.261940 0.264098 0.016558 0.211996
964 0.234723 0.306398 -0.460294 0.409156 -0.426105 -0.348671 -0.261824 -0.706916 -0.069059 -0.114402 0.178655 -0.754790 0.523636 -0.251281 -0.182543 -0.374537 0.187015 -0.582537 0.682419 -0.112173 0.021395 0.203352 0.168762 -0.432614 0.083458 -0.765392 0.221731 0.044487 -0.341986 -0.662832 -0.184334 -0.174664 -0.635513 -0.445684 0.080379 -0.184120 -0.783511 0.081971 0.640784 -0.105554 0.111583 0.477876 0.381607 -0.434957 0.326298 -0.731565 0.090568 0.333986 -0.693084 -0.363573 0.813640 0.466059 -0.047919 -0.164084 0.434071 0.175513 0.387628 -0.462247 0.399726 -0.191256 -0.305344 0.410016 -0.049280 0.273102
972 0.736506 -0.198626 0.291118 0.121690 -0.599982 -0.874258 -0.347520 -0.119347 0.217668 0.270314 0.147850 0.103879 0.125089 -0.934286 -0.597170 -0.011501 -0.274876 -0.713873 -0.241109 0.363390 -0.037250 -0.263299 0.409190 -0.038032 -0.019847 -0.806387 -0.212421 -0.465241 0.232210 -0.244720 0.002683 0.281321 -0.337884 0.566918 0.300865 0.471791 -0.108043 -0.212918 0.177751 0.405375 0.470687 0.258200 0.202254 0.122310 0.371067 0.193248 -0.120502 0.291691 -0.785908 -0.690878 0.583492 -0.410640 -0.125938 0.301444 0.851141 -0.318237 0.727871 0.483249 -0.098466 -0.159595 0.080050 0.150077 -0.088302 0.049933
963 -0.252952 0.453488 -0.289211 -0.361208 0.123446 -0.819214 -0.514281 -0.234253 0.418240 0.127602 -0.303685 -0.069175 -0.331928 0.369109 0.008542 -0.421943 -0.093365 -0.676312 -0.120583 -0.105367 -0.109342 0.202188 0.451715 -0.316488 -0.323198 -1.197650 0.645459 -0.113693 -0.305197 -0.571922 0.142551 -0.421664 -0.362974 -0.051086 0.564088 -0.126430 -0.114420 -0.327824 -0.125507 0.488177 0.107934 -0.702068 -0.310642 -0.383153 -0.172855 0.072054 -0.398481 0.786970 -0.744134 -0.078559 0.107383 0.180833 -0.738270 -0.055482 0.922452 0.051526 0.446886 0.188702 0.058417 0.207924 0.191564 0.104198 -0.615650 -0.252792
957 0.100762 0.433747 -0.625350 0.543162 -0.363136 -0.619953 0.109599 -0.793038 0.141696 -0.447049 -0.079117 -0.881246 0.517250 -0.239839 0.031540 -0.074522 0.152943 -0.624277 0.436435 0.079753 -0.046065 0.170643 0.188546 -0.426100 0.229773 -0.614565 0.456281 0.200079 -0.009528 -0.564091 -0.230798 -0.358111 -0.552411 -0.390100 0.035286 0.261425 -0.485782 0.221786 0.394184 -0.077218 0.305150 0.437545 0.241201 -0.339965 0.574893 -0.637740 -0.009545 0.511123 -0.650679 -0.379433 1.089973 0.321637 -0.035813 0.225217 0.389929 0.288540 0.441895 -0.270222 0.404036 -0.033189 -0.188464 0.089914 -0.042089 0.219849
951 0.072555 0.435980 -0.407746 -0.150798 -0.043605 -0.490604 0.258309 -0.053077 0.429852 0.915229 0.007779 -0.484863 0.891054 -0.518665 -0.063937 -0.986872 -0.069671 -0.473510 -0.003228 -0.247729 0.171077 0.037062 -0.023798 0.038588 -0.213835 -0.675395 0.180686 0.206547 -0.662029 -0.214528 0.139054 -0.792850 -0.611589 0.618653 -0.241188 0.231427 -0.146734 -0.128918 0.230036 0.228581 0.031389 0.212361 -0.066540 0.382121 -0.134902 0.265710 0.333713 0.613762 -0.517191 0.145510 0.390856 0.137128 0.535489 0.423041 0.306457 -0.981342 0.707109 -0.079724 -0.044101 -0.043671 -0.161535 0.318529 -0.942925 -0.061227
937 0.266808 0.361768 -0.369469 -0.156394 -0.132960 -0.573711 0.062106 -0.036777 0.682831 0.833033 -0.154137 -0.445385 1.034990 -0.707446 0.032316 -0.842398 -0.063129 -0.342937 -0.250597 -0.238416 0.282470 -0.069858 0.082721 -0.064444 -0.276707 -0.729939 0.261980 0.140783 -0.507021 -0.302573 0.096845 -0.883655 -0.497536 0.670839 -0.209236 0.138694 -0.139581 -0.046725 0.321945 0.331698 -0.179176 0.212949 -0.000828 0.403873 -0.151841 0.030517 0.212982 0.578020 -0.404580 0.206823 0.380250 0.264162 0.505245 0.523978 0.155101 -0.885466 0.769610 -0.139351 -0.163671 0.048325 -0.351404 0.288106 -0.753556 -0.262664
952 0.150338 0.389197 -0.355085 0.443544 -0.309911 -0.728452 -0.107105 -0.751613 -0.219844 -0.112911 0.183386 -0.823186 0.464819 -0.201733 0.154501 -0.354208 -0.289380 -0.767618 0.615795 -0.119762 -0.004788 0.464433 0.315927 -0.639654 0.005276 -0.673016 0.374559 0.360107 -0.166184 -0.566327 0.066899 -0.193188 -0.457081 -0.314915 0.293470 -0.028881 -0.676050 0.263451 0.455211 0.083399 0.195888 0.430874 0.452814 -0.379298 0.645540 -0.640811 -0.036863 0.314635 -0.477397 -0.368605 0.815109 0.131370 0.194565 0.061770 0.262694 0.213086 0.546308 -0.378470 0.259036 -0.141125 -0.484672 0.171788 -0.015710 0.345649
949 0.116983 0.629453 -0.379537 0.415260 -0.258417 -0.520595 -0.052352 -0.700682 0.279580 -0.360893 0.167070 -0.988918 0.489025 -0.323308 0.101284 -0.187778 0.051641 -0.757085 0.681195 0.162420 -0.320463 0.163771 0.261436 -0.331043 -0.084266 -0.681164 0.085932 0.015911 -0.437636 -0.702475 -0.109893 -0.120786 -0.487209 -0.412761 -0.182071 0.089011 -0.847390 0.298054 0.520623 0.060352 0.039257 0.454714 0.342478 -0.313799 0.495702 -0.295693 -0.036744 0.300905 -0.753532 -0.196352 0.929183 0.549780 -0.108041 0.076203 0.095082 0.416153 0.479592 -0.318054 0.241371 -0.115236 -0.080472 0.186474 0.004241 0.381802
915 0.456663 0.470838 0.026854 -0.534419 -0.723872 -0.863622 -0.074871 -0.090118 0.500839 0.474859 -0.221368 0.131118 0.997490 -0.119673 -0.502740 -0.418617 -0.261409 -0.771934 -0.104475 -0.641904 0.050346 0.073029 -0.376169 0.174467 0.056538 -0.018197 -0.365547 0.605861 -0.068301 -0.514257 -0.706431 -0.150798 -0.425436 -0.252587 0.694279 -0.057345 -0.430075 0.440706 0.559010 0.434379 -0.210821 -0.248649 -0.005152 -0.275950 0.147263 0.876039 -0.410542 0.472197 -0.424889 0.215613 0.778092 -0.161966 -0.322727 0.048274 0.495858 0.697075 0.483657 -0.033290 0.151700 -0.511930 -0.112342 0.188684 -0.518399 -0.000196
968 1.043804 -0.210754 0.145585 0.045594 -0.438526 -0.704482 -0.505730 -0.291481 0.044418 0.387992 0.133394 0.212957 0.188686 -1.017557 -0.423378 -0.115653 -0.058573 -0.458546 -0.059816 0.462891 0.099100 -0.293268 0.402266 -0.110372 0.079075 -0.753304 -0.033417 -0.519423 -0.207707 -0.180316 -0.157278 0.331864 -0.249735 0.625877 0.350415 0.254863 0.046706 -0.221857 0.212337 0.322111 0.514822 0.349217 0.149518 -0.111662 0.480717 0.305992 -0.247802 0.176267 -0.957440 -0.328273 0.402322 -0.431328 -0.038791 0.255046 1.014770 -0.030566 0.916890 0.410277 -0.110611 -0.081994 0.028326 0.096428 -0.142595 0.133196
941 -0.177230 0.786756 -0.006477 -0.230101 -0.223476 -0.682283 -0.270273 -0.417257 0.404483 0.203512 -0.271420 0.027945 -0.252919 0.306693 -0.092116 -0.183866 -0.321902 -0.504647 -0.118284 -0.293644 0.093888 0.111823 0.205642 -0.444159 -0.335302 -1.277030 0.718445 0.123647 -0.387500 -0.232911 0.333606 -0.507275 -0.399515 0.165512 0.572122 -0.328014 -0.415902 -0.408648 -0.255502 0.205924 0.012565 -0.746588 -0.230138 -0.176521 0.043748 -0.052756 -0.516825 0.534538 -0.811079 -0.153946 0.161894 0.299092 -0.767630 -0.333867 0.796975 0.040197 0.610155 0.272435 -0.100415 0.177769 0.354001 0.336711 -0.456537 -0.353345
948 0.331552 0.246730 -0.450525 0.387187 -0.252212 -0.484331 -0.015886 -0.689492 0.087354 -0.235276 0.044670 -1.045530 0.449851 -0.168658 0.005825 -0.419234 -0.257453 -0.657081 0.549781 0.110585 -0.148315 0.122764 0.662305 -0.433377 0.120966 -0.506651 0.248977 -0.053207 -0.474900 -0.483182 -0.256400 -0.419474 -0.465072 -0.464577 0.114572 -0.142167 -0.495959 0.452843 0.438871 -0.040057 0.252878 0.492315 0.444317 -0.163103 0.586069 -0.631006 -0.167118 0.486667 -0.774652 -0.181030 0.938107 0.356698 -0.031321 -0.086493 0.304101 0.480439 0.265993 -0.308505 0.250821 -0.179976 -0.260898 0.198947 -0.211059 0.242494
965 0.896317 -0.043428 0.158084 0.115052 -0.676476 -0.751589 -0.337104 -0.203992 0.144168 0.337609 -0.140693 -0.020261 -0.133102 -1.007365 -0.255255 -0.222151 0.065618 -0.754520 -0.219796 0.446431 -0.074237 -0.378805 0.470752 -0.070062 0.054890 -0.579629 -0.239539 -0.435035 0.100126 -0.126569 0.006753 0.405621 -0.499698 0.656577 0.244971 0.423054 -0.144264 -0.215841 0.175360 0.379792 0.394271 0.398384 -0.154948 0.080040 0.319030 0.304076 -0.335245 0.077575 -0.866473 -0.570311 0.505250 -0.178919 -0.076724 -0.023431 1.101212 -0.195660 0.616376 0.287395 -0.083213 -0.286586 0.173448 0.127771 -0.295988 0.292420
962 0.893475 -0.104823 0.198049 -0.002627 -0.604801 -0.868299 -0.142947 -0.209838 0.191146 0.200196 0.141863 0.270556 0.130570 -1.223178 -0.488355 -0.091498 -0.044058 -0.774576 -0.178849 0.355679 -0.165854 -0.242210 0.424037 -0.059901 0.016364 -0.740083 0.092279 -0.465444 -0.084104 -0.142353 -0.108711 0.483230 -0.307394 0.721759 0.225268 0.491386 -0.226167 -0.460675 0.110543 0.408483 0.169043 0.406161 0.160410 -0.257784 0.426917 0.091850 -0.292791 0.173984 -0.872133 -0.523652 0.328509 -0.308272 -0.159022 0.056306 0.591464 -0.215840 0.750794 0.233119 -0.041417 -0.309789 0.262845 0.021388 -0.310632 0.308892
939 0.267117 0.425860 -0.367198 -0.212603 -0.049886 -0.394241 0.143351 -0.245046 0.397832 0.910978 -0.009341 -0.589784 0.951688 -0.538872 0.138967 -0.851352 -0.043823 -0.305673 -0.240693 -0.233534 0.021842 0.034535 0.102184 0.066639 -0.289393 -0.790018 0.192084 0.135050 -0.687873 -0.210190 0.122889 -0.901833 -0.670435 0.552260 -0.249950 0.287952 -0.182693 -0.062662 0.249618 0.421645 0.031664 0.160977 0.037014 0.431542 -0.229276 0.443858 0.180854 0.605891 -0.503756 0.485623 0.437768 0.278455 0.491937 0.534781 0.265872 -0.808254 0.723657 -0.048455 -0.129099 -0.044817 -0.084360 0.374196 -0.634384 -0.045127
940 0.261438 0.359269 -0.365640 -0.144794 0.014798 -0.499451 0.011335 0.011059 0.492755 0.796765 -0.268892 -0.484818 0.967180 -0.693606 0.189804 -0.847214 0.035120 -0.524780 -0.199186 -0.259004 0.182209 0.006550 -0.042091 -0.136062 -0.130895 -0.618675 0.251557 0.297905 -0.598128 -0.176920 0.294657 -0.754124 -0.698899 0.538281 -0.295175 0.200994 -0.131167 -0.114018 0.252025 0.399431 -0.083194 0.286050 0.088187 0.445273 -0.018289 0.301250 0.291024 0.740583 -0.467023 0.234469 0.355555 0.302216 0.296083 0.518317 0.308734 -0.925916 0.613345 -0.097954 -0.048269 -0.007903 -0.114789 0.356159 -0.933868 -0.187376
943 0.052212 0.265268 -0.099691 0.577666 -0.134456 -0.660832 -0.264543 -0.625226 0.274446 -0.302567 0.227743 -0.858995 0.759141 -0.361276 -0.067118 0.005948 -0.003579 -0.651084 0.697547 0.019367 0.102958 0.172739 0.416502 -0.564911 0.209168 -0.661569 0.311081 0.274573 -0.500083 -0.635432 -0.238684 -0.294507 -0.455130 -0.443238 0.240062 0.026977 -0.518146 0.052172 0.648433 -0.249741 0.163940 0.555062 0.270267 -0.355759 0.611473 -0.467636 0.008541 0.255418 -0.670295 -0.291868 0.735815 0.479700 0.131520 0.147163 0.206611 0.506999 0.531665 -0.211367 0.269364 0.148284 -0.264434 0.052304 -0.193795 0.147833
944 -0.253716 0.636925 -0.295415 -0.171211 0.110240 -0.810835 -0.255869 -0.493931 0.649513 0.042514 -0.186962 0.178843 -0.306502 0.450889 -0.151392 -0.417745 -0.213558 -0.612964 0.044309 0.104134 -0.015247 0.040281 0.377156 -0.216930 -0.382215 -1.219757 0.645851 0.009663 -0.395780 -0.606082 0.046665 -0.299751 -0.260462 0.139357 0.440227 0.071093 -0.159905 -0.309533 -0.235088 0.126005 -0.153948 -0.829546 -0.499023 -0.206713 -0.005324 0.176377 -0.317626 0.405334 -0.986741 -0.000622 0.305840 0.422107 -0.685131 -0.398386 0.629050 0.004475 0.749753 0.080283 -0.133236 0.196275 0.291121 -0.018550 -0.635072 -0.263719
994 -0.139445 0.739546 0.180408 0.245487 -0.060056 0.298969 -0.107686 -0.507120 0.458706 0.333324 -0.259001 -0.206815 0.832717 -0.384534 -0.167243 -0.718039 0.163388 -0.221909 -0.225326 -0.300112 0.265929 -0.175968 0.421441 0.012407 -0.216374 0.061777 0.373132 -0.291719 0.150619 -0.245493 0.302002 -0.060534 -0.646662 -0.125936 0.915284 -0.024053 -0.206559 -0.226108 0.589683 0.680611 -0.117358 -0.630881 0.620598 0.151999 0.539560 0.241246 0.045527 0.395154 -0.931014 -0.652038 0.485155 -0.201584 0.058623 0.273474 0.326902 -0.083875 -0.017972 -0.157048 -0.136869 0.167622 0.569291 -0.492585 0.037804 0.115378
970 -0.423849 0.273646 0.240341 -0.102567 0.104481 -0.391213 0.032503 -0.083215 0.176745 0.207999 -0.603990 -0.172480 0.246865 -0.598249 0.018970 -0.385008 -0.143060 -0.350922 -0.019946 -0.319851 0.237493 -0.324621 0.207503 -0.004780 -0.378712 -0.307868 0.108230 0.255820 -0.696453 -0.679066 -0.724917 0.108135 -1.056220 0.425321 0.518293 0.490605 -0.269195 -0.124278 -0.024257 0.256157 -0.099707 0.369883 -0.485465 0.336411 0.740879 -0.028151 0.398242 0.506703 -1.211707 0.086767 -0.160402 -0.303435 -0.179009 -0.162117 0.230755 0.590947 0.486834 -0.131425 -0.216106 -0.032126 -0.471508 0.506237 0.571789 -0.414898
926 0.213583 0.455730 -0.406617 -0.153017 -0.150625 -0.491727 0.303544 -0.135584 0.619098 0.757942 -0.071734 -0.362934 0.902181 -0.812704 -0.084311 -0.928690 -0.038408 -0.293138 -0.042087 -0.194678 0.070567 -0.068295 0.107682 0.038298 -0.440394 -0.705380 0.229679 0.153010 -0.620841 -0.212477 0.053574 -0.910320 -0.686175 0.510557 -0.262809 0.218591 -0.096710 -0.209509 0.185886 0.483306 -0.151773 0.277929 -0.026121 0.458204 -0.128931 0.047373 0.313732 0.551639 -0.372020 0.344521 0.449019 0.357732 0.380248 0.161593 0.306928 -1.097637 0.612075 -0.133515 0.051806 -0.277455 -0.032165 0.458566 -0.790174 -0.002766
969 -0.236488 0.184639 0.395377 -0.184048 0.111509 -0.472051 0.362537 -0.234206 0.034948 0.109434 -0.565991 -0.340814 0.179733 -0.446833 0.145562 -0.602585 -0.095023 -0.251889 -0.149221 -0.225746 0.108223 -0.175195 -0.159791 0.053149 -0.582910 -0.305747 -0.014861 0.063865 -0.561516 -0.630049 -0.803993 0.054150 -0.914011 0.277478 0.439762 0.377355 -0.643280 -0.052505 -0.082736 0.348656 -0.004512 0.136459 -0.328271 0.387346 0.697591 -0.144803 0.335394 0.790606 -1.172692 0.132148 -0.233332 -0.318563 -0.160216 0.124806 0.675331 0.431538 0.326487 -0.259163 -0.190222 0.043184 -0.375871 0.566326 0.703793 -0.296545
967 -0.608397 0.215303 0.493584 -0.242042 0.000481 -0.265019 0.127966 -0.214439 -0.033947 0.163803 -0.378987 -0.234915 0.221445 -0.686553 0.180317 -0.566265 -0.158266 -0.281689 0.046716 -0.434634 0.142142 -0.349248 -0.080360 0.180705 -0.193083 -0.519302 0.057978 0.395185 -0.253714 -0.719046 -0.702899 0.214518 -0.864145 0.347426 0.537145 0.467300 -0.452339 -0.159795 0.115018 0.276496 -0.062984 0.339469 -0.593885 0.210538 0.615860 -0.311677 0.206103 0.842287 -1.178819 -0.092141 -0.134021 -0.324309 0.034426 0.113191 0.577582 0.388302 0.249626 -0.163795 -0.263875 0.111495 -0.246118 0.802757 0.369111 -0.485390
901 -0.037404 0.366756 -0.635222 0.302007 -0.081308 0.033776 -0.149392 0.129211 1.037736 0.089373 0.226677 -0.246367 0.016618 -0.249245 -0.527662 -0.889880 0.084860 -0.663362 0.105507 -0.228543 0.044133 0.219398 0.646929 -0.433765 0.553071 -0.583691 -0.488706 0.747692 -0.163466 0.128496 -0.803824 0.043307 -0.614793 1.022026 0.405282 -0.048491 -0.686947 0.291504 0.382024 0.588769 0.021261 -0.430169 0.215688 -0.105369 0.615294 -0.213566 -0.124895 0.327960 -0.790111 0.513865 0.193784 0.278094 -0.084655 0.368715 0.928370 -0.231486 0.243265 0.633794 0.304857 0.088547 -0.113775 0.045559 0.175742 -0.072867
966 -0.433597 0.116245 0.206343 0.004789 0.114195 -0.692195 0.244721 0.028251 -0.032255 0.220507 -0.522439 -0.223062 -0.015083 -0.527350 0.145837 -0.426462 -0.112493 -0.482516 -0.260720 -0.393254 0.190481 -0.259966 0.136460 -0.057317 -0.595647 -0.424757 0.186213 0.180141 -0.423295 -0.703683 -1.023249 0.223755 -1.072556 0.410893 0.492518 0.459845 -0.417426 0.189159 0.141207 0.399886 0.055475 0.263809 -0.354600 0.331405 0.456610 -0.176156 0.286364 0.763741 -1.157349 0.007496 -0.160804 -0.281091 0.148534 0.120564 0.228827 0.543208 0.251002 -0.222165 -0.451343 0.045572 -0.140663 0.529834 0.393441 -0.399379
959 -0.298129 0.266137 0.310215 0.061850 0.003271 -0.328339 0.019668 -0.176683 0.116668 0.137456 -0.378685 -0.166153 0.211606 -0.605165 0.268831 -0.727960 0.060752 -0.207384 -0.122508 -0.300131 -0.161245 -0.166473 0.042427 0.041681 -0.596989 -0.411343 0.032264 0.200857 -0.224737 -0.641104 -0.879284 0.274380 -0.841978 0.369802 0.449034 0.421607 -0.502229 -0.178593 -0.036511 0.346381 -0.227767 0.162472 -0.542533 0.424955 0.470094 -0.278224 0.350200 0.712984 -1.533344 0.064253 -0.101995 -0.250942 -0.045925 -0.155637 0.104316 0.474799 0.336506 -0.254349 -0.216035 -0.281834 -0.172133 0.855461 0.342093 -0.273026
898 -0.546451 -0.400592 -0.031655 0.539983 -0.733670 -0.015619 -0.387875 -0.338315 0.757106 0.469581 -0.438066 -0.302554 0.455908 -0.566885 -0.056059 -0.568821 -0.314156 -0.294577 0.235977 -0.681211 0.247136 0.212739 0.309696 -0.544565 -0.589976 -0.541297 -0.416459 -0.044805 -0.220304 0.310338 -0.611979 0.026698 -0.471012 0.142429 -0.290562 0.443450 -0.090760 0.053042 -0.259834 0.613089 0.328068 -0.350626 0.016238 -0.412823 0.459825 0.294665 -0.421146 0.703901 -0.581505 0.034282 0.782892 -0.185660 -0.425964 0.015968 0.673286 0.084077 0.731400 -0.876150 -0.263237 0.615852 0.125056 0.232118 -0.503970 0.530889
961 0.891877 -0.099626 0.190160 0.081301 -0.456911 -0.699041 -0.316346 -0.456366 0.104982 0.123476 -0.095500 -0.112877 -0.013047 -0.927206 -0.419572 -0.229157 -0.052289 -0.646451 -0.440081 0.435754 -0.056373 -0.186691 0.373305 0.047697 0.053409 -0.780231 -0.312571 -0.364624 -0.002046 -0.321537 0.005294 0.470051 -0.166792 0.666619 0.364991 0.588265 -0.239896 -0.276155 0.238512 0.224500 0.534975 0.102366 0.032217 -0.230656 0.279909 0.349391 -0.239635 0.155201 -0.939784 -0.611585 0.365971 -0.580040 0.045297 0.393378 0.806295 -0.236743 0.768114 0.313116 0.054551 -0.182604 -0.118142 0.006248 -0.395852 0.230155
910 0.102830 0.353291 -0.194257 -0.337456 -0.042214 -0.412102 0.231449 -0.126094 0.645896 0.763995 0.028443 -0.498490 0.892616 -0.872286 0.039717 -0.926949 0.128271 -0.249988 -0.183380 -0.233231 0.202972 0.119944 0.198092 -0.032755 -0.296955 -0.750229 0.355834 0.254066 -0.665627 -0.293658 -0.018660 -0.972535 -0.688999 0.541325 -0.358999 0.430293 -0.229193 -0.216554 0.362914 0.216781 -0.008097 0.368051 -0.001358 0.238929 -0.267974 0.485441 0.300294 0.738878 -0.340501 0.218517 0.336745 0.432406 0.343619 0.468834 0.301822 -0.771623 0.539798 0.080794 -0.015989 -0.025175 -0.075383 0.131003 -0.773423 0.000331
931 0.105852 0.360254 -0.570880 0.408368 -0.234668 -0.405275 -0.451011 -0.841394 -0.010491 -0.345312 0.184664 -0.824333 0.583013 -0.328679 -0.064644 -0.043147 -0.181521 -0.814594 0.296492 0.018534 -0.058900 0.283915 0.449039 -0.458625 0.125770 -0.814000 0.138989 0.110323 -0.342158 -0.812001 -0.282541 -0.508406 -0.512831 -0.443815 0.275727 0.076615 -0.807668 0.515789 0.504521 0.321208 0.193590 0.574004 0.281002 -0.211368 0.345215 -0.630438 0.211112 0.146219 -0.550960 -0.303526 0.838924 0.043076 -0.096523 0.089483 0.089804 0.262312 0.343125 -0.155931 0.277363 0.213069 -0.367047 0.222154 -0.238995 0.270850
992 -0.284053 0.803659 0.180938 0.108699 -0.044710 0.145226 -0.164003 -0.501943 0.478883 0.365493 -0.126371 -0.179510 0.732305 -0.417500 -0.076854 -0.664072 0.113433 -0.105612 0.154677 -0.278455 0.312238 -0.065231 0.336084 -0.109702 -0.095459 -0.028847 0.359548 -0.321733 -0.033435 -0.418694 0.212163 0.065953 -0.735010 0.179481 1.082765 -0.067516 0.041826 -0.186149 0.630045 0.754295 -0.272178 -0.515647 0.745048 0.046609 0.229693 0.156327 -0.049401 0.187950 -0.836813 -0.574707 0.493839 -0.520362 0.009674 0.372331 0.081424 -0.122607 0.295623 -0.112098 -0.086492 0.292580 0.475192 -0.572538 0.063829 0.105840
894 0.315049 0.545822 -0.676293 0.007190 -0.087372 -0.882837 -0.497312 -0.084902 0.302522 0.385713 0.138585 -0.446006 0.848159 -0.892249 0.101677 -1.014301 -0.030002 -0.471243 0.394030 0.381303 0.036635 -0.404539 0.019592 0.153400 0.081961 -0.352904 -0.086565 0.541923 -0.403214 0.220481 -0.599701 0.001691 -0.882273 -0.152486 0.327012 0.591063 -0.570200 -0.381818 0.114311 0.222003 0.635524 -0.868436 0.080168 -0.224114 0.047167 0.079918 -0.669001 0.748439 -0.314556 -0.622332 0.204749 -0.132567 -0.276509 -0.733701 -0.041062 -0.100116 0.205044 0.218809 -0.126638 0.708515 -0.141730 0.256181 0.091995 -0.255824
928 -0.266717 0.390440 -0.333014 -0.315813 -0.058872 -0.715796 -0.340200 -0.318481 0.463849 0.287245 -0.029897 -0.206477 -0.329976 0.429280 -0.016015 -0.438016 -0.247562 -0.508702 -0.040617 -0.042092 0.080761 -0.037319 0.284329 -0.476081 -0.569093 -1.246843 0.660407 0.007645 -0.144917 -0.590031 0.133735 -0.561466 0.104285 0.209373 0.641359 -0.171070 -0.303794 -0.146112 0.085864 0.498408 -0.055248 -0.843399 -0.250418 -0.288837 0.272346 0.132494 -0.529228 0.414800 -1.009989 -0.185403 -0.030090 0.128756 -0.631365 -0.410010 0.736239 -0.090466 0.616171 -0.042215 -0.055482 0.141411 -0.019841 0.155895 -0.595589 -0.449797
930 -0.329390 0.572613 -0.327536 -0.265163 -0.257476 -0.911120 -0.253119 -0.138373 0.540927 0.143735 0.079681 -0.137287 -0.301153 0.443258 -0.113061 -0.230375 -0.211626 -0.280298 0.147843 -0.189280 -0.131807 -0.025934 0.342324 -0.611241 -0.635672 -1.021585 0.656515 0.023623 -0.368640 -0.665665 0.200202 -0.481215 -0.279298 0.103059 0.548974 -0.003773 -0.103826 -0.676204 -0.139391 0.470505 0.065029 -0.754091 -0.211938 -0.284420 0.326674 0.354606 -0.376557 0.650380 -0.879237 -0.086295 0.035659 0.418742 -0.716944 -0.157752 0.745092 0.116587 0.506876 0.331383 -0.249868 0.005227 0.217583 -0.020973 -0.524254 -0.287155
909 -0.602157 0.196131 -0.417600 0.575707 -0.904931 -0.715377 -0.572855 0.274666 0.146821 0.701173 0.146545 -0.584882 0.565359 -0.571279 0.274728 -0.474209 -0.072011 -0.231696 -0.458013 0.463836 0.366575 -0.276608 0.181901 0.615497 0.075869 -1.143898 0.164147 0.733747 -0.342096 -0.502900 -0.297185 0.115673 -0.607907 0.111279 0.042529 -0.114452 -0.354472 -0.175342 -0.154487 0.081604 -0.716422 -0.234742 0.380051 0.068416 0.286839 0.099602 0.093644 0.694416 -0.418338 0.050199 0.247176 -0.428138 -0.231729 0.166366 0.834091 0.466600 0.411553 -0.030812 0.443864 -0.135945 0.422882 -0.566989 -0.137629 0.449207
892 -0.043163 0.375790 -0.503998 0.253750 -0.179998 0.098536 -0.279160 0.052641 1.090014 0.199883 0.249391 -0.140278 -0.078574 -0.288326 -0.536915 -0.985185 0.217035 -0.724285 0.292252 -0.203720 -0.066599 0.146961 0.514657 -0.387544 0.501755 -0.705182 -0.430512 0.809640 -0.036382 0.191177 -0.850153 0.148469 -0.664391 0.931237 0.460267 -0.004168 -0.430902 0.250150 0.249801 0.410229 -0.118870 -0.376795 0.257013 -0.053424 0.637367 -0.164258 -0.083284 0.358520 -0.942452 0.622142 0.313145 0.490911 -0.059143 0.351738 0.788713 -0.284022 0.264589 0.603063 0.324724 0.113076 -0.146494 -0.047831 0.210547 -0.100322
950 -0.543655 0.212366 0.291352 -0.000417 0.053892 -0.412737 0.236652 -0.146936 0.278974 0.066726 -0.560249 -0.388835 0.032924 -0.454867 0.169773 -0.680316 -0.100119 -0.230598 -0.373975 -0.286059 0.037986 -0.255123 0.137759 0.026867 -0.427182 -0.110913 -0.237997 0.493591 -0.531396 -0.845246 -0.756155 -0.016260 -0.914087 0.337900 0.287640 0.367182 -0.392067 -0.143137 -0.003024 0.220959 0.058325 0.468818 -0.653553 0.313791 0.488528 -0.186005 0.191455 0.663745 -1.317673 -0.261123 0.045466 -0.340201 -0.050299 -0.010913 0.499887 0.522063 0.443826 0.009319 -0.512022 0.003021 -0.183314 0.358448 0.496699 -0.539417
923 0.105407 0.656614 -0.482807 0.387357 -0.555396 -0.561190 -0.456032 -0.896180 0.057767 -0.063477 0.207289 -0.820913 0.512147 -0.362667 -0.105242 -0.133864 0.142547 -0.508843 0.600696 0.129696 -0.039101 0.218800 0.225320 -0.620347 0.166184 -0.645893 0.293801 0.172967 -0.359925 -0.501544 -0.072228 -0.291862 -0.429020 -0.477086 0.067786 0.137308 -0.512586 0.694516 0.356959 0.094269 0.162839 0.549727 0.076221 -0.122709 0.370719 -0.674223 -0.032393 0.193047 -0.981217 -0.150830 0.629195 0.442856 0.237003 -0.031765 0.500817 0.502535 0.295582 -0.388174 0.119820 -0.056983 -0.171673 0.230104 -0.154287 0.314392
955 -0.509200 0.075833 0.470391 -0.268235 -0.048594 -0.319465 0.261542 -0.174779 0.166831 0.278787 -0.383059 -0.245168 0.223159 -0.640729 0.122618 -0.611154 -0.051970 -0.242756 0.068738 -0.189250 0.124531 -0.289996 0.114970 -0.115055 -0.604964 -0.183001 0.109768 0.195753 -0.424260 -0.978351 -1.053989 0.123034 -0.893216 0.271063 0.481154 0.739720 -0.407542 -0.147651 -0.205584 0.074785 -0.159997 0.181663 -0.446057 0.276412 0.479307 -0.265312 0.202271 0.636495 -1.260830 -0.061002 -0.073496 -0.257419 0.081091 0.015281 0.485623 0.338785 0.245567 -0.102310 0.107142 -0.088142 -0.267196 0.480412 0.455259 -0.487311
884 0.611886 0.790471 0.304020 -0.246358 -0.479052 -0.639695 -0.443861 0.356536 0.445677 0.056536 -0.657218 -0.308276 0.543064 0.553143 0.090413 -0.551272 0.031899 -0.408920 0.280559 -0.594238 0.446210 -0.400976 0.757333 -0.238518 0.251292 -1.091608 0.137465 0.482322 -0.344378 -0.353925 -1.005001 -0.073060 -0.069971 -0.213494 -0.061389 0.417111 -0.515076 -0.393822 0.311536 0.347996 0.064940 0.103552 0.307675 0.080358 0.246348 0.051838 -0.159207 0.587902 -1.000726 0.122560 0.355778 -0.800001 0.171140 -0.209810 0.249736 -0.755582 0.341233 0.023292 -0.244460 0.252396 0.355054 -0.061813 0.056812 0.813247
919 -0.073438 0.351438 -0.454427 -0.170583 -0.122743 -0.964275 -0.207991 -0.460529 0.498409 0.172535 -0.393032 0.020997 -0.262982 0.294959 0.023705 -0.238942 -0.280468 -0.384063 -0.111237 -0.310200 0.132355 -0.065772 0.225698 -0.334557 -0.403544 -1.190492 0.595202 -0.032214 -0.231774 -0.764668 0.294154 -0.465247 -0.279813 0.087008 0.631000 -0.399580 -0.094726 -0.370121 -0.422851 0.194946 0.120011 -0.959620 -0.291044 -0.320563 0.135797 0.161015 -0.580434 0.590372 -1.058265 0.090970 0.352484 0.403991 -0.435398 -0.174966 0.784018 -0.079153 0.328029 0.202234 -0.028955 0.195557 0.187761 0.205036 -0.334459 -0.213779
920 -0.478363 0.601561 -0.230141 -0.077417 -0.212106 -0.732956 -0.384450 -0.169048 0.495297 0.187293 -0.063128 0.049183 -0.319398 0.274337 -0.066345 -0.280322 -0.055601 -0.297217 -0.012458 0.039181 0.007752 -0.054225 0.545150 -0.511515 -0.312909 -1.190423 0.651775 -0.173039 -0.247317 -0.751348 -0.126996 -0.512874 -0.123189 0.133932 0.470400 -0.226853 -0.224752 -0.189579 -0.157610 0.405409 0.232966 -0.833450 -0.224770 -0.216448 -0.322278 0.281958 -0.500963 0.570666 -1.168904 -0.028013 0.270934 0.333035 -0.671405 -0.272014 0.532500 0.060827 0.553013 0.155801 -0.020393 -0.085518 0.221410 0.249894 -0.676531 -0.448511
912 -0.392721 0.624513 -0.097051 -0.512158 -0.337943 -0.702460 -0.291127 -0.316509 0.506552 -0.043519 -0.185793 0.040893 -0.066747 0.269350 -0.129045 -0.351552 -0.106382 -0.485958 -0.002956 -0.048963 0.032191 0.028159 0.154394 -0.461401 -0.605116 -1.298107 0.605718 -0.022874 -0.530148 -0.532836 0.115389 -0.711551 -0.084057 0.171869 0.571036 -0.146442 -0.120487 -0.335558 -0.190846 0.164345 0.168776 -0.818039 -0.035461 -0.445528 -0.035897 -0.202603 -0.355771 0.375452 -0.893116 -0.095358 0.177129 0.036711 -0.909956 -0.085783 0.890437 -0.053398 0.379513 0.242343 0.125151 0.071119 0.087614 0.093805 -0.501719 -0.504152
946 -0.617086 0.068541 0.061652 -0.147101 0.296918 -0.560511 0.328869 -0.052485 0.011238 0.317574 -0.442171 -0.101143 0.219029 -0.491016 0.206220 -0.529307 -0.328232 -0.478964 -0.113921 -0.216037 0.088542 -0.054830 0.092651 0.210357 -0.490940 -0.170773 0.092225 0.231457 -0.518614 -0.666528 -0.912751 0.178362 -0.863079 0.276787 0.471460 0.499558 -0.403590 -0.303334 -0.052342 0.440159 0.171240 0.391899 -0.539884 0.134581 0.559371 -0.408056 0.290521 0.652167 -1.438541 0.091838 0.045447 -0.588790 -0.065460 0.107190 0.390879 0.343543 0.205081 -0.014291 -0.073789 -0.022426 -0.320377 0.499938 0.280794 -0.201266
847 0.543815 0.634346 0.139782 -0.684767 -0.796198 -0.784027 -0.177131 -0.238194 0.431024 0.369345 -0.062390 0.199934 0.907077 -0.187408 -0.565236 -0.407258 -0.275890 -0.640303 -0.126891 -0.567504 0.033013 0.353386 -0.289255 0.204655 -0.027128 -0.147130 -0.430084 0.628206 0.160027 -0.377182 -0.847806 -0.199354 -0.565261 -0.279605 0.814333 -0.228599 -0.181527 0.298608 0.594382 0.514729 -0.311086 -0.190399 0.035432 -0.272661 -0.003653 0.675678 -0.432031 0.655839 -0.435132 0.287308 0.649095 -0.227768 -0.149703 -0.087302 0.493297 0.662830 0.741272 -0.231809 0.237836 -0.512397 -0.140407 0.275886 -0.498817 -0.031968
993 -0.329793 0.866632 0.079360 0.087128 -0.054643 0.062725 -0.027748 -0.525247 0.723003 0.158623 -0.252316 -0.134128 0.656903 -0.612128 -0.205205 -0.754493 0.153390 -0.131445 -0.061850 -0.238201 0.141588 -0.160175 0.548817 -0.180129 -0.114842 0.070581 0.229946 -0.375664 0.055221 -0.408616 0.282911 -0.017222 -0.730542 -0.108742 0.762632 -0.093519 -0.020437 -0.071812 0.633979 0.635908 -0.178235 -0.517329 0.832907 0.279443 0.026729 0.293011 0.228193 0.241776 -0.889024 -0.470692 0.411155 -0.469901 -0.029409 0.212564 0.353389 0.116444 0.197262 -0.014521 -0.023348 0.365672 0.559258 -0.435878 0.085876 0.166914
879 0.149138 0.158972 -0.786524 0.162870 -0.726571 0.073206 0.170472 0.520974 0.251792 0.066983 -0.514842 0.232847 0.872381 -0.663866 -0.173861 -0.468285 -0.528792 -0.373026 0.251657 -0.226751 -0.293825 0.073367 0.404780 -0.341957 -0.688705 -0.952983 -0.072426 0.676294 -0.570292 -0.123918 -0.066134 0.090249 -0.120728 -0.118008 1.022889 0.187911 -0.331182 0.155221 0.397428 -0.167497 0.181992 0.461476 -0.347875 0.588097 -0.143121 0.338082 -0.555519 0.799707 -0.990403 -0.430580 0.169265 0.320495 -0.431565 0.165648 0.490732 -0.238536 0.578346 -0.126980 0.534702 0.378973 0.244148 -0.522818 0.323565 0.143922
888 -0.499000 -0.390541 -0.050444 0.490042 -0.749629 -0.006879 -0.435015 -0.334527 0.823318 0.371972 -0.449098 -0.290013 0.545992 -0.600135 -0.179779 -0.461368 -0.282534 -0.304379 0.225024 -0.639308 0.273167 0.203271 0.354440 -0.572944 -0.550548 -0.442978 -0.495936 -0.072434 -0.319318 0.223344 -0.508820 0.026157 -0.554437 0.147482 -0.347255 0.373016 -0.168906 0.017438 -0.468000 0.652151 0.128845 -0.332486 0.084228 -0.260130 0.537444 0.298361 -0.541399 0.678735 -0.619547 0.022014 0.756033 -0.183552 -0.470199 -0.005663 0.568897 0.064653 0.762433 -0.917919 -0.246100 0.696385 0.207824 0.308985 -0.531794 0.477548
854 0.030253 0.439643 -0.592567 0.359037 -0.095006 0.102971 -0.205701 0.118463 0.952322 0.242278 0.191337 -0.307281 0.145520 -0.268664 -0.589758 -0.684553 -0.097751 -0.859574 0.003549 -0.481565 0.012177 0.162940 0.516019 -0.391947 0.563683 -0.594594 -0.385456 0.691058 -0.076292 0.245718 -0.787521 0.064000 -0.700853 1.019888 0.595683 0.006882 -0.792006 0.234952 0.167215 0.381658 -0.020507 -0.440141 0.362051 -0.204902 0.626001 -0.284488 -0.171845 0.250729 -0.946401 0.564310 0.078390 0.274638 -0.141840 0.448181 0.770260 -0.337381 0.173536 0.637205 0.413817 0.121828 -0.165304 0.040806 0.129112 -0.079130
875 0.559558 0.708125 0.226457 -0.307936 -0.641140 -0.754601 -0.398098 0.168395 0.518880 -0.088979 -0.504271 -0.252632 0.646770 0.562361 0.052974 -0.612163 0.047749 -0.342314 0.310236 -0.511953 0.454286 -0.521848 0.738113 -0.259124 0.285857 -1.005259 0.151676 0.512978 -0.214785 -0.424129 -1.038770 -0.227554 0.069710 -0.156521 -0.174154 0.386003 -0.502391 -0.366944 0.287273 0.357031 -0.003368 0.187625 0.246188 0.022190 0.221356 0.105074 -0.198890 0.663803 -1.100392 0.093979 0.163917 -0.848288 0.178409 -0.049356 0.386744 -0.769009 0.218072 -0.147731 -0.339046 0.343769 0.293779 -0.195965 0.128772 0.718411
895 -0.627924 0.140672 -0.440488 0.579326 -0.837089 -0.506232 -0.560306 0.438840 0.186607 0.814994 0.096988 -0.701920 0.494198 -0.474176 0.264327 -0.549912 -0.251103 -0.100111 -0.490908 0.544891 0.378041 -0.431555 0.164334 0.727730 -0.026068 -1.127520 0.089253 0.567604 -0.337721 -0.447309 -0.489952 -0.002535 -0.501330 0.024064 0.273080 -0.239419 -0.438989 -0.191716 -0.104715 -0.187724 -0.582965 -0.167856 0.533897 -0.080035 0.375183 0.059418 0.112466 0.654232 -0.575376 0.087073 0.407192 -0.357825 -0.199968 0.171945 0.818886 0.417246 0.590451 0.066330 0.251296 -0.181157 0.372122 -0.459528 -0.184724 0.381049
938 -0.617310 0.240248 0.231858 -0.186811 0.015818 -0.477858 0.417680 -0.046557 -0.130354 0.094590 -0.561091 -0.401931 0.271722 -0.422258 0.148128 -0.604986 0.098889 -0.250053 -0.185391 -0.282831 0.450628 -0.194157 -0.139957 -0.089896 -0.309846 -0.315420 -0.111161 0.063924 -0.358361 -0.580390 -0.831095 0.179245 -0.934867 0.435172 0.502016 0.438140 -0.343381 -0.202528 -0.119235 0.289716 0.059336 0.216168 -0.286765 0.453275 0.575669 -0.220847 0.225023 0.762359 -1.397466 -0.066314 0.050276 -0.377854 -0.251591 -0.057398 0.286607 0.393309 0.458244 0.007419 0.072936 -0.104841 -0.239675 0.824976 0.458518 -0.308372
889 -0.456358 0.165324 -0.380185 0.618679 -0.936771 -0.514241 -0.330580 0.272543 0.194348 0.594123 0.252256 -0.591487 0.460733 -0.417868 0.362520 -0.478866 -0.220391 -0.235888 -0.539336 0.541435 0.488265 -0.063903 0.390114 0.666073 -0.011988 -1.034177 0.136897 0.844957 -0.254900 -0.543359 -0.409300 0.098085 -0.858220 0.158759 0.128339 -0.056841 -0.395140 -0.362950 -0.077985 -0.209434 -0.640655 -0.375281 0.481109 0.111366 0.387949 0.106174 0.048765 0.562838 -0.488528 -0.043565 0.085083 -0.520276 -0.070921 0.032381 0.804556 0.482803 0.556511 -0.153269 0.523272 -0.197675 0.405063 -0.434491 -0.457593 0.433884
883 0.141459 0.223405 -0.922310 0.120421 -0.671014 -0.005472 0.385822 0.420933 0.221874 0.001630 -0.326400 0.332420 0.903564 -0.502083 -0.044312 -0.629343 -0.466871 -0.304609 0.408965 -0.027816 -0.143855 0.100917 0.446885 -0.404779 -0.722461 -0.992075 -0.125212 0.508426 -0.447543 -0.021193 -0.104786 0.250087 -0.143020 -0.101104 1.140231 0.206781 -0.496149 0.161267 0.293744 -0.082944 0.272611 0.271338 -0.423525 0.688029 -0.121846 0.370545 -0.499698 0.761492 -0.969475 -0.341614 0.072407 0.229713 -0.427834 0.195003 0.410848 -0.361882 0.600707 -0.358267 0.538131 0.073024 0.220745 -0.322303 0.204101 0.395033
904 -0.439622 0.431244 -0.252454 -0.374611 -0.149903 -0.763895 -0.154317 -0.094649 0.669121 0.159619 -0.175173 -0.014221 -0.340315 0.415425 -0.185951 -0.272763 -0.134126 -0.461073 -0.264592 -0.108713 0.242804 -0.252978 0.574692 -0.377894 -0.508679 -1.214405 0.778352 0.124218 -0.362374 -0.575898 0.278102 -0.629687 -0.319044 0.022239 0.541719 -0.004382 -0.084923 -0.202421 0.100152 0.307527 0.248473 -0.760469 -0.235855 -0.337099 0.183362 0.033039 -0.657956 0.408313 -0.844854 0.000808 0.277153 0.269690 -0.571488 -0.246257 0.729836 0.242405 0.697785 0.480655 -0.060323 0.228976 -0.051337 0.191652 -0.496256 -0.109735
991 -0.158193 0.778323 0.219912 0.138024 -0.026617 0.038664 0.005309 -0.490534 0.504363 0.111469 -0.035157 -0.110702 0.732051 -0.591455 -0.222276 -0.934736 0.087365 0.003819 0.068958 -0.149610 0.214769 -0.168156 0.436404 -0.182284 -0.183078 0.202763 0.452989 -0.175375 -0.106100 -0.292035 0.443938 -0.026045 -0.616147 -0.047725 0.835067 -0.342026 -0.130178 0.020542 0.518096 0.708994 -0.164386 -0.629783 0.630782 0.167487 0.235393 0.193237 0.081676 0.238535 -0.985245 -0.299938 0.476916 -0.524035 -0.058244 0.176735 0.368353 0.019552 0.321114 -0.121354 -0.248250 0.284760 0.396044 -0.517935 0.159463 0.388030
873 0.252876 0.320344 -0.394764 -0.220651 -0.203396 -0.533003 0.254401 -0.232621 0.662474 0.593233 -0.389734 -0.705608 0.798532 -0.673653 -0.157640 -0.961925 0.111186 -0.345220 -0.309249 -0.275525 0.206778 0.228867 0.292632 0.142658 -0.292564 -0.449083 0.427644 0.198686 -0.691939 -0.079314 0.099889 -1.024641 -0.656576 0.640669 -0.248980 0.270788 -0.222501 -0.063472 0.303829 0.219978 -0.126053 0.305085 0.092207 0.485532 0.054216 0.293277 0.413552 0.698042 -0.189189 0.040183 0.182797 0.180345 0.321572 0.176244 0.333708 -0.965068 0.907379 0.048698 0.165740 0.025853 -0.235479 0.306954 -0.791477 -0.138058
871 0.049001 0.213983 -0.914816 -0.001284 -0.703159 0.005838 0.314025 0.335949 0.156319 -0.143266 -0.450831 0.305974 0.926022 -0.539197 -0.266025 -0.513499 -0.352079 -0.467722 0.190186 -0.175906 -0.093614 0.118139 0.343027 -0.350867 -0.592689 -0.933893 -0.172452 0.643417 -0.506083 0.065403 0.014090 0.153064 -0.077248 -0.066253 0.887684 0.149397 -0.355947 0.025101 0.333754 -0.123330 0.015334 0.231680 -0.241026 0.734291 -0.270863 0.229333 -0.579486 0.960460 -1.028183 -0.565102 0.161908 0.205247 -0.406031 0.218040 0.426955 -0.273274 0.854123 -0.264312 0.695732 0.237877 0.215891 -0.209966 0.482826 0.384606
842 0.272726 0.493804 -0.617971 -0.202256 -0.032962 -0.900059 -0.577491 -0.259730 0.341998 0.473692 0.137184 -0.365640 0.797477 -0.841769 0.078319 -0.975089 -0.004159 -0.548203 0.474047 0.494631 0.074965 -0.378256 0.067672 0.091427 -0.042189 -0.431034 -0.221981 0.639194 -0.520868 0.111999 -0.539046 0.032127 -1.130134 -0.106192 0.244234 0.474862 -0.487949 -0.337785 0.204029 0.237406 0.609803 -0.883213 0.189200 -0.240661 -0.044321 0.108750 -0.709396 0.640607 -0.243671 -0.589828 0.119858 -0.263591 -0.248360 -0.666173 -0.148308 -0.182986 0.275419 0.077266 0.011054 0.738461 -0.143093 0.161259 0.245594 -0.254386
958 0.960894 -0.151063 0.319189 0.060585 -0.539125 -0.772861 -0.202263 -0.394170 0.352416 0.114429 0.110676 0.100135 0.054688 -0.822878 -0.458140 -0.291948 0.077845 -0.615139 -0.179847 0.450090 -0.257650 -0.488159 0.495962 0.268350 -0.008855 -0.783663 -0.257213 -0.378746 -0.098172 -0.014823 -0.076746 0.296605 -0.280511 0.687803 0.152295 0.455332 -0.176350 -0.202717 0.281562 0.308056 0.469651 0.373648 0.079491 -0.041994 0.165444 0.152846 -0.241410 0.131139 -1.071767 -0.642747 0.394423 -0.404376 -0.237783 0.298682 0.908194 0.046415 0.699220 0.251598 0.008520 -0.152150 0.163495 -0.016349 -0.422814 0.119979
900 0.084276 0.306309 -0.490435 0.277995 -0.136908 -0.506671 -0.187228 -0.734626 -0.002009 -0.300623 0.245422 -0.951432 0.534167 -0.293005 0.055678 0.012478 0.147274 -0.809484 0.569110 -0.055217 0.388960 0.379868 0.433527 -0.535901 -0.102152 -0.713875 0.251726 0.079230 -0.261303 -0.524338 -0.208149 -0.438612 -0.839756 -0.321869 0.266079 0.134534 -0.786869 0.319105 0.594052 -0.174078 0.354040 0.633251 0.273856 -0.121210 0.738397 -0.400655 -0.184344 0.281604 -0.525183 -0.256881 0.701925 0.298384 0.108772 -0.024136 0.410161 0.365261 0.078164 -0.341908 0.485482 -0.042115 0.001559 0.095004 -0.281445 0.347743
848 0.014222 0.686476 -0.612289 0.193058 -0.092614 0.409188 -0.100585 -0.189034 1.004770 0.111882 0.204548 -0.286174 -0.049582 -0.393628 -0.602873 -0.936910 0.197741 -0.691765 -0.036497 -0.214790 0.068091 0.141398 0.474115 -0.496692 0.579057 -0.812866 -0.677216 0.817920 -0.230323 0.009425 -0.945948 0.028726 -0.531273 0.992683 0.331681 -0.001975 -0.547079 0.177645 0.165330 0.459328 -0.089335 -0.265541 0.382758 -0.241251 0.587708 -0.090672 -0.211224 0.263274 -0.905804 0.444606 0.087800 0.360109 -0.256698 0.355483 0.778638 -0.229727 0.321170 0.537475 0.306515 0.020402 -0.053782 -0.119635 0.207710 -0.180793
990 -0.282415 0.859631 0.073387 0.202256 0.021850 0.006679 0.027038 -0.524138 0.721611 0.212254 -0.083524 -0.056062 0.672278 -0.619998 -0.192398 -0.840261 0.101429 -0.078728 -0.058089 -0.124392 0.255243 -0.136206 0.372568 -0.186790 -0.097701 0.244571 0.483828 -0.256477 -0.074199 -0.248482 0.236436 -0.112447 -0.480992 -0.043738 0.892248 -0.331346 -0.049787 -0.012908 0.523948 0.509284 -0.190205 -0.429798 0.529978 0.235591 0.368944 0.236860 -0.026811 0.371939 -0.975697 -0.478790 0.601237 -0.571984 0.093746 0.106725 0.359919 -0.039922 0.085256 -0.009571 -0.187804 0.377716 0.395355 -0.524957 0.076217 0.331064
906 -0.308774 0.308453 -0.206556 -0.419716 -0.057991 -0.804980 -0.085150 -0.535434 0.703759 0.138576 -0.364547 -0.264561 -0.378165 0.270641 -0.177388 -0.168355 -0.211863 -0.452354 0.010548 -0.130810 -0.027851 -0.356913 0.315262 -0.579347 -0.615844 -1.145651 0.865242 0.006453 -0.146485 -0.585857 -0.126074 -0.539967 -0.386157 0.095359 0.520171 -0.361344 -0.240616 -0.475765 0.006916 0.162190 0.063276 -0.813311 -0.063199 -0.241722 0.047164 0.302174 -0.526962 0.492762 -0.671293 -0.085277 0.020614 0.419192 -0.688190 -0.281577 0.822319 0.017157 0.737866 0.220370 0.079862 0.155200 0.278661 0.126243 -0.308698 -0.228768
905 -0.443466 0.667831 -0.182367 -0.281354 -0.012903 -0.740678 -0.464072 -0.591709 0.511445 0.350993 -0.276258 0.095594 -0.326842 0.314971 -0.242194 -0.426840 -0.182991 -0.478526 0.038863 -0.176976 0.153855 0.076646 0.393032 -0.406071 -0.580269 -1.116596 0.445264 -0.064636 -0.470357 -0.726548 0.141815 -0.611229 -0.101774 0.126838 0.406884 -0.257630 -0.148206 -0.214050 -0.150896 0.003915 0.218710 -0.853924 -0.327066 -0.244139 0.296143 0.177904 -0.359798 0.587542 -0.868195 -0.339560 -0.026495 0.242666 -0.591318 -0.390000 0.826121 -0.106226 0.496118 0.347799 0.370243 -0.040700 0.145406 0.075856 -0.524787 -0.145569
852 0.284793 0.221951 -1.143694 0.158401 -0.732968 -0.026050 0.233823 0.451276 0.265620 -0.025129 -0.648908 0.310860 0.876041 -0.519012 -0.149877 -0.497355 -0.379057 -0.389166 0.063393 -0.164791 -0.154059 0.303078 0.613107 -0.351279 -0.745481 -0.772985 0.010071 0.626515 -0.536239 -0.119966 0.062405 0.100578 -0.203399 0.014929 0.942263 0.366430 -0.556412 0.192347 0.154084 -0.109892 0.091319 0.359022 -0.230142 0.490848 -0.134173 0.433189 -0.490007 0.718613 -1.052509 -0.629242 -0.036157 0.076436 -0.534737 0.293916 0.248273 -0.233448 0.611849 -0.286960 0.652224 0.215199 0.064852 -0.430762 0.258617 0.263957
989 -0.303938 0.804245 0.069160 0.186421 -0.003351 0.076822 0.159725 -0.506379 0.545776 0.123311 0.130269 -0.222923 0.613848 -0.617726 -0.296942 -0.725095 0.052123 -0.082788 -0.005213 -0.132802 0.292428 -0.113482 0.423258 -0.086807 -0.146978 0.163194 0.349710 -0.286617 -0.089041 -0.326665 0.150933 -0.097504 -0.482408 -0.092974 0.818985 -0.191215 -0.073759 -0.076745 0.785653 0.799441 -0.390109 -0.376646 0.533849 0.109203 0.281995 0.326475 0.072790 0.415711 -1.003415 -0.418370 0.446494 -0.526951 0.057962 0.003129 0.388304 -0.109236 0.134038 -0.006799 -0.228727 0.538335 0.543904 -0.480645 0.002727 0.262500
927 -0.420432 -0.120221 0.375758 -0.073109 0.421040 -0.512185 0.128516 -0.136768 -0.111522 -0.134300 -0.623969 -0.090327 0.229005 -0.363638 0.045177 -0.872678 -0.025388 -0.342710 -0.126432 -0.119939 0.046125 -0.268875 0.137729 0.190697 -0.644150 -0.355795 -0.025459 0.519581 -0.603381 -0.718982 -0.836848 0.051989 -0.877983 0.420541 0.505596 0.493810 -0.480380 -0.197862 -0.011841 0.606170 0.032192 0.268426 -0.378223 0.374603 0.625179 -0.258937 0.400575 0.574528 -1.099608 -0.162246 0.180109 -0.371860 -0.100929 -0.056510 0.384200 0.387730 0.355165 -0.289844 -0.040186 -0.185693 -0.182998 0.562713 0.379673 -0.399446
839 -0.061241 -0.008443 -0.389878 -0.125612 0.033459 -0.746050 0.196930 0.110251 -0.170498 0.389399 -0.505099 0.180009 0.330829 -0.976535 -0.217283 -0.208522 0.685474 0.152273 0.659428 -0.465573 -0.386687 -0.062738 0.644090 -0.232110 0.395902 -1.225489 -0.674056 0.305535 0.073976 -0.053271 -0.293597 -1.027394 -1.066215 -0.175176 0.378268 0.411310 -0.638974 0.021386 0.420584 -0.061886 -0.443100 -0.695582 0.177640 0.185212 0.448601 -0.105941 -0.254432 0.464009 -0.955429 -0.113392 0.292791 -0.468506 -0.430810 0.123935 0.547832 0.019423 0.618467 -0.241400 -0.564601 -0.188506 -0.069964 -0.532939 -0.596760 0.123496
814 0.455024 0.440566 -0.183794 -0.465823 -0.763941 -1.023447 -0.003990 -0.380119 0.583273 0.284879 -0.444286 0.244560 0.854938 -0.108296 -0.509878 -0.441713 -0.242288 -0.524322 0.076023 -0.541207 0.131359 -0.004784 -0.426661 0.375135 -0.010949 -0.197864 -0.351005 0.798155 0.217708 -0.332878 -0.679114 -0.107891 -0.461666 -0.210079 0.644796 -0.205767 -0.269851 0.523709 0.590951 0.518233 -0.109782 -0.122399 -0.006850 -0.369410 -0.008213 0.877946 -0.190042 0.631718 -0.509067 0.247360 0.991184 -0.348647 -0.439757 0.319326 0.470279 0.589667 0.394894 0.007907 0.127491 -0.401398 -0.033263 0.260449 -0.487767 -0.182785
886 -0.484257 0.285998 -0.376208 0.625128 -0.772794 -0.577084 -0.480029 0.355448 0.169884 0.630000 0.377226 -0.656785 0.534337 -0.444300 0.352632 -0.639723 -0.180514 -0.101445 -0.432678 0.434356 0.477902 -0.436063 0.162207 0.709902 -0.222569 -1.189852 0.035702 0.535137 -0.138581 -0.324741 -0.484323 0.005180 -0.637091 0.003771 0.158615 -0.156570 -0.511197 -0.202587 -0.064848 -0.003174 -0.655618 -0.241019 0.526850 0.320830 0.273557 -0.095292 0.105025 0.497276 -0.450673 0.043545 0.254923 -0.453151 -0.475746 0.141219 0.947450 0.503897 0.561347 0.092995 0.454291 -0.176037 0.396616 -0.226268 -0.325374 0.574790
861 -0.531471 -0.259461 -0.070868 0.580892 -0.754630 0.038890 -0.518728 -0.534519 0.857247 0.340351 -0.315301 -0.251345 0.424077 -0.624255 -0.246512 -0.632982 -0.257501 -0.263000 0.155972 -0.687541 0.312969 0.357850 0.658722 -0.398079 -0.774986 -0.532564 -0.497215 -0.060679 -0.151014 0.150311 -0.714626 0.100200 -0.526330 -0.015634 -0.287290 0.560342 -0.130886 0.141646 -0.414094 0.375395 0.203749 -0.348229 0.061796 -0.274359 0.383613 0.358658 -0.342173 0.529254 -0.571629 0.048421 0.608443 -0.170766 -0.404728 0.036771 0.521261 0.063078 0.838570 -0.818399 -0.386053 0.693676 0.135813 0.341403 -0.661616 0.490001
851 0.063074 0.034247 -0.943100 -0.027418 -0.697160 0.016492 0.063521 0.500180 0.065611 -0.074911 -0.533060 0.305479 0.843916 -0.520446 -0.111203 -0.573134 -0.175475 -0.150445 0.362274 -0.138765 -0.079749 0.265246 0.423894 -0.316639 -0.649164 -0.827689 -0.077569 0.736742 -0.797633 0.010435 -0.048438 0.280875 -0.078545 -0.132890 1.184552 0.159625 -0.369651 -0.037024 0.327972 -0.219281 0.229353 0.287802 -0.078210 0.574992 -0.293026 0.332707 -0.473023 0.788508 -1.165930 -0.401545 0.305533 0.311728 -0.276071 0.326062 0.502506 -0.270796 0.955522 -0.158719 0.527575 0.239765 0.239822 -0.170401 0.316101 0.301713
844 0.257042 0.097176 -0.878618 0.120352 -0.603172 0.305082 0.235324 0.347021 0.057317 -0.144243 -0.341562 0.266952 0.773273 -0.540324 -0.185853 -0.589270 -0.325150 -0.487537 0.355648 -0.036114 -0.154590 0.091363 0.344964 -0.415148 -0.557125 -1.040626 -0.069826 0.773518 -0.687837 -0.085628 -0.115598 0.241387 -0.191633 -0.272898 0.979017 0.117958 -0.212686 0.222453 0.309490 -0.123004 0.161634 0.292881 -0.235195 0.710775 -0.267063 0.491923 -0.498790 0.865136 -1.155945 -0.391043 0.065883 0.132675 -0.533701 0.327447 0.368762 -0.284009 0.831615 -0.324447 0.469860 0.248784 0.384211 -0.246568 0.190263 0.118753
932 -0.289291 0.222036 0.411876 -0.145951 -0.184158 -0.347682 0.181773 -0.050563 -0.080494 0.233302 -0.555197 -0.229812 0.340962 -0.471680 0.370103 -0.597955 -0.021876 -0.317623 -0.194034 -0.378159 -0.046304 -0.169270 0.096028 0.008459 -0.648690 -0.391357 0.171519 0.142928 -0.415065 -0.658136 -0.942652 0.038057 -1.114921 0.657091 0.450061 0.323345 -0.585105 -0.037418 -0.071344 0.394699 -0.176167 0.337195 -0.368568 0.465723 0.447477 -0.369692 0.152464 0.362592 -1.070657 -0.044930 0.241538 -0.464871 -0.430063 -0.088183 0.243662 0.416739 0.399596 -0.068861 -0.133797 0.075186 -0.433367 0.507038 0.689602 -0.597703
857 0.586186 0.890936 0.367990 -0.274194 -0.781075 -0.640182 -0.510144 0.374714 0.460252 0.030184 -0.691668 -0.373569 0.582345 0.566661 0.010214 -0.448047 0.043158 -0.300489 0.252543 -0.607685 0.208525 -0.477427 0.766457 -0.205376 0.186019 -0.974295 0.152591 0.438877 -0.331885 -0.329014 -1.011678 -0.165821 -0.148893 -0.194761 -0.110385 0.382852 -0.604981 -0.318774 0.328146 0.387270 0.122198 0.200284 0.302616 0.131685 0.201109 -0.087832 -0.195607 0.572611 -0.993971 0.139318 0.239423 -0.728267 0.138470 -0.189673 0.398550 -0.748985 0.293051 0.076056 -0.308348 0.317332 0.416663 -0.132629 0.045158 0.695934
846 0.170210 0.207707 -0.846215 0.407702 -0.729711 0.020819 0.071310 0.348916 0.180451 0.170304 -0.456443 0.481325 1.026873 -0.405713 -0.006243 -0.866685 -0.341261 -0.551820 0.281713 0.007317 -0.213828 0.005043 0.479077 -0.503006 -0.727092 -1.061245 -0.174162 0.397613 -0.339247 -0.145349 -0.087000 -0.021240 -0.177817 -0.125084 1.211699 0.263545 -0.369959 0.304027 0.334244 -0.282772 0.149041 0.343045 -0.313895 0.840254 -0.199444 0.310553 -0.710144 0.432011 -0.895501 -0.138686 -0.066249 0.071827 -0.451340 0.343249 0.249204 -0.087285 0.743466 -0.113991 0.595499 0.340671 0.176637 -0.014462 0.269599 0.376139
824 0.655256 0.884218 0.364928 -0.262052 -0.692227 -0.655627 -0.462463 0.349347 0.386960 -0.028211 -0.710567 -0.305471 0.414975 0.401863 0.173333 -0.679536 0.172968 -0.274644 0.536063 -0.556556 0.206793 -0.506060 0.766299 -0.148358 0.094707 -1.017725 0.236034 0.515788 -0.235427 -0.319147 -1.051147 -0.074999 -0.032842 -0.237291 -0.079472 0.356972 -0.356345 -0.416593 0.235161 0.391359 0.160872 0.257474 0.346624 -0.060964 0.326842 0.018357 -0.279740 0.765614 -1.034795 0.273836 0.307363 -0.736756 0.171485 -0.132853 0.383997 -0.835508 0.127474 -0.148572 -0.155540 0.102695 0.434115 -0.189210 -0.037152 0.617346
832 -0.570829 -0.468994 0.135123 0.608910 -0.721723 -0.144554 -0.383278 -0.116519 0.961702 0.477335 -0.422532 -0.175296 0.490427 -0.707913 -0.175246 -0.501020 -0.219397 -0.330243 0.299092 -0.593444 0.172720 0.247041 0.413493 -0.694955 -0.853298 -0.590235 -0.297277 0.085364 -0.443240 0.195293 -0.669310 0.096301 -0.519410 0.114044 -0.379047 0.466905 -0.076536 0.087507 -0.102844 0.673177 0.187046 -0.324929 0.111923 -0.515497 0.423621 0.176538 -0.320635 0.529606 -0.499805 0.009942 0.801236 -0.267967 -0.443217 0.027681 0.425299 0.111796 0.742443 -0.782580 -0.228400 0.696984 0.156714 0.133054 -0.579333 0.410245
820 0.384884 0.460757 -0.026274 -0.677445 -0.748131 -0.932388 -0.029078 -0.061300 0.730206 0.107614 -0.286669 0.077783 0.759193 -0.124393 -0.476369 -0.422814 -0.072739 -0.517523 0.113006 -0.506021 0.169749 0.090856 -0.544670 0.301161 -0.192302 -0.024037 -0.295604 0.724205 0.119341 -0.495077 -0.657821 -0.079864 -0.747985 -0.199423 0.906575 0.006448 -0.480842 0.555091 0.566088 0.123460 -0.185143 -0.036642 0.019099 -0.324753 0.360107 0.980137 -0.264974 0.465944 -0.250926 0.337514 1.054178 -0.331054 -0.395526 0.166496 0.477438 0.439131 0.629369 0.180785 0.184858 -0.165019 0.090148 0.207697 -0.639059 -0.064218
834 -0.107267 -0.049153 -0.488584 -0.044079 0.102999 -0.804480 0.147599 0.134871 -0.389204 0.375693 -0.602675 0.181872 0.348015 -0.946568 -0.285848 -0.188922 0.718041 0.014355 0.509923 -0.517994 -0.477159 -0.151328 0.659937 -0.225356 0.392304 -1.087795 -0.669964 0.345183 -0.124751 -0.103710 -0.334865 -0.994692 -0.996813 -0.212891 0.352181 0.257760 -0.622890 0.040592 0.387753 -0.007958 -0.367731 -0.658474 0.276278 0.191771 0.499583 -0.117158 -0.346084 0.391724 -0.960672 -0.024787 0.311049 -0.470243 -0.395413 0.207710 0.589488 0.006914 0.726268 -0.183033 -0.672054 -0.108694 -0.023288 -0.570831 -0.633278 0.062704
983 -0.369419 0.893468 0.063236 0.242109 -0.088582 0.172286 0.196557 -0.467022 0.479746 0.058227 0.086206 -0.211109 0.682215 -0.413708 -0.390668 -0.777797 -0.016277 -0.160499 0.090346 -0.030262 0.291661 -0.204494 0.522456 -0.042190 -0.148811 0.229879 0.549323 -0.429486 -0.009153 -0.104827 0.122886 -0.101006 -0.586880 0.079193 0.835916 -0.037396 -0.137557 -0.099603 0.691341 0.659692 -0.426068 -0.417339 0.532536 0.032197 0.233215 0.216962 0.079150 0.485415 -0.882827 -0.433666 0.530208 -0.549356 0.103305 0.115873 0.493648 -0.061900 0.273539 -0.020115 -0.183186 0.411142 0.650349 -0.309976 0.053649 0.157867
808 0.346371 0.713589 -0.316541 -0.668756 -0.618817 -0.721592 -0.161040 -0.311660 0.490354 0.350974 -0.262123 0.165082 0.930300 -0.204029 -0.602967 -0.396702 -0.114198 -0.784716 0.020515 -0.546337 0.024484 0.084037 -0.509459 0.107673 -0.360118 -0.022577 -0.512371 0.565723 0.284188 -0.540746 -0.856753 -0.068300 -0.585022 -0.290994 0.606625 -0.021538 -0.383593 0.114675 0.664623 0.300884 -0.353816 0.045288 0.050547 -0.287053 0.322098 0.998288 -0.209674 0.480679 -0.348552 0.298493 0.649224 -0.302775 -0.468275 -0.104970 0.606000 0.561495 0.551326 0.107506 0.331320 -0.405465 -0.004201 0.185647 -0.699822 0.007837
858 -0.595241 0.395274 -0.470930 0.496660 -0.973750 -0.673534 -0.386871 0.001502 0.212052 0.530784 0.097380 -0.732616 0.409846 -0.551674 0.173910 -0.426244 -0.423486 -0.219113 -0.652551 0.436658 0.266632 -0.194404 0.008686 0.811055 0.081731 -1.244645 -0.093203 0.704734 -0.437846 -0.558665 -0.371529 0.078704 -0.512054 0.170439 0.094157 -0.227894 -0.274143 -0.055265 -0.111860 -0.074153 -0.577955 -0.321069 0.529788 0.273667 0.368097 -0.122477 0.140476 0.700863 -0.356607 0.051195 0.167329 -0.559957 -0.249585 0.061097 0.862590 0.311179 0.560501 -0.114294 0.308755 -0.051274 0.505615 -0.587704 -0.159165 0.398750
868 -0.448215 0.340092 -0.258165 0.604659 -0.929830 -0.582208 -0.643204 0.268075 0.112186 0.720661 0.153441 -0.492516 0.583547 -0.668593 0.318740 -0.481748 -0.218221 0.077846 -0.598988 0.618589 0.407392 -0.110111 0.199537 0.501069 0.135480 -1.181794 0.204453 0.589614 -0.199057 -0.450849 -0.457605 0.088347 -0.701734 0.077000 0.263984 -0.388300 -0.474997 0.049200 -0.286091 0.046867 -0.544877 -0.239828 0.472332 0.138452 0.266675 -0.079925 0.140266 0.754309 -0.500555 0.136508 0.089166 -0.514839 -0.212575 -0.044858 0.802329 0.357194 0.484168 -0.106602 0.575192 -0.145613 0.359811 -0.350192 -0.441918 0.464257
956 0.743605 -0.172867 0.394453 0.026707 -0.521473 -0.723339 -0.308164 -0.291680 0.284946 0.230581 0.267577 0.057214 0.103470 -0.840840 -0.483426 -0.332193 0.095265 -0.546916 -0.275126 0.483465 -0.030521 -0.418229 0.509762 -0.041693 -0.090941 -0.814779 -0.193888 -0.148411 -0.020794 -0.108511 0.026254 0.385242 -0.393602 0.643182 0.125419 0.334238 -0.205729 -0.220006 0.309571 0.289402 0.503523 0.507578 -0.010025 -0.288453 0.269020 0.333989 -0.479107 0.045464 -1.016053 -0.735046 0.407676 -0.486252 -0.071051 0.456561 0.685735 -0.061231 0.780966 0.381991 -0.133478 -0.243722 0.248174 0.032851 -0.319431 0.103259
821 -0.058355 0.093749 0.183065 0.627559 -0.254954 -0.129443 0.023404 -0.491737 0.464478 0.293062 -0.227651 -0.456245 0.968859 -0.147740 -0.045983 0.152280 0.544940 -0.675097 0.676308 0.151819 0.226680 0.086922 0.165313 0.329737 -0.610326 -0.468999 -0.109769 0.617256 -0.100166 -0.710388 -0.422588 -0.245474 -0.507025 0.808433 0.661867 0.207141 -0.184033 0.443979 0.082592 0.212011 -0.026019 -0.055101 0.413971 -0.051887 -0.505640 -0.123109 -0.774173 1.291237 -0.774056 -0.008688 0.153010 -0.103358 -0.441815 -0.424717 0.741358 -0.367948 0.519728 0.676993 -0.778098 -0.223382 -0.314722 -0.168025 -0.210262 0.645084
866 0.066806 0.418575 -0.458412 -0.240498 -0.409636 -0.590798 0.166104 -0.188052 0.398146 0.687039 0.061439 -0.625432 1.011818 -0.632554 0.166832 -0.957270 0.083402 -0.072168 -0.372103 -0.318894 -0.036319 0.221864 -0.046425 -0.391553 -0.217814 -0.478464 0.295483 0.212260 -0.403611 -0.205909 -0.068934 -0.801443 -0.628854 0.630321 -0.073503 0.239240 -0.018807 -0.300328 0.060781 0.180369 -0.105230 0.240963 -0.020116 0.352057 -0.243805 0.233058 0.481249 0.786344 -0.581760 0.172895 0.486210 0.259070 0.471967 0.300980 0.256916 -1.086867 0.826374 0.145460 -0.147956 -0.140596 -0.192715 0.157783 -0.908744 -0.073442
819 -0.117054 -0.050510 -0.289741 -0.033768 -0.053639 -0.910145 0.176044 0.017791 -0.318704 0.344578 -0.573740 0.357450 0.361276 -0.938339 -0.316441 -0.324687 0.613191 0.083979 0.662739 -0.452194 -0.447492 0.007829 0.634655 -0.264761 0.365801 -1.154075 -0.704847 0.354632 -0.088680 -0.023616 -0.298110 -1.081314 -0.952889 -0.068522 0.290222 0.290141 -0.557321 0.079146 0.430923 -0.200105 -0.511424 -0.782082 0.357699 0.189039 0.355119 -0.152026 -0.132599 0.447854 -1.090278 -0.050467 0.397861 -0.561545 -0.417871 0.038092 0.503374 -0.057610 0.652952 -0.181059 -0.469394 -0.102073 -0.182944 -0.537257 -0.519276 0.049928
918 -0.383176 -0.075576 0.312925 -0.082795 0.210263 -0.676822 -0.133292 -0.075701 -0.019315 -0.007054 -0.477492 -0.234355 0.268668 -0.575644 0.235593 -0.667206 0.095293 -0.271840 -0.147882 -0.638881 0.143080 -0.173791 0.305742 0.148567 -0.628285 -0.101677 0.152895 0.176375 -0.438058 -0.515893 -0.854343 0.111024 -0.896161 0.372663 0.681518 0.289409 -0.520143 -0.153061 -0.186863 0.282581 0.067227 0.479276 -0.310572 0.287606 0.661438 -0.315968 0.244203 1.023135 -1.223489 -0.141708 -0.239855 -0.328514 -0.151115 0.197827 0.364776 0.372796 0.125800 -0.161536 -0.085134 -0.178115 -0.186211 0.501393 0.286970 -0.482054
922 -0.475550 0.143524 0.355473 0.016205 0.118448 -0.585464 0.222878 -0.043178 -0.119225 0.277939 -0.431515 -0.131900 0.342894 -0.359986 -0.007535 -0.656817 -0.214181 -0.135644 0.061720 -0.312551 0.105540 -0.040624 0.170475 -0.007097 -0.341623 -0.252208 0.137244 0.166319 -0.537113 -0.506620 -0.902928 0.319689 -1.202294 0.303310 0.733034 0.083351 -0.449143 -0.086270 -0.451438 0.201351 0.041753 0.309244 -0.716352 0.369524 0.548831 -0.352867 0.247120 0.681853 -1.251156 -0.054080 0.095131 -0.406695 0.050467 -0.022979 0.387773 0.174489 0.344680 -0.158271 -0.380603 -0.292498 -0.154382 0.520548 0.381131 -0.495757
827 -0.037231 0.174182 -0.456811 -0.054953 0.088452 -0.743328 0.121073 -0.031583 -0.325803 0.382575 -0.556810 0.118947 0.339860 -1.018887 -0.203107 -0.229368 0.645554 0.031303 0.374876 -0.584913 -0.483492 -0.147953 0.535814 -0.357662 0.366107 -1.155333 -0.748956 0.370658 0.054829 -0.157629 -0.277016 -1.027917 -1.015292 -0.127923 0.385402 0.364175 -0.699797 0.083365 0.265016 -0.114224 -0.537926 -0.727777 -0.009141 0.041264 0.382487 -0.113768 -0.291265 0.349948 -0.968657 -0.147124 0.295472 -0.562509 -0.363287 0.125803 0.544882 -0.073138 0.707671 -0.215471 -0.564731 -0.159609 -0.171236 -0.694453 -0.545275 0.244334
818 0.096928 0.128576 0.103842 0.656134 -0.113988 0.027667 0.004588 -0.373979 0.325383 0.444834 -0.382822 -0.258011 0.964177 -0.154123 0.084606 0.073036 0.553071 -0.715732 0.711530 0.286100 0.395916 0.122265 0.217686 0.212633 -0.686233 -0.523494 -0.141315 0.655585 -0.117734 -0.683048 -0.277558 -0.188323 -0.544538 0.744030 0.611658 0.163091 -0.240972 0.333973 0.005225 0.303150 -0.091121 -0.003345 0.608284 -0.185440 -0.334370 -0.006780 -0.796774 1.305666 -0.807586 0.089969 0.256800 -0.132059 -0.467100 -0.360630 0.706823 -0.266636 0.451799 0.702459 -0.824146 -0.288395 -0.382339 0.037419 -0.220024 0.645243
798 0.365527 0.562684 -0.761368 -0.133535 -0.108838 -0.916514 -0.651761 -0.216394 0.423013 0.383423 0.226621 -0.321061 0.744922 -1.020852 -0.044555 -0.959882 -0.235632 -0.428058 0.423411 0.462967 0.043101 -0.338032 -0.004095 0.153832 -0.092379 -0.379193 -0.164953 0.462442 -0.336712 0.097269 -0.681781 -0.111658 -0.944358 -0.372616 0.387953 0.520492 -0.280049 -0.156589 0.041795 0.277293 0.729061 -0.914712 0.012971 -0.007572 0.244024 -0.211337 -0.573739 1.007394 -0.148318 -0.568118 0.123505 -0.102349 -0.097311 -0.726816 0.101496 -0.299966 0.167693 0.163618 -0.231945 0.642166 0.038392 0.184050 0.218426 -0.281551
835 -0.015384 0.098133 -0.846175 0.017611 -0.579965 0.030853 0.173164 0.388559 0.306855 0.002714 -0.656577 0.242993 0.874766 -0.594458 -0.235689 -0.427165 -0.393364 -0.420706 -0.099328 -0.199582 -0.271988 0.012062 0.377502 -0.487239 -0.680959 -0.872952 -0.044930 0.665263 -0.413889 -0.202573 -0.335214 0.215190 -0.178245 -0.228076 1.078200 0.187655 -0.378879 0.244304 0.328886 -0.226409 0.403830 0.326859 0.013559 0.793394 -0.352419 0.170981 -0.546467 0.730426 -0.932994 -0.568212 0.143807 0.415706 -0.477852 0.144817 0.471014 -0.453784 0.838638 -0.293560 0.623838 0.137886 0.320158 -0.429126 0.302860 0.296879
917 -0.580930 0.029917 0.437503 -0.009150 -0.064875 -0.488556 0.245551 -0.308362 -0.119849 0.131847 -0.674902 -0.005249 0.302244 -0.476653 -0.012200 -0.503718 -0.034199 -0.143100 0.181266 -0.122164 0.260422 0.058434 0.081527 0.169974 -0.583596 -0.435591 -0.102718 0.381894 -0.491246 -0.669341 -0.844745 0.155349 -1.024181 0.442875 0.252440 0.198282 -0.411085 -0.326012 0.031841 0.387030 -0.045529 0.197210 -0.496593 0.442166 0.696558 -0.101544 0.382329 0.763524 -1.372061 -0.107680 0.032955 -0.410071 0.024631 0.062107 0.164673 0.292274 0.283131 0.142007 0.089596 0.110587 -0.195929 0.638824 0.443838 -0.524472
980 -0.350058 0.749643 -0.101055 0.244393 -0.100868 0.119220 0.226870 -0.513615 0.414756 0.301095 -0.085968 -0.119807 0.608309 -0.525142 -0.222244 -0.933718 0.080407 -0.068860 0.020715 -0.184801 0.167037 -0.135840 0.525972 0.060709 -0.130698 0.234011 0.527175 -0.381522 0.109227 -0.293109 0.167380 -0.114167 -0.409650 -0.136667 1.013357 -0.047178 -0.238466 -0.193915 0.691553 0.711123 -0.224065 -0.472715 0.642786 -0.110214 0.401058 0.224195 0.011770 0.168701 -0.902412 -0.405775 0.420905 -0.712895 0.130617 0.210567 0.525853 -0.170673 0.143031 -0.026018 -0.019116 0.422508 0.240177 -0.234328 -0.082988 0.320167
826 0.212277 0.193324 -1.075933 0.306763 -0.289122 -0.029342 0.002212 0.449039 0.284963 0.139917 -0.727916 0.248028 0.920058 -0.266424 -0.208687 -0.554025 -0.529626 -0.169468 0.112403 -0.011463 -0.263660 0.146162 0.529685 -0.357635 -0.609842 -0.903325 -0.135589 0.645799 -0.479545 0.028845 -0.004108 0.154591 -0.114351 -0.051436 1.032197 0.175131 -0.557603 0.264595 0.360278 0.103480 0.320220 0.286721 -0.293103 0.714810 -0.377999 0.458748 -0.329990 0.616118 -1.113376 -0.594615 0.104103 0.103696 -0.469238 0.139285 0.445144 -0.177239 0.951467 -0.359907 0.521677 0.074958 0.105507 -0.180474 0.361392 0.405510
796 0.237217 0.036269 -0.119336 0.364154 -0.162893 -0.711775 -0.110967 -0.485257 0.062261 0.221149 -0.104940 -0.503112 1.061779 -0.401869 0.158618 -0.444202 -0.438037 0.183765 -0.419202 -0.140815 0.469820 -0.031159 0.859695 -0.229577 0.047862 -0.274192 -0.182911 0.235953 -0.347316 -0.341262 -0.045473 0.095011 -0.650577 -0.164696 0.314407 0.862344 -0.408825 0.163606 1.036022 0.245167 -0.459172 -0.291172 -0.169515 -0.658404 0.289143 -0.230461 -0.695354 0.831757 -0.743046 0.776029 0.194979 -0.172809 -1.198477 0.001607 0.752505 -0.907748 0.757338 -0.036893 0.186503 -0.323363 0.658667 0.248403 0.227812 -0.363997
804 0.180736 0.214974 0.063524 0.643032 -0.171459 -0.186771 0.053507 -0.251929 0.666854 0.384747 -0.347222 -0.298026 0.899875 -0.210078 0.062668 0.106305 0.428560 -0.562358 0.635901 0.155520 0.375191 0.324762 0.204828 0.401727 -0.675663 -0.382436 -0.151944 0.559760 -0.075148 -0.646874 -0.132691 -0.235044 -0.432186 0.893986 0.675036 0.341909 -0.367093 0.395777 0.043780 0.246973 -0.157704 0.003084 0.546107 -0.124332 -0.228416 -0.319312 -0.870500 1.372393 -0.831826 -0.049794 0.121184 -0.149802 -0.326618 -0.564976 0.720163 -0.236740 0.375833 0.568363 -0.766998 -0.232523 -0.355718 0.043939 -0.318733 0.714450
880 0.110663 0.128752 -0.495305 0.427504 -0.483317 -0.942106 -0.276240 -0.632191 0.040606 -0.411513 0.344054 -0.933463 0.316062 -0.274494 0.000157 -0.263080 0.326558 -0.634072 0.541731 0.036971 0.249399 0.255212 0.470323 -0.778267 -0.034535 -0.445845 0.304212 0.160957 -0.357457 -0.689212 -0.220773 -0.382377 -0.600126 -0.537157 0.119011 -0.211340 -0.622586 0.494048 0.462321 0.246133 0.136932 0.471259 0.217002 -0.196194 0.378395 -0.605993 -0.021135 0.577711 -0.583759 -0.522177 0.793223 0.292978 0.036773 0.498633 0.126286 0.214829 0.341686 -0.201632 0.154681 -0.090046 -0.129387 0.147963 -0.053481 0.306676
730 0.055973 0.480732 -0.088684 -0.155473 -0.268683 -0.860447 0.413685 0.202586 0.119338 0.049904 -0.186505 -0.404220 1.147134 -0.222820 0.472435 -0.478761 0.006968 -0.402611 0.141432 -0.181794 -0.489835 -0.147249 0.638817 0.098839 -0.222341 -1.139297 -0.386533 0.384624 -0.349569 0.005616 -0.550595 -0.255776 -0.782446 0.254081 0.685052 0.294705 0.611500 0.877123 -0.194029 0.490600 -0.500726 -0.093950 0.511580 -0.901302 0.638220 0.404710 0.193233 0.201683 -0.711844 -0.784092 0.019693 0.423426 -0.155591 -0.114392 1.104293 -0.325743 0.391879 0.048157 -0.123360 0.443060 0.620820 0.741451 0.080226 0.305479
810 0.624870 0.807028 0.322029 -0.398263 -0.647892 -0.543258 -0.297985 0.224091 0.640526 -0.068204 -0.713252 -0.443165 0.681818 0.559549 -0.062000 -0.534898 0.039690 -0.521376 0.473784 -0.439340 0.267704 -0.495875 0.928067 -0.023674 0.180215 -1.021983 0.061345 0.478220 -0.299937 -0.452236 -0.952228 -0.116030 -0.098493 -0.270887 -0.259166 0.437517 -0.591767 -0.363158 0.242787 0.399446 0.090658 0.064709 0.154904 0.306241 0.469647 -0.031175 -0.281061 0.581147 -0.794376 0.010151 0.155617 -0.843596 0.080082 -0.076670 0.535381 -0.841153 0.089826 -0.155377 -0.215878 0.186336 0.474815 -0.164150 0.009719 0.545160
981 -0.480174 0.924263 -0.039650 0.250202 -0.159407 0.135614 0.337951 -0.347016 0.597182 0.081691 -0.164805 -0.155196 0.647379 -0.505510 -0.334590 -0.825594 0.142746 0.016646 0.033588 0.046913 0.290073 -0.134943 0.447963 0.020827 -0.036970 0.107491 0.372082 -0.273441 -0.037889 -0.329869 0.297214 -0.060307 -0.629156 -0.111821 1.045292 -0.040445 -0.139510 -0.238863 0.652969 0.705573 -0.164286 -0.346162 0.485680 -0.021397 0.285158 0.248695 0.014337 0.034546 -0.839938 -0.477886 0.549575 -0.678590 0.060514 0.167949 0.495366 -0.188889 0.189105 -0.084246 -0.210961 0.326841 0.301887 -0.338555 -0.099915 0.234757
954 0.975570 -0.076207 0.316956 0.257316 -0.526738 -0.710798 -0.166104 -0.427285 0.192752 0.331551 0.185323 0.158122 -0.009172 -0.947263 -0.381301 -0.284775 0.160494 -0.422612 -0.415927 0.099745 -0.148482 -0.471069 0.228428 -0.074677 -0.111744 -0.843888 -0.320751 -0.261840 -0.047570 -0.247055 -0.063697 0.413237 -0.394114 0.603891 0.058275 0.214010 -0.091387 -0.314358 0.211456 0.041750 0.532534 0.376546 0.135521 -0.297249 0.303682 0.277555 -0.424010 0.246364 -1.055978 -0.767002 0.574953 -0.296932 -0.120961 0.192222 0.887131 -0.261229 0.659586 0.332764 -0.002958 -0.370134 0.336801 -0.040616 -0.136522 0.077243
801 0.216755 0.469047 -0.589272 0.291866 0.085372 -0.056367 -0.185014 -0.031198 0.870306 0.374940 0.239343 -0.230041 0.077960 -0.209663 -0.513513 -0.800821 -0.038807 -0.611644 0.251047 -0.538260 -0.160325 0.335255 0.571783 -0.327681 0.533441 -0.760650 -0.363849 0.817366 -0.210151 0.198007 -0.782888 0.216180 -0.671941 1.046204 0.437867 -0.043948 -0.510989 0.174871 0.081690 0.736519 -0.042895 -0.455020 0.194754 -0.108608 0.569947 -0.402635 -0.210512 0.407452 -0.648151 0.503728 0.358119 0.308608 -0.046491 0.632182 0.975181 -0.176276 0.302734 0.588428 0.285514 0.076964 0.036302 -0.236845 0.438461 -0.159190
908 -0.600861 0.251676 0.363219 -0.302762 0.097683 -0.566538 0.019148 -0.079898 0.026866 0.334145 -0.410005 -0.117076 0.377606 -0.457846 0.354304 -0.653854 -0.126165 -0.050051 -0.237737 -0.326660 -0.013118 0.117708 0.234957 -0.010335 -0.370494 -0.437232 -0.178302 0.201046 -0.448442 -0.816799 -0.523605 0.219956 -1.133242 0.418335 0.469342 0.298476 -0.685425 -0.086993 -0.157512 0.467985 0.283022 0.348243 -0.567224 0.223870 0.676585 -0.066701 0.327546 0.826245 -1.156572 -0.051405 0.012076 -0.531823 -0.208847 0.067502 0.170747 0.381367 0.096931 0.008441 -0.222739 -0.199150 -0.326104 0.628858 0.551893 -0.128877
811 -0.126865 0.095834 -0.591797 -0.066525 -0.021547 -0.908636 0.171745 -0.010144 -0.103684 0.275123 -0.703660 0.244541 0.231630 -1.091973 -0.258561 -0.254249 0.690463 0.125816 0.572602 -0.496074 -0.199371 -0.306904 0.500167 -0.353402 0.430548 -1.074570 -0.690694 0.403795 0.075012 -0.092695 -0.165836 -1.027692 -0.872856 -0.179248 0.328750 0.351468 -0.541106 0.195005 0.391802 -0.111125 -0.424405 -0.673454 0.308500 0.305970 0.604644 -0.179426 -0.275321 0.351840 -0.961075 -0.118194 0.186801 -0.478868 -0.475475 0.128643 0.673764 -0.052205 0.711475 -0.261662 -0.678830 -0.215164 -0.171313 -0.390519 -0.567396 0.164789
849 -0.360880 0.192894 -0.509820 0.611462 -0.944831 -0.626596 -0.557280 0.252459 0.173774 0.719058 0.057201 -0.673695 0.187663 -0.596500 0.264391 -0.430694 -0.317246 -0.114715 -0.275475 0.319272 0.523290 -0.306800 0.247375 0.831947 -0.120547 -1.105757 0.308532 0.631797 -0.201963 -0.240971 -0.411973 -0.038378 -0.892239 0.052650 0.208323 -0.295048 -0.199531 -0.022612 -0.174942 -0.069541 -0.550157 -0.219460 0.496530 0.239623 0.474329 0.092344 0.172204 0.844122 -0.382115 0.127905 0.224921 -0.397163 -0.253043 0.018828 0.912470 0.391409 0.535735 -0.039550 0.451338 -0.279109 0.585911 -0.401711 -0.101884 0.464633
756 -0.017371 0.693567 -0.355031 0.222149 -0.331173 -0.416521 -0.578117 -0.356088 0.184914 0.415877 -0.204495 -0.101622 0.305238 -0.233189 -0.461241 -0.202163 -0.277366 0.222674 -0.139149 0.227900 -0.210103 0.063024 0.306254 -0.164480 -0.128927 -0.786546 0.457899 0.319603 -1.016854 -0.062135 -1.156613 -0.130821 -0.893072 0.550071 0.673532 0.519357 0.060167 0.078887 0.716843 -0.143975 -0.807130 -0.220044 -0.015336 0.221322 0.415082 0.223761 -1.170280 0.495115 -0.608069 -0.533193 0.833893 -0.193778 -0.266416 0.616112 0.726133 -0.500021 -0.476382 -0.362330 -0.231417 -0.041177 -0.411167 0.663281 -0.424608 0.560393
843 -0.412390 0.115739 -0.358773 0.597253 -0.945823 -0.782769 -0.375455 0.450087 0.374500 0.578049 0.211255 -0.556880 0.472246 -0.462583 0.249677 -0.512706 -0.456231 -0.110313 -0.379922 0.439845 0.573180 -0.266495 0.187799 0.644069 0.090884 -1.032373 0.231711 0.681369 -0.509047 -0.559367 -0.326107 -0.041218 -0.564108 0.186870 0.200750 0.076693 -0.537741 -0.026098 -0.284438 -0.123812 -0.658733 -0.494727 0.679719 0.176888 0.103897 -0.120707 0.230309 0.535885 -0.381712 -0.081912 0.357589 -0.485283 -0.228262 0.222567 1.017969 0.474958 0.545209 -0.184129 0.258002 -0.235546 0.350134 -0.414523 -0.054755 0.393624
791 0.079049 0.199599 0.064626 0.547646 -0.206074 -0.194693 -0.053084 -0.342445 0.708263 0.388030 -0.490192 -0.324155 0.953093 -0.180311 -0.013896 0.160442 0.569916 -0.633059 0.628603 0.217906 0.273165 0.072659 0.151319 0.295466 -0.808912 -0.386697 -0.076865 0.715386 -0.305496 -0.526000 -0.126568 -0.156153 -0.546988 0.717977 0.751263 0.184144 -0.232057 0.431363 0.029841 0.241707 0.030803 0.130780 0.562004 -0.116182 -0.096843 -0.395977 -0.799338 1.167158 -0.723137 0.090385 0.068314 -0.106308 -0.485646 -0.416757 0.782383 -0.273087 0.404920 0.664391 -0.936456 -0.298092 -0.340699 -0.115468 -0.327968 0.697290
860 0.061676 0.337718 -0.275997 0.036701 -0.190522 -0.590586 0.155309 -0.259178 0.549351 0.692875 0.031144 -0.662036 1.112640 -0.462625 -0.095512 -0.867958 0.052077 -0.320135 -0.077787 -0.288408 0.019143 -0.129011 0.180308 -0.039238 -0.164214 -0.646386 0.242285 0.302988 -0.329444 -0.273954 -0.020386 -0.901493 -0.754252 0.655257 -0.272347 0.439575 0.130065 -0.411657 0.434988 0.355422 -0.037698 0.171891 -0.104977 0.629552 -0.349801 0.427406 0.332926 0.464883 -0.470798 0.216838 0.135846 0.392331 0.463138 0.407875 0.439557 -0.763165 0.829450 -0.084239 0.090403 0.015585 -0.316557 0.222664 -0.904741 -0.132517
856 0.194784 0.103201 -0.414823 -0.266473 -0.225088 -0.449535 0.125495 -0.058846 0.399383 0.665647 0.046069 -0.689648 0.861557 -0.496369 0.060776 -0.859832 0.106886 -0.248712 -0.102609 -0.483271 0.218381 -0.423311 0.190766 0.123559 -0.379797 -0.595682 0.377247 0.126985 -0.546202 -0.270300 -0.070556 -0.795682 -0.860545 0.723377 0.065235 0.186330 -0.243648 -0.047374 0.175314 0.376130 0.016906 0.291676 0.157769 0.483957 -0.163671 0.234481 0.141665 0.604809 -0.374494 0.234441 0.487850 0.416192 0.308358 0.648320 -0.056055 -1.043791 0.947604 -0.020258 0.025341 -0.061651 -0.115481 0.214465 -1.046245 -0.157078
700 0.020320 0.501955 0.066103 -0.152612 -0.181937 -0.861674 0.492760 0.165627 0.219878 0.060177 -0.121326 -0.415371 1.232574 -0.139522 0.441800 -0.531616 -0.056368 -0.305349 0.092768 -0.100017 -0.494269 -0.057218 0.707282 0.126016 -0.162656 -1.100482 -0.488343 0.348275 -0.368574 -0.034622 -0.476101 -0.212907 -0.809521 0.215748 0.706255 0.345978 0.469926 0.944951 -0.284094 0.326051 -0.400073 -0.187236 0.445419 -0.767155 0.645256 0.436579 0.159288 0.101057 -0.746532 -0.752416 0.039665 0.372823 -0.146827 -0.195482 1.116550 -0.341512 0.349804 0.121432 0.027316 0.477963 0.521280 0.782613 -0.035353 0.443209
845 -0.358531 0.023692 -0.334106 0.466824 -0.978143 -0.541774 -0.533073 0.055895 0.152457 0.570780 0.273283 -0.644384 0.532818 -0.449112 0.282182 -0.845523 -0.375698 -0.063308 -0.355310 0.484887 0.254770 -0.308504 0.479456 0.778569 0.034268 -1.109655 0.186162 0.541052 -0.423711 -0.371697 -0.507061 0.079198 -0.565211 0.190142 0.253820 -0.444518 -0.464602 -0.133430 -0.120927 -0.321285 -0.814009 -0.253276 0.395650 0.039667 0.290733 0.037178 0.256667 0.842526 -0.373687 0.089086 0.184026 -0.424156 -0.195940 -0.034452 0.888182 0.482172 0.598325 -0.071230 0.201420 -0.113482 0.333571 -0.552021 -0.197150 0.383770
838 -0.386924 0.452614 -0.490834 0.721419 -0.949627 -0.450924 -0.364619 0.436703 0.170498 0.693864 0.076188 -0.662491 0.279705 -0.661307 0.167507 -0.502376 -0.515153 -0.082525 -0.304594 0.521628 0.472859 -0.400282 0.362029 0.769276 -0.097777 -1.060166 0.091451 0.562442 -0.545805 -0.492426 -0.310269 -0.180687 -0.658153 0.133063 0.021905 -0.139481 -0.630348 0.066469 -0.177493 -0.050760 -0.599853 -0.202526 0.375127 0.036327 0.408866 0.248081 0.192439 0.614656 -0.350390 0.141625 0.293719 -0.478393 -0.323806 -0.061032 1.006301 0.527176 0.348165 0.065074 0.299940 -0.221620 0.458311 -0.421822 -0.161354 0.457736
795 -0.600578 -0.374829 0.049318 0.515161 -0.682921 -0.082923 -0.532309 -0.298321 0.963429 0.540586 -0.431721 -0.449242 0.603757 -0.689118 -0.015299 -0.623458 -0.364849 -0.160607 0.230004 -0.685776 0.190296 0.181869 0.151451 -0.813521 -0.618813 -0.403232 -0.500893 0.001262 -0.369923 0.183586 -0.502600 0.142980 -0.245404 0.157342 -0.091850 0.414956 -0.321939 0.166031 -0.381729 0.402170 0.259157 -0.325857 -0.171242 -0.629024 0.510492 0.132149 -0.398056 0.496468 -0.711480 -0.099497 0.671271 -0.472807 -0.381124 0.099439 0.681051 -0.036213 0.588813 -0.756162 -0.194984 0.726885 0.006120 0.138325 -0.822844 0.529200
800 0.004011 0.392194 -0.674313 0.128728 -0.150407 -0.056083 -0.234235 -0.036258 1.041946 0.229980 0.228677 -0.300676 0.144161 -0.244597 -0.606303 -0.683849 0.204773 -0.662646 -0.023908 -0.311217 -0.062907 0.100932 0.569915 -0.493154 0.563171 -0.661544 -0.283027 0.512886 0.149824 0.134032 -1.058091 0.010184 -0.678969 1.082583 0.411413 -0.025995 -0.619381 0.375457 0.110617 0.627001 0.019630 -0.484786 0.509969 -0.134650 0.441912 -0.212721 -0.241249 0.479423 -0.884905 0.513626 -0.027067 0.429606 -0.109363 0.614443 0.804733 -0.264743 0.295213 0.276270 0.415490 -0.030502 -0.186311 -0.178597 0.473651 -0.132309
907 -0.430527 0.053526 0.142225 -0.034938 0.167429 -0.352155 0.289942 -0.372634 -0.093294 0.397389 -0.529648 -0.328446 0.089628 -0.404600 0.181805 -0.659105 0.002411 -0.401114 -0.173845 -0.368389 0.223560 -0.388517 0.254788 -0.095219 -0.671294 -0.307294 0.177531 0.558523 -0.325702 -0.711841 -0.706143 0.445819 -1.010703 0.227004 0.480648 0.356057 -0.715653 -0.094415 -0.090608 0.498111 -0.125188 0.372566 -0.544804 0.282351 0.704031 -0.015463 0.130606 0.493908 -1.061840 -0.238282 -0.150012 -0.559856 -0.017123 0.193120 0.269346 0.225181 0.346037 -0.107099 -0.195664 -0.111952 -0.225808 0.800478 0.377942 -0.476798
763 0.648428 0.493238 -0.179347 -0.689848 -0.584461 -0.877881 -0.037520 -0.018114 0.681047 0.197614 -0.060631 0.172307 0.672134 -0.119700 -0.588448 -0.605939 -0.157592 -0.362197 0.237397 -0.574899 0.141177 0.063586 -0.279753 0.324686 -0.173874 0.073005 -0.109060 0.738988 -0.084338 -0.305161 -0.747807 0.001754 -0.581460 -0.146712 0.897553 -0.113981 -0.648878 0.464577 0.542603 0.565031 -0.358662 0.029188 0.030794 -0.282537 0.124079 0.704000 -0.259644 0.422930 -0.236677 0.179224 0.871949 -0.360249 -0.430928 -0.111557 0.471550 0.662920 0.937024 -0.112745 0.062942 -0.510264 0.116445 0.410335 -0.771225 0.064581
722 -0.067390 0.677176 -0.287524 0.224340 -0.255408 -0.471901 -0.502875 -0.359319 0.241987 0.324861 -0.114757 -0.063406 0.206212 -0.208201 -0.533557 -0.212486 -0.366806 0.235819 -0.030232 0.211485 -0.216419 -0.049460 0.243252 -0.087537 -0.135960 -0.717932 0.438875 0.326304 -0.992778 0.006951 -1.192128 -0.172212 -1.039270 0.533436 0.656368 0.434228 0.055096 -0.004623 0.711888 -0.105966 -0.864991 -0.059535 -0.107445 0.232766 0.510686 0.200388 -1.153049 0.648748 -0.527966 -0.653873 0.863668 -0.096251 -0.431638 0.568024 0.647839 -0.624667 -0.390107 -0.320068 -0.138706 -0.014966 -0.295460 0.576498 -0.470591 0.698531
754 0.051098 0.092102 -0.056803 0.511315 -0.271899 -0.237867 0.118329 -0.531471 0.610134 0.448764 -0.243091 -0.288441 0.990705 -0.043271 0.071216 0.225102 0.485374 -0.692677 0.580565 0.386136 0.267485 0.275556 0.087180 0.220536 -0.766958 -0.409918 -0.102091 0.659010 -0.047639 -0.620278 -0.418630 -0.135543 -0.501251 0.756790 0.680737 0.271718 -0.261272 0.487444 -0.022534 0.312153 -0.193126 -0.045291 0.399506 -0.154708 -0.443702 -0.477571 -0.747261 1.176280 -0.975972 -0.050947 0.068499 -0.292953 -0.320208 -0.237595 0.620010 -0.418631 0.506381 0.613060 -0.897012 -0.171480 -0.281830 -0.188079 -0.413056 0.611398
747 -0.096936 0.602699 -0.222094 0.290170 -0.276998 -0.473796 -0.617374 -0.268257 0.157546 0.289895 -0.153432 -0.066132 0.300363 -0.305655 -0.532031 -0.226459 -0.367797 0.250263 -0.117258 0.226164 -0.247063 -0.025406 0.395275 -0.143171 -0.175542 -0.760394 0.564424 0.345146 -0.973259 -0.102689 -1.273618 -0.240870 -0.883316 0.575516 0.773958 0.351480 0.002217 0.066359 0.840517 -0.067823 -0.716136 -0.111795 0.003812 0.184568 0.486768 0.275949 -1.146567 0.491956 -0.390459 -0.539699 0.791869 -0.145889 -0.311304 0.511505 0.741850 -0.583747 -0.386618 -0.371221 -0.233769 -0.024693 -0.461343 0.628735 -0.402523 0.596579
772 0.360282 0.575095 -0.689075 -0.018737 -0.321680 -0.674687 -0.624236 -0.468007 0.069275 0.444968 0.015816 -0.412811 0.932335 -0.824258 0.013191 -1.034256 0.145107 -0.300924 0.219789 0.343526 0.047606 -0.319386 0.252392 0.231032 0.066324 -0.301818 0.170405 0.770437 -0.392035 0.226432 -0.649038 -0.048936 -0.845553 -0.173208 0.307817 0.608673 -0.580273 -0.122334 -0.029601 0.254885 0.989313 -1.007028 0.057018 -0.143792 0.244638 0.085905 -0.655748 0.666598 -0.183033 -0.785536 -0.031785 -0.128934 -0.159832 -0.690998 0.147021 -0.134738 0.346972 0.219513 -0.069961 0.534638 -0.178824 0.174083 0.050346 -0.399851
784 0.080222 0.310676 -0.450011 0.266877 0.004135 -0.056804 -0.221744 0.129578 1.002796 0.128938 0.413422 -0.401653 0.068155 -0.233637 -0.610925 -0.824636 0.095174 -0.604399 -0.074017 -0.278569 -0.203724 0.103136 0.459332 -0.813305 0.414207 -0.521080 -0.629952 0.626269 -0.218275 0.042465 -0.938822 0.235085 -0.680200 0.918521 0.643538 -0.255283 -0.800017 0.140189 0.177135 0.533190 -0.272913 -0.602848 0.295950 -0.053578 0.703584 -0.245071 -0.123912 0.524925 -0.841437 0.611057 0.184895 0.569196 0.127587 0.332995 0.671302 -0.365326 0.438118 0.632536 0.212598 0.071270 -0.005093 -0.069517 0.183773 0.131498
896 -0.488083 0.106791 0.580943 -0.234847 0.160397 -0.565749 0.368357 -0.348870 0.124101 0.334078 -0.395654 -0.215373 0.325644 -0.510877 -0.012122 -0.653421 0.115772 -0.418446 -0.048108 -0.432279 0.134308 -0.299820 0.326102 0.132063 -0.459208 -0.467587 0.043772 0.351257 -0.568221 -0.566487 -0.711503 0.415341 -1.113418 0.294408 0.359536 0.463450 -0.375474 0.066970 -0.357848 0.376978 0.040512 0.351708 -0.504104 0.401923 0.406535 -0.335920 0.141349 0.714863 -1.304505 0.072893 -0.029317 -0.183053 -0.258490 -0.008845 0.094560 0.445257 0.152371 -0.270262 -0.105576 -0.295526 0.006599 0.302620 0.481629 -0.494551
809 0.457351 0.545684 -0.183385 -0.186682 -0.448012 -0.463128 0.144640 -0.029009 -0.050930 1.190653 -0.020483 -0.545156 0.309852 -0.510526 -0.405757 -0.232294 0.609720 -0.584734 -0.002580 0.123246 0.105610 -0.280703 1.010850 -0.291862 -0.160383 -0.199593 -0.206708 0.950824 -0.071404 -0.691013 -0.318548 -0.378667 -0.129332 0.646375 0.859995 0.142790 -0.046385 -0.297291 0.251993 -0.065845 0.204879 -0.383937 -0.151994 -0.122228 0.187420 -0.174977 0.516709 0.823817 -0.529271 0.023277 0.773209 -0.190928 -1.105789 0.271437 0.461592 -0.063936 0.210760 -0.664310 0.129478 0.822649 0.240061 0.629403 -0.094873 0.598556
693 0.126848 0.566395 -0.052886 -0.094595 -0.254345 -0.813303 0.433964 0.045382 0.071465 0.012478 -0.194275 -0.368066 1.058165 -0.190276 0.475856 -0.479562 -0.061522 -0.312321 0.073108 -0.138726 -0.579676 0.000942 0.641421 0.052783 -0.254666 -1.024650 -0.411672 0.471164 -0.305971 -0.066389 -0.623785 -0.190622 -0.823299 0.253599 0.674738 0.356046 0.560135 0.776626 -0.218471 0.378774 -0.496644 -0.192113 0.639537 -0.792739 0.589658 0.421265 0.233191 0.070713 -0.771502 -0.760399 -0.100900 0.461370 -0.040040 -0.273800 1.141799 -0.353200 0.584341 0.015092 -0.046670 0.462192 0.639459 0.821278 -0.055106 0.421761
672 -0.399704 0.726619 0.234320 -0.720090 -0.152241 -0.737133 -0.421343 -0.442208 0.139799 -0.014845 -0.445603 -0.730291 0.471780 -0.742255 0.674235 -0.164070 -0.873473 -0.767720 0.095705 0.750653 0.210381 -0.067763 1.127266 -0.651091 -0.209595 -0.288756 -0.242751 0.929078 -0.071125 0.637544 -0.642040 -0.582478 -0.175825 0.451920 0.773934 0.752508 -0.310115 0.236315 0.022000 0.472529 -0.258101 -0.158791 0.243557 0.491922 0.352769 0.254480 -0.405430 0.715402 -0.743672 0.117245 0.664249 -0.153494 -0.268764 0.586855 0.310818 0.187266 0.704839 0.292341 -0.108774 0.014591 0.299027 -0.291512 -0.487566 0.100317
807 0.265048 0.055035 -1.062243 0.009171 -0.693899 -0.015986 0.199923 0.455194 0.253051 0.114802 -0.421673 0.276491 0.833792 -0.671372 0.000786 -0.405642 -0.342243 0.065321 0.350351 -0.223190 0.012204 -0.078849 0.564645 -0.605812 -0.665765 -0.982346 0.131539 0.625186 -0.419629 -0.070658 -0.026989 0.212931 -0.208104 -0.044029 1.043984 0.014495 -0.447040 0.345488 0.424543 0.141827 0.319429 0.356365 -0.319867 0.616134 -0.158699 0.471072 -0.630854 0.949186 -0.970173 -0.474913 -0.011914 0.212310 -0.308951 0.321481 0.388946 -0.061105 0.702634 -0.131644 0.607089 0.212060 0.251747 -0.152846 0.334806 0.473456
831 -0.664924 -0.007455 -0.502343 0.536948 -1.049716 -0.737771 -0.505537 0.224391 0.417316 0.589917 0.209447 -0.648504 0.613684 -0.668851 0.265431 -0.430024 -0.269154 -0.155734 -0.315216 0.393065 0.324393 -0.272472 0.406641 0.828976 -0.049275 -1.073383 0.194057 0.809973 -0.338444 -0.561965 -0.372749 0.112483 -0.545004 0.065530 0.274138 -0.050163 -0.410713 -0.196527 -0.148952 -0.019122 -0.541977 -0.366275 0.247355 0.256508 0.361388 -0.218543 0.168250 0.435550 -0.291556 0.009435 0.273167 -0.415728 -0.039666 0.090818 1.038951 0.338863 0.249905 0.015313 0.304528 -0.346344 0.682239 -0.408647 -0.371051 0.395407
953 -0.375652 0.679925 0.150305 0.192119 -0.229283 0.175270 0.346322 -0.445702 0.408468 0.235422 -0.167333 -0.169022 0.498530 -0.651031 -0.348442 -0.695778 0.071821 -0.298751 -0.010141 -0.176607 0.081174 -0.058828 0.383809 -0.074109 0.033730 0.145369 0.715816 -0.070910 -0.224396 -0.318167 0.146632 0.008280 -0.671377 -0.175842 0.973908 0.078338 -0.008280 -0.202526 0.650847 0.709047 -0.188754 -0.560774 0.805201 0.048764 0.051375 0.153201 0.039490 0.141053 -0.938092 -0.293338 0.530069 -0.433974 0.125490 0.043640 0.506067 -0.155255 0.191679 -0.097101 -0.336559 0.369019 0.460071 -0.513781 0.077521 0.329105
780 0.601898 0.828507 0.158234 -0.287272 -0.576696 -0.530703 -0.376468 0.091402 0.607528 0.100701 -0.592092 -0.467152 0.508521 0.446162 -0.006823 -0.348676 -0.194461 -0.406104 0.358190 -0.522441 0.330493 -0.424677 0.591435 -0.179665 0.211128 -0.998252 0.179293 0.531624 -0.119388 -0.448773 -1.073388 -0.328071 -0.047216 -0.337484 -0.213625 0.448036 -0.427733 -0.237544 0.185507 0.260445 0.159013 0.058631 -0.062180 0.077729 0.501183 0.178263 -0.118630 0.718343 -1.184992 0.042304 0.150057 -0.919591 0.276382 -0.136339 0.468625 -0.994099 0.127359 -0.009083 -0.216427 0.211050 0.522645 -0.292492 0.148291 0.790003
863 0.114340 0.471163 -0.372175 0.384299 -0.545355 -0.474807 -0.143166 -0.684919 -0.120444 -0.408665 0.252387 -0.881684 0.362701 -0.329384 -0.159912 -0.056214 -0.036822 -0.712540 0.553367 0.251326 -0.027492 0.335350 0.624439 -0.566769 -0.150836 -0.582880 0.122185 0.040362 -0.159590 -0.601910 -0.241611 -0.473487 -0.871843 -0.663276 0.089779 0.167055 -0.586916 0.231438 0.654985 0.100677 0.284762 0.359071 0.249511 -0.331609 0.456895 -0.588467 0.162340 0.648470 -0.570872 0.009699 0.555492 0.433381 0.413348 0.078215 0.412141 0.425503 0.492531 -0.239719 0.363792 -0.003959 -0.172844 0.227962 -0.150726 0.338748
806 0.437282 0.607318 -0.099478 -0.041781 -0.335547 -0.603867 0.011013 0.014928 0.271089 1.256446 -0.051757 -0.521952 0.475921 -0.461717 -0.560054 -0.104927 0.523728 -0.590312 -0.093569 0.166270 -0.037907 -0.296089 1.093961 -0.316813 -0.100750 -0.035303 -0.146273 0.978977 -0.129127 -0.586145 -0.287514 -0.343180 -0.052909 0.695864 0.774722 0.057978 -0.051357 -0.172940 0.368015 -0.208927 0.258882 -0.410671 -0.281644 0.017174 0.400333 -0.267608 0.502785 0.815745 -0.648840 -0.015783 0.525265 -0.105688 -1.015258 0.047620 0.438497 0.033349 0.305126 -0.841341 0.058551 0.718145 0.296051 0.544951 -0.211360 0.578764
803 0.129009 0.052660 0.175307 0.505079 0.026199 -0.117584 0.034797 -0.473604 0.598526 0.297588 -0.305490 -0.242979 0.935510 -0.145927 0.023012 0.038166 0.482762 -0.778861 0.612379 0.276730 0.314178 0.220221 0.130505 0.267645 -0.770884 -0.438345 -0.130741 0.831122 -0.200102 -0.845200 -0.256677 -0.218078 -0.422285 0.684375 0.577520 0.382329 -0.286187 0.472357 -0.099365 0.272830 -0.101910 -0.231559 0.543301 -0.123298 -0.349303 -0.315910 -0.752153 1.307655 -0.671381 -0.213234 0.228193 -0.232570 -0.364223 -0.162601 0.788327 -0.409351 0.529339 0.550050 -0.812974 -0.389014 -0.261923 -0.140259 -0.148673 0.679563
822 -0.355725 0.122675 -0.381807 0.676270 -0.637923 -0.598558 -0.538246 0.261079 0.388747 0.515970 0.333171 -0.817976 0.474646 -0.494580 0.314701 -0.500556 -0.279162 -0.409877 -0.534178 0.593913 0.566977 -0.280589 0.081227 0.561524 -0.062131 -1.289736 0.027638 0.707309 -0.276278 -0.433342 -0.547675 -0.065466 -0.854545 0.067724 0.246017 -0.349800 -0.196068 -0.032913 -0.070182 -0.208209 -0.717312 -0.368233 0.268466 0.304200 0.156128 0.105683 0.198088 0.410259 -0.529862 0.093752 0.194219 -0.592246 -0.290129 -0.077270 0.868551 0.391928 0.511432 -0.355609 0.282732 -0.199672 0.483739 -0.549074 -0.139428 0.372730
977 -0.232557 0.623056 0.163583 0.156932 -0.106358 0.236314 0.220834 -0.455203 0.440669 0.202928 -0.071613 -0.085998 0.621633 -0.708383 -0.243025 -0.744688 0.296990 -0.207550 -0.149842 -0.160669 0.294743 -0.010087 0.450238 0.091992 -0.194285 0.110175 0.728087 -0.289131 -0.174409 -0.192467 0.102270 -0.181124 -0.666761 -0.172143 1.082469 0.018598 -0.078835 -0.121531 0.613271 0.786238 -0.207776 -0.353413 0.719485 -0.113677 0.085310 0.101378 -0.014794 0.207790 -0.953102 -0.268186 0.422844 -0.456275 -0.043542 0.114083 0.503936 -0.074778 0.145171 -0.023321 0.108525 0.479881 0.420411 -0.490635 0.025107 0.292639
698 0.092348 0.530971 -0.022891 -0.150231 -0.194812 -0.833220 0.474768 0.115271 0.152455 0.073804 -0.044676 -0.405576 1.145370 -0.201532 0.441829 -0.407967 -0.143141 -0.362825 0.041449 -0.178187 -0.489734 -0.102415 0.605559 0.005152 -0.175119 -1.076139 -0.473015 0.412272 -0.412867 -0.135540 -0.502726 -0.242586 -0.798217 0.228227 0.621542 0.296804 0.520686 1.039219 -0.301566 0.404356 -0.451082 -0.248086 0.498443 -0.759895 0.606943 0.440531 0.141580 0.122095 -0.811747 -0.802913 -0.047076 0.334393 -0.065875 -0.139237 1.072825 -0.359668 0.405839 0.052993 -0.060731 0.469773 0.669113 0.777389 0.003551 0.411214
830 0.379204 0.591237 -0.161738 -0.176136 -0.594787 -0.425391 0.038890 -0.072227 0.087305 1.180320 0.141524 -0.474941 0.515566 -0.426079 -0.541055 -0.088109 0.545254 -0.470932 -0.153867 0.110806 0.049121 -0.340525 1.058477 -0.221131 -0.182878 -0.099290 -0.141563 1.026710 0.032797 -0.636177 -0.375319 -0.503183 -0.154583 0.686221 0.939599 0.086526 -0.120326 -0.281100 0.146408 -0.174638 0.241776 -0.309797 -0.223133 -0.053226 0.318544 -0.327411 0.392281 0.642399 -0.693974 -0.007568 0.691397 -0.091899 -1.036510 0.175867 0.375769 -0.122097 0.364987 -0.735450 0.000231 0.754112 0.295517 0.603868 -0.141532 0.533896
767 0.526943 0.565574 -0.880092 0.001529 -0.371512 -0.818188 -0.459716 -0.317002 0.295327 0.274788 0.063088 -0.161198 0.831800 -0.858751 0.074450 -1.054916 0.074222 -0.307969 0.102599 0.458093 0.339898 -0.380544 0.231878 0.032599 0.096533 -0.285382 -0.013894 0.687688 -0.412622 0.336058 -0.547862 -0.170694 -1.080351 -0.126820 0.226870 0.528641 -0.338778 -0.309674 -0.039388 0.163271 0.665739 -0.757495 0.101315 -0.311731 0.204266 0.107919 -0.619796 0.921049 -0.440994 -0.648201 0.111431 -0.068667 -0.204860 -0.803814 -0.076321 0.078844 0.132120 0.206786 -0.250411 0.677896 -0.213044 0.166579 0.125137 -0.321243
729 0.403326 0.496516 -0.687247 -0.032625 -0.352422 -1.037257 -0.434865 -0.195251 0.359060 0.465921 0.070182 -0.243759 0.753276 -0.806227 -0.089338 -0.899186 0.084979 -0.407118 0.134794 0.436446 0.083843 -0.694955 0.088769 0.007648 -0.177664 -0.353140 0.186534 0.699312 -0.336229 0.500835 -0.589226 0.114490 -1.033552 -0.323285 0.365922 0.555502 -0.605890 -0.196148 0.203941 0.404182 0.643002 -0.875896 0.313065 -0.233101 0.090086 -0.254765 -0.654409 0.801844 -0.292834 -0.599906 -0.078723 0.097929 -0.114484 -0.634240 -0.163978 -0.072485 0.348133 0.134835 -0.305115 0.662075 -0.157895 0.329506 0.055621 -0.208338
936 -0.332995 0.893607 0.177459 0.382696 0.132767 0.043303 0.161487 -0.403294 0.445857 0.293432 -0.121942 -0.063311 0.598428 -0.452431 -0.481235 -0.772830 0.096645 -0.216783 0.050176 -0.090620 0.221695 -0.201027 0.302345 0.094472 0.109595 0.191325 0.518420 -0.393342 -0.110706 -0.330643 0.081336 -0.039869 -0.814236 -0.178743 1.031067 -0.001885 -0.032206 -0.056027 0.413024 0.636829 -0.077313 -0.374202 0.565471 0.019512 0.104694 0.075103 -0.045784 0.192058 -0.939264 -0.199559 0.513283 -0.468187 0.119409 0.133284 0.648748 -0.175572 0.111689 -0.193657 -0.084495 0.502038 0.512357 -0.518346 -0.168067 0.336311
