1000 128
556 0.246466 -0.0391888 0.0102767 0.159083 -0.0128926 -0.0293394 -0.0741711 0.100717 -0.0784873 0.0879768 -0.0165148 -0.00921121 0.168774 0.288856 0.100179 0.0579288 -0.204221 -0.0794577 -0.153899 -0.135484 0.16831 -0.092119 -0.214549 0.158742 0.131937 -0.329006 -0.055388 -0.106184 -0.0112944 0.135573 -0.0655013 0.080933 -0.238257 0.0423777 -0.184543 0.11621 -0.445815 0.0316781 0.266505 -5.35502e-05 0.204556 0.0411847 -0.251868 -0.322761 -0.050146 -0.207265 0.116635 -0.0614714 0.0374889 -0.0534042 0.125054 0.136283 0.189622 0.454895 0.473645 -0.0517821 0.063557 -0.107997 0.187905 -0.130969 0.0654879 -0.120459 0.184135 0.0219234 0.52812 -0.137341 -0.0600429 -0.0289447 -0.00333202 0.183472 0.153625 -0.0421216 -0.178394 0.237629 -0.0177123 -0.110703 -0.205798 -0.22881 0.28862 -0.209829 0.366416 -0.37745 -0.378098 -0.492841 -0.047506 -0.15105 -0.12309 0.750829 -0.365015 1.39762 0.746798 -0.233165 -0.0440819 -0.149454 0.274125 0.396241 0.259211 0.469286 0.282571 0.165483 -0.216479 0.287991 0.327991 0.23788 -0.169943 1.26767 0.936872 0.145393 -0.675773 0.705594 1.08036 0.111161 -0.0216373 -0.557117 -0.930011 0.322823 -0.0086064 -0.2143 -0.130788 -0.266589 -0.317569 -0.0830572 0.553089 1.04754 0.503313 -0.102752 -1.09447 0.270062
798 0.344299 -0.0143611 0.000831658 0.0834025 -0.334367 0.00603366 -0.0758214 0.181641 -0.151647 0.0925276 -0.139402 0.126631 0.176241 0.0620778 0.278389 -0.122294 -0.27345 -0.0557283 -0.0707567 -0.0598324 0.0879657 0.0853862 -0.308804 0.16793 0.208613 -0.379726 -0.0825782 0.0628597 0.130864 0.037603 0.15031 0.328816 -0.203223 -0.115155 0.102454 0.0509424 -0.0647683 0.178716 0.159416 -0.227579 0.124571 0.135172 -0.118024 -0.117424 -0.17612 -0.0908952 0.00965063 0.188823 0.102832 0.057721 0.0160239 -0.191579 0.189824 0.28615 0.374552 0.117553 0.430611 -0.151281 0.250901 -0.00614878 0.00911405 0.016262 0.0998643 0.0619132 0.342324 -0.0618 -0.039898 -0.254046 -0.120466 0.207204 0.294728 -0.038426 -0.21793 0.333916 -0.0391576 -0.173468 -0.224023 -0.138646 0.370879 -0.112698 0.504187 -0.433625 -0.382239 -0.492526 -0.145604 -0.359234 0.0121549 0.790417 -0.225024 1.46342 0.585665 -0.122082 -0.067411 -0.0784642 0.166241 0.246413 0.174884 0.36935 0.242811 -0.118125 -0.265495 0.309105 0.359952 0.131791 -0.157176 1.13608 0.993283 0.166095 -0.496177 0.752632 1.21634 0.0561541 0.197701 -0.339207 -0.747258 0.279857 0.353113 -0.225149 -0.0932256 -0.21706 -0.346538 -0.225773 0.778742 0.902026 0.61692 -0.0373877 -0.890743 0.269485
499 -0.157135 0.235057 0.120145 0.407235 -0.282332 -0.116816 -0.0794541 0.0126873 0.0603762 0.0224545 0.13497 0.242733 0.0829661 0.167796 0.336585 0.0435349 -0.195414 -0.0211673 -0.150262 0.00413792 0.112689 -0.00200003 -0.137292 -0.29501 0.0734495 -0.282871 -0.025195 0.283878 0.339741 0.248661 0.116598 0.265019 -0.147585 -0.109085 -0.0694499 0.0485224 -0.27046 0.225791 0.00518013 -0.412297 0.0597876 0.230456 -0.255898 -0.0211033 -0.158554 -0.126024 0.181164 0.0194002 0.178428 -0.160103 0.121257 0.111152 0.316194 0.253609 0.150948 -0.189976 -0.115222 0.0586795 0.323304 -0.280565 0.129992 -0.132742 -0.0267156 -0.0577688 0.414429 -0.123621 -0.0777398 0.170035 0.0084022 -0.0139214 0.235461 -0.0863704 -0.241945 -0.0158564 0.238833 -0.215766 -0.127739 -0.3391 0.361343 -0.0471812 0.477091 -0.265626 -0.408436 -0.386415 0.0846281 -0.108142 -0.0922829 0.818566 -0.14413 1.50352 0.579505 -0.0458648 -0.0566203 -0.101635 0.189582 0.194561 0.245094 0.499563 0.360415 0.0810858 -0.272346 0.355226 0.306421 0.0876517 -0.111094 1.2606 0.836085 0.403815 -0.598595 0.529559 1.25203 0.220647 0.0426743 -0.686663 -0.950686 0.175503 0.0502761 -0.306038 -0.315091 -0.149458 -0.264836 -0.192136 0.291367 0.832273 0.603131 -0.0243252 -0.790136 0.128087
854 0.252876 0.254958 -0.0871789 0.0635415 -0.0597308 -0.12143 -0.268373 0.244254 -0.185294 0.191548 0.0345285 0.108591 -0.0613951 0.267273 0.345759 -0.0864937 -0.155037 -0.360073 -0.0516744 0.15822 0.0168801 -0.111799 -0.298953 -0.00353022 0.271424 -0.200378 0.0963309 0.0984665 0.169782 0.276559 -0.18228 -0.00336467 -0.234518 -0.0099636 0.115124 -0.0506456 -0.147508 0.0602636 -0.00311353 -0.0639128 -0.130065 0.0512315 -0.153085 -0.219415 -0.135404 -0.128402 0.159684 0.236144 -0.0376614 0.0127761 -0.0946918 0.0684624 0.112982 0.418618 0.0147705 -0.150213 0.120611 -0.0885594 0.237761 -0.0790046 0.163811 -0.07321 0.0125569 0.020153 0.249922 -0.180608 0.0293889 0.205901 0.230593 0.239428 0.141273 -0.0601279 -0.0193541 0.194308 -0.0469801 -0.355416 -0.238171 -0.446958 0.421903 -0.0791336 0.374308 -0.221279 -0.257151 -0.357912 0.0687646 -0.202926 0.0266571 0.74961 -0.175406 1.34693 0.619604 -0.373579 -0.0964768 0.0717263 0.395568 0.354904 0.152652 0.429861 0.247602 -0.0280003 -0.174363 0.223974 0.331285 0.110834 -0.215716 1.21582 0.973814 0.106133 -0.764607 0.593221 1.05326 0.0854934 0.0839149 -0.688948 -0.924047 0.347915 0.406443 -0.134118 -0.236952 -0.286349 -0.322269 -0.12054 0.347464 1.0838 0.642808 -0.0622743 -0.908674 0.38054
814 0.202913 -0.148246 -0.0363892 0.148429 -0.250402 -0.0961122 -0.0532963 -0.010335 -0.0807242 -0.0875247 0.0257938 0.139374 0.0780368 0.447939 0.329616 -0.0353552 -0.0648311 -0.274129 -0.120558 0.227388 0.116412 0.0925349 -0.28574 -0.044098 0.124764 -0.297579 -0.0924782 0.12533 0.287328 0.14439 -0.138385 0.193943 -0.203603 -0.104356 0.202312 0.139681 0.0810369 0.134539 0.114049 -0.21915 0.199884 0.0615425 -0.294377 -0.0261349 -0.218089 -0.247327 0.297384 0.0745698 -0.0938666 0.0210149 0.191501 -0.0232869 0.254455 0.365723 0.171277 -0.233012 -0.201467 -0.0167001 0.141578 -0.216482 0.0904102 -0.105405 -0.0663728 0.0519944 0.417936 -0.241287 -0.0653279 -0.0481288 -0.243094 0.342465 0.186591 0.14808 -0.137358 0.262114 -0.138422 -0.183905 -0.347571 -0.382619 0.402854 0.0541897 0.388655 -0.14589 -0.391337 -0.284384 -0.057065 -0.382273 -0.170749 0.866592 -0.00330041 1.15113 0.669987 -0.137311 0.0026281 0.0440596 0.428625 0.231025 0.225108 0.387216 0.33579 -0.152948 -0.0465689 -0.0619988 0.126407 -0.0726585 -0.118608 1.33813 0.823933 0.33593 -0.547663 0.646409 1.14248 -0.0257524 0.133703 -0.556435 -0.760171 0.240863 0.120119 -0.188015 -0.341503 -0.307446 -0.431879 -0.285536 0.576507 0.913871 0.770364 -0.194715 -1.0256 -0.0251006
358 0.247518 0.0758831 0.0604081 0.186329 -0.230077 0.0725845 -0.0948393 -0.165691 -0.383369 0.00638126 0.120191 0.0511905 0.0574658 0.111733 0.341983 -0.141826 -0.120113 -0.239297 -0.202253 0.0820422 0.243973 -0.0700534 -0.145461 -0.128998 0.193319 -0.317885 -0.0869707 0.19635 0.265092 0.0170014 -0.123886 0.181353 -0.0945097 0.0958127 -0.0629021 -0.0506693 -0.258282 -0.0452514 -0.0959764 0.11612 -0.0356386 0.0966872 -0.229288 -0.193615 -0.141948 -0.113442 0.147579 0.0818064 0.184526 -0.00668575 0.0802594 0.074272 0.194949 0.315974 0.106956 -0.238029 0.133968 -0.014061 0.237946 -0.228355 0.0225199 -0.269986 0.0386439 -0.066398 0.289649 -0.218483 -0.221041 0.0720431 -0.0877989 0.0624102 0.382307 -0.0367665 -0.314089 0.237738 -0.0168463 -0.134338 -0.312813 -0.450875 0.332574 -0.115685 0.431831 -0.161849 -0.593051 -0.53645 0.10329 -0.369999 -0.0774296 0.817206 -0.0844316 1.52775 0.61118 -0.136644 0.0910273 -0.0120573 0.167162 0.0306945 0.258314 0.328461 0.396244 0.213544 -0.278097 0.153412 0.0648109 0.296006 -0.117736 1.18521 0.907601 0.346997 -0.518293 0.520875 1.35315 0.00128317 -0.000647567 -0.511325 -0.925749 0.236283 0.261057 -0.0396418 -0.304719 -0.148606 -0.393985 -0.452585 0.656606 0.939482 0.739128 -0.0605388 -0.944448 0.0889913
849 0.125346 0.0659828 -0.0378829 0.204893 -0.105185 0.0190806 -0.0189013 0.00938115 -0.204223 0.00852034 0.110798 0.260382 0.0393751 0.11026 0.469259 -0.0613769 -0.0659517 -0.225291 -0.16713 -0.104043 0.164093 0.104092 -0.169531 -0.0439346 0.167527 -0.407036 -0.0995304 0.193141 0.364394 0.0407753 -0.123363 0.225795 -0.01929 -0.0669603 0.0154501 0.285471 0.0400333 0.0721433 -0.0436144 0.0669302 0.135885 0.158275 -0.166696 -0.163191 -0.356273 0.227823 0.221973 -0.127903 0.182329 -0.11661 -0.00293211 -0.00404747 0.328706 0.379498 0.431557 -0.175831 0.0325983 -0.021557 0.264699 -0.136008 0.0332078 -0.325236 -0.0119537 -0.0304777 0.401738 -0.12873 -0.129175 -0.112915 -0.044965 0.017463 0.301088 -0.00844636 -0.275044 0.201166 0.0587778 -0.257347 -0.278492 -0.173282 0.336436 0.14648 0.466403 -0.30562 -0.356925 -0.180666 -0.168969 -0.0523505 -0.0856888 0.820196 -0.0177594 1.30801 0.674944 -0.0677905 0.0494128 0.0680708 0.0955848 0.12177 0.15885 0.383496 0.422074 0.0861827 -0.0505062 0.172504 0.0552188 0.174629 -0.0686593 1.22428 0.88422 0.425402 -0.626741 0.571217 1.34535 0.2884 0.0646953 -0.424636 -0.821782 0.242959 0.342303 -0.241283 -0.316029 -0.242023 -0.318099 -0.0953339 0.522102 1.12174 0.703342 -0.398561 -0.989477 -0.00708819
658 0.0557803 0.0324075 -0.0529432 -0.0686368 -0.114423 -0.113809 -0.146328 0.190589 0.153533 -0.0512891 0.145977 0.161967 -0.0764206 0.296475 0.229449 0.0633818 -0.192278 0.0300255 -0.0405489 0.0850967 0.310195 0.0248279 -0.267577 -0.0963488 -0.0026356 -0.280646 0.0784271 -0.0516108 0.174985 0.128969 -0.0220542 0.26947 -0.290181 0.11301 -0.0970059 -0.0568943 -0.323089 -0.106128 0.0692407 -0.10712 0.125181 0.0525787 -0.385517 -0.336284 -0.372755 -0.153235 0.229413 -0.00378244 0.0644626 -0.198794 0.00953972 -0.0726828 0.367498 0.388211 0.219383 -0.167701 0.022735 0.0926274 0.206428 -0.124583 0.32451 0.0691719 0.255147 -0.049136 0.207807 0.113672 -0.05637 0.138399 -0.2581 0.185634 0.16413 0.138154 0.0565238 0.303412 0.0192082 -0.119741 -0.17494 -0.30543 0.276995 -0.0942227 0.599766 -0.416594 -0.48517 -0.438241 -0.0852325 -0.198655 -0.141355 0.999081 -0.270236 1.18358 0.635845 -0.288782 0.136074 0.00858842 0.086513 0.0772374 0.143507 0.438169 0.362318 0.215514 -0.23336 0.137972 0.183194 0.0816723 -0.229128 1.26153 1.06193 0.153128 -0.593783 0.659943 1.06158 0.102304 0.116711 -0.576483 -0.948111 0.120073 0.391446 -0.454408 -0.00354811 -0.216224 -0.252153 -0.332888 0.424347 0.972521 0.629729 -0.227491 -1.01569 0.382085
749 0.150432 0.277351 0.13678 -0.050455 -0.0125564 -0.139521 0.0600503 0.100193 0.0462885 -0.0893956 0.123802 0.161097 -0.06068 0.130684 0.379287 -0.181711 -0.0802726 -0.0546631 -0.0775991 0.167215 0.107317 -0.13345 -0.21019 -0.129576 0.175755 -0.323684 -0.13091 0.00117305 0.104494 0.165579 0.0543723 0.13065 -0.0193442 0.0201569 -0.0912751 -0.0460875 -0.332888 0.194454 0.143566 -0.190439 0.0517546 0.171449 -0.131783 -0.226756 -0.3565 -0.237516 0.154096 -0.214154 0.0164827 -0.116238 -0.0276057 0.219631 0.19699 0.366053 0.213444 -0.138993 0.178497 -0.050215 0.252373 -0.180093 0.0147388 -0.110365 -0.0908205 -0.117361 0.396481 -0.113304 0.0834762 0.174959 -0.0089342 0.207431 0.419474 0.119336 -0.0873037 0.135521 -0.0651748 -0.14084 -0.290597 -0.370623 0.187271 -0.0326643 0.454928 -0.393959 -0.480269 -0.228476 0.0049898 -0.261301 -0.0618128 0.802292 -0.164364 1.38 0.536477 -0.100865 -0.0412801 -0.12323 0.609803 0.239153 0.223115 0.320492 0.356112 0.131725 -0.3248 0.234549 0.294983 0.044454 -0.0916866 1.24744 0.902203 0.3672 -0.359538 0.551349 1.03218 0.0519418 0.062029 -0.538291 -0.867445 0.248574 0.304771 -0.266849 -0.142757 -0.264914 -0.240502 -0.328737 0.540932 0.809065 0.699511 -0.261441 -1.01036 0.0383008
8 0.109454 0.0153128 0.176033 -0.103501 0.0418112 0.2749 -0.265768 0.0154059 -0.219989 -0.216304 -0.113023 0.332391 0.0529357 0.284755 0.663457 0.161022 -0.0234035 -0.437803 -0.045557 -0.125833 0.155605 0.0934926 -0.289259 -0.226656 0.142096 -0.0395819 0.0521412 0.13085 0.0534618 0.0694989 -0.111302 0.0916589 -0.198522 0.17387 0.118861 0.197835 -0.31401 0.0628171 -0.0727456 0.0464167 0.138411 0.255393 -0.0611103 -0.116617 -0.209869 -0.0857021 0.239132 0.160481 -0.0657985 0.0436975 -0.019949 0.131072 0.228199 0.204115 -0.0232829 -0.210155 0.0812891 0.0205178 0.107913 -0.0759976 -0.193912 -0.241652 -0.00428931 -0.0342708 0.258923 0.120754 -0.157097 -0.284133 -0.0957693 0.355769 0.121849 -0.0576841 -0.288135 0.537625 -0.091844 -0.37848 -0.315206 -0.192768 0.35531 -0.102459 0.653609 -0.263239 -0.38056 -0.319663 -0.106641 -0.201917 0.0498916 0.70517 -0.113512 1.45883 0.766061 -0.285728 0.0706877 0.0967454 0.320043 0.168332 0.187721 0.549499 0.139095 -0.0814218 0.0715041 0.143792 0.340809 0.160446 -0.305596 1.31755 0.963799 0.281837 -0.585273 0.56358 1.08923 0.132131 0.151922 -0.517398 -0.880521 0.325863 0.208446 -0.415212 -0.0250352 -0.22227 -0.257441 -0.202195 0.546458 1.05677 0.641021 -0.2845 -0.871617 0.101754
700 0.208969 0.200684 0.606363 0.150607 -0.25182 0.0380648 -0.334775 -0.0289649 0.0732503 0.123537 -0.0719256 0.192495 0.347459 -0.0264126 0.375655 0.0334689 -0.221769 -0.177005 -0.0210475 0.208421 0.238861 0.101427 -0.113196 0.011945 0.0975898 -0.392134 0.00534889 0.285867 0.178554 0.188198 -0.420691 0.262827 0.228522 0.0771182 0.0926231 -0.173563 -0.370148 0.0449183 0.334722 -0.0186979 -0.174745 0.019569 -0.259871 -0.105045 -0.250872 -0.13121 0.135892 0.176042 0.00905607 0.144042 -0.086277 0.200454 0.0791133 0.39057 0.13503 -0.32403 0.176829 -0.0178737 0.0933149 0.0441981 -0.0420229 -0.215042 -0.163413 -0.0526906 0.253027 -0.0619934 -0.298246 0.00341619 -0.0695996 0.122358 0.351519 0.192675 -0.132517 0.201148 -0.0049641 -0.0654423 -0.362384 -0.462574 0.402261 -0.120017 0.349618 -0.203428 -0.36634 -0.277589 -0.140995 -0.170339 -0.0854732 0.921349 -0.0266995 1.48717 0.452921 -0.17345 -0.0142657 0.0547039 0.326565 0.120512 0.260233 0.246351 0.295544 0.00687789 -0.0908811 0.36466 0.143741 0.221421 -0.0971015 1.3149 1.03613 0.54256 -0.514378 0.554023 1.07394 -0.0325344 0.137038 -0.244467 -0.791748 0.307093 0.433654 -0.116397 -0.105111 -0.3685 -0.384037 -0.375717 0.442961 0.821731 0.640068 -0.128554 -0.942206 0.174381
179 0.0593745 -0.00616314 0.178563 -0.0352464 -0.0173228 0.0422889 -0.294643 -0.0730677 -0.0983569 0.145583 0.0533804 0.154662 0.0986403 0.284498 0.325377 0.1339 -0.120731 -0.101794 0.0128366 -0.0492439 0.115963 0.101572 -0.118004 -0.0857931 0.217573 -0.388117 0.213218 0.0882154 0.216731 0.139929 -0.0937065 0.22441 -0.187775 0.049363 -0.00584838 0.140621 -0.0776608 -0.0474508 0.075893 0.118813 0.17978 -0.00693041 -0.118898 -0.0589359 -0.184802 -0.109015 0.231806 0.123011 0.115985 0.0926548 0.0745521 0.0662978 0.197697 0.404646 0.365221 -0.184229 0.0132702 -0.0404633 0.156857 -0.0803931 0.0367368 -0.105919 0.153191 0.0130907 0.387206 -0.185463 -0.00892807 0.0360891 -0.111444 0.10157 0.28112 0.0375391 -0.24614 0.351332 -0.125552 -0.145475 -0.156265 -0.301831 0.319443 -0.0335788 0.53121 -0.243301 -0.524205 -0.445674 -0.0296074 -0.47351 0.0881038 0.820093 -0.0893112 1.22262 0.7214 -0.229583 -0.0181493 0.0673528 0.318703 0.199302 0.128072 0.390637 0.336746 0.190616 -0.146858 0.246651 0.280346 0.210543 -0.163384 1.28911 0.959232 0.403579 -0.493629 0.5717 1.04923 0.0710949 0.0111168 -0.570992 -0.885496 0.31116 0.495858 -0.101239 -0.263559 -0.293078 -0.421271 -0.312455 0.583347 0.920432 0.77552 -0.0712613 -1.07109 0.212958
434 0.0906067 -0.0524738 0.196997 0.12722 -0.223122 -0.062793 0.0870598 0.0300777 -0.333094 0.0854739 0.254213 0.186031 -0.102765 0.122158 0.135308 0.0270965 -0.300828 0.0967606 0.0689495 0.0950455 0.171385 -0.0872703 -0.227403 -0.0988372 0.269217 -0.371405 -0.179589 0.0795894 0.286246 0.122299 -0.138661 0.0852889 -0.0702855 -0.0966378 -0.038039 -0.000658127 0.063822 0.0791439 0.16614 -0.131375 0.0396004 -0.093191 -0.321969 -0.326402 -0.280885 -0.16312 0.118446 -0.0341427 -0.13413 -0.0619557 0.00353715 0.0980633 0.097953 0.300704 0.366361 -0.178164 0.0251139 -0.192603 0.231148 -0.349634 -0.024347 -0.109662 0.0775272 0.0961192 0.0852945 -0.274423 -0.0804106 -0.0302503 -0.127833 0.010568 0.369051 0.216644 -0.249167 0.115979 -0.0579298 -0.31596 -0.179534 -0.397664 0.23866 -0.16188 0.400447 -0.208596 -0.476995 -0.28921 0.0452928 -0.297585 -0.0891232 0.848463 -0.14541 1.39651 0.546168 -0.129828 -0.0250607 -0.0448478 0.316488 0.330854 0.217344 0.435625 0.462531 0.18932 -0.0842968 0.401216 0.271887 0.183322 -0.218727 1.22105 1.21003 0.249283 -0.593359 0.7201 1.04121 0.210051 0.138237 -0.675476 -0.871815 0.413407 0.356524 -0.187511 -0.417874 -0.233817 -0.383707 -0.384835 0.439939 0.843349 0.698284 -0.030568 -1.12855 0.172798
530 0.267017 0.249261 0.0174499 -0.101985 -0.323739 0.0722695 -0.0966667 0.0270274 -0.123712 0.0651404 0.0949158 0.08324 0.0680592 0.118459 0.15126 -0.0431185 -0.0850505 -0.133403 0.0871257 0.224779 0.0522598 0.0200466 0.0186577 0.00211182 0.0763051 -0.21145 -0.0256674 0.371562 0.157253 0.256654 0.0566083 0.131892 -0.293695 -0.0131286 0.155366 -0.0895783 -0.191352 0.0455855 0.251546 -0.0502583 0.0610409 0.0357947 -0.12937 -0.376042 -0.236323 -0.150792 0.0995749 0.189835 0.286115 -0.0752356 -0.099732 0.0992876 0.18541 0.319464 0.0868919 -0.0811045 0.316059 0.00322218 0.1204 -0.371827 0.15366 -0.229305 0.122886 0.125383 0.312235 -0.122192 -0.0491334 -0.0389769 0.0139698 0.0342031 0.2687 0.0425792 -0.27642 0.177394 -0.175889 -0.388683 -0.331505 -0.33306 0.342643 0.115403 0.43862 -0.125401 -0.564199 -0.555684 -0.101272 -0.371476 -0.0435404 0.932618 -0.259697 1.22981 0.803768 -0.109754 -0.16856 -0.116234 0.442095 0.16261 0.0599676 0.438217 0.229457 0.128163 -0.347434 0.177134 0.242214 0.183201 -0.140435 1.20128 0.967248 0.49433 -0.519254 0.487207 1.15761 0.160333 0.0344886 -0.41388 -0.921632 0.384144 0.112481 -0.352442 -0.233285 -0.252227 -0.473825 -0.16274 0.451008 0.936962 0.607013 -0.332061 -0.832017 0.224886
682 0.0457024 0.0237423 -0.20141 0.0111041 -0.0746339 -0.245317 -0.302838 -0.0522939 -0.215069 0.133334 -0.0338661 -0.0702625 0.151486 0.165369 0.0855231 -0.0840013 -0.0894418 -0.00262153 -0.223124 -0.134557 0.2289 0.062187 -0.170929 -0.359939 0.055633 -0.206936 0.00764038 0.0506068 0.33904 0.0802767 -0.0993138 -0.0820034 -0.213031 0.232231 -0.091961 0.0640332 -0.230877 0.159661 0.0312447 0.0774245 0.205491 0.00850361 -0.370358 -0.225307 -0.249956 -0.181519 0.0932082 0.144936 0.163113 0.0459825 -0.195996 0.0418731 0.281045 0.50166 0.180866 0.0790326 0.121572 0.000850524 0.0913792 -0.0449244 -0.0374087 0.233854 0.193489 0.0570175 0.562163 0.00876497 0.0339828 -0.160936 -0.130449 0.427202 0.392988 0.10378 0.0457039 0.288677 -0.083323 -0.100563 -0.229611 -0.277167 0.514214 -0.18819 0.50301 -0.455466 -0.323197 -0.389467 -0.0426907 -0.202361 -0.0883867 0.553776 -0.0398084 1.29719 0.720078 -0.29705 -0.0333448 -0.128935 0.241987 0.322761 0.261907 0.195715 0.41837 -0.0252496 0.0573692 0.275321 0.194712 0.244801 -0.145163 1.27067 0.854872 0.29166 -0.632813 0.679215 0.970711 0.172358 -0.1076 -0.414962 -0.906849 0.105935 0.16819 -0.373709 0.0562367 -0.172737 -0.431944 -0.343542 0.429636 0.880857 0.754242 -0.067516 -0.809117 -0.0289334
919 -0.0405949 0.264692 0.125338 0.120704 0.226563 0.184033 0.132749 -0.0365752 -0.0880098 -0.0495227 0.218915 0.150156 -0.0304552 -0.0634958 -0.17743 -0.0623084 -0.0918221 0.0853841 -0.231983 0.0639719 0.101936 0.00817304 0.27358 0.193814 0.205911 -0.301415 -0.234174 0.0285834 0.122594 0.136869 -0.163312 0.0836872 0.0393043 0.0296326 0.183827 -0.207598 -0.186471 -0.278816 0.0632905 0.135915 -0.00470122 0.120694 0.231125 -0.0335496 -0.00572159 -0.144753 0.0598127 0.150112 0.294741 -0.175466 0.0929896 -0.126043 0.223836 0.138869 0.160547 -0.0558058 0.0317876 -0.113036 -0.20789 -0.214481 0.195641 -0.0200063 0.217469 0.08013 0.155278 -0.045227 -0.0443985 -0.312303 -0.183032 0.207585 0.154156 0.0463876 -0.141479 -0.0452399 -0.253566 -0.262903 -0.00654127 -0.147337 0.0598577 -0.0293608 0.292825 -0.0496693 -0.51906 -0.0420474 0.0171011 -0.283955 0.00521869 0.793552 0.208956 0.889707 0.669822 -0.0986728 -0.00866502 -0.148871 0.212834 0.658705 0.264751 0.471346 -0.23915 -0.161471 -0.0699858 0.212273 0.254598 -0.0964992 -0.116161 1.17912 0.64941 0.494829 -0.363101 0.926206 0.912677 -0.132589 -0.16504 -0.0707105 -0.873126 0.0749556 0.219882 -0.0694445 0.207784 -0.292955 -0.0329634 -0.456471 -0.0218534 0.862029 0.615854 0.234167 -0.696631 0.139223
532 0.0211982 0.0475897 0.0244709 0.206211 0.0124928 -0.178763 -0.12152 -0.085838 0.0228781 0.0950578 0.0869473 -0.21485 -0.15418 0.260058 0.125981 -0.302391 -0.0856695 0.0970315 0.208258 -0.0499486 -0.258284 -0.147664 0.0780972 -0.246081 -0.137467 -0.108751 -0.0560085 0.0397496 0.159678 0.0194264 -0.0963878 0.00347538 0.00272855 0.0184417 0.291602 0.0167559 -0.244719 -0.376526 -0.14282 0.134546 -0.00451973 -0.142217 -0.0153776 0.110882 0.329221 -0.0963799 0.253594 0.196967 0.0681249 -0.0446496 0.224599 -0.250361 0.192582 0.291669 0.134117 0.0896718 0.0595768 -0.301312 -0.0278863 -0.323403 0.0596632 -0.0720485 -0.0755518 -0.124397 0.015277 0.115098 -0.12865 -0.432148 -0.25385 0.146444 -0.0704897 0.000691221 -0.20963 -0.0751371 0.117549 -0.195405 -0.0349484 -0.134134 -0.144908 0.204104 0.227789 -0.0717413 -0.679436 0.0460833 -0.120075 -0.030687 -0.0672604 0.57013 0.192743 1.13686 0.851672 0.0349054 -0.0874675 -0.0585095 0.439267 0.57172 0.140298 0.457983 -0.0660584 -0.0404766 0.0394626 -0.0709049 0.178895 -0.00946559 -0.135304 1.13159 0.666819 0.545225 -0.559143 0.838782 0.973689 -0.0777116 0.0934206 -0.0611675 -0.716302 0.153914 0.444635 -0.15505 0.123538 -0.170033 -0.0286978 -0.374195 -0.0293183 0.95174 0.683306 0.0451564 -0.530968 0.241513
946 -0.158949 0.275286 0.0725111 0.014161 0.0522632 0.117029 -0.0377037 0.144164 0.0877126 0.325385 0.172283 -0.00860709 0.0418787 -0.0604336 0.058118 0.125945 -0.178896 0.178713 0.167027 0.0531063 -0.103728 0.0516008 0.123896 -0.0666243 -0.0215814 -0.297764 -0.154136 -0.202977 -0.0834127 0.0718515 0.0119034 0.0649541 0.150436 -0.0300673 0.0882248 -0.0538201 -0.0228658 -0.154338 -0.205772 0.423907 -0.199871 -0.0492668 -0.286036 -0.11755 0.0586193 -0.170296 -0.221685 0.12659 0.150375 0.0275202 0.101709 -0.0839443 0.0278616 0.0356422 0.167273 0.0205167 0.127968 -0.122048 0.0866679 -0.313072 0.195272 -0.0164887 -0.0759212 0.00722631 0.307395 0.162842 0.0168989 -0.180864 -0.11216 0.269116 0.0811475 0.144023 -0.413188 -0.105121 -0.121334 -0.0619564 0.172172 -0.110499 0.101505 0.279418 0.193577 0.10333 -0.656298 0.0746998 -0.200342 -0.188316 0.115344 0.759691 -0.0287131 1.29232 0.619338 0.00560395 -0.0736918 0.0196715 0.285679 0.382419 -0.0494929 0.38523 -0.0366414 -0.23467 -0.0552312 0.0581742 0.0272158 -0.0733561 -0.127858 1.03558 0.859485 0.450011 -0.409201 0.777612 0.66374 -0.290228 -0.0208597 -0.112298 -0.506096 0.32505 0.213288 0.0727769 0.2174 -0.244003 0.0669629 -0.66997 0.2379 0.912528 0.600809 0.166223 -0.38609 0.0386983
691 -0.150748 -0.0141939 0.00751415 0.0675697 -0.0105958 -0.186944 -0.106423 0.0906513 -0.134582 -0.00687037 0.0168742 -0.189068 -0.295595 0.0911084 0.0814141 -0.166368 -0.161291 0.113427 0.218693 -0.0840179 -0.296299 -0.091978 0.026014 0.0580491 -0.0442476 -0.309859 0.00491053 -0.00588909 0.193972 0.0323677 0.073795 0.119289 -0.0422443 -0.0472929 0.168922 0.134029 -0.163015 -0.416474 -0.0938644 0.360298 -0.0356789 -0.103605 0.00238245 0.00145378 0.0675606 -0.0456973 -0.0478717 0.442513 0.187299 0.00859146 0.235876 -0.0281843 0.114036 0.299348 0.00448981 0.167688 -0.0694103 -0.326122 -0.0936055 -0.329888 -0.144803 -0.225688 0.14837 0.0367902 0.000713911 0.27624 0.0153479 -0.22467 0.0175267 0.190539 0.12068 -0.155178 -0.299 -0.143995 0.0932426 -0.18092 0.030211 -0.295025 0.11324 0.325315 0.39908 0.0235215 -0.528972 0.246207 -0.235391 -0.186402 0.0629037 0.69665 0.0512327 1.13728 0.795064 0.0880553 -0.215974 -0.0884019 0.40077 0.606901 0.256363 0.411647 -0.234969 -0.225903 0.15527 -0.0719708 0.258046 -0.0827121 -0.243963 1.26955 0.556349 0.523316 -0.356007 1.08987 0.817455 -0.164514 0.158231 -0.125267 -0.567153 0.0758453 0.215737 -0.0236133 0.157097 -0.206529 -0.153167 -0.695693 0.203985 0.843335 0.749202 0.10506 -0.471875 0.0393146
934 0.0345185 0.000950219 0.0661593 0.246296 -0.0316597 0.0157449 0.097223 -0.0177791 0.0426135 -0.0442176 0.114911 -0.0378282 -0.118128 -0.0895916 0.0279413 -0.212985 -0.0719414 0.242893 0.199078 0.0920718 -0.142093 0.0628898 0.0300305 -0.00576645 -0.0571949 0.00112159 -0.0711789 -0.0891753 0.107066 0.102467 -0.156417 0.0104918 0.0641024 -0.0162156 0.0219648 -0.262327 -0.237623 0.100176 -0.128372 0.061814 -0.0259949 0.0593376 0.302825 -0.0881432 0.144552 -0.210091 -0.0177032 -0.0691739 0.24102 0.0226838 0.110675 -0.00835534 0.518505 0.188368 0.142583 0.291838 -0.0558497 -0.0500204 0.0308458 -0.349398 -0.272145 -0.0574662 -0.0497589 0.0396342 0.31867 0.209775 -0.133749 -0.245496 -0.104154 0.377404 0.25031 0.0593695 -0.191824 -0.211019 0.0124227 0.0912979 -0.117182 -0.110287 0.345092 0.181807 0.279297 0.0389128 -0.456242 0.181216 0.060698 -0.287065 -0.0749068 0.656873 0.0913682 1.2201 0.484632 0.153855 -0.181792 -0.132636 0.292192 0.223421 0.291269 0.429786 -0.163627 -0.116505 -0.159005 -0.0460856 0.156905 -0.00935565 -0.0418714 1.10945 0.396199 0.36366 -0.441046 0.964507 0.799961 -0.19578 0.0490141 -0.227357 -0.668954 0.131745 0.127326 -0.105293 0.269229 -0.208137 0.0204993 -0.594447 0.148169 0.924595 0.844433 0.295316 -0.669873 0.117673
576 0.0942915 0.0267768 -0.045647 0.110532 -0.0338715 0.226564 0.0623027 0.0126432 0.201363 0.162951 0.125023 -0.186647 -0.120553 0.0381298 0.106605 -0.0191057 -0.143884 0.0206251 0.126404 -0.161331 0.0154828 0.051177 0.0732776 -0.0963655 -0.0710274 -0.158202 0.0638726 -0.199031 0.115827 -0.296016 -0.252133 0.0687716 0.0379745 -0.116587 0.177402 -0.232715 0.0249136 -0.334505 -0.323865 0.303197 0.123409 -0.145467 0.084711 0.0832734 0.0443405 -0.251663 0.00353801 0.0606719 0.351469 0.0163582 0.030392 -0.124851 0.0142843 0.0916935 -0.264507 0.025913 -0.0234365 -0.198602 -0.224235 -0.257991 -0.0593747 0.0888478 0.0378491 0.0824394 0.208858 0.141256 0.186276 -0.0267485 -0.0194494 0.332541 0.122681 0.0998176 -0.266963 -0.442457 0.020273 -0.0815993 -0.0194636 -0.253849 0.215697 0.271238 0.346365 -0.0261906 -0.65092 0.0290305 0.138951 -0.274507 -0.169919 0.740061 0.13304 0.977757 0.705099 -0.114106 -0.124578 -0.210734 0.38781 0.598319 0.296 0.278787 -0.0576224 0.0599589 -0.0954305 0.163575 0.243162 -0.0642373 -0.0272705 1.24242 0.755195 0.609515 -0.311403 0.95953 0.628402 -0.072612 0.00966305 -0.271008 -0.504514 0.316525 0.209302 -0.129491 -0.0775656 -0.171111 0.106662 -0.54313 0.263359 0.922936 0.685146 0.193276 -0.409107 0.0885826
783 -0.158903 -0.161232 -0.0688119 0.173707 0.140618 0.106245 -0.0207158 -0.0558862 0.078543 0.355445 -0.066706 -0.144123 -0.0240737 0.228532 -0.293267 -0.0593071 -0.00582376 0.000944591 -0.0540579 0.100827 -0.139507 -0.0227956 -0.136757 0.0233262 -0.072849 -0.125495 0.091254 -0.254589 0.0290863 -0.0595692 -0.129547 0.148297 -0.0822886 -0.08793 0.12457 -0.0583673 -0.439401 -0.129773 0.0259815 0.0586927 0.0645282 0.0639825 0.352037 -0.0764973 0.214429 -0.182387 0.00682559 -0.334649 0.346463 0.0231509 -0.0972755 -0.0399941 0.189909 0.169251 0.124352 -0.072617 0.101033 -0.235572 -0.016474 -0.212599 -0.233474 -0.164258 0.112294 0.0191218 0.453638 0.150479 -0.0243728 -0.302503 -0.0633241 0.0307166 -0.0324485 0.0514396 -0.322154 -0.135464 0.0522979 -0.193798 -0.129622 -0.201812 0.0344704 0.124497 0.306442 0.076712 -0.825586 0.0394002 0.0708439 0.0323039 -0.137735 0.658704 0.21807 1.31723 0.700226 -0.0213149 -0.0902145 0.144332 0.267061 0.344635 0.326798 0.412353 0.0331604 0.0358402 -0.1405 -0.154496 0.18819 -0.119056 -0.0852692 1.01695 0.584512 0.472992 -0.558852 0.728982 0.8314 -0.186482 -0.0621034 -0.240644 -0.659539 0.476801 0.186322 -0.118603 0.121182 0.047229 0.176406 -0.609359 0.345994 0.805465 0.643869 -0.119058 -0.549042 0.255181
781 -0.0462369 -0.170286 0.0914182 0.106718 0.0225324 -0.0632943 0.188701 -0.0638114 0.187318 -0.0357398 0.113181 -0.14064 0.29875 0.186833 -0.39909 -0.140478 -0.226796 -0.0806214 -0.0111583 -0.130589 0.180356 -0.0788374 -0.160583 -0.206469 -0.108782 -0.0757475 0.110206 0.0680897 -0.138666 -0.0386979 -0.340142 0.0434388 -0.0411 0.149151 0.149371 -0.293316 -0.155177 -0.0409153 -0.061591 -0.161524 0.043206 0.142815 0.197633 0.0539113 0.0376737 -0.459019 -0.0597454 0.222677 0.00399509 0.0704087 -0.16991 0.0997526 0.25061 -0.00648864 0.11413 0.152976 0.00440774 -0.330007 0.0414582 -0.382387 -0.0829296 0.121292 0.0756609 0.163312 0.391285 -0.0798584 0.0427724 -0.246687 -0.156817 0.214813 -0.0162437 0.0665133 -0.241753 -0.0768721 -0.111239 0.0735328 0.0707887 -0.452045 0.112787 0.449272 0.375563 -0.0825997 -0.689869 0.107445 -0.0730439 -0.123625 -0.0566526 0.584351 0.0434384 1.26222 0.882291 0.156702 -0.195232 -0.197808 0.379762 0.18758 0.0143034 0.394799 -0.140694 -0.0627282 -0.038665 0.0654459 0.08236 0.0563555 0.0757295 0.948026 0.633446 0.256199 -0.473836 0.687035 0.869404 -0.140021 0.11224 -0.559857 -0.838505 0.182368 0.214447 -0.259973 0.262288 -0.223103 0.044989 -0.464112 0.211747 0.742616 0.700447 0.2764 -0.419177 0.13525
518 -0.271181 -0.0482558 0.0509783 0.165618 -0.0666593 0.189896 0.0148054 0.0117001 0.280815 -0.0482782 0.359645 -0.0876522 0.107186 -0.0989226 -0.191776 -0.0279716 -0.0419528 0.153893 0.121086 0.0437216 0.11779 -0.0682212 -0.225639 -0.13274 0.00334357 -0.184867 -0.034842 -0.229949 0.0343125 0.0268202 0.08843 0.0257283 -0.00874567 -0.0285964 0.0770319 -0.371867 0.00761771 -0.345519 -0.141189 -0.0111369 -0.0586029 0.0884782 0.223561 -0.138603 0.0412807 -0.374617 -0.101787 0.111568 0.221438 -0.0189944 0.00887352 -0.0936662 0.145232 0.0465718 0.267352 0.0226778 0.172931 -0.118169 0.165353 -0.236115 -0.146125 -0.162834 0.136985 -0.0071885 0.319539 -0.00783033 -0.0865399 -0.13583 0.0927886 0.1619 0.049605 -0.0109498 -0.155448 -0.103211 -0.0535183 -0.133858 0.0521912 -0.186297 0.00146104 0.175009 0.306143 -0.0129048 -0.782469 -0.0334473 -0.115049 -0.33457 -0.178619 0.546856 0.0458346 1.28895 0.73169 -0.0125987 0.0664048 -0.0396671 0.332412 0.304466 0.0676945 0.498783 -0.12538 0.224643 0.0532726 0.133857 0.161488 0.0694616 -0.0882419 1.14327 0.678582 0.59733 -0.452424 0.771686 0.853358 0.00706414 0.0704377 -0.365599 -0.669184 0.15822 0.15446 -0.0361583 0.521345 -0.00754473 0.164344 -0.285898 0.398237 0.771381 0.639286 0.100914 -0.656107 0.2262
840 -0.0525965 0.0378497 -0.142777 0.164076 0.0842316 -0.175085 0.100429 -0.081647 0.00809922 -0.0593753 0.392044 -0.0972929 -0.0955161 0.0572263 0.0187408 -0.115101 -0.0101015 0.210048 0.0788615 0.114662 -0.0532474 0.0144224 -0.101565 -0.214352 0.00398036 0.0714656 -0.107643 -0.0578915 0.10795 -0.0205022 -0.119958 -0.0157284 -0.118518 0.0131407 0.11079 -0.137402 -0.221857 -0.266121 -0.132347 0.128952 -0.173594 0.0868295 0.212232 0.0573508 -0.0671269 -0.0527699 0.104274 0.298862 0.154949 -0.12341 0.041067 -0.163577 0.0240833 0.242693 0.164811 -0.0359644 0.0318567 -0.0701163 -0.089304 -0.149807 -0.154461 -0.0670568 0.067609 0.0680752 0.179267 -0.00124424 -0.234191 -0.222419 -0.177942 0.173836 0.0185383 0.131494 -0.229306 -0.129283 -0.0243755 -0.135103 0.0311184 -0.208868 0.0919576 0.310279 0.258045 0.209866 -0.563058 0.0565072 -0.139296 -0.234053 0.0284678 0.553313 0.283722 1.30009 0.75289 -0.0684961 -0.159469 -0.249316 0.203521 0.418926 0.0647708 0.307895 0.00612473 0.00842395 -0.112844 -0.189336 0.0502547 -0.0604091 -0.233279 1.24696 0.643955 0.359402 -0.439658 0.900734 1.06749 -0.144776 -0.0283329 -0.304875 -0.531677 0.135408 0.122676 -0.126891 0.274234 -0.118788 0.0194235 -0.457596 0.339461 0.81663 0.721443 0.15769 -0.451817 0.0484482
888 0.0249621 -0.174279 0.040516 0.282139 0.188998 -0.0124935 0.242731 -0.114488 -0.0550305 0.209639 0.0621211 -0.0190764 -0.113781 -0.117419 0.0613374 -0.169977 -0.117028 0.0953241 0.0212011 -0.0472482 -0.0825625 -0.109812 -0.0762621 0.0484628 0.0118685 -0.152711 -0.0256186 -0.150371 -0.0517575 -0.190298 -0.112125 -0.163579 0.0476462 0.0729682 0.0131228 -0.034543 -0.145253 -0.0465224 -0.271221 0.152139 -0.0390959 -0.00413981 0.0877919 -0.201629 0.0381159 -0.0092156 0.0543568 0.027891 0.101894 0.0266185 0.204292 -0.155594 0.144277 0.069762 0.121112 -0.0835075 0.10201 -0.181241 0.061583 -0.305619 -0.315666 0.055321 0.142384 -0.0418158 0.294925 0.223778 -0.187766 -0.0728113 0.113869 0.372917 0.394968 0.0407101 -0.303623 -0.206503 -0.0381864 -0.257352 -0.0285791 -0.218364 -0.0753419 0.302596 0.477856 -0.0584824 -0.522748 0.0620346 0.0106589 -0.00968605 0.058098 0.740137 0.0059689 1.2347 0.8059 -0.0718642 -0.195434 -0.175348 0.208124 0.414549 0.0790937 0.353422 -0.192083 0.0777403 -0.0659989 -0.119808 -0.0139377 0.022083 -0.13158 1.22273 0.673111 0.450222 -0.468128 1.00808 0.688422 -0.271445 0.134961 -0.218719 -0.531316 0.197523 0.00287562 -0.0653314 0.267423 -0.211743 0.0635889 -0.619428 0.194983 0.678407 0.84495 0.168087 -0.496125 0.0649379
127 -0.326968 0.0789456 -0.100874 -0.23903 0.0632579 -0.00910902 0.120147 -0.159268 -0.0184468 0.0895065 0.101943 0.231567 0.10023 0.150726 -0.403702 0.0671832 0.0136018 -0.0248381 -0.271992 -0.0368807 0.298463 -0.13489 0.299128 -0.250803 -0.153598 0.325757 0.834254 0.330507 0.13746 0.2541 -0.255912 -0.116934 -0.19434 0.0945136 -0.384863 0.157099 0.103728 0.367004 0.124149 0.498244 -0.335685 -0.138662 -0.222121 -0.152607 0.298832 -0.244986 0.0469443 -0.405922 0.295102 -0.00158694 0.00800515 0.00204911 0.203828 0.191668 0.336727 0.200313 -0.0212448 -0.655511 0.179969 -0.679965 -0.155852 -0.212497 -0.285217 -0.138176 0.222728 -0.00126534 -0.00831085 -0.297144 -0.0428836 0.0794538 0.411958 0.514975 -0.206217 -0.267241 -0.54309 -0.535391 -0.25408 -0.473272 0.26557 0.324168 0.40714 -0.244347 -0.95345 -0.293306 0.120893 -0.318986 0.0545173 0.989211 0.210507 1.23559 0.691034 -0.261409 -0.0897248 -0.203825 0.353005 0.339012 -0.130998 0.269737 0.189579 0.300917 -0.404859 -0.0944943 0.0915983 0.204585 -0.0779255 1.59809 0.951954 0.763828 -1.08074 0.903577 1.46178 -0.0275809 -0.17518 -0.188186 -0.92507 0.363573 0.488896 0.0131288 0.462282 -0.499068 -0.0856777 -0.315979 0.430259 1.09437 1.08 0.255118 -0.344231 0.0417875
314 -0.421643 0.10667 0.0424537 -0.423091 0.00881205 0.158667 0.130543 0.0182813 0.00174168 0.250748 0.064753 0.439588 -0.233828 -0.0226065 -0.237705 0.362919 0.0563027 -0.19684 -0.31941 -0.111243 0.439357 -0.199446 0.240295 -0.211978 -0.102671 0.168523 0.788117 0.346921 -0.045195 0.274435 -0.336655 -0.258764 -0.165479 0.103954 -0.262911 0.0685429 -0.115537 0.200363 0.334039 0.500283 -0.225733 -0.0262582 -0.319071 -0.0830155 0.361762 -0.347058 0.127292 -0.237852 -0.00851813 -0.0228788 0.0122645 -0.133128 -0.130567 0.0952634 0.113119 0.0342462 0.0920957 -0.784215 0.22745 -0.599903 0.211543 -0.301106 -0.462931 0.0235748 0.258464 0.018152 0.108201 -0.239316 0.0716779 0.0483178 0.327792 0.482188 -0.452124 -0.0388855 -0.563057 -0.694399 -0.309452 -0.586005 0.414039 0.25768 0.191463 -0.11787 -0.868971 -0.349241 0.163473 -0.103758 0.0975859 1.02019 0.136242 1.20692 0.570941 -0.115443 -0.0213025 -0.268711 0.458145 0.223646 -0.113667 0.45456 0.255916 0.266935 -0.43154 -0.14744 0.303994 0.101891 -0.102222 1.38496 1.14639 0.846519 -0.836859 0.94455 1.2941 0.0543977 -0.240298 -0.345079 -0.91098 0.421346 0.49024 -0.0923411 0.482817 -0.384213 -0.180405 -0.242207 0.514982 1.27518 1.09602 0.317659 -0.285306 -0.0176209
286 -0.279391 0.0330837 -0.110371 -0.502513 0.0314963 0.216578 0.01566 0.00568792 0.156804 0.0330816 0.0619521 0.191729 -0.117705 0.169702 -0.330523 0.190689 -0.262206 -0.252587 -0.0640774 0.0672958 0.401573 -0.287838 0.159844 -0.250083 -0.0542138 0.378095 0.882815 0.304661 -0.0521147 0.264189 -0.41025 -0.265812 -0.206567 -0.073496 -0.37721 0.0897771 0.00257689 0.0954686 0.156324 0.449255 -0.214531 0.0555016 -0.241451 -0.130287 0.600112 -0.399007 -0.0431658 -0.247148 0.266187 -0.138361 0.177916 0.0410621 -0.0974997 0.252318 0.267434 -0.0121415 0.083766 -0.613628 0.0740947 -0.496812 0.108712 -0.202745 -0.408382 0.147587 0.257627 -0.11161 0.151373 -0.0531549 0.131804 -0.0785177 0.201814 0.426341 -0.420691 -0.134452 -0.350147 -0.612436 -0.477102 -0.471002 0.462549 0.27903 0.421659 -0.321361 -1.00666 -0.37146 0.111885 -0.0464796 -0.0577036 0.939604 0.358804 1.24499 0.425805 -0.0948713 -0.133445 -0.248022 0.399672 0.186666 -0.293518 0.505629 0.559546 0.427347 -0.361315 -0.144094 0.265396 0.283916 -0.0935405 1.44863 1.11759 0.822991 -0.989417 0.847721 1.34323 0.0505455 -0.116726 -0.217001 -0.924408 0.138462 0.0714703 -0.125515 0.376844 -0.452388 -0.273172 -0.295636 0.483272 1.21571 1.09527 0.231637 -0.339665 0.193678
480 -0.255942 0.0722888 -0.0531247 -0.308156 0.164576 -0.0664781 0.0837339 0.0361132 -0.0487254 -0.226199 0.137462 0.259445 -0.124926 0.284602 -0.485607 0.0965571 -0.0522741 0.0434089 -0.103031 -0.17162 0.453233 -0.287218 -0.0112263 -0.261808 0.0987506 0.357648 1.0094 0.230046 -0.0489438 0.199278 -0.146604 -0.189936 -0.148345 0.229661 -0.610947 -0.00149689 0.0908849 0.298605 0.185303 0.283652 -0.406592 -0.0571685 0.0762976 -0.00838684 0.409887 -0.130111 0.0893224 -0.557751 0.169139 -0.0300617 -0.0503787 -0.052124 0.128219 0.149442 0.201561 0.154412 0.125229 -0.612896 0.216881 -0.637107 0.0729303 -0.0711082 -0.414292 -0.11268 0.340691 0.0704162 3.44118e-05 -0.376863 -0.197007 -0.0935088 0.299647 0.443118 -0.370039 -0.064016 -0.569571 -0.497663 -0.356691 -0.459184 0.333787 0.413876 0.339798 -0.384319 -1.04661 -0.370771 0.217841 -0.322348 0.0114706 1.17746 0.234547 1.08425 0.552016 -0.2158 -0.209715 -0.318636 0.441937 0.211312 -0.0068331 0.530055 0.522534 0.453432 -0.337341 -0.127952 0.260521 0.297164 -0.158072 1.50892 0.955238 0.707242 -0.929528 0.790436 1.46843 0.317617 -0.291229 -0.307477 -0.880396 0.247251 0.561773 0.0953296 0.359178 -0.443631 -0.133388 -0.35196 0.634028 1.29935 1.04311 0.359859 -0.305343 0.072317
426 -0.12214 0.263033 0.128709 -0.131629 0.195917 0.176492 -0.163119 -0.0371146 -0.249615 -0.253594 0.0505812 0.559193 -0.406634 -0.00153935 -0.0840615 -0.0998599 -0.294953 0.285308 0.111387 -0.22705 0.50059 -0.386979 -0.201774 -0.209427 0.153314 -0.329772 0.537947 0.506238 0.148311 -0.264774 -0.174159 0.163163 -0.558502 0.0216585 -0.179668 -0.142417 -0.101845 0.0985751 -0.183194 0.144827 -0.230227 -0.0716476 -0.0323923 0.0568066 0.448571 -0.139579 0.210905 0.0746747 -0.219139 0.0648864 0.0204535 -0.0683131 0.123817 0.0293977 0.185948 0.206781 0.0632804 -0.437703 -0.154716 -0.271953 0.23328 0.0515768 -0.474127 0.0071991 0.335266 -0.00327491 -0.316474 -0.374138 0.159096 -0.0851184 0.000806963 0.234272 -0.300861 0.192875 -0.430909 -0.795237 -0.159158 -0.542412 0.376556 0.350036 0.38564 -0.75611 -0.688642 0.265204 0.41126 -0.28036 -0.0583927 0.953596 0.157085 1.62071 0.236792 -0.163952 -0.275003 -0.167685 0.48382 0.280612 0.204255 0.630641 0.181606 0.277255 -0.234054 0.1169 0.18896 0.377052 0.0330668 1.21882 0.572098 0.561153 -0.661124 0.712461 1.18938 -0.223865 -0.267426 -0.507676 -0.672558 0.402315 0.605717 -0.194277 0.263161 -0.175849 -0.0763428 -0.471347 0.724445 1.52652 1.09071 0.254564 -0.201339 0.167484
97 -0.0688029 0.1144 0.216018 -0.40614 0.168854 0.120259 0.0193675 0.00507691 -0.192408 -0.192897 -0.0297649 0.456815 -0.31025 0.293749 0.104002 -0.0802121 -0.362257 0.0675112 0.0436574 -0.271822 0.345596 -0.415874 -0.297134 -0.0875486 0.177606 -0.0965551 0.326839 0.322128 -0.0848909 -0.0960656 0.0240634 0.0168548 -0.443058 0.133179 -0.129797 -0.213149 -0.249163 -0.0328481 -0.140293 0.0359503 -0.165045 -0.0566235 -0.258249 0.262018 0.440742 -0.177962 0.270763 -0.0124986 -0.0911173 0.0805305 0.148178 0.263891 0.183971 -0.0745975 0.198873 0.0434617 0.100497 -0.402475 -0.0231802 -0.155546 0.378493 0.34835 0.126987 -0.00456351 0.394974 -0.0362893 -0.479254 -0.289335 -0.0559536 0.046544 -0.0610002 -0.00236853 -0.297786 0.0326307 -0.339866 -0.515035 -0.0448674 -0.747411 0.198849 0.366456 0.590005 -0.68457 -0.723371 0.238611 0.248618 -0.229171 -0.0529829 0.643693 0.0421591 1.57185 0.542253 -0.0806279 -0.365337 -0.209235 0.520118 0.168839 0.274565 0.799376 -0.0236533 -0.0687078 -0.260728 0.121663 0.119873 0.265526 0.0224595 1.12506 0.527336 0.359473 -0.510473 0.642456 1.23561 -0.156848 -0.191496 -0.474517 -0.900737 0.37738 0.507773 -0.149036 0.388293 -0.310613 0.115806 -0.557744 0.940369 1.23712 0.956605 0.4058 -0.334857 0.222185
686 -0.219316 0.0202208 -0.0769689 -0.36903 0.0979178 0.271051 -0.00724396 -0.227956 -0.245551 -0.315691 -0.0923131 0.575598 -0.224561 0.22869 0.251156 -0.137946 -0.295539 0.0549486 0.192097 -0.492628 0.156774 -0.171954 -0.312005 -0.331409 0.128048 -0.257953 0.138502 0.409118 -0.0263613 -0.331701 0.0892505 0.0223877 -0.395385 0.205089 -0.13788 -0.338724 -0.0465331 0.0539306 -0.257257 -0.216174 -0.214883 -0.0234638 -0.219599 0.38779 0.552514 -0.219864 0.368768 0.110007 -0.151731 -0.015035 0.141922 0.274802 0.0614337 -0.0863854 -0.0134981 -0.0148517 -0.0173901 -0.406637 -0.143005 -0.141912 0.200871 0.273743 0.0115415 -0.0781792 0.320313 0.0494687 -0.340237 -0.245772 0.147556 0.106934 0.0667519 0.145037 -0.496697 0.0588593 0.0662045 -0.581121 -0.280168 -0.672512 0.195948 0.509101 0.732805 -0.623998 -0.666887 0.123243 0.125484 -0.202985 -0.22184 0.925725 0.0563909 1.59532 0.382073 0.0140298 -0.345674 0.141846 0.48467 0.290405 0.0694151 0.986538 0.0473177 -0.060814 -0.174006 0.137087 0.224232 0.0894983 -0.202236 1.07845 0.635399 0.418489 -0.618949 0.624324 1.20078 -0.0793838 0.0787675 -0.305699 -0.788596 0.204539 0.489937 -0.195948 0.243274 -0.108918 0.000446729 -0.491263 0.688853 1.30494 1.01432 0.288585 -0.534378 0.146057
722 -0.412058 0.350871 0.110231 -0.472342 -0.0999467 0.299006 -0.138192 0.00544684 -0.176124 -0.0843376 0.128839 0.166658 -0.194711 0.119577 0.0149671 0.00764674 -0.475075 0.309128 0.299423 -0.277219 0.302749 -0.323867 -0.14994 -0.0450447 0.126572 -0.160218 0.211992 0.622281 0.10003 -0.247365 0.17731 0.130085 -0.22163 -0.00568307 0.00816315 -0.114982 -0.00714449 0.0937739 -0.160704 0.0437916 -0.241276 -0.104503 -0.250969 -0.0571874 0.37437 -0.050546 0.0378626 0.11508 0.0152589 -0.0370742 0.00853794 0.121719 0.103273 -0.0474698 0.274569 0.0303831 -0.0283041 -0.430606 -0.149958 -0.228962 0.402975 0.163874 -0.111073 -0.0623882 0.338069 0.0544221 -0.520717 -0.336617 0.133858 -0.144312 0.159298 0.279264 -0.359179 -0.195537 -0.336366 -0.67052 -0.00101355 -0.843852 0.289729 0.34543 0.434296 -0.682787 -0.543724 0.182489 0.157055 -0.324451 -0.236997 0.869419 0.0287034 1.52533 0.42688 -0.0878193 -0.392632 0.0658519 0.445185 0.195084 0.14252 0.546516 0.101066 0.340329 -0.339728 0.248451 0.164791 0.355313 -0.217791 1.11396 0.421163 0.364552 -0.385103 0.607892 1.35159 -0.227189 -0.0386817 -0.320223 -0.679774 0.209873 0.353429 -0.223939 0.222469 -0.118132 -0.143527 -0.432659 0.826941 1.1498 1.12602 0.264908 -0.219893 0.208615
621 -0.323453 0.269357 0.0366186 -0.27751 0.0992683 0.190095 -0.050707 -0.0246927 -0.144997 -0.0617361 0.077981 0.268234 -0.310152 0.387251 0.0281852 -0.153858 -0.392295 0.303334 0.154565 -0.523165 0.347998 -0.381388 -0.172284 -0.065129 0.0893207 -0.128421 0.306066 0.347972 0.0437124 -0.271555 0.111953 0.265967 -0.315261 0.281826 -0.11073 -0.309336 -0.178391 0.102426 -0.239839 -0.0980246 -0.197331 0.0483455 -0.268942 0.256132 0.498884 -0.0897726 0.256787 -0.056247 -0.204098 -0.113075 0.186198 0.332096 0.143092 0.102403 0.162809 -0.152693 -0.117369 -0.404099 -0.0669349 -0.202089 0.493906 0.105861 -0.0675099 0.0217477 0.426792 0.155158 -0.391761 -0.156636 0.0142613 0.0115175 0.180163 0.0503902 -0.432042 -0.116845 -0.0392098 -0.541973 -0.166406 -0.729655 0.19531 0.576178 0.628578 -0.680424 -0.585849 0.0653158 0.157713 -0.27701 -0.359045 0.800563 0.0089574 1.65708 0.506002 0.115287 -0.405878 -0.136732 0.537942 0.153875 0.125712 0.656891 0.0796111 0.0626595 -0.150239 0.177614 0.11039 0.177592 -0.05878 1.15573 0.597258 0.475938 -0.404859 0.736425 1.33925 -0.164144 -0.0773187 -0.309537 -0.862398 0.305247 0.298567 -0.167597 0.138575 -0.100677 -0.0763174 -0.573302 0.859483 1.11069 0.987974 0.51929 -0.344612 0.232914
571 -0.105275 0.158461 0.0382694 -0.196196 -0.0284229 0.287364 -0.116551 -0.0445395 -0.289697 -0.185073 0.138903 0.290899 -0.271254 0.198308 -0.0895927 -0.29772 -0.273398 0.165535 0.238269 -0.132564 0.309584 -0.467669 -0.186678 -0.286809 0.12661 -0.240038 0.136647 0.58042 0.21405 -0.357542 0.00529471 0.223178 -0.379344 0.192534 -0.0586653 -0.307693 -0.0158043 -0.0117189 -0.380839 -0.09973 -0.172409 0.00864877 -0.202447 0.244909 0.5757 0.0626472 0.298127 0.19904 -0.0537975 -0.078589 0.173444 0.202497 0.197928 0.143289 0.348343 -0.0123859 -0.113783 -0.337603 -0.157113 -0.282787 0.225278 0.239537 -0.225717 0.0566852 0.491785 -0.081094 -0.301606 -0.197716 0.0469214 -0.135839 0.103055 0.29398 -0.497223 -0.0238573 -0.0479585 -0.643038 -0.0465419 -0.630034 0.297447 0.247003 0.485603 -0.566916 -0.747733 0.00113452 0.0717895 -0.216726 -0.176073 0.840286 0.101748 1.4575 0.327278 0.124328 -0.290126 -0.0306583 0.453294 0.365073 0.11537 0.797661 -0.132889 0.302951 -0.321395 0.0759821 0.00529574 0.220377 -0.167687 1.22881 0.551893 0.621393 -0.77883 0.644729 1.44766 0.172524 -0.157965 -0.346164 -0.847239 0.437314 0.529556 -0.358816 0.409488 -0.153825 0.132285 -0.493433 0.636141 1.14826 0.930139 0.433643 -0.510543 0.139963
791 0.0995271 0.0482798 0.0508137 -0.0817577 0.159806 0.173696 -0.0950851 0.177962 -0.279568 -0.253243 0.203141 0.333257 -0.400404 0.094882 0.181855 0.0581837 -0.301993 0.226388 0.0437683 -0.3362 0.399451 -0.550018 -0.0462349 0.0544444 0.0803848 -0.380442 0.311048 0.428479 -0.214233 -0.41534 -0.145264 0.213009 -0.300207 0.168303 -0.0833721 -0.292954 -0.281201 -0.0615758 -0.363002 -0.000488355 -0.411757 0.046735 0.0591496 -0.0193455 0.587224 -0.0583175 0.208232 0.305518 -0.0912617 -0.0178631 0.0927677 0.132124 0.0189082 -0.1815 0.199889 -0.0480978 0.119339 -0.332036 -0.17865 -0.120584 0.344617 0.117628 -0.0712487 -0.16262 0.182152 -0.0228705 -0.519096 -0.282294 -0.00676527 0.0592 0.0976237 0.0625536 -0.4786 0.124821 -0.194664 -0.684146 -0.138449 -0.632544 0.324537 0.143563 0.384603 -0.555526 -0.472049 0.232248 0.171492 -0.23365 -0.0888344 0.742518 -0.0836752 1.69667 0.250372 -0.100647 -0.0975166 -0.000321851 0.634351 0.159739 0.354335 0.532654 0.328459 0.0626489 -0.122762 0.00280863 0.199499 0.386023 -0.0856187 1.17424 0.573741 0.594194 -0.628479 0.594927 1.06857 -0.123378 0.000306327 -0.25319 -0.83119 0.512134 0.406097 -0.218144 0.303247 -0.0241864 -0.0987148 -0.49378 0.835298 1.2315 0.907747 0.369297 -0.221148 0.401443
498 -0.0137184 0.216381 0.0860127 -0.206453 0.0200739 0.2958 -0.228037 -0.112277 -0.295289 -0.200438 0.223147 0.454855 -0.323678 0.236869 -0.0653434 -0.205009 -0.539184 0.0934941 0.0351589 -0.330857 0.179762 -0.371839 -0.0457721 -0.124028 0.116533 -0.233769 0.351401 0.437616 0.185369 -0.222573 -0.00948735 0.213274 -0.547832 0.112527 -0.151224 -0.328197 -0.125359 0.00817441 -0.133684 -0.101664 -0.249353 -0.0673515 -0.229089 0.312696 0.454821 -0.00157079 0.277373 -0.035917 -0.310696 -0.138472 0.161892 0.140082 0.146489 0.0638701 0.249653 -0.14042 -0.0823541 -0.327256 -0.177635 -0.209149 0.355422 0.250304 -0.199472 -0.217188 0.382412 0.0622898 -0.435788 -0.303374 0.102659 0.0126602 0.0237784 0.00925057 -0.466306 -0.278685 -0.212607 -0.669493 -0.0501944 -0.718774 0.192123 0.44955 0.539314 -0.55914 -0.611529 0.133251 0.292286 -0.340522 -0.251165 0.852604 -0.0972942 1.67468 0.388652 -0.0263104 -0.179769 0.0180155 0.484545 0.322002 0.161811 0.789389 0.0668261 0.185493 -0.203028 0.228411 0.277184 0.28083 -0.189823 1.20791 0.52173 0.594369 -0.682801 0.937592 1.30948 0.0539841 -0.114238 -0.414217 -0.812615 0.311388 0.52458 -0.234069 0.268953 -0.177061 -0.0762989 -0.469242 0.657304 0.959724 0.910027 0.311857 -0.371612 0.276654
646 -0.288464 0.237795 0.0311926 -0.0529415 0.0436801 0.091281 -0.200655 -0.082652 -0.163215 -0.236372 0.195372 0.500065 -0.147653 0.269454 0.186515 -0.142194 -0.538723 0.0292704 0.0781736 -0.449089 0.372306 -0.232552 -0.141837 -0.0642976 -0.0980576 -0.129611 0.311606 0.367376 0.12648 -0.270775 -0.0217758 0.190928 -0.262272 0.0419987 -0.130235 -0.144515 0.0459691 0.0564777 -0.241931 -0.0246244 -0.330383 -0.171837 -0.18188 0.0793852 0.41758 -0.188671 0.189657 -0.0656756 -0.0954001 -0.19472 0.0938821 0.283341 -0.146979 -0.040692 0.112389 -0.162034 -0.147467 -0.365492 -0.337828 -0.0355732 0.405424 0.180892 -0.100762 -0.097482 0.435473 0.136059 -0.371877 -0.19212 -0.124552 0.145712 0.0174551 0.199593 -0.469182 0.067924 -0.0857406 -0.734401 -0.113733 -0.566858 0.27134 0.433127 0.567582 -0.706347 -0.558767 0.297541 0.204974 -0.283849 -0.289861 0.760161 -0.013464 1.59076 0.367519 -0.0181526 -0.274772 -0.109461 0.61646 0.137701 0.200705 0.613617 0.0340057 0.204773 -0.277735 0.00621832 0.316257 0.339082 0.0770497 1.25594 0.634694 0.514909 -0.567735 0.848903 1.13839 0.0553639 -0.0396158 -0.422666 -0.613672 0.322749 0.264146 -0.308452 0.276787 -0.23391 -0.027536 -0.422246 0.881405 1.28941 1.04751 0.284922 -0.230485 0.106711
472 -0.367495 0.0344047 -0.0811628 -0.31597 0.0264281 0.0708901 -0.113418 -0.203383 -0.104326 -0.0889802 0.112074 0.212747 -0.0773057 0.142562 0.0366602 -0.0200489 -0.394171 0.246394 0.0110223 -0.437801 0.27821 -0.282271 -0.407025 -0.0931265 0.220394 -0.0188805 0.401706 0.486455 0.380077 -0.528701 0.0148833 0.121159 -0.303745 0.298475 -0.313854 -0.415728 -0.115879 0.0661424 -0.299587 -0.0915182 -0.0577793 -0.0270538 -0.0211843 0.0673987 0.234967 -0.264 0.194983 0.182622 -0.0660684 -0.172133 -0.124489 0.153702 0.407595 -0.0280167 0.0619836 -0.00496293 -0.210465 -0.386202 -0.254299 -0.042448 0.108788 0.0847219 0.0824619 -0.0627943 0.376941 0.0423103 -0.545568 -0.456654 0.0741109 -0.0207448 0.0887171 0.130706 -0.390587 0.0938586 -0.102137 -0.568871 -0.150915 -0.578145 0.22293 0.433906 0.349385 -0.54014 -0.65718 0.115363 -0.0553008 -0.148721 -0.364432 0.685863 0.180875 1.52022 0.38336 0.154733 -0.169884 0.0635696 0.480022 0.215438 0.100421 0.835678 0.195475 0.240175 -0.155991 0.103608 0.16212 0.111385 -0.13641 1.11945 0.604878 0.484403 -0.677456 0.584559 1.36196 0.0637098 -0.0121214 -0.56074 -0.887155 0.168988 0.414016 -0.282445 0.252793 0.00985882 -0.105749 -0.372356 0.687851 0.816164 0.892367 0.377769 -0.318303 0.197741
758 -0.22114 0.121991 -0.0602628 -0.191934 -0.0844399 0.168955 -0.0588069 -0.19025 -0.0452705 -0.247337 0.119895 0.360565 -0.180177 0.233821 -0.0846291 -0.202307 -0.22438 0.123836 0.0712462 -0.155603 0.336513 -0.418713 -0.192853 -0.369796 0.084423 -0.0259957 0.397102 0.395864 0.0969956 -0.396348 -0.0157312 0.105911 -0.440476 0.101378 -0.0831797 -0.294967 -0.201046 0.126829 -0.399741 0.0857957 -0.294062 -0.120004 -0.073407 0.232971 0.261686 0.0636891 0.26164 0.147559 -0.166555 -0.0375228 -0.056002 0.092329 0.313109 0.0920886 0.375323 -0.0464631 -0.0439122 -0.324799 0.0115147 -0.214136 0.419155 0.127981 -0.171397 -0.13313 0.353366 0.236937 -0.145175 -0.362107 -0.0142944 0.0310494 0.18745 0.270181 -0.303445 0.0514474 -0.109289 -0.833661 -0.0729388 -0.754195 0.226169 0.53167 0.587585 -0.467194 -0.509506 0.209284 0.057586 -0.220517 -0.234572 0.683573 0.0784823 1.6153 0.615064 6.71074e-05 -0.403441 -0.0577874 0.653329 0.109458 0.0373483 0.318589 0.0780783 0.0388342 -0.0935751 0.184581 -0.0135351 0.306241 -0.00529252 0.968125 0.558651 0.386444 -0.56615 0.636188 1.27207 -0.168238 0.00958703 -0.438687 -0.716943 0.424898 0.460301 -0.283313 0.137838 -0.23089 0.0762032 -0.352961 0.595492 1.32875 1.04456 0.380681 -0.287515 0.346686
660 -0.107711 0.334021 0.351981 -0.414004 -0.124308 0.124303 -0.159121 -0.0028289 -0.258186 -9.50706e-05 0.134521 0.486232 -0.271666 0.267309 0.0879758 -0.0670655 -0.498513 0.0265454 -0.204795 -0.114564 0.307257 -0.19061 -0.0698306 -0.119047 0.119323 -0.159575 0.24956 0.266211 -0.0291962 -0.173392 -0.0988568 0.0865221 -0.453285 0.151352 -0.128392 -0.30833 -0.33081 0.0400764 -0.264301 -0.111507 -0.244704 0.072781 -0.113563 0.271683 0.535216 -0.125925 0.275828 0.138589 -0.125474 -0.148919 0.0125816 0.149093 0.110436 -0.0759176 -0.0746833 -0.0136415 -0.113245 -0.437028 -0.187831 -0.016126 0.307183 0.276455 -0.286451 -0.0898689 0.278405 0.108592 -0.389932 -0.185227 0.059546 0.209583 0.203717 0.278056 -0.598536 -0.0186115 0.0393989 -0.602723 -0.241099 -0.389744 0.336694 0.358328 0.335234 -0.382273 -0.497823 0.129785 0.146329 -0.243063 -0.343876 0.892952 0.016849 1.58591 0.46457 -0.0893459 -0.221202 0.152304 0.680304 0.204527 0.130219 0.832649 0.0213745 0.173259 -0.121035 -0.127592 0.213 0.440182 -0.0511258 1.09626 0.645287 0.590301 -0.603402 0.638112 1.20031 -0.0650461 0.0722393 -0.288109 -0.762936 0.334879 0.476549 -0.251835 0.212366 -0.133919 0.0478917 -0.300939 0.725701 1.17976 1.02202 0.351421 -0.204993 0.284298
627 0.0281686 0.153382 0.179631 -0.273223 0.122597 0.228069 0.0386653 0.113183 -0.188862 -0.081495 0.0832604 0.440686 -0.286001 0.356282 -0.102094 -0.206277 -0.291106 0.237024 0.0263328 -0.406469 0.444557 -0.403007 -0.10213 -0.134293 -0.0366979 -0.117623 0.330832 0.466016 -0.0426132 -0.19364 -0.117046 -0.0109317 -0.272076 0.246375 -0.242259 -0.0692997 -0.175316 -0.222773 -0.149303 -0.1501 -0.0382808 0.0288095 -0.17309 0.246509 0.642026 -0.0187637 0.170464 -0.00600817 -0.227134 -0.267817 0.00135934 0.380336 0.130668 0.0190791 0.3707 -0.069776 -0.130929 -0.197238 -0.0866185 -0.286198 0.455317 0.189038 -0.156283 -0.0684612 0.482002 0.114848 -0.519169 -0.13552 -0.050104 0.120136 -0.0435246 0.349415 -0.339588 0.0292391 -0.127334 -0.524716 -0.0310344 -0.794564 0.225057 0.454832 0.5118 -0.535177 -0.573414 0.185174 0.063946 -0.267406 -0.216266 0.734571 -0.0380222 1.58363 0.413978 -0.0943128 -0.301854 -0.0335289 0.585163 0.0915385 0.153276 0.771822 0.0400132 0.169513 -0.266584 0.0365318 0.0169495 0.256871 -0.121497 1.17636 0.631336 0.498366 -0.413849 0.67664 1.28416 -0.0170995 -0.0447999 -0.440991 -0.757624 0.308122 0.508123 -0.386775 0.277511 -0.137118 0.0423063 -0.473914 0.671722 0.949571 0.820869 0.401566 -0.272976 0.418637
398 -0.276208 -0.00693007 0.0665108 -0.284009 0.0564311 -0.00127208 -0.141589 -0.105375 -0.269851 -0.12644 0.475514 0.179103 -0.380751 0.388848 0.145668 -0.194248 -0.355559 0.40752 0.168637 -0.523479 0.184928 -0.271018 -0.223807 -0.147728 0.101298 -0.125561 0.420121 0.377295 0.181713 -0.35716 0.101072 0.155498 -0.334996 0.324469 -0.213407 -0.231314 -0.134432 -0.257283 -0.283223 -0.272098 -0.179851 -0.0359209 -0.289534 0.445749 0.529533 -0.161848 0.108029 0.231452 -0.127712 0.0390699 0.158315 0.250354 0.204674 0.0363138 0.152637 -0.298277 -0.237973 -0.337858 -0.185927 0.0977333 0.0894243 0.219636 0.00339759 0.0821365 0.245251 0.23695 -0.432641 -0.257811 0.0150566 -0.0157545 0.0190464 -0.0312849 -0.565242 -0.135151 0.0797038 -0.647718 -0.319155 -0.584299 0.124952 0.431021 0.60297 -0.495953 -0.538556 0.182499 0.228234 -0.291513 -0.31873 0.904444 0.0696479 1.69894 0.418704 0.0104294 -0.303309 -0.0603931 0.4355 0.18347 0.0615529 0.952927 0.192044 0.396335 -0.0105038 0.136613 0.409716 0.378663 -0.103422 1.12889 0.567118 0.601582 -0.290433 0.561446 1.52986 -0.170928 0.0617736 -0.296511 -0.798653 0.31261 0.252484 -0.431303 0.102133 0.0139172 0.0170872 -0.379421 0.947289 1.12162 0.826731 0.350989 -0.233757 0.150098
713 -0.197786 0.253759 0.282636 -0.417507 0.143222 0.074866 -0.0534531 -0.289567 -0.478097 -0.173558 0.198451 0.440124 -0.531544 0.271832 -0.119719 -0.0470633 -0.382374 0.258386 -0.00784551 -0.569856 0.479541 -0.405859 -0.188265 -0.0328147 0.249266 -0.166142 0.293776 0.39959 0.263132 -0.377492 0.0217472 0.235483 -0.519255 0.147695 -0.0167848 -0.126288 -0.389355 -0.0648926 -0.240211 -0.0159051 -0.16664 -0.351544 -0.170183 0.126257 0.296141 -0.157219 0.321644 0.0448428 -0.0982847 -0.226693 -0.0896727 0.171631 0.11598 -0.104955 0.239994 -0.231869 0.0381686 -0.293309 -0.144727 -0.0474945 0.246165 0.118056 -0.151271 -0.166066 0.283607 -0.0793847 -0.358941 -0.261864 -0.0458987 0.141587 -0.0443376 0.30653 -0.345366 0.105047 -0.0139016 -0.514117 -0.0986404 -0.689961 0.266543 0.335475 0.625853 -0.562516 -0.463685 0.114813 0.167277 -0.266951 -0.0377536 0.677224 0.0198239 1.56624 0.57546 -0.0280298 -0.321733 -0.0765566 0.512938 0.268388 0.300885 0.568721 0.138232 0.0351242 -0.240179 0.315861 0.344967 0.304104 -0.0456961 1.21617 0.630323 0.397855 -0.64419 0.672322 1.2731 -0.240462 0.00161045 -0.403553 -0.777718 0.266519 0.26848 -0.297787 0.166527 -0.210207 -0.258973 -0.350351 0.70646 1.20273 0.89671 0.305175 -0.607293 0.403892
43 -0.14716 0.219501 0.0924626 -0.219257 -0.0747574 0.0126637 -0.147251 -0.190044 -0.319861 -0.193633 0.0896469 0.255885 -0.255639 0.125035 -0.189895 -0.134173 -0.39951 0.254146 0.0286094 -0.13121 0.263454 -0.520032 -0.124257 -0.0561883 0.14098 -0.338429 0.146751 0.409021 0.239235 -0.342982 -0.0294781 0.0990743 -0.42989 0.0845253 -0.22329 -0.265511 -0.0836584 0.0309523 -0.307842 -0.0208663 -0.145988 -0.11137 -0.0859228 0.184537 0.505495 -0.120273 0.313426 0.383331 -0.0523257 -0.0748889 0.0473084 0.241454 0.225002 0.0653632 0.208677 -0.026722 -0.130672 -0.506846 -0.146638 -0.16097 0.298549 0.137883 -0.106859 -0.0847156 0.343125 -0.0849066 -0.292455 -0.329178 -0.11008 -0.0629392 0.125639 0.258072 -0.440458 0.173833 -0.0596373 -0.664575 -0.0544983 -0.55966 0.302349 0.360828 0.620793 -0.593179 -0.591109 -0.048937 0.174864 -0.195631 -0.227933 0.788881 0.0159232 1.79201 0.45146 0.071172 -0.307843 -0.0290009 0.622149 0.0473932 0.158053 0.904368 0.067827 0.147853 -0.12672 0.0715217 0.167656 0.334542 -0.168071 1.27724 0.451896 0.550543 -0.634425 0.593563 1.37772 0.00765528 -0.127938 -0.536 -0.790403 0.418497 0.668266 -0.405117 0.218855 -0.0484008 0.0576356 -0.509673 0.750715 0.973963 0.957612 0.364388 -0.437025 0.264077
630 -0.204096 0.227653 0.264629 -0.093784 0.027084 0.149972 -0.184012 -0.215558 -0.299317 -0.329775 0.307062 0.321307 -0.221326 0.423172 -0.149698 -0.163765 -0.321891 0.298453 0.0221576 -0.423765 0.318006 -0.46146 -0.303574 -0.15867 0.159541 -0.156348 0.187824 0.397316 0.270939 -0.390869 0.122671 0.252694 -0.218396 0.211505 -0.344625 -0.222339 -0.0949949 0.199962 -0.296638 -0.134665 -0.210889 0.0835452 -0.181687 0.0152792 0.167647 0.143447 0.247124 0.0152137 0.0215212 -0.117976 -0.0141566 0.175559 0.116666 0.221916 0.00926529 0.00575206 -0.0594566 -0.239432 -0.024548 -0.280739 0.246077 0.268208 0.0614748 0.092996 0.280544 0.0598733 -0.404231 -0.321736 -0.134555 -0.15412 0.18875 0.20391 -0.539104 -0.0932218 -0.0356083 -0.798985 -0.0102815 -0.507121 0.126308 0.0781403 0.490194 -0.659456 -0.464263 0.00963868 0.188868 -0.252062 -0.215943 0.914154 -0.0225227 1.73458 0.618902 0.0852241 -0.332015 -0.0587913 0.596875 0.377923 0.27374 0.81254 0.059371 0.215472 -0.193574 0.0696721 0.23415 0.509358 -0.0806328 1.05587 0.492258 0.642208 -0.588454 0.562111 1.35614 -0.148138 0.0355543 -0.469642 -0.741181 0.398895 0.349312 -0.118772 0.179808 -0.0833052 0.119747 -0.465053 0.836843 1.1087 0.832377 0.33878 -0.273537 0.433192
882 -0.0125835 -0.406682 0.0920762 -0.113009 0.0163731 -0.295545 -0.0362717 0.23021 0.0994589 -0.329567 0.0515349 -0.0574633 -0.246708 0.37343 0.127162 -0.111596 -0.196105 0.0807426 0.134443 0.0285163 0.12179 -0.109919 -0.200913 0.112006 0.0665914 -0.267355 0.386762 -0.0115812 -0.218574 -0.16633 -0.372092 0.246624 0.146853 0.02812 0.0706689 -0.0586459 -0.239261 0.0102129 0.0031913 0.116789 0.0661712 0.191914 0.0877731 -0.291582 0.0169769 -0.0492717 -0.158629 -0.0921482 0.037875 -0.315745 -0.030566 0.191194 0.272962 0.155101 0.10932 0.0907739 0.253891 -0.173169 -0.0650284 -0.137467 0.0163364 0.00591167 0.110984 -0.0215133 -0.0207283 -0.224751 -0.38839 0.194377 -0.0977729 0.0655093 0.233181 0.201325 -0.255976 -0.21212 -0.221057 -0.0478773 -0.267527 -0.463439 0.0322624 0.203397 0.618776 -0.543387 -0.217578 0.0321594 0.0824753 -0.0443346 -0.0263931 0.551886 -0.211627 1.27938 0.502575 0.0154035 -0.23251 -0.412248 0.74743 -0.0947072 0.0941366 0.826621 0.364631 -0.290133 -0.137599 -0.185792 0.0476393 0.213657 0.303309 0.831887 0.767423 0.607656 -0.355545 1.15428 0.862811 -0.193108 -0.146922 -0.00955895 -0.76595 0.365833 0.254178 0.00343648 0.290918 -0.328954 -0.457965 -0.341363 0.434083 0.871554 0.611754 0.0803777 -0.947888 -0.172456
19 -0.0833568 -0.466481 0.115464 -0.00367001 -0.170652 0.034412 -0.0809539 0.0251192 0.11801 -0.207142 -0.0685089 0.252267 -0.0992184 0.0988032 0.127839 -0.318533 -0.10015 0.00595828 0.220805 -0.427287 0.0763574 -0.0486822 -0.119996 -0.0550831 -0.141974 -0.0733442 0.0577841 0.0120505 -0.1445 0.123236 -0.280335 0.0109112 -0.00798089 -0.0183664 0.0634973 -0.000312958 -0.261999 0.0437776 -0.154501 0.182852 0.027793 0.241488 0.176115 -0.163505 -0.0278593 0.0799694 0.136212 -0.0114528 0.0848588 -0.295309 0.197722 0.391161 -0.0154598 0.0902641 0.0587508 -0.202566 0.258052 -0.358212 -0.011648 -0.0799882 0.0221867 0.000800673 -0.0786231 -0.0584408 -0.0803977 -0.408473 -0.614026 -0.0885348 0.0858217 0.0737604 -0.138746 0.0999518 -0.357736 -0.243663 -0.294096 0.0844078 -0.205049 -0.255543 0.0185083 0.204146 0.568976 -0.21076 -0.38094 -0.182758 0.149551 -0.187821 -0.069578 0.55427 -0.118775 1.25997 0.70175 0.0795555 -0.142224 -0.187881 0.54081 0.160719 0.300754 0.825115 0.172164 -0.108696 -0.0880385 -0.0303163 -0.0121908 0.287826 0.177366 0.832031 0.71034 0.655057 -0.686152 1.00726 1.02727 -0.0982578 -0.0447593 0.0252683 -0.598118 0.428762 0.451526 -0.0416454 0.197168 -0.192416 -0.177021 -0.319339 0.172286 1.0966 0.708737 0.00947683 -0.967088 0.0751645
903 -0.111931 -0.261192 0.142199 0.00572845 -0.173776 -0.124807 -0.186202 -0.090253 0.3332 -0.405619 -0.18455 0.21214 -0.0168289 0.0865295 0.459857 -0.0469733 0.0794948 0.0695849 0.140758 0.125286 0.201158 0.098821 -0.0117708 -0.258302 0.00903083 0.143431 0.213108 0.160374 0.0313571 -0.0298477 -0.390717 -0.257496 -0.0474909 0.103267 0.266112 0.222869 -0.142611 0.0592433 -0.0997492 0.381215 0.0490103 0.149463 0.263604 -0.173825 -0.0810802 0.0209312 0.100715 0.248465 0.146993 -0.348192 0.377633 0.143751 -0.0376125 -0.161995 -0.0977128 -0.176069 0.342857 -0.106413 0.178586 -0.0913343 0.01522 -0.0205636 0.0839399 -0.216473 -0.146487 -0.221637 -0.471601 -0.136817 0.181403 0.0298254 -0.088685 0.23014 -0.463866 -0.0774289 -0.318125 -0.0355376 -0.214983 -0.288149 0.134349 0.223135 0.604559 -0.23578 -0.152353 -0.248651 0.0972776 -0.0624002 0.148641 0.51372 -0.110322 1.19103 0.525786 -0.0405683 -0.0840102 -0.103597 0.307517 0.00514434 0.315434 0.807839 0.213435 -0.184506 -0.0256304 0.0814837 0.125982 0.134569 0.0922019 1.07047 0.646219 0.539383 -0.660465 0.921779 1.01298 -0.191194 0.0259711 0.119784 -0.675511 0.307928 0.324446 -0.0871872 0.177837 -0.333362 -0.365343 -0.343503 0.379966 1.10998 0.558813 -0.13119 -0.813219 -0.149251
889 0.194057 -0.197756 -0.0156863 -0.0142291 -0.251358 -0.176131 -0.201295 0.036162 0.0165699 -0.0937045 0.0261697 -0.132601 0.14618 0.134598 0.079514 -0.201676 -0.150756 0.0211383 -0.0349115 -0.31571 -0.058931 -0.0766915 0.0585354 0.0225645 -0.184164 -0.172881 0.215888 0.0819397 0.103652 0.129486 -0.183627 0.0107415 0.146798 -0.190411 0.290707 -0.0442617 -0.238628 0.129283 0.0401635 0.1133 -0.0176602 0.0077379 0.0427053 -0.280494 0.00975695 -0.219719 0.00409431 -0.0885991 0.173541 -0.373213 0.0386358 0.251484 0.0299619 0.206889 0.0409812 -0.138319 0.196329 -0.193189 -0.0386349 -0.10102 -0.0264705 0.033643 -0.00217978 0.100064 -0.0921138 -0.340501 -0.267328 -0.253222 0.0637102 -0.0706044 -0.0771387 0.185015 -0.251776 -0.242293 -0.401226 0.0930799 -0.0715357 -0.328862 0.193149 0.138779 0.409142 -0.419153 -0.248616 -0.175083 0.22312 -0.205951 -0.0711393 0.629392 -0.0925747 1.19499 0.403644 0.190912 0.211906 -0.394503 0.412188 -0.00991848 0.278478 0.551567 0.153551 -0.284884 -0.105038 0.022544 -0.124339 0.137675 0.368946 0.799473 0.564677 0.491102 -0.870691 1.15185 1.14997 -0.178959 -0.235091 -0.033651 -0.50101 0.433302 0.0965993 -0.247908 0.216164 -0.205103 -0.522325 -0.420063 0.380169 0.81967 0.598818 0.0644372 -0.856908 0.00176001
592 -0.155393 -0.305837 0.0439815 0.236422 -0.0163117 -0.0817813 0.0758916 0.156633 0.0771275 0.00310608 0.0854892 -0.257414 -0.0297686 0.293096 0.140298 -0.2226 -0.0651595 0.282841 0.0438546 -0.0932943 0.00468861 -0.1076 -0.0451599 -0.188209 0.186213 -0.0605728 0.185323 -0.0731813 -0.127924 -0.0609254 -0.061531 0.0390776 -0.0369762 0.114838 0.0312785 0.134224 -0.168798 0.217623 -0.0864946 -0.226477 0.308689 0.202196 0.206631 -0.129502 0.123172 -0.0186595 -0.0846516 0.130089 0.318867 -0.0856951 0.125169 0.40913 -0.0575115 0.255092 0.00154569 -0.383248 0.243812 -0.0276847 0.0790021 -0.102998 0.032876 -0.0705338 -0.0384824 0.145162 0.000793878 -0.373069 -0.409265 -0.0411234 0.131509 -0.257385 -0.025146 0.233669 -0.326875 -0.185623 -0.392822 -0.0839282 -0.159003 -0.426206 0.0812936 0.0554033 0.561556 -0.236674 -0.427421 -0.123026 0.0741989 0.0152143 -0.0023592 0.658561 -0.26899 1.34774 0.296867 0.0469781 0.028832 -0.298753 0.54294 0.261698 0.339388 0.698579 0.331254 0.234765 -0.0735988 0.123544 -0.0469886 0.0948788 0.275598 1.06657 0.53676 0.450112 -0.598116 1.14203 0.944945 -0.236271 -0.126213 0.00495304 -0.560767 0.624766 -0.0250467 0.00240277 0.0311955 -0.212266 -0.144093 -0.405453 0.39452 0.894553 0.298454 0.0601737 -0.764615 -0.132284
881 -0.15009 -0.187717 -0.302147 -0.0442922 -0.132695 -0.0820804 0.0572274 -0.0346948 0.0623506 -0.0797951 0.0406295 -0.0124845 0.0288317 0.153026 0.334989 -0.118219 -0.0128517 0.150232 -0.0780936 -0.173999 0.20211 -0.119987 -0.0329215 -0.12985 -0.0469128 -0.0292639 0.354992 -0.180545 0.33365 -0.0912838 -0.285752 -0.252858 -0.0650992 0.0456296 0.267472 -0.0666148 0.0560997 0.0506833 0.0268541 0.0709154 0.0561713 0.121898 0.151181 -0.244064 0.075295 0.014106 0.0797963 0.0233442 0.183118 -0.258422 0.161929 0.0642068 -0.162169 0.27157 0.33195 -0.141618 0.307265 -0.20687 0.257632 -0.0665127 0.136091 0.0754647 0.282599 -0.0303218 -0.0115542 -0.268046 -0.260417 0.185256 0.173897 -0.131059 0.00696849 0.113431 -0.424308 -0.307478 -0.26017 0.0192058 -0.087693 -0.369512 0.126465 0.224171 0.492725 -0.324676 -0.332627 -0.172655 0.226757 -0.285814 0.104317 0.584333 -0.269354 1.13323 0.603951 -0.0638483 0.00543603 -0.229964 0.317993 -0.0397858 0.11465 0.889268 0.232605 -0.113883 -0.0733303 0.197768 0.0657873 0.0450035 0.314941 0.878594 0.599322 0.691702 -0.673421 1.05192 1.15875 -0.138359 -0.087033 0.041256 -0.667884 0.466879 0.197223 -0.0641727 0.204287 -0.356809 -0.255029 -0.286181 0.341878 1.03826 0.536437 0.0268999 -0.949082 -0.119913
258 0.220312 -0.0480969 -0.303141 -0.187318 -0.0737499 0.0220013 -0.0712572 0.207989 -0.0784739 -0.0271015 -0.121758 0.055684 -0.0124424 -0.0837545 0.172566 0.135445 -0.266995 0.08558 0.182643 -0.203106 -0.12167 -0.0256341 0.029966 0.111149 0.0842009 -0.0352268 0.00714592 -0.226155 -0.331053 0.0997169 0.194289 0.160991 0.127528 -0.357602 0.225112 -0.162833 -0.21924 0.108407 -0.128404 -0.14393 0.0336948 0.188965 0.261415 -0.168184 0.167745 -0.102442 0.00564115 0.379445 0.00545234 -0.0251751 0.00130221 0.163661 -0.0485222 -0.232584 0.079752 -0.316631 -0.0434484 -0.202382 0.0613532 -0.355657 0.222657 -0.00708433 -0.318358 0.186247 0.0754679 -0.159451 -0.13392 0.0577731 -0.257416 0.0653909 -0.279581 -0.0890875 -0.124046 -0.0958114 -0.0321316 -0.347921 0.155415 -0.639106 0.270835 -0.243453 0.499567 -0.405921 -0.270017 -0.288267 0.224859 -0.171262 0.0010457 0.512172 0.244541 1.16025 0.333542 0.263313 -0.0920001 -0.45843 0.208117 0.475353 0.297497 0.499758 -0.0535212 -0.0641462 -0.0456425 0.186486 0.180869 0.0568817 -0.100883 1.09349 0.924006 0.537245 -0.418117 0.480731 0.65909 -0.0267602 -0.0409061 -0.134205 -0.62525 0.426503 0.362387 -0.208107 0.241082 -0.176414 -0.130653 -0.55329 0.63244 0.88491 0.662794 -0.102638 -0.79371 0.273588
969 0.165842 -0.223556 0.0358191 -0.207105 0.0276022 -0.0976534 0.0122821 0.12194 -0.0404498 0.0421628 0.0744293 0.0731469 0.0579399 -0.039931 0.131536 0.0148871 -0.024175 -0.0972807 0.139088 -0.164895 -0.129435 -0.0130699 -0.0851328 0.0758342 0.090939 -0.137514 0.176472 -0.123189 -0.128012 -0.0805976 0.0122428 0.205061 0.00389924 -0.218943 -0.0181997 -0.0365748 0.123689 0.170062 -0.109315 0.133005 -0.104502 0.132448 0.175933 -0.189343 0.140641 0.0604124 -0.0178906 0.0336195 0.099323 -0.199864 -0.201249 0.0557735 0.134655 0.11238 0.0328218 -0.176586 -0.165069 0.130072 0.0232111 -0.0784288 0.10487 -0.0827237 -0.303484 0.0744256 -0.0943868 -0.11886 -0.109693 -0.0364171 -0.0224615 -0.0504479 -0.133025 -0.0765957 -0.107875 0.00611674 -0.119274 -0.42321 0.0125245 -0.495131 0.17151 -0.151746 0.178655 -0.242317 -0.330428 -0.337119 0.237325 -0.0943669 0.209826 0.597556 0.211447 1.42944 0.359841 0.39796 -0.0530783 -0.158171 0.0878533 0.271857 0.0921089 0.299903 0.137608 -0.0196168 0.0402726 -0.0573947 0.137096 0.146501 -0.149284 1.06306 0.831899 0.323502 -0.230507 0.702139 0.555054 -0.33204 -0.152142 -0.0743711 -0.417018 0.222487 0.119078 -0.196356 0.17338 0.0709418 -0.15659 -0.374793 0.63014 0.894001 0.931041 -0.284694 -0.623733 0.295483
940 -0.0717772 -0.0462897 -0.0429923 0.0814261 -0.0436258 -0.022401 -0.150727 0.048956 0.088781 -0.292084 -0.0552732 0.0601481 0.0490146 0.0699041 0.0490067 -0.302146 -0.0115056 0.0582479 0.148454 -0.155002 0.0551456 0.141044 0.0404932 -0.0142587 0.0256779 0.124232 0.0422252 0.00190466 -0.0263279 0.0714488 0.0592801 -0.0119749 -0.150199 -0.331387 0.126874 0.0626904 0.0990582 0.0323586 0.00266741 -0.221979 0.0348551 -0.044223 -0.127445 0.113368 0.0235856 0.325711 0.234003 -0.0179164 0.157074 -0.253621 0.0142451 0.295163 0.0248565 0.0155684 0.192303 -0.136794 -0.260678 -0.0328496 0.149137 -0.227133 0.176017 -0.0904391 -0.313486 -0.0162154 0.141101 0.0732934 0.0232569 0.0758291 -0.046998 -0.056059 -0.164257 0.0862547 0.226682 -0.270707 -0.0620891 -0.352658 -0.0925723 -0.543096 0.0640951 -0.0954283 0.33452 -0.404739 -0.446434 -0.32908 0.057848 0.10336 0.0160258 0.539234 0.203358 1.17328 0.472873 0.289091 -0.124396 -0.135895 0.0398115 0.386486 0.160379 0.28824 0.153145 0.185836 -0.138102 -0.14953 0.117183 0.237152 -0.184334 1.30629 0.547135 0.291223 -0.355345 0.48539 0.738031 -0.518059 -0.13039 -0.110665 -0.708985 0.0929414 0.125936 -0.274125 0.39634 -0.158786 -0.0424248 -0.403701 0.257391 1.0118 0.646954 -0.44801 -0.757199 0.329465
944 0.0387665 -0.0268261 -0.0433245 -0.250274 -0.15072 -0.00351423 -0.040648 0.102445 -0.0460611 0.144771 -0.134719 -0.0255236 0.199511 0.0848109 -0.0330332 0.13735 0.0122253 0.0443186 -0.00993957 -0.120169 -0.153169 0.0314242 -0.0863589 0.271704 0.0240408 -0.0274254 -0.0493197 -0.152896 0.112088 0.189131 0.00461985 -0.185162 -0.034975 0.0154925 0.0662581 0.0103452 0.251605 0.000775682 -0.0208666 -0.0460005 -0.173421 0.047145 -0.168419 0.0782919 0.181354 0.171632 -0.0216899 0.13901 -0.125162 0.0645266 0.0871276 0.0363156 0.107393 0.00693962 -0.178645 0.0773644 -0.0228109 -0.178227 0.0769584 -0.177202 0.0986194 -0.178827 0.0275373 -0.0906253 -0.0211752 0.135083 -0.0850802 0.0891092 -0.0882776 0.204118 -0.337609 0.0609386 -0.246922 0.153909 -0.0807321 -0.0223189 -0.182291 -0.247819 0.280578 0.0925689 0.386307 -0.127385 -0.206226 -0.134066 0.0638849 -0.0210528 -0.0718307 0.548831 -0.0319482 0.961588 0.525748 -0.08115 0.352449 -0.197541 0.0554731 0.133519 0.300698 0.630448 0.212648 0.11959 -0.0264476 0.0342778 0.0837683 0.341785 0.144097 0.89267 0.556385 0.690361 -0.417327 0.534053 0.967058 -0.101569 -0.263847 -0.49836 -0.685572 0.172743 0.0138016 -0.154475 0.322334 -0.172933 0.205783 -0.473765 0.461237 0.59573 0.866271 0.390189 -0.71156 0.0137428
836 0.471349 0.153122 -0.0966649 -0.0345006 -0.115481 0.112169 -0.238901 0.308993 -0.0495448 0.336701 -0.0716661 0.0565238 -0.122973 -0.113204 -0.0047277 -0.00988658 -0.177827 -0.131056 0.0456931 -0.236511 -0.0701264 -0.0433334 0.197258 0.0929673 -0.168015 0.161663 -0.231806 0.00433833 0.0455727 0.0529518 0.0768953 0.200573 0.0245469 -0.107766 -0.405818 -0.310231 0.183673 0.320557 -0.12418 -0.086954 0.010258 -0.0832615 -0.256665 0.154965 -0.201191 -0.11586 -0.0254579 0.266103 0.0453588 0.0964478 0.058843 0.06383 -0.254722 0.174182 0.0701588 0.113922 -0.0813347 -0.48789 0.0740775 -0.143713 0.0947062 0.0767808 -0.126439 -0.0745363 -0.160985 0.0487316 -0.0560238 0.281602 -0.0353549 0.0476544 0.00088591 0.233665 0.00396638 -0.349743 -0.273683 -0.273006 -0.311873 -0.265247 0.391587 0.296675 0.271943 -0.208244 -0.629952 0.122192 0.184846 0.0749066 0.0932902 0.529647 0.203813 0.898286 0.797905 -0.0621884 0.0708803 -0.302748 0.494698 0.130205 -0.074033 0.600559 0.12743 0.120856 0.0962632 -0.0840278 0.0465983 0.0574779 -0.0711155 1.07521 0.570736 0.692517 -0.425223 0.752964 1.1249 -0.364123 0.072077 0.052037 -0.71511 0.313861 0.256508 -0.78517 -0.252624 -0.0446592 -0.031558 -0.493446 0.747107 1.20725 0.68409 0.181055 -0.423572 0.0465287
742 0.0852697 -0.146638 0.261612 -0.0767474 -0.186543 -0.0843874 0.105035 0.266065 -0.00244355 0.0278349 0.139337 0.153414 -0.319033 -0.0378135 -0.20227 -0.122143 0.0773437 -0.0611081 -0.221726 -0.052918 0.0362782 0.0593641 0.0446579 0.30297 -0.077456 -0.15065 0.070052 -0.299307 -0.0725941 0.0928766 0.24122 0.395366 -0.0859312 -0.0310252 -0.481107 -0.109565 -0.10914 0.306335 -0.105151 0.10866 0.160187 -0.0281059 -0.336626 0.0476715 -0.129279 -0.192183 -0.250565 0.132925 0.035228 0.0768588 0.0230118 -0.177217 -0.242272 0.109662 0.292081 0.0281608 -0.114946 -0.256697 -0.0378564 -0.000553276 0.156042 0.0412917 0.12113 -0.52234 0.0197332 -0.0645368 -0.148677 0.0786127 0.058423 -0.187804 0.0161306 0.12032 -0.0104659 -0.221051 -0.25154 -0.363374 -0.136391 -0.408907 0.0955687 -0.233204 0.220721 -0.199354 -0.652661 0.100827 -0.0850374 -0.0156595 -0.0574144 0.483857 0.120892 1.05109 0.665755 0.121467 0.139706 -0.261333 0.492266 -0.0726626 -0.0247394 0.636517 -0.0939037 0.105051 -0.183338 -0.30436 0.149531 0.0662468 0.19182 1.33294 0.699395 0.81657 -0.420831 0.768093 1.14097 -0.310983 0.195826 -0.142016 -0.64101 0.0511343 0.0872132 -0.715947 -0.215985 -0.0696109 0.119412 -0.270078 0.452841 0.917522 0.75884 0.0599656 -0.710935 0.166448
17 0.235382 -0.0210491 0.0808883 0.0644917 -0.104878 0.0357274 0.0305851 -0.109202 -0.084321 -0.115897 0.0229164 0.279576 -0.0800356 -0.214035 0.0310365 -0.0762695 0.0370334 -0.103385 -0.169628 -0.166679 -0.00767787 0.0237717 0.203309 0.0135333 -0.134665 0.0991827 0.0149227 -0.0475901 -0.0376354 -0.135459 0.152224 0.168284 0.0836717 0.179798 -0.297164 -0.160337 -0.126503 0.325193 -0.0300449 -0.0560428 0.0768733 0.0111738 -0.222837 0.225035 0.110574 -0.192392 0.181362 0.369622 0.099825 0.144089 0.0521171 -0.18141 -0.0859865 0.241949 0.264781 0.0831815 0.019916 -0.5893 0.295273 0.0723141 -0.0799455 -0.338691 -0.0872129 -0.244769 0.0310696 -0.273933 -0.306489 0.119612 0.0690364 -0.0939294 0.0147161 0.218948 0.065658 -0.324387 -0.292516 -0.215429 -0.275878 -0.63412 0.464334 0.0263089 0.194715 0.0365835 -0.621811 -0.0765068 0.065958 -0.141753 0.37129 0.674067 0.0109795 0.822742 0.874427 -0.0595124 0.163936 -0.294128 0.540484 0.0121906 0.0318581 0.350195 -0.0492863 0.00680082 0.216859 -0.129544 0.193961 0.0393346 0.252536 1.35721 0.80103 0.732379 -0.476261 0.779187 1.09834 -0.150528 0.0306259 0.121042 -0.679582 0.412017 0.257071 -0.585395 -0.130394 0.116937 0.0934933 -0.640469 0.577298 1.02897 0.947294 0.260107 -0.643362 0.278769
900 0.167952 -0.0675577 0.0690936 -0.00616548 -0.0682604 0.00041068 0.000215549 0.0844265 0.00334824 -0.0348242 0.0350479 0.182305 -0.237885 -0.00246242 -0.119471 -0.168804 0.118192 -0.0155442 0.0707251 -0.111183 -0.114399 -0.0199604 0.0742476 -0.0855107 -0.218516 -0.0115268 -0.0442863 -0.112012 0.108672 0.0194585 0.081436 0.362349 0.0264515 0.00611931 -0.35153 -0.057085 -0.187666 0.379716 -0.163607 -0.118913 0.00125515 -0.0139871 -0.320294 0.105078 -0.193231 -0.0670528 0.0580459 0.212579 0.0462951 0.178419 -0.0992727 -0.0853089 -0.214058 0.176134 0.237424 -0.0304446 -0.224454 -0.359187 0.080223 -0.177342 -0.0552227 -0.0462539 -0.161236 -0.276457 -0.153655 -0.107936 -0.232139 0.284426 0.0656278 -0.13591 -0.0602081 0.270628 0.0682813 -0.206552 -0.194865 -0.284318 -0.266902 -0.354166 0.32985 0.0733969 0.148707 -0.211358 -0.742385 0.165352 0.0388125 0.190838 0.0497552 0.509993 -0.117881 0.963874 0.784679 -0.124256 0.118607 -0.325849 0.285332 -0.0146386 0.0946394 0.625844 0.0386249 0.133119 0.00678442 -0.0871105 0.166746 0.0705185 0.111113 1.24578 0.749503 0.562224 -0.541626 0.838922 0.962263 -0.231733 0.140134 -0.0938608 -0.802997 -0.013892 0.230173 -0.768324 0.0468894 -0.0345938 -0.191986 -0.567267 0.480972 1.19747 0.803604 0.177849 -0.402406 0.116919
859 0.189242 -0.113113 0.0601677 -0.234998 -0.0486323 -0.150851 -0.0298762 -0.00365638 -0.0293223 -0.225874 0.0587075 0.0416914 -0.288927 0.231189 -0.0643432 0.0114826 -0.137521 -0.184453 0.0210576 0.0881516 0.157351 -0.178846 0.0124909 0.0998592 -0.0232953 0.0882341 0.134024 -0.11231 -0.0762718 -0.119107 0.0831687 0.379195 0.139062 0.102236 -0.386893 -0.267755 -0.29216 0.336954 0.123563 -0.188335 -0.1445 0.101921 -0.286675 0.0140672 0.0139053 -0.19697 -0.054319 0.230042 -0.0143829 0.174678 -0.228077 -0.0722907 -0.151489 0.200639 0.194932 0.192516 -0.141901 -0.37961 -0.0548906 -0.00873932 0.0710312 0.0149026 -0.0993925 -0.491252 0.033352 0.0488857 -0.215346 0.124655 0.0487897 -0.120711 0.0375795 0.345998 -0.0294462 -0.291763 -0.0872245 -0.152197 -0.172346 -0.155476 0.111145 0.204998 0.152673 -0.0913824 -0.692913 0.135025 0.0137909 0.135708 0.129995 0.541131 -0.118632 1.08372 0.628056 -0.196911 -0.0350038 -0.297705 0.417796 -0.0201475 0.0565253 0.493276 0.0715525 0.136187 -0.0759472 -0.290698 0.0287103 0.149997 0.17372 1.36307 0.559646 0.564174 -0.335216 0.620707 1.09354 -0.098012 -0.0565793 0.039147 -0.66409 -0.0541811 0.40238 -0.733065 -0.0614233 -0.16606 -0.090027 -0.44756 0.636732 1.22954 0.802682 0.266332 -0.693541 0.164273
808 0.164639 -0.133857 -0.0839795 -0.00189418 -0.0705086 -0.122819 -0.0350499 0.231966 0.0202348 -0.226812 0.186736 0.0961078 -0.305009 0.146518 0.0478108 0.0672247 -0.0955746 -0.0670447 0.100132 -0.128618 -0.229517 -0.295301 0.0584687 0.0116733 -0.0089752 0.150778 -0.0259106 0.0114694 0.166428 -0.0282098 0.0490983 0.130442 -0.0562876 0.255991 -0.370805 -0.0359398 -0.19988 0.0852341 -0.0988686 -0.144374 0.042068 -0.173327 -0.267501 -0.0679137 0.147711 -0.267041 0.00992103 0.465345 0.231616 -0.0375528 0.0548626 -0.259899 -0.304367 0.141396 0.162666 0.0953382 0.0138402 -0.504588 0.159529 -0.0565064 -0.170221 -0.248826 0.0218635 -0.193236 -0.161689 -0.112722 -0.156359 0.195639 0.0387215 -0.128207 -0.237181 0.114165 -0.0608647 -0.167903 -0.0813564 -0.514592 -0.33693 -0.291243 0.398153 0.357804 0.161576 0.132176 -0.572669 0.115621 0.0168833 0.198874 0.00796216 0.563979 0.144788 1.03605 0.753761 -0.189561 0.0892189 -0.152071 0.368848 -0.0451505 -0.0593669 0.405236 -0.120419 0.0947398 0.136557 -0.223568 0.0852224 0.286061 0.00143224 1.22352 0.89426 0.806418 -0.353734 0.687203 0.97743 -0.155401 0.00621878 0.0227159 -0.908462 0.0940886 0.180859 -0.773089 -0.212331 0.0784658 -0.0127828 -0.381019 0.586227 1.16313 0.736836 0.0633367 -0.520373 0.207426
698 0.103002 0.132013 0.00306375 0.0252124 -0.358081 -0.111673 -0.295039 0.127568 0.0157387 -0.0323529 -0.0899949 0.224862 -0.184405 -0.118186 -0.0199726 0.148143 -0.238472 -0.155884 -0.181142 0.0947451 0.0545341 0.0310587 0.116578 0.0112606 -0.0980182 0.181912 -0.0052922 0.0395989 -0.0145207 -0.0997685 0.2271 0.38106 0.115884 0.100868 -0.0694575 0.133469 0.0998573 0.320359 -0.000429442 -0.01658 -0.061227 -0.0387437 -0.299709 -0.0187145 -0.235709 -0.124885 -0.0998255 0.389897 0.188902 -0.000211773 0.0516431 -0.137208 -0.303876 0.149923 0.139907 0.00497459 -0.0285161 -0.429425 -0.0488132 -0.0607449 0.035904 0.0443772 -0.127934 -0.171201 -0.226976 0.118209 0.0479235 0.0621584 0.11561 0.044892 0.0298588 0.419951 -0.0263849 -0.219345 -0.377562 -0.262947 -0.395424 -0.41773 0.196645 -0.0430349 0.00310487 0.0154318 -0.639448 0.128224 -0.045827 -0.0249329 0.0205377 0.658576 0.158638 0.724572 0.677939 -0.0732623 0.11162 -0.200831 0.368897 0.0788175 0.333844 0.63277 -0.00320759 -0.0195677 -0.0346252 -0.285918 0.212662 0.102478 0.17923 1.32019 0.64058 0.78051 -0.450677 0.721274 1.03276 -0.272817 0.270475 0.00363381 -0.734637 0.182996 0.23726 -0.521587 0.0800948 0.00346042 -0.105645 -0.521245 0.645631 1.22936 0.840453 0.14841 -0.37001 0.0815127
751 -0.327852 -0.0461983 0.0658411 -0.196973 -0.442165 -0.449098 0.14361 -0.142899 0.130236 -0.426814 0.352299 0.187948 -0.308837 -0.265171 0.218275 0.113515 -0.235313 0.402944 0.020515 0.068114 -0.0790945 -0.0325555 0.0345875 0.217208 0.0555936 0.0202827 0.238439 0.0535319 0.288062 0.185749 -0.276829 0.142768 -0.0173847 0.434258 -0.427919 0.0483629 -0.110868 0.286642 -0.19117 -0.0567633 -0.192147 -0.0908203 -0.387912 0.0677801 -0.0257464 -0.0297898 0.208161 0.240365 -0.00714205 0.493796 0.129802 -0.114723 -0.0508941 0.332002 0.129692 -0.128213 -0.367493 -0.244948 -0.272362 -0.43817 -0.307354 -0.315885 -0.0882523 0.156264 -0.127187 0.16551 0.136843 -0.282437 -0.205828 0.0944156 -0.141571 -0.389468 -0.208125 -0.10024 -0.132394 -0.248808 -0.0155134 -0.487758 -0.155656 0.0225536 0.497983 -0.0189665 -0.609117 0.185301 0.34191 0.00626495 -0.15784 0.902561 0.134735 1.51405 0.354229 -0.0275438 -0.0152704 -0.20034 0.344778 0.0524259 -0.188154 0.757424 0.131141 -0.153516 0.119657 0.104311 -0.221076 0.168201 -0.042865 1.33242 0.495521 0.391708 -0.183371 0.894185 1.14275 -0.147512 0.307507 -0.281575 -0.766145 0.249881 0.36009 -0.615948 0.382581 -0.113062 -0.310542 -0.503241 0.221532 1.34239 0.608536 -0.109614 -0.857965 0.264139
604 -0.173944 0.000914196 0.196398 -0.371987 -0.443049 -0.368254 -0.0365534 0.0231325 0.0667836 -0.101743 0.27056 0.0302954 -0.122403 -0.274586 0.262239 0.0856882 -0.0641866 0.0980294 0.109387 0.138723 0.0716946 -0.0481949 0.196228 -0.121884 -0.00839066 -0.207634 0.265275 0.178513 0.133265 0.0877892 -0.450722 -0.174669 0.224161 0.627261 -0.0947096 0.0444319 -0.387437 -0.106791 -0.19366 -0.0596053 0.0732465 -0.121362 -0.260911 0.367001 -0.109336 -0.0214352 0.300476 0.159628 -0.0915874 0.253969 0.372978 -0.172305 0.0654492 0.388852 0.0822914 -0.100001 -0.413342 -0.315168 -0.313728 -0.257312 -0.0875255 -0.416252 -0.326637 0.100698 -0.0462861 0.166856 -0.000424885 -0.479766 -0.341747 0.0479497 -0.0574346 -0.276398 -0.0450306 0.0283235 -0.077238 -0.389268 0.0492063 -0.654139 -0.0523919 0.0641639 0.232926 0.10738 -0.523173 0.201391 0.12076 -0.0784131 -0.0441582 0.865339 0.187005 1.32261 0.526642 -0.11053 0.0556258 -0.403606 0.131372 0.159896 -0.20279 0.690062 0.10623 -0.14513 0.122467 -0.0538918 -0.154517 0.309588 0.0655464 1.20737 0.604993 0.305919 -0.28604 0.854791 1.03562 -0.0719579 0.152284 -0.25922 -0.778412 0.368996 0.210066 -0.537872 0.285308 -0.164284 -0.276319 -0.504603 0.403916 1.23937 0.744192 0.22402 -0.817271 0.248135
633 -0.0328625 -0.0558218 0.154802 -0.181981 -0.315458 -0.538585 -0.171011 0.196893 0.013055 -0.104141 0.354208 0.239392 -0.0612161 -0.00230418 0.279387 0.227314 -0.195818 0.432775 0.179699 -0.0874201 -0.162503 0.288336 0.219319 0.0777403 -0.158796 -0.20006 0.266348 0.228261 0.00903631 0.206762 -0.131837 -0.216677 -0.0130789 0.462299 -0.162175 0.117512 -0.0299968 -0.149823 0.0147149 -0.0602893 0.0639928 -0.187799 -0.456195 0.0359378 0.169965 -0.188397 0.0622444 0.12604 0.0269019 0.28252 0.343758 -0.127796 0.236477 0.121223 0.180031 -0.243012 -0.322944 -0.473825 0.191239 -0.551237 -0.0179419 -0.560724 -0.298645 0.172175 0.135552 0.35624 0.202797 -0.350134 -0.06413 0.131949 0.0107657 -0.17802 -0.0374404 -0.151845 -0.241222 -0.149248 0.205895 -0.761085 -0.0446161 0.199402 0.474698 0.0013877 -0.652695 0.213603 0.126341 -0.201058 -0.0961989 0.863668 0.292592 1.41707 0.503074 -0.236819 0.214455 -0.0989884 0.272002 0.272913 -0.276882 0.732275 0.169597 -0.203977 -0.0339656 0.147678 -0.119487 0.250716 0.110787 1.16611 0.690777 0.307996 -0.303371 0.832511 1.10249 -0.246303 0.235166 -0.194729 -0.991587 0.476229 0.268115 -0.471883 0.444414 -0.142264 -0.238024 -0.374127 0.139627 1.27369 0.608117 0.0431847 -0.770744 0.0433883
93 -0.17816 -0.131771 0.10233 -0.214117 -0.355599 -0.625854 -0.137575 0.143234 -0.0560812 -0.135462 0.422233 0.0796037 -0.116939 0.122658 0.0564291 0.0386844 -0.144666 0.326529 0.247655 0.0307675 -0.298849 -0.195464 -0.00514014 0.0307305 0.150455 -0.0138359 0.27632 0.0419864 -0.117435 0.184756 -0.046028 -0.22566 -0.1821 0.494591 -0.404208 -0.017319 -0.267459 -0.0984888 -0.264333 -0.0558043 -0.105976 -0.232681 -0.238723 0.233687 0.12495 -0.00340362 0.366319 0.0705341 -0.0696457 0.288125 0.28009 -0.146622 -0.0250549 0.426175 0.409542 -0.372944 -0.350249 -0.412496 -0.0687545 -0.433226 -0.09999 -0.391587 -0.174789 0.288579 0.084167 0.235591 0.0998244 -0.242577 -0.304644 0.0437802 -0.0340317 -0.179401 -0.260409 -0.143395 -0.360435 -0.306813 -0.0711798 -0.745032 -0.139567 0.182368 0.540095 0.073479 -0.62148 0.155436 0.281908 -0.00612713 -0.0155276 0.987628 0.116479 1.51882 0.513761 -0.325262 0.0281561 -0.217738 0.428542 0.349043 -0.201329 0.944704 0.207626 0.0248613 -0.0260731 0.205864 -0.289327 0.412411 0.209386 1.25112 0.498471 0.580721 -0.318487 0.735983 1.06979 -0.258691 0.307858 -0.337709 -0.904814 0.288006 0.308065 -0.402649 0.274411 -0.0175031 -0.364212 -0.413558 0.207678 1.39182 0.694218 0.00748142 -0.785142 0.384275
750 -0.0177554 -0.185848 0.0212964 -0.265108 -0.449842 -0.409139 0.00492692 0.207896 0.0435832 -0.267896 0.377962 -0.0344675 0.0168395 0.0936021 -0.033578 -0.114102 -0.239465 0.15664 0.0305232 0.194744 -0.0706278 -0.0296662 -0.246615 0.191689 -0.0388223 -0.445758 0.191114 -0.0769205 -0.0546217 0.0885274 -0.158666 -0.26806 -0.0529736 0.505905 -0.255674 0.0934671 -0.104169 -0.14595 -0.0703588 0.181553 -0.0754464 -0.0395658 -0.467958 0.192176 0.102733 -0.224334 0.133667 0.0136317 0.0814096 0.163989 0.430988 -0.382791 0.0853622 0.337245 0.161007 -0.212097 -0.522237 -0.103898 -0.446012 -0.481379 -0.0189491 -0.361962 0.0176414 0.191528 0.203873 0.084353 0.353467 -0.348826 -0.294161 -0.125345 -0.0342293 0.0467354 0.149516 -0.166772 -0.213289 -0.221103 0.126565 -0.776447 -0.133006 0.320296 0.358422 -0.181066 -0.309077 0.172871 0.0832765 0.120241 -0.0588426 0.875325 0.173261 1.31243 0.345294 -0.1988 0.292522 -0.292865 0.253757 0.337036 -0.438227 1.02053 0.111483 0.0178604 0.00170825 0.0274462 -0.281332 0.217474 -0.0719863 1.28119 0.453026 0.313438 -0.386533 1.02486 1.1543 -0.0944187 0.255109 -0.268067 -0.937911 0.359896 0.44393 -0.70839 0.382258 -0.040773 -0.153224 -0.236881 0.118772 1.34203 0.544806 -0.0838697 -0.879344 0.274214
706 -0.102293 -0.148363 0.158236 0.0558583 -0.345063 -0.509545 -0.019877 0.0396764 -0.0892181 -0.137101 0.387987 0.123693 -0.139543 -0.00619712 0.402073 0.101461 -0.159391 0.369007 -0.141383 0.0182909 -0.0685216 0.0723623 0.0710072 0.205152 -0.0343525 -0.0508642 0.0376333 0.0107053 0.0628425 0.0696364 -0.42176 -0.196689 -0.0060899 0.629306 -0.366613 0.0285501 -0.108858 0.139225 -0.187594 0.0524523 -0.133295 -0.14781 -0.33162 0.0876025 0.0327614 -0.132928 0.223481 0.211331 -0.0232893 0.381915 0.326548 -0.0522622 -0.0889069 0.50878 0.238908 -0.160829 -0.432184 -0.611376 -0.166267 -0.39052 -0.127552 -0.42167 -0.0846919 0.17322 -0.00441006 0.196228 0.158465 -0.220106 -0.204055 0.210364 -0.117876 -0.237769 -0.163601 -0.281658 -0.346722 -0.279874 -0.0407131 -0.688809 -0.182047 0.247314 0.365623 -0.136903 -0.375746 0.0822832 0.273709 -0.0267697 -0.210263 0.945369 0.21595 1.37231 0.205415 -0.233961 0.0667874 -0.211934 0.180375 0.247947 -0.375859 0.860878 0.225709 -0.017357 -0.0777214 -0.00718809 -0.230397 0.177221 0.0841785 1.24978 0.558901 0.383773 -0.075062 0.864364 1.24868 -0.326096 0.385378 -0.407207 -0.920125 0.33733 0.295743 -0.541192 0.360716 -0.128242 -0.35625 -0.532569 0.239546 1.3417 0.831489 -0.0555827 -0.953357 0.200293
119 0.122925 0.23715 -0.141291 -0.210984 -0.557491 -0.382215 -0.334647 0.253108 -0.0377801 -0.16706 0.295779 0.0997272 0.0110445 -0.136096 0.247481 0.0622902 8.79723e-05 0.319089 -0.122392 -0.000811998 -0.202027 0.0407211 0.213077 0.215022 -0.0558178 -0.242416 -0.0537744 0.209282 -0.0111833 0.188489 -0.139479 -0.3023 -0.286974 0.274291 -0.167415 0.0433582 -0.0665444 -0.142911 -0.0734309 -0.0350942 0.111013 -0.161803 -0.244279 0.17867 0.30164 -0.225967 0.190484 0.463322 -0.124734 0.445639 0.240632 -0.178191 -0.0421608 0.374629 0.244537 -0.138749 -0.565262 -0.316395 -0.167018 -0.487374 -0.17577 -0.323429 -0.160928 0.270575 -0.0151079 0.273133 0.290731 -0.212893 -0.112384 -0.0186621 -0.0999873 -0.296541 -0.232926 -0.272413 -0.267362 -0.417276 0.142727 -0.88161 0.0253163 0.13807 0.284071 -0.144908 -0.565708 -0.141009 0.42628 -0.0709948 -0.161181 0.905659 0.040055 1.48328 0.28218 -0.0958449 0.22181 -0.219955 0.125377 0.379508 -0.112054 0.750322 -0.0873581 -0.243314 0.0766619 -0.045928 -0.0873983 0.321033 -0.257581 1.18789 0.566408 0.306544 -0.240075 0.879111 1.11506 -0.297125 0.286822 -0.346397 -0.682499 0.403288 0.412061 -0.562104 0.149824 -0.186578 -0.403675 -0.361123 0.302981 1.1924 0.529765 -0.0348563 -0.740402 0.386792
690 -0.0815807 -0.00427829 0.257885 0.0504817 -0.364832 -0.207452 0.139406 0.324634 -0.107181 0.00598711 0.370624 0.235202 -0.109525 -0.100672 0.348147 0.130001 -0.0564009 0.405406 0.0099566 0.0618543 -0.0921171 0.0155385 -0.064777 0.20461 -0.143576 -0.201065 0.239936 0.24091 -0.153047 0.198948 -0.142579 -0.140339 -0.0144196 0.602368 -0.231515 0.0717916 -0.164035 -0.00841485 -0.174402 0.145915 0.0635918 -0.137865 -0.312623 0.101698 0.472352 -0.276429 0.391509 0.267333 0.0268395 0.367087 0.315401 -0.173111 0.283254 0.306744 0.116801 -0.0180785 -0.447488 -0.302335 -0.207812 -0.510028 -0.0162075 -0.327513 -0.326997 0.00952592 -0.236496 0.414505 0.29844 -0.293414 -0.115075 -0.0778825 -0.0751137 -0.254001 -0.102298 -0.232782 -0.254572 -0.230441 -0.125484 -0.632386 0.046858 0.0750794 0.39084 -0.00634063 -0.571699 0.122874 0.380032 -0.0549402 -0.0370138 0.995249 0.08318 1.30698 0.23075 0.0171346 0.171173 -0.126996 0.511109 0.241777 0.0219344 0.796271 0.161933 -0.234927 -0.170014 -0.113266 -0.199232 0.147038 -0.0193544 1.26162 0.726364 0.637369 -0.220069 0.901666 1.14274 -0.110612 0.242276 -0.357599 -0.714364 0.239544 0.371313 -0.51064 0.453956 -0.0573708 -0.444197 -0.325374 0.242827 1.15458 0.622633 0.0474867 -1.01126 0.170465
575 -0.121063 -0.045046 0.111581 0.0484857 -0.19409 -0.380285 -0.108984 0.22502 -0.0434244 -0.248996 0.303887 0.0632297 -0.116082 0.100079 0.275724 0.220383 0.0769205 0.314843 0.0527554 -0.0178898 -0.254558 0.123757 0.00578082 0.128931 0.0474568 -0.0893967 0.212935 -0.037739 0.00276088 0.212903 -0.19082 -0.0383522 -0.19029 0.626876 -0.289982 0.0389236 -0.140459 -0.228217 0.0504297 -0.179452 0.107204 -0.0352592 -0.0773056 0.218189 0.188327 -0.367225 0.118792 0.206982 -0.180112 0.237315 0.28079 0.0122909 -0.132284 0.349411 0.0973947 -0.151164 -0.448202 -0.114723 -0.27872 -0.190981 -0.168764 -0.35747 -0.166855 0.191527 0.0906979 0.242731 0.234792 -0.305904 -0.0349003 -0.0574676 -0.183833 -0.378872 -0.172211 -0.281682 -0.120553 -0.243009 0.116275 -0.554097 -0.0997218 0.0136381 0.39949 0.0464426 -0.317952 -0.0656208 0.391174 0.13183 -0.228672 0.719827 0.163899 1.35687 0.476809 -0.206894 -0.0718497 -0.0671636 0.312935 0.335993 -0.27561 0.6693 0.312889 -0.141493 0.0493929 -0.0883567 0.0592881 0.337258 -0.102679 1.15727 0.401665 0.263927 -0.229604 0.894788 1.08808 -0.217079 0.358622 -0.332372 -0.890029 0.364515 0.359735 -0.759032 0.244179 -0.172016 -0.289795 -0.396444 0.220887 1.2036 0.42219 0.0400379 -0.894099 0.306402
14 -0.0620319 -0.00652153 0.216801 0.0185783 -0.369274 -0.492789 -0.00380168 0.0128483 -0.0129473 -0.16272 0.527934 0.220673 -0.125662 -0.0658495 0.0338281 0.171002 -0.0857151 0.217131 0.0233919 -0.0414322 -0.12869 0.0592224 0.051961 0.188816 -0.155807 -0.187585 0.148746 0.225334 0.0128442 0.170704 -0.153068 -0.0913464 -0.0634589 0.475075 -0.310308 0.086263 -0.255916 0.0148979 -0.199259 0.0104347 0.0939088 0.035705 -0.320841 0.0374499 0.131588 -0.184626 0.351579 0.338694 0.033107 0.219804 0.364465 -0.304337 0.0690004 0.266676 0.0584696 -0.0752277 -0.446217 -0.405518 -0.107178 -0.490257 -0.144034 -0.397704 -0.18919 0.212181 -0.0252649 0.168166 0.249265 -0.432465 -0.0538756 0.141214 -0.203558 -0.370818 -0.286945 -0.269275 -0.179705 -0.345348 0.0101608 -0.755751 -0.121142 0.128964 0.250132 0.0983665 -0.640636 0.126819 0.398284 -0.119349 -0.198955 1.00008 0.231735 1.52382 0.309721 -0.1219 0.0100472 -0.339482 0.378928 0.298164 -0.267008 0.860964 0.237915 0.0215283 0.0337613 0.0135159 -0.267605 0.185546 0.0736063 1.29551 0.625663 0.538321 -0.218386 0.984198 1.32827 -0.309212 0.40557 -0.368726 -0.904919 0.684417 0.525141 -0.586349 0.533215 -0.135318 -0.33504 -0.507928 0.376083 1.24868 0.563838 0.0109316 -0.761872 0.0864315
694 -0.248061 -0.0816056 -0.0265926 -0.0313808 -0.357863 -0.537189 -0.137508 0.0537092 -0.0514953 -0.0509444 0.433005 -0.0727191 -0.0281223 -0.0909319 0.109444 0.0819635 0.0804785 0.512109 0.0836611 0.0260805 -0.3052 0.0512829 0.248809 -0.0591735 -0.0451675 0.0702252 0.0862664 0.185911 0.197389 -0.034923 -0.128977 -0.0451317 -0.137424 0.585952 -0.139372 0.0179286 -0.25631 -0.118334 -0.0984216 0.170749 -0.0106644 -0.0697689 -0.218821 0.311431 0.036652 -0.122564 0.314542 0.212628 -0.296148 0.15604 0.0832831 -0.29956 -0.0228437 0.562563 0.319965 -0.0317284 -0.526286 -0.171964 -0.16767 -0.384284 -0.0976266 -0.0879421 -0.157889 0.167183 0.0551691 0.458722 0.190054 -0.397385 -0.228436 0.0916556 -0.0527458 -0.0777541 -0.118862 -0.282153 -0.287476 -0.270508 0.0554361 -0.681782 -0.216943 0.0894877 0.389305 -0.00540104 -0.360304 0.0814665 0.176313 0.0595243 -0.0204542 0.831336 0.0371631 1.40614 0.385024 -0.151678 0.0809399 -0.0833314 0.351604 0.583327 -0.0983879 0.741804 0.281026 0.00853409 0.0136925 -0.0241509 -0.145639 0.131587 0.074945 1.06838 0.642655 0.503281 -0.558004 0.798991 1.06639 -0.0656143 0.193169 -0.292343 -0.973562 0.459768 0.187921 -0.491737 0.252489 -0.233331 -0.347937 -0.314895 0.0879678 1.24136 0.581574 -0.00573922 -0.892597 0.441361
298 -0.0137024 -0.0469802 0.209329 0.063752 -0.437859 -0.321254 -0.0164551 0.0722433 0.145181 -0.248027 0.461652 0.292775 -0.188464 -0.021843 0.14311 0.103882 -0.0353411 0.353833 0.0686837 -0.130555 -0.110993 0.0775451 -0.0828806 0.153586 -0.0965996 -0.109349 0.0245551 0.13327 0.0512343 0.242434 -0.269686 -0.123202 -0.210441 0.550128 -0.402112 0.197608 -0.448279 -0.11265 -0.147403 -0.195468 -0.0126236 0.0170669 -0.199889 0.209321 0.21003 -0.390846 0.183151 0.30361 -0.0526766 0.270681 0.290509 0.0358039 0.0981825 0.429687 0.290282 -0.20922 -0.268752 -0.310814 -0.192113 -0.352535 -0.362884 -0.29884 -0.144957 0.219849 0.0458989 0.110771 0.0891867 -0.356142 -0.148792 0.0457347 -0.163387 -0.234335 -0.0783785 -0.284615 -0.119958 -0.179909 0.0452716 -0.842398 -0.0870993 -0.102558 0.328906 0.0310799 -0.394854 0.109032 0.255677 0.0137878 -0.145773 0.959744 0.168654 1.52886 0.431305 -0.167308 0.0995991 -0.163788 0.39287 0.269956 -0.152899 0.75787 0.220806 -0.0164408 0.101668 0.0025738 -0.107178 0.156444 0.120523 1.25403 0.436841 0.391116 -0.263419 0.9462 0.925532 -0.117321 0.351412 -0.324232 -0.941685 0.315311 0.24518 -0.766154 0.449516 -0.00408263 -0.289245 -0.355809 0.207588 1.36602 0.815627 0.0462556 -0.926829 0.216514
559 -0.282874 0.0832248 0.297416 -0.124892 -0.475851 -0.42911 -0.00731474 0.378159 0.113754 0.121149 0.385871 -0.00443651 -0.184703 -0.144778 0.275445 0.117054 -0.046214 0.479478 0.211131 -0.00730477 -0.11307 0.0755891 -0.0991048 0.191055 -0.0927169 -0.00934714 0.267114 0.135339 0.0207794 0.14757 -0.371073 -0.241341 -0.122307 0.356354 -0.160374 0.0704179 -0.0693051 -0.147095 -0.27549 -0.0514138 -0.175111 -0.120644 -0.097503 -0.00469363 0.114586 -0.238795 0.100699 0.29502 0.121027 0.255028 0.31759 -0.271156 -0.0246798 0.305904 0.298075 -0.254366 -0.502669 -0.456132 0.0183783 -0.293635 -0.272316 -0.311597 -0.103728 0.151061 -0.0305266 0.155813 0.0295149 -0.272968 0.0681507 0.11399 -0.0949086 -0.223568 -0.0474329 -0.114711 -0.178774 -0.198665 -0.0138727 -0.51542 -0.172487 0.00376274 0.186681 0.00198186 -0.440522 0.0836298 0.154861 0.162583 -0.181468 0.857772 0.16631 1.61889 0.302605 -0.166196 0.0144583 -0.192214 0.338535 0.121486 -0.267272 0.823564 0.1722 0.00135011 -0.158008 -0.0327184 0.0401013 0.125647 0.0231657 1.36438 0.41848 0.298202 -0.0974336 0.799687 1.28168 -0.235175 0.325049 -0.367545 -0.68704 0.282682 0.324404 -0.54554 0.352455 -0.0516839 -0.349668 -0.201018 0.332037 1.19863 0.513929 0.233513 -0.833775 0.105887
616 -0.240208 -0.308474 0.261946 -0.0352037 -0.408729 -0.572842 -0.0164292 0.179624 0.0440448 -0.171077 0.452115 0.0278632 -0.157001 0.196225 0.244555 0.141383 -0.171457 0.304784 0.152032 -0.0183442 0.0110715 0.00713012 -0.00334254 0.0164137 0.0649249 -0.113057 0.322445 0.222889 0.0115902 0.180328 -0.39606 -0.0391878 -0.0508796 0.601158 -0.370698 0.0746531 -0.170221 -0.0106235 -0.143221 -0.015257 -0.259012 -0.110533 -0.190859 0.350938 0.287883 -0.0762652 0.316815 -0.0267904 -0.0515052 0.274127 0.329145 -0.0565932 0.214362 0.265455 0.105161 -0.148688 -0.434057 -0.422369 -0.325501 -0.297741 -0.409035 -0.214779 -0.179239 0.152118 0.161217 0.196353 -0.0588866 -0.188231 -0.139726 -0.0284841 0.0785881 -0.134346 -0.155588 -0.217201 -0.0516401 -0.27567 0.00579938 -0.657916 -0.176035 0.169415 0.257777 -0.024096 -0.459783 0.278399 0.264117 0.187962 -0.161885 0.938521 0.242968 1.58712 0.504801 -0.190975 -0.063263 -0.192391 0.29483 0.258049 -0.342174 0.899728 0.16647 -0.0607535 0.0362742 -0.0715602 -0.0436263 0.217893 0.0391027 1.12316 0.474678 0.280113 -0.209001 0.698653 1.23621 -0.00338398 0.202273 -0.327133 -0.992973 0.239039 0.375652 -0.64168 0.337492 -0.145562 -0.348974 -0.32423 0.332976 1.27297 0.851913 0.0462804 -0.892563 0.305903
704 -0.0348919 0.0148441 0.267449 -0.0706467 -0.264222 -0.433096 -0.0780846 0.114113 0.0395222 -0.0108174 0.394412 0.153079 -0.175514 -0.084315 0.210126 0.102053 -0.148809 0.151177 0.21818 0.226826 -0.259534 0.0906184 0.0447904 0.164567 0.10975 -0.0225384 -0.0943068 0.0397779 0.0184347 0.32594 -0.386458 -0.174409 -0.247046 0.445062 -0.184829 -0.238022 -0.332303 -0.241506 0.0147534 -0.00505673 -0.125393 -0.216212 -0.246481 0.164006 0.251751 -0.109913 0.0513895 0.186042 -0.342598 0.387613 0.0955965 -0.280122 -0.0868038 0.255447 0.125739 -0.408472 -0.25408 -0.446171 -0.157618 -0.327143 -0.336989 -0.150204 -0.219655 0.345767 0.115077 0.0325814 0.147693 -0.351371 -0.147926 0.0326501 0.0656721 -0.290938 -0.205279 -0.185495 -0.177465 -0.465391 -0.119206 -0.620987 0.0169688 0.0578 0.430451 0.107101 -0.219334 0.191228 0.273355 0.0078455 -0.0688032 0.954823 0.213381 1.40207 0.613785 -0.197823 0.171999 -0.132232 0.474978 0.489025 -0.137524 0.751252 0.184954 -0.156588 0.0385028 0.138912 -0.160119 0.296674 0.21096 1.21034 0.398359 0.53871 -0.326575 0.6922 1.05052 -0.416029 0.534924 -0.232317 -0.867393 0.487385 0.198227 -0.720435 0.14309 -0.191311 -0.480736 -0.275504 0.188067 1.15438 0.716159 -0.000368578 -0.89052 0.409427
428 0.0480123 -0.310608 0.100187 -0.137644 -0.282086 -0.582744 0.0640684 0.0946156 0.16334 -0.320246 0.325752 0.0947867 -0.118163 -0.00951406 0.2019 -0.0561829 -0.245629 0.488251 0.185365 0.0434704 -0.104039 0.055021 -0.120134 0.153658 -0.0283298 -0.198404 0.113259 0.0417633 -0.0639306 0.192477 -0.00578364 -0.0152398 0.133701 0.606856 -0.392031 0.0312946 -0.213685 0.160137 -0.165313 -0.104485 -0.0279844 -0.0173651 -0.345664 0.221853 0.222998 0.0600147 0.390446 0.00131359 -0.0405947 0.178201 0.218789 -0.330882 0.324499 0.361763 0.124267 0.0175796 -0.374368 -0.186388 -0.215454 -0.306737 -0.233574 -0.250844 -0.0968585 0.234594 0.0603383 0.21418 0.169842 -0.357218 -0.317818 0.207783 0.18324 -0.178516 -0.0796359 -0.204759 -0.152498 -0.20004 -0.126412 -0.791686 -0.0817057 0.0324291 0.296365 -0.126371 -0.290548 0.306542 0.273744 0.00193289 -0.0476131 0.863332 0.122901 1.51016 0.40038 -0.178965 -0.0337398 -0.0776466 0.328027 0.245468 -0.320298 0.8376 0.0471114 -0.263956 0.0054639 -0.026529 -0.0634591 0.143127 0.0789737 1.24903 0.427246 0.281679 -0.269043 1.01137 0.982085 -0.0910504 0.228162 -0.404534 -0.927717 0.366758 0.323927 -0.738351 0.341682 0.00266898 -0.24937 -0.292956 0.199709 1.07925 0.669705 0.323121 -0.961818 0.136995
